f_id,i_id,2_1,2_2,2_3,2_4,2_5,3_1,3_2,3_3,3_4,3_5,4_1,4_2,4_3,4_4,4_5,5_1,5_2,5_3,5_4,5_5,6_1,6_2,6_3,6_4,6_5,7_1,7_2,7_3,7_4,7_5,8_1,8_2,8_3,8_4,8_5,9_1,9_2,9_3,9_4,9_5,10_1,10_2,10_3,10_4,10_5,11_1,11_2,11_3,11_4,11_5,12_1,12_2,12_3,12_4,12_5,13_1,13_2,13_3,13_4,13_5,14_1,14_2,14_3,14_4,14_5,15_1,15_2,15_3,15_4,15_5,16_1,16_2,16_3,16_4,16_5,17_1,17_2,17_3,17_4,17_5,18_1,18_2,18_3,18_4,18_5,19_1,19_2,19_3,19_4,19_5,20_1,20_2,20_3,20_4,20_5,21_1,21_2,21_3,21_4,21_5,22_1,22_2,22_3,22_4,22_5,23_1,23_2,23_3,23_4,23_5,24_1,24_2,24_3,24_4,24_5,1_1,1_2,1_3,1_4,1_5
1,1,-0.48618515145855845,-0.4849747334699912,-0.49868372072826816,-0.2587197764679847,-0.47379536968021885,0.968855443467873,0.8176756963115731,0.766565723597532,0.932086426107766,0.9894800040251058,0.7913681248298144,0.8445049177691876,0.9349526494772329,0.8891017095388832,0.6625434864516804,-0.1818996942437594,-0.16646407503224947,-0.17842622308201883,-0.16544574282530378,-0.18784805195414989,-0.009506013984540873,0.3600235234236493,0.2678634492007611,0.062387832489998796,-0.03464358744833884,-0.04861986001613938,-0.01397173921992878,-0.03862783654139057,0.41730260465016544,0.2386341253482368,0.7769253730074761,0.7312228742012469,0.7343472288661853,0.776866221215071,0.7645488883967723,0.71629926733882,0.7151826951905591,0.7230826948118565,0.7201681469608321,0.7234496438743458,-0.5226757327812248,-0.4987371025274203,-0.5242225406979149,-0.4243225688945662,-0.5455986297419306,-0.6706978927616547,-0.6162484636448569,-0.49968809472444686,-0.4595362374585128,-0.6589323225585426,0.03329055864918051,-0.10364231610099806,-0.133254191949141,-0.1105858857939026,-0.08230641832008168,0.8694070241105564,0.7812023890196883,0.9049775867328514,0.9062586428282688,0.9296113849984867,0.44897219572550995,0.31348445267079694,0.5279131019602419,0.4828319409418197,0.45425132748235664,0.9765740120379955,0.8934103388898702,0.811792877374577,0.9210525868410845,0.9819347460238506,-0.7656498288681599,-0.7647065721480291,-0.766357625645739,-0.7664881609976901,-0.7661659121793769,0.3667898763320241,0.6395555763847465,0.23254867930047152,0.48293033905362215,0.46893248272479293,0.09895835105259165,0.4798143537223374,-0.07132518653155495,0.4056666249161096,0.225016876796438,0.8833882467909909,0.8524598320966135,0.8799220311910692,0.8767380185729582,0.8798926345684318,0.7129871485733593,0.6767841193937661,0.6937461362524497,0.7159725636335565,0.6839213007633331,-0.39777082032949873,-0.41771827116429305,-0.2168559594408701,-0.2927906046473425,-0.2513433282625561,-0.07011629669456565,-0.19094163653998453,-0.42641128368982195,-0.21012938908980217,-0.1361690315150348,-0.7337840887158733,-0.7331605322063215,-0.7313808307376899,-0.7315444070758756,-0.7328628596722275,0.8990916594446815,0.8890852153509563,0.9023335860929489,0.9124869288018816,0.9069458341360257,,,,,
1,2,-0.544862837579714,-0.6371419350551872,-0.561075621989497,-0.3542700872488407,-0.5352223779374705,0.9145696846290305,0.8496210028392746,0.7694478307419407,0.9332656098233014,0.9331892697504096,0.7199258989744616,0.8234906947399049,0.922100598174998,0.8275030729051163,0.5841851650286263,0.03227467073191115,0.05290403170039215,0.0378085079507644,0.05017372039262158,0.03015364964691991,-0.0489733812447648,0.26506589789398416,0.19924427765836716,0.0007872438292281236,-0.13313468762360725,-0.019323390541989394,-0.03408461017631459,-0.061988033182064584,0.40368173360489323,0.2387638507476838,0.6720892710311247,0.6242251168708084,0.6291560563658716,0.6721643790022875,0.66182235265721,0.6003665615131295,0.6013727134091963,0.6074022189986221,0.6045172875136948,0.6065801500181829,-0.5639122503979381,-0.5636642665857139,-0.6231280651717395,-0.41370272755023474,-0.6321530477874178,-0.7267709598849352,-0.6784511722248645,-0.5965900555797998,-0.5606271891453822,-0.7164331340806349,-0.09476743190390491,-0.19305656246941094,-0.2054176305991413,-0.21010776088702432,-0.1897080429996132,0.8874235120210378,0.840230240709103,0.8635466940864176,0.8645712721281884,0.8763198276781398,0.601162218311384,0.437844698414392,0.60990898714741,0.5676376265908641,0.6085259495449373,0.93595016557492,0.878888953519213,0.8484290326009203,0.9191945707385408,0.9263504306523308,-0.629090459054936,-0.627761522508828,-0.6292580254719677,-0.6297227625054167,-0.629797908738315,0.5631200909046656,0.7230894403107283,0.41614669978304564,0.6140705197031494,0.5425217045141637,0.3078209136667157,0.5692453019100655,0.12316415487783938,0.5637563998682297,0.2920165526788747,0.8479547781493705,0.8118039571741191,0.8439910984084146,0.8394426485650861,0.8429351706932381,0.6112107968630746,0.5831986388720121,0.592529589432862,0.6129841016091473,0.5921039105309838,-0.28077867186171934,-0.2979243571447414,-0.10521620244282492,-0.17997742359524604,-0.1503777473887884,0.03958035121706238,-0.07655777614270987,-0.3168827058100885,-0.07625036422582432,-0.03879656875496562,-0.5893504759243684,-0.5890724161086771,-0.5869143619547614,-0.5876984589014125,-0.5899108218199776,0.8597802718949155,0.8554758310838441,0.8673184640170334,0.8763283441740077,0.8728649106427341,,,,,
1,3,-0.5337464167817014,-0.619737715795408,-0.5500776717177367,-0.34538903712022373,-0.5248136811118722,0.9243982519718313,0.8504503276061025,0.7754965955933203,0.9377122420193033,0.9430278537454755,0.7265530548155852,0.8265157063582488,0.9249441122029989,0.8347171817204756,0.5898424041955497,0.009622217232441721,0.029396087115301173,0.014764720502252082,0.027468745244698,0.006974482450255781,-0.04160661409860844,0.2797292499040267,0.20920425309287882,0.013179344387630465,-0.12222521652933338,-0.01547322209554336,-0.02562367413815747,-0.0535285736808635,0.41224356971133225,0.2464106644677735,0.6863567282377433,0.6389257916127306,0.6436198053985355,0.6867893559005349,0.6758337936161309,0.6136400169701549,0.6140720511602507,0.6207462490544521,0.6176868914980264,0.6198834378147646,-0.5547623832534447,-0.5516431462296576,-0.6108652594549078,-0.41002593222787276,-0.621404454799863,-0.7205888599775943,-0.6718079083545558,-0.583375835658821,-0.5460298346257333,-0.7099705962977496,-0.07899301272819814,-0.1823597091839635,-0.19664902307718313,-0.19820763022505816,-0.17695551341497584,0.8915745696567547,0.8396692905672678,0.8743582347716616,0.8754065093650721,0.8884832065321775,0.5881617281952076,0.42818613278282314,0.6064361043851833,0.5639744593082358,0.594588107035251,0.9448452429034752,0.8863295937255518,0.8479163563071092,0.9253984710386683,0.9370246019421797,-0.6504389013827288,-0.6491568537026833,-0.6506839110422433,-0.6510976382509881,-0.6511147175313778,0.5368199267231033,0.710335876407829,0.38968830666293997,0.5947242385142424,0.5293175520386015,0.27762503002300953,0.5547765074214374,0.09380873745122587,0.5416684414109147,0.27806266695876725,0.8523141438569537,0.8161264310439373,0.848384819020086,0.8438796365648442,0.8474899779835383,0.6290160776911049,0.6002587570077719,0.6103960414430416,0.630920795206956,0.6087290369195827,-0.29967736905752074,-0.31719665361482274,-0.12371697049192631,-0.19850431297471105,-0.167011942608021,0.021851042296662904,-0.09437979447690314,-0.3341100966217012,-0.09636866340758843,-0.05495935638896654,-0.6114700485237374,-0.6111423310200739,-0.6090473054057495,-0.6097375970825374,-0.6118110640438488,0.8647446462967985,0.8594564429131123,0.8716587718910959,0.8810745274264274,0.8771628241153039,,,,,
1,4,-0.5276050481722838,-0.5663813312044379,-0.5415881894683989,-0.3090844075130277,-0.5157683395299348,0.9502009464245336,0.8373712389087615,0.7693493027529993,0.9385574811780699,0.9708135020843816,0.7681667656852721,0.8428082062498704,0.9386539836813765,0.8694539669297265,0.636410517658137,-0.08058475246861807,-0.06219443043713824,-0.07592314180441795,-0.06342209649904706,-0.0847523045634695,-0.03489134655718629,0.31194179236051345,0.23286529637388897,0.024927557083799456,-0.08513272287049167,-0.04334653080581519,-0.030922903512773603,-0.05715095896934774,0.40786608102375954,0.23309555624725087,0.7318975634124676,0.6840828397410659,0.6881661111339147,0.7314808375798284,0.7203602604409639,0.66825883263136,0.668570634607117,0.6751170904539853,0.6724121665708379,0.6751680185684443,-0.5557645267136433,-0.5430392173334406,-0.5817019175454055,-0.4314514395697362,-0.5974307893496942,-0.7077617352341883,-0.6555555324117255,-0.5559966363832993,-0.5180281354864067,-0.6966682996573446,-0.030417215095162042,-0.1486473162923041,-0.16990440491947112,-0.16063497985868924,-0.13602936080390648,0.8819697664134861,0.812637391225651,0.8895428295096887,0.8906142821893324,0.9087190605600032,0.5238345736045965,0.3724854068390352,0.5681774073766174,0.5237314387432233,0.5309935884122492,0.9641048015614034,0.8905779102966785,0.8347675467685989,0.9249183197786243,0.9623269240474449,-0.7014018105412823,-0.7002530432859837,-0.7018443670561383,-0.7021508946619646,-0.7020279694993774,0.4712267610145424,0.6930017970818243,0.3321188549517262,0.5588422430021128,0.5172811690485343,0.2081572692375976,0.5353856906453143,0.031261621182079424,0.4931832951692796,0.26877320102470104,0.8777378018675986,0.8445509785107893,0.8740294217280478,0.870247575865756,0.8734646186689001,0.6640111578565915,0.6310661929089523,0.6446327041691109,0.6664478602686049,0.6394058573661277,-0.3379006883992357,-0.3567055550659233,-0.15701789426626722,-0.23345875283115247,-0.1978158769381897,-0.009788844373993966,-0.13027638662078123,-0.371224968109255,-0.14016776583695822,-0.082807378157149,-0.6653094451700232,-0.6648530057593036,-0.6628435382937501,-0.6633317300463777,-0.6651385642972287,0.8913425369935276,0.8843555374810288,0.8968092754768477,0.9062383633505449,0.9018679064738016,,,,,
1,5,-0.4925220782162403,-0.5557008696908148,-0.5075453498364983,-0.2970080764491616,-0.48157447836427414,0.9530792107622124,0.8544740257213582,0.7921429896577068,0.9497878807111412,0.9695270994857177,0.7503412051628824,0.8434957377755735,0.933549600485362,0.8619464257791869,0.6125289695803277,-0.07906917719788176,-0.06105414977443813,-0.07466550256816107,-0.06072975761866073,-0.08244777769401335,-0.004073662883770979,0.3359019743535775,0.2560994624984758,0.06073370284575219,-0.0738482094612869,-0.013465624529111597,-0.008003603800860848,-0.0352476246509037,0.4299800518748913,0.259244462823754,0.7395391157891064,0.6951232849912101,0.6988832218193507,0.7406033382359501,0.7284249436681314,0.6616943313828341,0.6605373928658775,0.6690608097004648,0.6654169601750012,0.6679591410465684,-0.521356129033284,-0.5106240071538959,-0.5625567470238833,-0.39477447116728115,-0.5765613125957672,-0.6923764096472884,-0.6404212977992692,-0.5411565047859566,-0.5025110527628613,-0.681009768880122,-0.012896645498275738,-0.136250700695133,-0.16013221774445685,-0.14764462984313087,-0.12267488682159278,0.8980041234988762,0.8301622898025575,0.9003519991291605,0.9020073575753131,0.9189973358821624,0.5367037262958517,0.39090533854385523,0.5841042924935412,0.5401666392326924,0.540977878940823,0.9697257999056904,0.9059443105380309,0.8477291177223079,0.9380394016434471,0.9664643371809495,-0.7232449492836115,-0.7221257239292771,-0.7236482047874062,-0.7239455525924625,-0.7238394383535205,0.4533384432167653,0.6628064179591076,0.29980847265239885,0.5269216747912449,0.4811322853590293,0.18855897248800968,0.5005498573861404,-0.00177825947043031,0.46416948704973104,0.2282909315356565,0.8598210163590498,0.8247166201170362,0.8558670568429811,0.8518668275904983,0.8552880202777416,0.6892753869216565,0.6582442278174654,0.6707487432936768,0.6916288403228289,0.6658536833552826,-0.3715223548082389,-0.38991962743735775,-0.19414147311638663,-0.2693646538140957,-0.233060782042529,-0.04839257845485223,-0.16651867980690516,-0.40355162744753303,-0.1755479147317207,-0.12075343124646065,-0.6879328540841345,-0.6875082971062514,-0.6855939216855536,-0.6860709418103483,-0.6878028141603334,0.8752019659221476,0.867187583446288,0.8808399611492399,0.8911591888367314,0.886124162219796,,,,,
2,1,,,,,,-0.22214945100216887,0.16500161952024484,0.4144656064382688,0.005131271227032941,-0.370151837440718,-0.45244006269243564,0.1475983091788784,-0.3752361394983028,-0.17253053618163228,-0.45199421056707534,-0.2669611384604318,-0.2843847507265229,-0.2774224231519633,-0.25398543881971314,-0.25253828443821913,0.8830234938451087,0.792368625655714,0.8015529365649647,0.9210220086115187,0.74158858248462,0.531967219331941,0.4560074211864813,0.4584481277847491,0.3182543160331981,0.40501442358864215,0.42597888589184274,0.5407044036936223,0.5441292705090338,0.46489702302777014,0.45815640188761053,0.08662373975854465,0.032542909754625704,0.09540636395700153,0.06682101808072372,0.050729260578576185,0.9926104043458785,0.970618510115055,0.798277124910474,0.923170172732188,0.8261465101685419,0.7465396991127269,0.7014426242837973,0.6903020878432948,0.6882314804735846,0.743362605028587,0.5287868026735822,0.3343329299932929,0.15760354294343237,0.3180126150341087,0.39397103052756954,0.0668339733034976,0.09803330072507921,0.0137924077672682,0.029283881542751855,-0.014161987829924172,-0.09718745661568473,0.07518592504962462,-0.03587703857950597,-0.01779860879631001,-0.1289100205212459,-0.15873605885556397,0.1074803356474614,0.1244946388227286,-0.03449578025689615,-0.20802334267446043,-0.4185534368613615,-0.4187210903736134,-0.4223987874778248,-0.414608593247463,-0.4182523881235418,-0.5763236298060033,-0.952215336708635,-0.8977960025788674,-0.9084885631308726,-0.9393038685300681,-0.37324832565207267,-0.8326091838232688,-0.7584683955769047,-0.7514370191772088,-0.8122330480094369,-0.848145233276246,-0.8570621716229474,-0.8529276956393397,-0.8462247170182171,-0.852074121581536,0.7194370895291419,0.7579724897511606,0.7420445272504775,0.7262412877452007,0.751182653427943,-0.635448485067484,-0.6315324885092433,-0.6792087142322227,-0.6608899074597181,-0.6651192611346479,-0.6461707412427715,-0.6201834871172947,-0.5838419076166819,-0.6051781747266787,-0.637967536198933,-0.4903383448291365,-0.4953841417485656,-0.4938710005848779,-0.4966606923818997,-0.49556993789144466,-0.7837623510048504,-0.7932374662811292,-0.7826359415125801,-0.7720342900090658,-0.781660064962558,-0.5454592210236049,-0.5710137285541625,-0.5652609440683212,-0.5798997777837176,-0.5340366891936221
2,2,,,,,,-0.12954156714859222,-0.19577560770827707,0.15811631881480204,-0.24913266486121888,-0.32918742262954215,-0.20333767290072213,0.0367420011591717,-0.45549655185316906,-0.0405225245551617,-0.08850476326504819,-0.7562315463372618,-0.7728540400073984,-0.767586924001598,-0.7572070363860455,-0.7502877042898324,0.5929236985749592,0.5447956680850116,0.5682340910320111,0.6302369544225367,0.5946709055869083,0.36555328816938104,0.5047955662843774,0.5271075488645184,0.32183983356193635,0.34008078695654786,0.2899493628977311,0.3912870239681463,0.3771910773134819,0.30409956236581004,0.3056138639445023,0.12124069871670173,0.09355163514793574,0.12276083610182875,0.11254928584027268,0.10597533743213938,0.7632697541301725,0.8258372485488197,0.9417165511044389,0.4615208879802366,0.9276685528315972,0.8800640414452556,0.8543612271567951,0.914195451191456,0.8955972731897572,0.8779596797580669,0.4055288210137007,0.2592067021034383,0.12426069296855657,0.25130141834916087,0.32285712237875175,-0.1654585800860653,-0.1754434213519045,0.009928128825810512,0.01547863223562096,-0.023619243130674317,-0.27241506148115824,-0.06191765927545334,-0.11772346010481538,-0.0973287802221412,-0.25914922584463196,-0.2056329011791922,-0.06956362258735171,-0.13569903994081556,-0.22206931650863515,-0.21746441284158058,-0.32362762827739644,-0.32371844901551405,-0.32665569753299484,-0.3203864638721745,-0.3233869284326709,-0.4983522087839116,-0.778814919537357,-0.7941858715103955,-0.7779330079550033,-0.7172653020620157,-0.3379287409453897,-0.6566013496013303,-0.6733617090765827,-0.7344894108390039,-0.5510557308997395,-0.6612957321519919,-0.6363053712541289,-0.6630606639020109,-0.6498003379055202,-0.6602108163307752,0.47245657582250933,0.4918800599995714,0.49528032286170776,0.4822252413517343,0.4888507851978614,-0.5018400239883776,-0.500804669561902,-0.5340337490865457,-0.5162136809571773,-0.532335345220049,-0.4913606798324863,-0.4779810096675383,-0.4390390332743883,-0.4791947097780134,-0.48149406070547807,-0.3928953150335275,-0.3969655525441824,-0.3956569994473791,-0.3979574106983299,-0.3970250132491122,-0.6133639370403194,-0.6201478911468588,-0.6188180436482178,-0.6187056384849392,-0.6183714851228905,-0.5613372123126845,-0.6740688746673524,-0.665690757797714,-0.6376186539026869,-0.622224235277665
2,3,,,,,,-0.16657966848453087,0.13955722493479472,0.4351211103571013,-8.882900493856205e-05,-0.3704761791085567,-0.48756899118900154,0.10631699041132159,-0.41962382957628996,-0.19500465244306797,-0.4787913226257883,-0.34912562376899325,-0.3672908285702394,-0.3604163951283217,-0.33752799815270507,-0.33295685315766743,0.82880426613286,0.7242511206034044,0.7380758456410952,0.8736763070417802,0.6784463273027538,0.5892738859487315,0.5365636688015457,0.5443260847287184,0.3947419298200545,0.4683452407836137,0.35437154625930434,0.4748780270727626,0.4747957614551248,0.39213053190652336,0.38368767387548564,0.006263321053051496,-0.045022432477858754,0.014852898041072704,-0.012255724983692984,-0.02669736915861831,0.9902048510420476,0.9839966590913662,0.8699540956980572,0.8713537887110149,0.8944910972089022,0.8305738835706958,0.7947146317264677,0.762936837300002,0.7481895599229587,0.8283240707695958,0.4926220569472817,0.317922334520349,0.15528799587915332,0.29981181351609276,0.37314962433150256,0.0781408883143947,0.1064286016396836,0.04994276203394987,0.06996373682539281,0.01599207094733568,-0.05718856545158535,0.13590443406280128,0.014624448024119663,0.03606075255937513,-0.08920850153792204,-0.1504317290051218,0.1180036176569581,0.0984236441816051,-0.025406080206356485,-0.20285689799973072,-0.43698237588918154,-0.4371669441834216,-0.4409453705491204,-0.43311164980024897,-0.4366793051015221,-0.5392138070452193,-0.9493721469040428,-0.9008542102464725,-0.9113556329050652,-0.9423621783584408,-0.36466535000249944,-0.8439813666620635,-0.7820174685204413,-0.7773559745052272,-0.8264468022064326,-0.8647339348114065,-0.8745058145007072,-0.8696089961379476,-0.8628841043241864,-0.8676075458118655,0.6892925965883867,0.7270901611188598,0.7128778193975626,0.6979787291831264,0.7178863351379338,-0.6310116868329447,-0.6277562326509867,-0.6752227890956082,-0.6550387333688696,-0.6616983013014455,-0.6275764250572826,-0.6010011429396012,-0.567638689065713,-0.5860219547111809,-0.6228856592635292,-0.4890266604759794,-0.4940669338719592,-0.4926762320076814,-0.4953925598148696,-0.49437732434475645,-0.7973456324870736,-0.807922167695724,-0.7970102425685366,-0.7862766992506001,-0.7952198969117596,-0.5363430888539085,-0.5704742775485427,-0.564396383053265,-0.5748250377750068,-0.530088356823383
2,4,,,,,,0.1583700616257422,-0.05573045862356851,0.29408244700368813,-0.034930908166082686,-0.20575407543798718,-0.25389259362223093,0.04074849827480653,-0.349370420997529,-0.0546649307698055,-0.20657358597351272,-0.7000196082269576,-0.709286986562635,-0.7066481236188382,-0.7002835528493538,-0.6818784940243301,0.3242969026940953,0.20074908617674425,0.24850624172209723,0.3239803949080079,0.2632720915339024,0.4335642140239717,0.5160432328181263,0.5582786530260427,0.4282421198057589,0.37793111575923055,0.016693817120408627,0.10524111530336022,0.09559825890280993,0.024200138974067475,0.022102818151182202,-0.17350287051702762,-0.18557611517377648,-0.16894756581995685,-0.17689988788406819,-0.17756693783748734,0.5253362783501543,0.580219756261894,0.8496921754051735,0.24773560927747096,0.8566307992449582,0.8952200531358965,0.9312948100792118,0.7051623187016305,0.606377017242941,0.8952254608941259,0.16324333788137868,0.10435313844348237,0.06622836719339587,0.09808477154168493,0.1330428247753428,-0.025556593527938265,-0.027839104102160617,0.06710347817633466,0.10806654902265977,0.03457334334479545,0.004517101666508538,0.2073819332050444,0.050645118958829505,0.08481150433313112,-0.010877196969022451,-0.08533676721520678,0.032734971960004966,-0.09040335917863107,-0.08517852922666269,-0.12868943503016195,-0.29873982243936914,-0.29883709206801945,-0.30092671634761614,-0.2968973678599185,-0.2985791061087786,-0.1411037516131497,-0.5093808687713781,-0.5114700683716564,-0.5097847936488016,-0.5023932123524597,-0.0804920592994951,-0.47539650182765714,-0.48273071455724637,-0.5240803329860619,-0.4469350321742702,-0.5217458378778057,-0.5099203311306517,-0.5244996758066907,-0.5164315136688171,-0.5195593330366368,0.28671132705797353,0.2940329080449561,0.30067579388133236,0.30038673105181024,0.28200745538143646,-0.34935835737227827,-0.3505978690269138,-0.37009750652020745,-0.35431424915766474,-0.36660337899556317,-0.3027848992954705,-0.2936268332768661,-0.29017891947417396,-0.29203182447105136,-0.3127347407292702,-0.2892042972460751,-0.2916251825007077,-0.29117210107239977,-0.29233824199412894,-0.29200041680793,-0.4396784527185815,-0.44599433047158077,-0.44151491383176733,-0.44236616478674873,-0.4406979449070654,-0.33345407189113185,-0.39394739915100696,-0.3935218578098205,-0.374865281439424,-0.3615197817523099
2,5,,,,,,-0.11856775775736916,0.17406069656970669,0.4626038106289947,0.04221040233760298,-0.3410293217156446,-0.4621437848282979,0.14999627796641113,-0.38220769134745436,-0.15875408015240966,-0.46497245638966334,-0.36938437655347856,-0.3855271704114376,-0.3792067049422474,-0.35666947353600387,-0.35139466801904096,0.8276171849887318,0.7160554530421575,0.7346420139460627,0.861422480705154,0.6747122768624593,0.5817931547085194,0.5219995222869188,0.532739086787579,0.39557522294998737,0.4560499039440218,0.36476957548963873,0.4830357730721475,0.4837598700264837,0.4006957255091168,0.3924560141353508,0.012372238924405643,-0.03723703445947946,0.02164398754185748,-0.005573514337955832,-0.019264305400033876,0.9705738104121636,0.9604809576302532,0.8701099260238753,0.8581444878833793,0.8987043827657959,0.8413004737823275,0.8152456099259794,0.7332790463204489,0.7045707181176656,0.8389413649654203,0.4835051419789994,0.30526961748091197,0.15180370264019194,0.2917223226900837,0.36090566349257447,0.0929703632885035,0.11927389372500252,0.053233009476212345,0.07897997883852015,0.023448300158954938,-0.042907618437456385,0.15132181585460847,0.013437473122038024,0.03681932397979082,-0.07850888438483339,-0.12410435671028197,0.13687160195652037,0.11900248274667491,-0.009608200581050053,-0.18034901751829935,-0.458172043009472,-0.4583782329144359,-0.46192903172772426,-0.4544916253408773,-0.4578824031668778,-0.5063401928194196,-0.925566258231183,-0.880159473442691,-0.8895129461242222,-0.9239335218237756,-0.33123421134997066,-0.8266317033078487,-0.7667702626563058,-0.7584479459710378,-0.8175225031537214,-0.8424277049534581,-0.8517224325236985,-0.8476065564169399,-0.8405446719879643,-0.8452907814471544,0.6979021217986103,0.7318677466000839,0.7193526455498951,0.7069683547272179,0.7222300472140425,-0.6324294630438565,-0.6299572541914786,-0.672857042012657,-0.6541781241183626,-0.6596597346223882,-0.6224304551836968,-0.5980769852657764,-0.5725275280866851,-0.5838756918229806,-0.6208292972206637,-0.5025765846945829,-0.5072416939782776,-0.5059743006580018,-0.5084616630306964,-0.5075543297786831,-0.7654583946678273,-0.7761355535044363,-0.7643977759821292,-0.7539755176551397,-0.7630341940542182,-0.5083444319357677,-0.5417987053296356,-0.5367866033957633,-0.546264889579273,-0.5013011639251086
3,1,-0.03659185767586015,-0.15429923693164094,-0.1462761506041994,-0.025291650440792957,-0.10228375667588763,,,,,,0.5762339945491792,0.45287485112659565,0.7424634371115225,0.6323608965218905,0.4337141404917846,-0.3032457091736407,-0.3109226961586571,-0.3155010459646821,-0.3085417330458533,-0.31754392504975426,-0.20687055191593684,-0.08783675830225324,-0.16858940312243886,-0.20173094716896944,-0.1799587582399753,0.3133632948595695,0.4720134803449255,0.38827049666844493,0.5151272654576645,0.492109072406294,0.5407500672389608,0.37207798825959704,0.34648910721571324,0.48817384154812005,0.3807272950551778,0.3535187504584465,0.355325007741635,0.3383762759274036,0.35455982686362386,0.37071257872592545,-0.0207852819458052,0.05954707023096173,-0.22699698799056023,-0.08673235126284795,-0.2715995271862295,-0.4441045461871762,-0.4244668007496659,-0.30535749673244506,-0.2303306333695352,-0.4323693525127217,-0.24484209066405938,-0.3898354282313865,-0.2933257699520295,-0.3327783245189444,-0.4008564706171276,0.2910196618526648,0.15303804338566152,0.8602639691886327,0.8563289807331323,0.9742562920784513,0.04136116430170611,0.17754097692511484,0.5519005920554374,0.3842765611920893,-0.048288048335101585,0.7542381123888439,0.24563734004291937,-0.046497472090576863,0.725468848785941,0.7313134937623779,-0.26221663738254497,-0.2632605234935057,-0.26462820805419507,-0.26396809058707515,-0.26371870229248096,-0.265465326016898,0.3407549734352465,0.12762223715473453,0.12011814923536923,0.10478211435571994,-0.34706735048900694,0.3447094631607498,0.0664623921655344,0.12721238088204345,0.057240181253492395,0.49611647128262637,0.5111113806453609,0.5146624570639546,0.4883599724193204,0.5140020036757129,0.6388844384031346,0.6282519571475449,0.6366388571471349,0.6420405072006637,0.6281081373903012,-0.17688407994994226,-0.1848755354037268,-0.12331595808230578,-0.13722450423371857,-0.11583149467132459,-0.12023141690731154,-0.14346114042000724,-0.22077053561103455,-0.160946508537954,-0.13577261912837857,-0.37297968994336084,-0.3706611202388195,-0.37075611530889496,-0.36866917419105705,-0.3694305239212403,0.6978056494861657,0.691793209448504,0.7033591495458195,0.7092075033879969,0.6973258459679459,0.9118168142403777,0.16898636276123224,0.25869049389255794,0.5389616665590956,0.5585023072004014
3,2,0.7220154035450388,0.38072092485174536,0.6431392504781119,0.13169563537755513,0.6405721455868066,,,,,,0.1720616165792137,0.8906236862867664,0.5935321017127465,0.6374527680928801,0.4586980710391222,0.3222548572365611,0.31359842117051084,0.2988403644003036,0.3149533812686175,0.3045027438138346,0.5569841003886407,0.5516389845173331,0.5065109444174425,0.5190947345830912,0.4250058829004295,0.7270751958887258,0.7149365666227937,0.5037838563529161,0.6784994010565767,0.764134216101875,0.34057607988936933,0.4223074794402768,0.3391003702570585,0.2884300383286693,0.36292606882232537,-0.3091603622984054,-0.31371355629880027,-0.3192029044231848,-0.31658946641680874,-0.27875862850400757,0.5983306433828073,0.582561989955297,0.4739264029868998,0.5944778623118634,0.15067569659974278,0.10364612445562371,0.07039172905694024,0.5166757833353652,0.5510834676857166,0.08718681165432285,0.21796392337109582,0.22600872727850452,-0.044386421476269255,0.04647833806770618,0.09961566291810231,0.6747570568359543,0.6584320217148278,0.5790970345312478,0.5420883794648687,0.44106567674648267,0.7462023803696286,0.864014057568142,0.7331279781530112,0.7666275348011781,0.6896852006677571,0.7588277910437095,0.826895193010724,0.7422345003968416,0.8645966109859526,0.5042353989518017,-0.8223397566425805,-0.8205433221555392,-0.8201834364374245,-0.8205991284129734,-0.8224031531937355,0.3833438568631753,0.11856458246167123,0.5500769037910916,0.22942535113153517,0.05067392144387095,0.3710378574509319,0.11370222416531983,0.5567546441000221,0.3530912797829937,0.10848489162878472,-0.33926934787872765,-0.33898306917651233,-0.3353078157365572,-0.3478188409233891,-0.33505887779298993,0.7239752365676403,0.7133103705105718,0.7144185838394881,0.7250321624559187,0.7055194743421709,-0.7900949514404734,-0.798570574042134,-0.7994411363936273,-0.7737057793421946,-0.7916161640610977,-0.621772976671366,-0.605519019245607,-0.6625463549161403,-0.6149820255200065,-0.662080735332172,-0.8399436679308643,-0.8410402168446112,-0.8403510589836509,-0.8401393180583865,-0.8424450081256882,-0.28202185162987425,-0.2844828712864289,-0.2679663412809925,-0.27006308840008963,-0.2852911333489718,0.3484386683073736,0.44490250923178987,0.482943612756939,0.49325685319074475,0.5053295622445146
3,3,0.2983421734071192,0.0022379678824849814,0.570635530508062,0.017695141112721746,0.5090785116901715,,,,,,-0.2049702519000316,0.4871292929195661,0.14848870577841555,0.013096849528241195,-0.034493255170342296,0.8957126115204112,0.8904797571530602,0.8854806903100865,0.8953193814489867,0.8882800098954199,0.8904710123457144,0.848304686753568,0.8650301123528299,0.909998516874975,0.7593764690426784,0.34566157591387014,0.09537818668466524,-0.04425924682653526,0.54630841446355,0.31272723256946,0.29002794772646245,0.5280074880878395,0.5514557790533307,0.38970561775682633,0.5409736250281731,-0.4236960557979548,-0.42380363782720654,-0.431947480965039,-0.4249485793771317,-0.40477905382395396,0.2755807801321064,0.11289093184815568,0.009641937375377552,0.45146584665031675,-0.20926948654325184,-0.14472129708714743,-0.16250076271826108,0.189292449589479,0.21091330926930985,-0.1540666070925003,-0.09408967098771526,0.10902788922460449,-0.04716746492400592,-0.06520488629368493,-0.011217433804144639,0.9389069409371192,0.9625321812988531,0.4736094843265062,0.48179938236662534,0.09399807574520092,0.8430783855421771,0.6260637566276821,0.15103531029430606,0.30650382340199356,0.8421645563393879,0.3216708896691227,0.5159517736381481,0.6732487998736617,0.43854444899237144,-0.0866856241419085,-0.5626940867965091,-0.5624826048361531,-0.5617886445989069,-0.5625544465084089,-0.5643713285733543,0.713457884050565,-0.3935534786522943,0.3183944134382224,-0.0049104592733804076,-0.3462520141086607,0.7008616195643379,-0.41546919877589894,0.3041596159341279,0.03071524853360974,-0.3036752032733201,-0.43206124013284564,-0.4230715938695524,-0.42368035316624475,-0.43573882021244414,-0.42380638596897025,0.08997009785492527,0.057841090295876585,0.07338102916779443,0.10017647802949392,0.04486069222296596,-0.5835990482975588,-0.5927647617588045,-0.5856122021864507,-0.5702787815101482,-0.5769792553298883,-0.5155687163243374,-0.5055263545723441,-0.5462687215689583,-0.5154810072959206,-0.5367976908331726,-0.5958313259888341,-0.5951127378599486,-0.5949137836026481,-0.5937323260379646,-0.5962720449344419,-0.2842210391035491,-0.28672314686305267,-0.2759079930213628,-0.2701386254460505,-0.2872868166429514,0.21598426040055696,0.9134892883137995,0.8958876201569259,0.7341236606961434,0.7388318235539961
3,4,0.482647389805668,0.19521232905320263,0.42211079678592944,0.0354429395097412,0.42658457850235465,,,,,,0.38920119832665545,0.8900136186344211,0.7938715479097949,0.7377260386189359,0.5356912912279471,0.23704603940924796,0.22946418087923703,0.21706828807424006,0.23081349710772492,0.2203223570338625,0.44023394977084795,0.495264497846606,0.43044762127950853,0.4190179404418626,0.3641184292086347,0.634222469555106,0.6547039440206054,0.432467612866249,0.7345461223156021,0.7388652936505277,0.557633853375641,0.5758684380098144,0.5132533345412101,0.5178017671445415,0.5486836297709983,-0.10103918724586669,-0.10112324388914473,-0.11716351183725404,-0.1052395635402501,-0.06725002092449284,0.3851577097934962,0.3818504146677145,0.1670833260807849,0.3857145274455067,-0.11976105646332935,-0.21709792957428697,-0.23590820790557654,0.18983593453991765,0.24997610357155042,-0.2265972659267934,0.003446450341698215,-0.014625376678426338,-0.18074052543750274,-0.14251744269405542,-0.12503777511442293,0.7488013222343697,0.6788297124887204,0.8523343753885041,0.8276711508696848,0.7393906515586637,0.6539863710506026,0.7336297473537561,0.7230826981767468,0.6974513432840542,0.5828968413580377,0.9115113778693309,0.7383979991618717,0.584725146483859,0.9701547700171573,0.6499714798402403,-0.7328960840055811,-0.7322314472362619,-0.7323543974003746,-0.7328119007129343,-0.7342772297232925,0.2755374776129922,0.18463144141776744,0.49998387980851877,0.23804070507968855,0.04974559756428498,0.23079195349344328,0.1841265880755023,0.47816362190248063,0.3308366093439201,0.0765476704392648,-0.06195774139992105,-0.0489641069959077,-0.048132469600946415,-0.07103294841543573,-0.04890970489356339,0.7710429828095403,0.7506981749370122,0.7583737746299352,0.7751258808794198,0.7437919735882979,-0.6982597625722731,-0.7101824695996064,-0.6795104382269268,-0.6653412049692018,-0.6695455142857796,-0.5578968882185664,-0.5560434494439501,-0.6378104360893886,-0.5727647553796211,-0.5953809000547972,-0.8129654880233192,-0.8124385142533543,-0.8115856206785856,-0.8103014214254467,-0.812871355744526,0.09709325248636336,0.09228737568056744,0.11002490448082813,0.11283696033239632,0.09302254335353588,0.6983819507562891,0.5578386203015399,0.6198522984735522,0.7279068041299558,0.7423492578435393
3,5,-0.0911591861286376,-0.06442329444554629,-0.24639411676422007,-0.14827731384252218,-0.21194760318563666,,,,,,0.7109010757564113,0.4832409028579576,0.8337440238098022,0.7140358187521847,0.565837358854849,-0.31694068314445634,-0.3157655123717791,-0.3192371071938145,-0.3187851188215174,-0.32140927665473296,-0.1783211089325163,-0.021144374826516765,-0.10504795016207935,-0.18284220496728332,-0.0854204105388201,0.14022657060554322,0.3057436930017672,0.14116554175714902,0.31883278088146383,0.32677197652500767,0.6524416589642489,0.48014091227185807,0.45066976135024484,0.5978956240903773,0.5040586773728021,0.39659130350936356,0.4051538820913705,0.3765629105019075,0.398628703093985,0.42278007215451274,-0.1588213256042177,-0.07601604309586185,-0.3280797705190255,-0.22621644036039257,-0.4335711906623947,-0.6100069086477866,-0.602297236249185,-0.423765772289036,-0.35308332981103563,-0.607944531889911,-0.24733133581993805,-0.3568823530348024,-0.27547670224682896,-0.3132768887409607,-0.38270592643634793,0.26967393069302714,0.13459416668793955,0.7970620388238504,0.7891030219550984,0.9024957800281388,-0.025164372026001303,0.05192890288326224,0.38219561156742443,0.21183434369263732,-0.09228669974738302,0.745947180756606,0.1719540892271587,-0.08834461454287745,0.658580142638425,0.6886605669465299,-0.2051050942729391,-0.206375402166163,-0.20729081299446528,-0.20744015586752984,-0.20760711794436726,-0.25854889935215675,0.38452350252839684,0.1855012346757996,0.1757874926191182,0.16810978565398138,-0.3227542039523843,0.38349966238639044,0.1331475580691358,0.18142114457133196,0.12385202656850358,0.49422903929219786,0.5266705877585032,0.5177654811313145,0.48908218805826464,0.5157074697470854,0.6108515667589279,0.5915272277854473,0.6004374090183584,0.6137090239877796,0.5944288087279894,-0.12163425268155104,-0.1339627629888831,-0.06868049228552842,-0.07607573097401188,-0.06051875957792263,-0.07293509642336327,-0.09438596094357021,-0.17992775635281544,-0.11551262870503409,-0.09131742399176712,-0.30936785901471686,-0.3068900385699427,-0.3060877647233655,-0.3037222877887009,-0.3055959532975592,0.7142256768410821,0.709394236359506,0.7194658806099714,0.7257561541491591,0.7100384077603514,0.9238108096743339,0.20945874668163467,0.2947784165554739,0.5808407281172531,0.5886354036259609
4,1,-0.39988886692873127,-0.4221615020774183,-0.4402892466543378,-0.47372752647268723,-0.3833985809618701,0.9358036166845362,0.9080082025920361,0.9600743527639708,0.9658800770202193,0.9783467336629301,,,,,,-0.4941455853921297,-0.4514652610812666,-0.4661247395244037,-0.4709873205717019,-0.49426762596029494,0.21911180487713833,0.48395165628329695,0.44013648538223715,0.25477450090971876,0.14253862648258475,-0.4689725475646025,-0.19378928700371767,-0.27200651048116153,0.46045646882680713,0.45177519804522703,0.8717575464890935,0.829620966833413,0.8209462961851447,0.8627925783143034,0.8542187474929396,0.8198480319036606,0.8449373454608223,0.8218142697293,0.830133003320265,0.8393805693081744,-0.4929978834809077,-0.536330854277677,-0.6341653080709864,-0.3921679860076803,-0.5324317154678437,-0.59685188368154,-0.5086541286493196,-0.8266342596834269,-0.774176821838477,-0.5390396223499727,0.2175502848305516,-0.004907962023665835,-0.07471135412278596,0.05701497299510472,0.055412990257122985,0.9386202230871433,0.8904964363083164,0.9227383884954149,0.9208728510305326,0.9344521115233037,0.44307746136906834,0.33819143508671656,0.5799179107298362,0.526837998983072,0.4310897750231306,0.9772478128501555,0.9640834559298402,0.9128802930424013,0.9469482113773731,0.970394839381942,-0.8827182931118525,-0.8828521788762855,-0.8819571904244423,-0.8842722928226827,-0.8832338362253076,0.3482988496441829,0.6018553651431415,0.25965473585202736,0.44335210817677173,0.4627206312934997,0.1972309969451871,0.48901235403812904,-0.02561527818295617,0.4034358540990506,0.22459402917305593,0.8537640030034241,0.8758417386002675,0.8512769485344831,0.8655169410120784,0.8510357794347926,0.8692973243192499,0.848017651881806,0.8568457062148884,0.8684474426201074,0.8466154737960223,-0.6699882168616085,-0.692916633110559,-0.5241977113992462,-0.5809092812801246,-0.5670755233865394,-0.3095235837949861,-0.4128652445524408,-0.6687168804218326,-0.4414663737477802,-0.4313948481620469,-0.8599829697715831,-0.858605138032293,-0.8583070532251644,-0.8576891112163221,-0.8582741013552027,0.8824484084079386,0.8751520978915391,0.8805632125419149,0.8923156841905615,0.8801431052322944,0.9404684927205303,0.8790740879660831,0.8862209180858849,0.9110412379538391,0.9181374862020661
4,2,-0.3344819317295811,-0.32554519976013174,-0.36844723804883484,-0.21942179669301498,-0.3143884579963021,0.8745555675109482,0.7699605306870534,0.8746909391232276,0.9133223684341367,0.8534532093818941,,,,,,-0.6793129483862099,-0.6345681355789761,-0.6540810678842888,-0.6526127910084634,-0.6718594381573761,0.2932786803203862,0.5359728992982528,0.5201885176870084,0.3542104559175584,0.229559490418077,-0.4472278265673866,-0.09549215161577407,-0.06663075790604234,0.5424298690273244,0.418884222027084,0.872108698997515,0.8421816765257063,0.8402757803927173,0.8646900239533589,0.8546967627533749,0.8392222879398096,0.8619763170100765,0.8414998261362698,0.8483338255346302,0.8560151812129453,-0.38537188221295926,-0.42885099661201864,-0.3635083423339547,-0.3133630330157371,-0.21171923979981555,-0.23539519622370686,-0.1383761135247341,-0.7004812507804568,-0.7026984031327541,-0.1713214955997242,0.26750487588377114,-0.0006719495355906879,-0.07802558205409782,0.08863362537158337,0.0868237494795212,0.8259341257052516,0.7518766662552024,0.8483695412917099,0.8456445522846079,0.8652674615736164,0.29692905203998876,0.3332364439815254,0.5036192120995993,0.4456929121874271,0.31174056659599114,0.8670183678194706,0.8440766488147157,0.8030020519293786,0.8124446133986982,0.8804028336759375,-0.9177337389332294,-0.9173567681960961,-0.9164671830893054,-0.9181952724170381,-0.9177414250484399,0.2659634359620098,0.39618380533286524,0.05605896326360438,0.23114408651551688,0.22854400334343672,0.14731674146874152,0.2449200592407611,-0.21385833950616062,0.16194261800800747,-0.03392158541711554,0.7361107690360608,0.7609121296249441,0.7327647202324108,0.7484918570989295,0.7333753203913587,0.872613080051486,0.8563493546877025,0.861873070401434,0.8713486178033325,0.8572141700490324,-0.8054559911738677,-0.8174346002423545,-0.6889000185975824,-0.7441982267259624,-0.7354323198599149,-0.5009643518186522,-0.5991689083431997,-0.7944394994652604,-0.6168648383632733,-0.6057195779808966,-0.9069792466284521,-0.9058156984445314,-0.9057039563151723,-0.9057497302373316,-0.9069059161727564,0.7529114660851137,0.7499811872778337,0.7555905337346576,0.7678505249498413,0.7572417099690145,0.8138218762038435,0.7231704273541758,0.7320755010151129,0.7675483616937869,0.780313906605795
4,3,-0.45608003011948295,-0.4929366924133851,-0.4948313409628444,-0.6068438124635436,-0.44416782312323466,0.9310041882506879,0.963075621457184,0.9871131217532559,0.97168955516009,0.9797091484543754,,,,,,-0.3208738764478829,-0.27122417380143027,-0.28878426321987494,-0.29295476411628063,-0.31735793133264534,0.14111962880172302,0.3784871759764551,0.34895572194126,0.1511435930104167,0.02910880492676937,-0.3715503205455186,-0.160924567248228,-0.3482099441013933,0.4296561445232998,0.5160975023139074,0.7933128612507495,0.7485038294439376,0.7339692232613507,0.7810609497771293,0.7747705079189061,0.6883497232019973,0.7214605681302021,0.6910668643924847,0.7012993273302782,0.7133236791001263,-0.5576765123766321,-0.6023290053062802,-0.7627010082809353,-0.46010372976810787,-0.672933192934301,-0.697095607889046,-0.6137143241612026,-0.8768593026774698,-0.8026131774246572,-0.6420889879266516,0.11783289207503411,-0.06503562749087033,-0.11835536620066689,-0.0250092237958639,-0.023191105356472397,0.9743028120944088,0.9569928983285043,0.9143769863901049,0.9102438401935989,0.9114642796260597,0.5934230668298395,0.4728451128470641,0.6673606241913757,0.624430437885608,0.576723843699261,0.9858527556653462,0.9914244084177585,0.9637288457546058,0.982553982261498,0.9563863187222655,-0.7860051607749823,-0.7858645691190913,-0.7847135619323751,-0.7880470175702836,-0.7866334281523115,0.5047220792259298,0.7167355407215673,0.43783318871892796,0.5942097791363249,0.5921620989108415,0.37038761436218903,0.6200039819914519,0.17345323060273987,0.564442888007268,0.3689908219121698,0.8336133233926042,0.8574542588982611,0.8305568900567183,0.846390875815326,0.8296160195860233,0.7869497303160372,0.76599728349706,0.7739997855351315,0.7863010503407769,0.7671307575302665,-0.5521325871145848,-0.5778971572503167,-0.3943251897764073,-0.4524811592518174,-0.45253713824361985,-0.17656736158485686,-0.27778293152610556,-0.5557642842381367,-0.2995166144998065,-0.3100469472783154,-0.7542128077264123,-0.7527406419609859,-0.7518082832153905,-0.7516723942939918,-0.753154908130313,0.8611797944514986,0.8541804305646217,0.8582132788981892,0.8730501147189106,0.8590743520631067,0.9573488459292765,0.9400335690378206,0.9432210290145336,0.9534045963071829,0.9560050621926716
4,4,-0.35179451639101034,-0.37678702368637107,-0.39175132795037726,-0.4487627229065274,-0.3347579935633127,0.9136735353042962,0.9396232688237247,0.9765672268674872,0.9662335828250436,0.9576966439749797,,,,,,-0.48078067335153585,-0.43342497244614275,-0.4501492521764603,-0.45365208757003583,-0.47644252107378393,0.27779285556793054,0.5176210121361341,0.49052831786946505,0.3024008502459341,0.17728251175359422,-0.4797660778516737,-0.23089168074263133,-0.32941031923398256,0.4085179890543982,0.4197920537529646,0.8874600182825557,0.8518896023430879,0.8403859953960597,0.8773459058489669,0.8713245198974131,0.7937669325281057,0.8231272985177256,0.7961891428104161,0.8049603395516286,0.8155057497802382,-0.4440364084083481,-0.49305410482180356,-0.6302367300480358,-0.34432645967761655,-0.5423316311423618,-0.5898877559637559,-0.5062213587196087,-0.8075594585070813,-0.7456851561692792,-0.5353146234183925,0.24190320052061698,0.011115307802330054,-0.06586482251624948,0.08007334463172555,0.07436997122408295,0.9363505542631714,0.8988165861124184,0.8935790646601078,0.889411472835694,0.9017103982373971,0.4525620808478792,0.36263323242403334,0.5664272605927166,0.5131575469839286,0.44169395722896587,0.9659636742811005,0.9641914297384275,0.9430735656718112,0.9395309155472483,0.9459969954112214,-0.8699039207694956,-0.8697457395649808,-0.8684817792972122,-0.8714290026404783,-0.8704221293073164,0.37363176147954547,0.5785259337839981,0.2706269455429946,0.4360049182523452,0.43272175666279045,0.2543311963708723,0.4641862890751748,0.008100774688344026,0.40377110457198495,0.1916696824371137,0.7925385061177193,0.8199466055231882,0.7889992497386406,0.8071277713420609,0.7888505458697961,0.883507203777091,0.8660456060493118,0.8728446681104561,0.8825499469638496,0.8670274763533219,-0.6950464395193636,-0.7175716948565483,-0.5581779190583713,-0.6096007980694798,-0.6074296685283258,-0.355549309906638,-0.4512112025187902,-0.69919942095672,-0.4728010957747504,-0.47920130112255754,-0.850833412722396,-0.8493715962392427,-0.8487772927149129,-0.8485944597101156,-0.8496693130627158,0.823289980649998,0.8158870365421802,0.8215905817918231,0.837275820379922,0.8223170570946358,0.9178812917872802,0.8685626397705659,0.8742641718456858,0.895275950466696,0.9022723920250334
4,5,-0.3592555512871456,-0.38242825454314033,-0.40024829571516163,-0.44178775650317537,-0.3429921677537724,0.9216160579640662,0.9223594500328667,0.9684443578659672,0.9650146873813512,0.9648434681526961,,,,,,-0.5022490547509193,-0.4587931081777721,-0.4739920110822371,-0.477983922268878,-0.500156834072699,0.2648994494447374,0.5167954787131306,0.48034418847240246,0.29519219984968226,0.17884271247316497,-0.4857350430988421,-0.2258485220599873,-0.3064487137975913,0.42529543459940533,0.42237737292374566,0.8889725519453958,0.8509903675177918,0.8417506132404686,0.8796853879134242,0.8726410881756723,0.8164221662617662,0.8429650044532261,0.8186163567485399,0.826959426176534,0.8363743290366341,-0.4541099790490204,-0.4995862434994176,-0.6199181859166802,-0.35313462569325127,-0.5271115056762339,-0.5801844858941854,-0.49477443371471064,-0.8074960705039671,-0.7494819574150156,-0.5243764236080986,0.24007781790525362,0.005762393388124898,-0.06924048400072946,0.07578417461116926,0.07125948334998933,0.9302334038204562,0.8847470253503377,0.9015245814448305,0.8987309909954212,0.9122519098723832,0.43161992167603835,0.3385937380678845,0.5577507086596587,0.5050105162402627,0.4216511663009258,0.9689279236137176,0.9616869112456203,0.9265895088145896,0.9379721444581874,0.9558148303582247,-0.882901803394645,-0.8829779409651044,-0.8819927467760529,-0.8844142253843086,-0.8834145293370783,0.34802168340490724,0.5765683462238508,0.24673396556413374,0.4247450685046821,0.4348994602053804,0.2178311036399858,0.4627342460717627,-0.02662978796223925,0.38987368476069384,0.19651649835349794,0.8158344217145171,0.84109138050219,0.8129199980801081,0.8290749601063763,0.8126264958553113,0.8860081826906158,0.8674445862770488,0.8747305266844452,0.8853283516610523,0.8669866115005266,-0.6934759904138277,-0.715919770438211,-0.5546701118177391,-0.6072270023682784,-0.59894233409051,-0.3478195266570576,-0.4463526393437822,-0.6946831013137538,-0.47145272574837005,-0.4686090134809451,-0.8635151781496866,-0.8623465173911615,-0.8618308983915526,-0.8615213758114662,-0.8623342509687866,0.8453649957985975,0.8375998629536329,0.8435620090685165,0.8572593615376473,0.8434194141537963,0.9227912238162178,0.8637537707989091,0.8705445731955747,0.89502602174951,0.9023432989672574
5,1,0.6699990785078215,-0.1663083155719376,0.6360352481480287,-0.18511815385836483,0.6682536900116997,-0.43379564742219623,0.48056915460674454,0.4109350148344263,0.13865819509122446,-0.38046434701237963,-0.5254539813962316,0.16829215614659743,-0.12320466738207014,-0.2107902142577891,-0.38502905527833176,,,,,,0.775527089729399,0.582254816829758,0.6378419756201416,0.6780617422356959,0.7288124280586107,0.5388264689824216,0.30092228533918286,0.3008687012969249,0.29817477736559117,0.36908609779408574,-0.23990233318903353,-0.12647636077219881,-0.1135425462459887,-0.22986986296734835,-0.144612639710874,-0.5770159750033677,-0.5801960850136858,-0.5757442795192573,-0.5767762133302612,-0.5775650984854122,0.6138946297837908,0.48325162996392623,0.2193164544714451,0.834603052419617,0.24420711308093246,0.11218086496076496,0.062032415913154226,0.02332530638744834,-0.002301365377967768,0.08686161537465409,-0.19874313772096164,-0.041229606572109834,-0.059233889699533915,-0.12863858769686454,-0.17081159474863017,0.3731041847417089,0.5287353258708303,0.03257576462181988,0.03422800180483099,-0.0812231686007967,0.6966557549918331,0.6294683766199667,0.3440569931933084,0.42573352160746225,0.6859085532453917,-0.08145181850929561,0.20829711884112712,0.40475621819285856,0.17828242468284483,-0.2470490279781581,-0.06703157842196217,-0.0651247187968742,-0.06898205321115558,-0.06249407575370247,-0.06392125489314249,0.6955402715242683,-0.18812291003792758,0.6097410986465196,0.1639971620459384,-0.2210338659212443,0.7625451201889589,-0.13580772313072043,0.6637788495590826,0.35321012427911236,-0.15738341994773264,-0.5803917111286525,-0.5778009575558958,-0.5801523344468626,-0.5873459026591261,-0.5783554484723417,0.14916968245899986,0.20370772374081092,0.17112167450122573,0.15235793869300984,0.19438578146065566,-0.13816217240309503,-0.11652566877034776,-0.24537949943464188,-0.1898035534585778,-0.21669474267171962,-0.22340303567512243,-0.15750276400276197,-0.031017605451781893,-0.10556171479042509,-0.2170441014408313,-0.06034150444528508,-0.06351103161073635,-0.06520773263231394,-0.06756435162175256,-0.06555106439215752,-0.4474937451553527,-0.4419586152661652,-0.43628564633560396,-0.4455665612208599,-0.4494239057206497,-0.2513710648044054,0.25104510019222115,0.21121455951306078,0.017635899285213363,0.015087323449254897
5,2,0.6533874907140885,-0.19016398402198265,0.6196182513305858,-0.2127848485514121,0.6530478431398409,-0.4130432028645252,0.5013039607819468,0.42561744067558505,0.16332303684433702,-0.35606551739331205,-0.5012344061635643,0.1975033271972776,-0.09202969764460889,-0.17936234904895065,-0.3597382427464262,,,,,,0.7838475200956396,0.5971812800006132,0.6540443225857416,0.6843303768109963,0.7394857772226457,0.529842514659063,0.2907907758492301,0.28911114260652127,0.29836591700387016,0.3650455899451499,-0.21075196936098362,-0.09718352943414277,-0.08478028556429407,-0.20149516455204108,-0.11531874580797918,-0.558736740819552,-0.5605852168500027,-0.5574307541145991,-0.5580526833520574,-0.5579363296607052,0.5988147143458299,0.4648118659365139,0.19822827623003514,0.8267425626755537,0.2251096966681344,0.09544151893795316,0.048454560670477154,-0.0009085896571392471,-0.026122977681729553,0.0723366570875934,-0.18880119444686017,-0.036925480702964864,-0.05849047817303621,-0.1230155946884286,-0.16625904563892502,0.3913711152082997,0.5439586380324392,0.04984707627758089,0.05117538695791668,-0.06247700202703266,0.7056870466668043,0.6349797494218858,0.35193094466499075,0.4321268210053786,0.6951998362234526,-0.05639149848880631,0.22918554038236183,0.4282840920689578,0.19905467346694639,-0.2227814803747119,-0.08394009081498433,-0.08207945203522993,-0.08564944608678204,-0.0795091950844864,-0.08093178997976036,0.7153680811598455,-0.16268087499512607,0.6292092861565002,0.18815315218035755,-0.2039655588513163,0.7776698616447832,-0.11701169050890226,0.6770635651336754,0.3745123137686315,-0.14779595946933455,-0.5625801507948007,-0.5587093581355504,-0.5624149427288962,-0.5689370071008817,-0.5601952255870466,0.16854619666062343,0.22109556085101267,0.18972725785926792,0.17137356014353877,0.21296308630497884,-0.15211937104801398,-0.1309107523411479,-0.2551334716606657,-0.20181877866063913,-0.22850829297802688,-0.23224380407499057,-0.16995198914986753,-0.049916201837392205,-0.1189453891620802,-0.22843444940637148,-0.07744495619907577,-0.08043429166379124,-0.08218482784394987,-0.08434663423491395,-0.08249337773885435,-0.4264799201202676,-0.4211758233477354,-0.4151523281059979,-0.42417010976280967,-0.42834349465984145,-0.2250225976626956,0.27836882955443376,0.23846651261052743,0.045736865946066074,0.04285356817065167
5,3,0.6590444568657804,-0.18130010048567025,0.6248444373361115,-0.20235194256704014,0.6581562875554421,-0.423643665484559,0.4897352179850374,0.4154165062963965,0.14962943977288212,-0.3672953584308811,-0.5105376255688734,0.180499746205931,-0.106419003269689,-0.1947995469857693,-0.3708950231700525,,,,,,0.7772353667290148,0.5875904799258497,0.6435197549338165,0.677948212483964,0.7330649272928468,0.5299756474822773,0.29084701223166487,0.28930695152907104,0.2929581038731208,0.3621901286523459,-0.22486433962764374,-0.11200913520652422,-0.09928972725022223,-0.21524458791360956,-0.12971817272427688,-0.5642733749423265,-0.5669933980221473,-0.5629983597899599,-0.563855475530358,-0.5644141218274461,0.6030530607458462,0.4703695676141473,0.2035215932793748,0.8289333300172518,0.22821225845342608,0.09683624371802746,0.047995234926955455,0.007421800926230904,-0.01784785749633766,0.072395876024963,-0.1926899659585255,-0.03861079815540269,-0.058369412914406116,-0.12489324600689233,-0.16763079681851467,0.3793083486410216,0.5335185462138367,0.03826381536331047,0.03990097912617907,-0.07407998813757133,0.6977419342316736,0.6272419275326552,0.3438259673438051,0.4245379251410293,0.6868602691201506,-0.0698504520979184,0.2165504589596675,0.4150529546410231,0.18669814180056155,-0.23530134891529864,-0.07228020048252226,-0.07038100260156055,-0.0741110683058428,-0.0678049508485965,-0.0692071096553959,0.703383971948177,-0.17147572490426533,0.6202861839596111,0.1793080287084643,-0.2085096200170704,0.7684563961227623,-0.12150322249622292,0.6715672330689334,0.36743586637496983,-0.14847842031762504,-0.5677209449387619,-0.5647409742979757,-0.5675698630099135,-0.5744796359555364,-0.5656306242394922,0.15662698968539746,0.20998589577014704,0.17801939097279085,0.1595710902480998,0.20120224591537406,-0.14056202500813186,-0.11928663122059668,-0.24535628773534746,-0.19099322487664194,-0.2175924551445383,-0.22253656456412552,-0.15863479290286064,-0.036427217672684975,-0.10742893850752822,-0.217859027950424,-0.06571615386065965,-0.06875262812287009,-0.07046944179226133,-0.07274206886356116,-0.07078489655350118,-0.4335441808937315,-0.42799352584126815,-0.4222753541633506,-0.43142233588094103,-0.43544042127655125,-0.23834326464980404,0.2633841249035975,0.22369580985843562,0.030818003315929987,0.028038577024116718
5,4,0.6680552623098186,-0.18710666125410014,0.6329060492439248,-0.1883674227834209,0.6685222912112183,-0.4150585938859854,0.4902773266707463,0.4249846023324606,0.15838477942587526,-0.364548904558446,-0.5208023335685792,0.17835327484199492,-0.10825576704765516,-0.20222593951698298,-0.39155470044853447,,,,,,0.7751108307748117,0.5848407969643099,0.6390405749084498,0.6804475731878686,0.7216098991818051,0.5413516957258042,0.2990935476244738,0.2979413452732591,0.30257847260290527,0.37238331918647327,-0.22370423258115002,-0.11082004465980955,-0.09786506167814957,-0.21278372336393314,-0.12981763052895823,-0.5682174307497894,-0.5719248465188831,-0.5665542750289312,-0.5682889265630924,-0.5690358440870966,0.6129180536828003,0.4798686337477276,0.20712862842080015,0.8412600754071491,0.23594013852000506,0.10759714127151898,0.059647965114350776,0.008152928614122645,-0.017030481400817088,0.08360697431570308,-0.1876751727503121,-0.03746421375029585,-0.056620132441930204,-0.12266880644332812,-0.16502165146224446,0.3837343455625839,0.5358741788812998,0.04305981258888181,0.04564482705054407,-0.06776801194516269,0.700028582311676,0.6342261888667099,0.3552281583440291,0.4343090494328494,0.6875319605767715,-0.06661550767692326,0.2224571577434722,0.4153763602206113,0.19390261414372723,-0.23084310370686523,-0.07488475586633658,-0.07302632548555343,-0.07669799999813076,-0.07050466857285409,-0.07188120064696135,0.6897165359708317,-0.188800420347653,0.597164319947256,0.15834177087019163,-0.22719006084111082,0.7524663272240291,-0.1413433052959001,0.6480311091397895,0.35066521400938555,-0.17077459725476674,-0.5722933680572502,-0.5714899315214041,-0.5723081226568487,-0.5793490797745242,-0.5704201216536422,0.16549776100459757,0.21982014201018407,0.18700049134516372,0.16847135239171518,0.21045291055323456,-0.14924290875481505,-0.12809190956174477,-0.25399059064361174,-0.20025838215669012,-0.22576511795527998,-0.2366110311768772,-0.17156594362222877,-0.04842665023975479,-0.11915867600720498,-0.23103037243736035,-0.06844321086617167,-0.07143770546550199,-0.07310474912103704,-0.07538862784460387,-0.07343882839110583,-0.44052529006799235,-0.43558932809367956,-0.4292711075379305,-0.4374991314431682,-0.4419585105220518,-0.23453347785286094,0.2612855651463477,0.22248104791620038,0.03125730656366854,0.030102414385304366
5,5,0.6730617991730401,-0.1678651524539505,0.6386660586544839,-0.1782234085344203,0.6718935374577355,-0.43554111445303656,0.4756701832461314,0.4092855763692169,0.13621636536090498,-0.3849500673488404,-0.5330683823222278,0.1606270854692169,-0.12825188261980203,-0.2195291335149714,-0.39869687646108276,,,,,,0.7704407340719074,0.5748512166727667,0.6310379380374257,0.6747748472012025,0.7188206854588967,0.5411914023865341,0.301683167433074,0.30153611125288515,0.2972562628472748,0.36985080720959385,-0.2447432998308796,-0.13148732482885817,-0.11883796208386777,-0.2341500094109743,-0.1504509268110068,-0.5825847419905106,-0.5859686828049417,-0.5811266192201889,-0.5827184323666257,-0.5834210320922555,0.6179837727147804,0.48700384814905084,0.2201725781960182,0.8392498069801402,0.2463250145245055,0.11545685644199022,0.06504356985551929,0.02411607613884925,-0.001664492085070357,0.08984933442835252,-0.19727419735988372,-0.04060640637801405,-0.057984164394398574,-0.12736079791910138,-0.16925659991644637,0.36919518111406113,0.5244895827736336,0.027765888782853465,0.029687124822482702,-0.08573712731329941,0.6946632304673009,0.6292843511426964,0.3460441216972212,0.42672356109222864,0.683035661031444,-0.08657755930637023,0.20521711042632573,0.4003103809408486,0.17550728230389578,-0.2516521104317395,-0.05939815314094532,-0.05752063794210027,-0.06126455989229318,-0.05490392621574758,-0.05634608772954497,0.6886822607369006,-0.1967965418248716,0.5987123010026524,0.15526395846529628,-0.22844938297931927,0.7558106129811695,-0.14402672755882384,0.6545167218986445,0.3472629362433458,-0.16546724959594838,-0.5862131654603715,-0.5843438265206724,-0.5860842822102703,-0.5931105104807375,-0.5843904581022785,0.146446900094939,0.20163963134536889,0.16867336832204582,0.14958990856126142,0.19230995547651808,-0.1358323573614002,-0.11415301733729,-0.24348871756827917,-0.18807799605888853,-0.2150492615170767,-0.22544231274479776,-0.1583374616614055,-0.0308618002452703,-0.10502387268713553,-0.21870743825868222,-0.05276602854746493,-0.05590705424004527,-0.05760808566719944,-0.05991693456607483,-0.05796401194904255,-0.45574035716644423,-0.45022605883239364,-0.44452671631501817,-0.4533753416618269,-0.45721362495944984,-0.25576696830761003,0.2439383366034109,0.20427747292894627,0.011460318070341424,0.009714141491709904
6,1,0.7705335702612962,0.6150051747020797,0.7752347092261946,0.29006208866179384,0.7685969852339962,-0.013776956240715066,0.6620988196629378,0.6743334578095537,0.38361196071241155,0.08058835667194586,-0.10670048226310769,0.5049592282214042,0.2652521391739706,0.2802110141013646,0.04255818171449277,0.46891399041474013,0.47994852957610723,0.4729481326798708,0.4761292591565115,0.4672674879514469,,,,,,0.6976193308884058,0.707298743120944,0.6937094625851644,0.6762680725788263,0.7002020991279903,0.4152739103524479,0.5364189433055233,0.5261379386474087,0.4249994917447899,0.4909465701659991,-0.23099394519719096,-0.22282625104702047,-0.2293273358780612,-0.2110393850934733,-0.21257292811041828,0.7816630273223343,0.7633856463436873,0.7373893743484374,0.791179141981522,0.7310078525900382,0.4881475596553658,0.507677863988157,0.5786201724283605,0.6028340340568443,0.5067573025524533,0.01582672996410872,0.046326363187834896,-0.08926095177073279,-0.0523997291218512,-0.0655342210663361,0.6301382765827619,0.6988332833936864,0.48882079937017675,0.48394442538951044,0.4031449429619922,0.6449932271984391,0.6475559052377515,0.47810655534933866,0.5244176601675979,0.6530444299016248,0.30420466244136257,0.5221460359410555,0.5981175269705964,0.4773199212627264,0.14406339476041785,-0.6188920242880351,-0.6189290089792014,-0.6204031442982987,-0.617251820708085,-0.6180753774377241,0.1898301419074453,-0.4621769752067839,0.14327209098584848,-0.2451888268568836,-0.43985774541855305,0.4184200773025335,-0.5067736544712056,0.1928869872758595,-0.09617215991035266,-0.41164946101125555,-0.5387311194483213,-0.5112412987261794,-0.5320139640027763,-0.5325947207182868,-0.5240202910362743,0.7190578046024867,0.7536677563313732,0.7366833278372155,0.723966014883036,0.7499899532320801,-0.7917007306925257,-0.781668956391,-0.8509140825972492,-0.8224683217633526,-0.8430865410679256,-0.8566335489479546,-0.8372257297952224,-0.750289522667277,-0.8169916862108397,-0.8505472422215581,-0.6377296958108962,-0.6402224093534061,-0.6401885922738486,-0.6428781088684206,-0.6415389610214695,-0.3446609969688912,-0.3683916827179017,-0.3472579100075781,-0.3387483231571924,-0.35734250059756256,0.09972985210572483,0.3779010422045941,0.3587165857476533,0.25421356005847373,0.2618821171245903
6,2,0.6295792966378531,0.5090372447180254,0.6243185059811608,0.20875100131097857,0.6295375149637512,0.20647440210572932,0.7633181199991623,0.7415604227566299,0.5487942635173292,0.3142260303878154,0.1470424823282146,0.6818832834186088,0.48111475318962893,0.5045274354444218,0.2681725411245215,0.26459732846388095,0.280662084080328,0.27030292745546847,0.2726300296575084,0.2601910916550775,,,,,,0.5628900709020235,0.5882068665602198,0.5626226266842407,0.6507433032066939,0.6272377755889772,0.6424384759745744,0.7395288871307518,0.7322593681985647,0.6492945478629363,0.7065581384825944,0.028886102191895024,0.03983698446430162,0.0307443446554857,0.051343387555645714,0.05099811806567722,0.6221593446322126,0.5992918766143964,0.5531558941872932,0.6496407428552999,0.5453936295324503,0.25657130673630046,0.27768547127191634,0.35670296413992064,0.38644164438931594,0.2747870091008835,0.09845168222356404,0.06736538772906786,-0.08818052473675952,-0.022957887692063306,-0.021699751094790942,0.6999046883932154,0.7217034811164599,0.616717027120866,0.6121335312980536,0.5608795365655029,0.5828934839814193,0.5632305383177486,0.46946357642978476,0.49036854020011966,0.5924841242680875,0.5032621906378768,0.6508973652807308,0.7110655334842892,0.6037133772871585,0.3705081668633574,-0.7644722972515394,-0.7647514486690485,-0.7655988598573751,-0.7634522009433509,-0.7639159862015972,0.16759149530304407,-0.3057783539000294,0.1276747731257981,-0.16401037053945355,-0.3172155116753903,0.3478937169347285,-0.38152381708780814,0.11640626562771517,-0.045470669379526374,-0.3386174109825131,-0.2937739547242626,-0.26302216904543174,-0.28644363027610886,-0.2864050044719013,-0.27745601413294096,0.8510392446200559,0.8684948254070548,0.8609114118955842,0.8542297561387163,0.8682394050553502,-0.8599053536950447,-0.8554163170175468,-0.8761739723435169,-0.868365612838162,-0.875412960339496,-0.8651166315455192,-0.8737196160857938,-0.8415163723252541,-0.872502531508303,-0.867576035307354,-0.7845701752901215,-0.7862666879906626,-0.7861491454056317,-0.7879275954113303,-0.7870256511251335,-0.09147356586562361,-0.11714967513253827,-0.09397936797439921,-0.08521821969508325,-0.1049881117494802,0.3141434858927077,0.5099325073522519,0.49751371849945136,0.4286441235939704,0.4360204012280373
6,3,0.6389131556563185,0.5360574789288735,0.6358884908934046,0.20653143752308656,0.6375527358057769,0.15763733847985129,0.7467243550790014,0.7159705487593169,0.5117963746349272,0.265997148157871,0.11815850266072181,0.6660837412413967,0.45008419972822034,0.48034715309549403,0.25545801334881224,0.2924861858188348,0.31046516480251274,0.299056477768757,0.29985450114970624,0.2890379204753126,,,,,,0.5618144730968204,0.5868396419322669,0.5630712943924406,0.6344273772626757,0.6175100365451837,0.6080150477129861,0.7104007446162117,0.7007087838845383,0.6133378671699368,0.6742429743955924,-0.015316862066084402,-0.0012480566793910963,-0.013977620523993428,0.007269596940906564,0.008671532147024208,0.6370068608914484,0.6119640827469226,0.5793972578175469,0.6581781190762501,0.5717080671213086,0.28966338837796357,0.3093624433871007,0.3845445678912256,0.41034432359620454,0.3074334204031217,0.08835725711924158,0.07018442442471362,-0.08592880097911415,-0.02276132655106866,-0.023841564678947158,0.6788200704114126,0.7104615992643365,0.5815191521788625,0.5746526700730888,0.5178568099977532,0.5899289323883624,0.5711320769479471,0.45815780574908394,0.48231059331447157,0.6021921447098808,0.4599910276739526,0.618687040261145,0.6953150355977012,0.5685230721332448,0.31948272770871966,-0.7287018274986914,-0.7290177106420455,-0.7293635835504615,-0.7275462634556233,-0.7282369287756474,0.20251544203175764,-0.31626704962563323,0.16261223230430666,-0.15171877799930988,-0.3166987821955214,0.40417255300837795,-0.3836169421079434,0.16996682420138298,-0.02769992278633593,-0.32444839139284376,-0.34157793765490907,-0.3058558293237992,-0.33425165366041765,-0.3325559257513999,-0.32514007698635483,0.8176200941331814,0.8368765220242858,0.8293937463674902,0.8205719300499181,0.8385429324070018,-0.8434109764656172,-0.8374459260138427,-0.8663133556262652,-0.8557144913020898,-0.8685227763494763,-0.8600497623527876,-0.8649753723326266,-0.8231167529267307,-0.8597613148939556,-0.8621215859255273,-0.749313988955876,-0.7510118553369429,-0.7511736267473612,-0.752719660359968,-0.7520987239344215,-0.13931233917327446,-0.16331964992236503,-0.14157892580634868,-0.1335957751826684,-0.15212398051537024,0.26842583620989746,0.48624317117765137,0.47047975820085497,0.394122048290825,0.4000178457148541
6,4,0.7966595823504724,0.5766420380915122,0.8005181569623708,0.3292217665423883,0.8004181214100823,0.048011512532989964,0.7059963644633668,0.7291481890700945,0.44404579986190784,0.12378417577753786,-0.11795389168757375,0.5155599881658262,0.28305233956933007,0.2836917290522474,-0.005540722863603742,0.4587380419697822,0.46940851945090933,0.4622852225304952,0.47082324235636475,0.45926939703102176,,,,,,0.7420989590525899,0.7481462887864435,0.7308246716897363,0.7253451697120337,0.7509516069586477,0.4428721976899297,0.5622592107660295,0.5525014517730193,0.45699013914370146,0.5136417201007845,-0.21674597899371584,-0.21248655601321498,-0.21376408653259782,-0.19919985922120476,-0.20025686067144033,0.8071679147277036,0.7884982930619949,0.7309052183623628,0.8259135332992849,0.7285420993031608,0.47540772485167304,0.4974487579263891,0.573100520708254,0.6024327286366853,0.4944479234745065,0.04769452505206018,0.06022416584919432,-0.07444124968461385,-0.033456406667417005,-0.04431599127995289,0.671735235357402,0.728789166226079,0.5374368937435735,0.5347331875536913,0.45922193301047887,0.6616544421735513,0.6761178598507245,0.5385450563636155,0.5764585585081022,0.6625996712350346,0.3542816375790647,0.5805778804820818,0.6406534467909162,0.5361489280092335,0.20038206037260475,-0.6649575609306435,-0.6649784317601346,-0.6663884965957196,-0.6633611589748949,-0.6641765101129076,0.15308881096735139,-0.4986471955466685,0.06341439461746168,-0.31048137683904,-0.5126089981510205,0.3467372158206551,-0.5665310281565927,0.08904134231607352,-0.16678728538548238,-0.5137617713540683,-0.5199108132282848,-0.5015049006791337,-0.5139519176071043,-0.5150941608788195,-0.505662211964681,0.7715168579650922,0.8072409025951764,0.788859714467686,0.7763222415933151,0.8019614038992344,-0.8397058046453771,-0.8305258884151776,-0.8943101667604472,-0.86921321561283,-0.8845367525364964,-0.8996441344418122,-0.8804089835570181,-0.8015895938456647,-0.8600350238350092,-0.8944749719921576,-0.6827066954573575,-0.6851749255458017,-0.6850818344077485,-0.687659208259338,-0.6864173939157614,-0.3302050659666542,-0.35603743557363265,-0.3323707433087495,-0.3206695191061517,-0.34064600196676675,0.1495698645425788,0.40171709277013234,0.38566752587215714,0.28967350251846424,0.30279240545612063
6,5,0.6525728124957799,0.7259623082477528,0.6373538945208375,0.33230067319730405,0.634942629283329,8.776150548805983e-05,0.5315468565916668,0.5112796116032702,0.30805528529205284,0.11367092867632711,0.1148825338890499,0.5520498103549706,0.31307213920479904,0.38220920099072975,0.2825276116839466,0.22478165698946273,0.23265536792354058,0.22783667777505,0.22206991863668502,0.21883641313513502,,,,,,0.40984916941317096,0.42753408508017454,0.42449816617028424,0.4246202063818033,0.420378560610713,0.5088921734940753,0.60802747608388,0.6050904727880978,0.511718457267103,0.5757848739658704,0.01695063915648032,0.024618119652229598,0.014900775688219792,0.03805967997559767,0.03031775263893466,0.6182690901010108,0.6035347013311632,0.6446781004103312,0.6198779282784092,0.6302587497416734,0.40431674931027906,0.4158913625723333,0.4686366150164265,0.48191213882217987,0.4148850309107549,0.04659820460841102,0.017582194886184066,-0.13571172952699984,-0.06789745051757934,-0.059235999085079705,0.4361547917195858,0.4854101151671838,0.3491170890357831,0.3430469671180577,0.28768778271843953,0.39411734643210516,0.3671646488019985,0.20646823182616114,0.23324437663147313,0.41815467172525167,0.2372085853971132,0.36308839586848407,0.45408918300278367,0.31440631890469994,0.11018815548673078,-0.5346605472100321,-0.5351032919658614,-0.5364277257187855,-0.5333765131462054,-0.5339534416776575,0.07565740314839298,-0.35709171842111775,0.11931449374579695,-0.18206913546687864,-0.27231563022585714,0.371091656889907,-0.34583092757285105,0.20562027150682183,-0.05281033151670722,-0.18291027166093254,-0.37826903350080987,-0.33606282544651167,-0.3691422761697065,-0.37088464440107427,-0.3643891868288276,0.6436019306513686,0.6666297438675526,0.6572996971566659,0.6469315976226091,0.6675629555938682,-0.659928874664367,-0.6526315084271543,-0.6984648913339242,-0.6796481885463395,-0.6949769620305577,-0.7208306229924735,-0.7192275341720049,-0.6425552924884865,-0.717926997777913,-0.708101613022899,-0.5641651584700296,-0.5664222545841509,-0.5662152323127927,-0.5688029531972392,-0.5673749599052387,-0.19580409569181056,-0.21237277851101322,-0.19835689609047602,-0.19810447804516151,-0.21076082709402333,0.05538075080210325,0.25630075562564325,0.24026511042578136,0.16771080106456115,0.16575434161710745
7,1,0.5441072242467855,0.15691739489777512,0.5618890988230351,0.4184775337062535,0.5672752041930985,0.4829756991674221,0.7094682201832114,0.7600240589128172,0.6579204484548178,0.35395109123107715,-0.22255657969446307,0.39148300436805294,0.31874501092606056,0.19133600164021236,-0.28577817481189394,0.7801695226204318,0.7705287638578181,0.7749253921506358,0.7990419812724339,0.7893440933648576,0.446508022968777,0.3471278870404574,0.3420499591200692,0.5260250427051464,0.12934597290606642,,,,,,0.14389214721669874,0.2093950014575764,0.19980358922851704,0.17518399262456708,0.15816572124339712,-0.5438942858539701,-0.5674086146250739,-0.5415835708631733,-0.5400103573610664,-0.5532760586742551,0.5731475492335758,0.5751291798225839,0.3688785332870257,0.5836312467377969,0.2882480582028568,0.3398742863535098,0.3329508782295765,0.4897921926980935,0.5282186834790462,0.3292902108633189,-0.33505587569538076,-0.24672861572063476,-0.2259793503875165,-0.296005670895517,-0.3382541921237223,0.7852078319942504,0.8126492911428647,0.6943243095770693,0.6968769939413582,0.6477421944985042,0.8359644207384943,0.8831533551057988,0.8068389348017057,0.7342995594296932,0.7915328798233173,0.4534605431505694,0.6448902625102012,0.6179460168657495,0.7378319259495021,0.2342051958321939,-0.5023114049029354,-0.5018136379544216,-0.501035872163746,-0.5015791422169222,-0.5021364632293248,0.15867096033250683,-0.33552284021939327,-0.030718255934176097,-0.2515719056690522,-0.45769940244374197,0.057960605755458694,-0.4189704220862829,-0.12395114697456755,-0.20237385569001654,-0.5648463507228829,-0.37398682228872904,-0.4314646038552936,-0.3644477555090784,-0.3963297625450606,-0.3649262055209821,0.560956367483355,0.5923009080601659,0.5744102043863317,0.562361920716301,0.5814090040204722,-0.5683996367474602,-0.5648451242190355,-0.5899759489841636,-0.5771852938126107,-0.5877678985794139,-0.5065734076133599,-0.47560648764863545,-0.4959057660829598,-0.43659425417718145,-0.5454672047366422,-0.4699352977673037,-0.4702554947208888,-0.47160407505903246,-0.4719798076523063,-0.47213100797892094,-0.161212076175262,-0.18199162996793228,-0.1623133420481644,-0.13309548803798732,-0.14973287522585865,0.3919082651833157,0.4970714071636647,0.49541734445955343,0.4456532148075252,0.475983213376884
7,2,0.45492646911358725,0.06979931450636556,0.4728447556541677,0.32730438643451243,0.4788051460853421,0.4883258401603794,0.6742925849922409,0.7236294622235145,0.6437064723081825,0.35970038036284435,-0.19519050925231385,0.35806597904377235,0.3154753136989179,0.1803782071844794,-0.27435490367413506,0.7687391866685693,0.759478323576046,0.7636339844580025,0.7863927373111609,0.7768959784226808,0.3725898821803869,0.2844073417775743,0.2709848452512036,0.45250102433397665,0.08053617284588421,,,,,,0.09625610448516597,0.15282521015211947,0.14422194314337222,0.1268945977346272,0.10747266636668207,-0.5457821753444994,-0.5673010924518322,-0.54395892938839,-0.5392526357848935,-0.5538712573940632,0.49892727128083836,0.504903305735728,0.32840791015688486,0.5090849870457539,0.2804657454971411,0.32429531634008923,0.3238389203820057,0.4369695591138584,0.46950320987356187,0.32013670370128944,-0.3860978934512489,-0.29542252558136783,-0.2661654025012372,-0.34275608903759536,-0.38679080222112594,0.7776685797244504,0.7981164571809021,0.7263675133171575,0.7289110434095343,0.6774133051971277,0.871381448180768,0.9242844731582248,0.8692792867452871,0.8082267343150571,0.8475691589581444,0.5033526288380925,0.7086803743698503,0.6854307297551656,0.7616857570026739,0.3118373108090585,-0.47688980700433947,-0.47646124528154443,-0.47576735580403984,-0.4763683811677877,-0.4767870875388358,0.2647361934468424,-0.22906298952969317,0.043524654907699634,-0.14393485852980792,-0.34707904091636377,0.16743451932565556,-0.3093816055192493,-0.05844819457803374,-0.08792275801932603,-0.456623954280984,-0.29954239978699837,-0.3608348204909204,-0.2900382091333762,-0.3229393169310564,-0.2901052037251812,0.5051699981455015,0.534588106412346,0.5173493687751104,0.5065557544551643,0.5232273029036154,-0.5101371112949002,-0.5065015851211643,-0.5267643463464777,-0.5168540249655353,-0.5264274933176767,-0.42872801799411553,-0.4012531500328427,-0.42797782034394016,-0.3614952262314244,-0.4734569134303743,-0.4388886637919658,-0.43911192745487804,-0.44056374708112966,-0.4408261897784942,-0.4410034811414154,-0.10426091023249184,-0.1238638659974527,-0.10492131652433168,-0.07795002105835169,-0.09321820779109502,0.40857928514882713,0.5073003643459015,0.5062027238952858,0.45952676413217586,0.4886056965412028
7,3,0.2318443958830929,-0.1560976232810476,0.2577791712201365,0.09420628941159737,0.26355750418755963,0.17110447661775874,0.2853676346350307,0.34482838967783,0.29188610496232414,0.051890300868403294,-0.36358548466651297,-0.018901526205089336,-0.022360924637999657,-0.14762836149956726,-0.47839230646853115,0.4798752248329421,0.4701746787852604,0.47486652423113107,0.5010051949192311,0.4918822864003094,0.11889874311011417,0.06078257265363185,0.016153931522415843,0.20590157102806217,-0.054951868867238574,,,,,,-0.1558173999350827,-0.11687276885760811,-0.12066706022884155,-0.12172250776126536,-0.15273832193933945,-0.49924221329144913,-0.5299537409714579,-0.49406338141802686,-0.49688359478371247,-0.5156086941830766,0.3745929503355343,0.3989267121495542,0.3775635237849767,0.38293380313712055,0.46729931582735973,0.4780828228354398,0.5029650053915922,0.42460247856398836,0.4267730852181617,0.4993461452560437,-0.26581432070113165,-0.25050170010452577,-0.23054946397431353,-0.2750635711155358,-0.2917297442417244,0.46087999633468013,0.45994338068889506,0.5269141613860355,0.5333887816643057,0.4775016668937715,0.6980967667539735,0.8274963240032662,0.8415437508444629,0.8687625805239528,0.7463728902030543,0.39416248130820986,0.7440204823413655,0.7713027945761913,0.5544078854734944,0.3821760240655898,-0.23106522471681812,-0.2308248317286914,-0.23039206185222305,-0.23085196366310234,-0.23113588176299915,0.409204285908195,-0.03430378217413588,0.0013197726624311068,0.02222475114818878,-0.10507788212079094,0.3790138986210456,-0.05926417881916257,-0.08775767132929646,0.12671516467247468,-0.18224638383234115,-0.24551990124943335,-0.32357746322899117,-0.24490685910064536,-0.2677705416429301,-0.24107231026840892,0.21373514909854274,0.23979985636761592,0.2212557926188904,0.2144862984333873,0.22701800527376814,-0.2588332819600203,-0.2508382149857964,-0.27842663334047923,-0.2774879523400451,-0.2795097374618385,-0.17380717911333532,-0.15517675204782422,-0.16401942967757588,-0.1116943823185168,-0.22098371842860876,-0.20078045107672482,-0.20069227708361792,-0.20202159162009425,-0.20211699394342975,-0.2022325679190229,-0.2052639515528598,-0.22021405093977875,-0.20407954228833658,-0.18881100416450458,-0.1985458079615201,0.13462574519281723,0.189461793267382,0.1919607642829675,0.15972842982340463,0.19052515360852174
7,4,0.21873352964728632,-0.14719011511524727,0.2322804763200047,0.09798956904094847,0.24255720016543125,0.5527342838853405,0.59530696666091,0.6399432481336667,0.6343328820818513,0.44509314096532027,-0.04734288217157312,0.3070880602003896,0.36047035511106884,0.21209195428276217,-0.17943707753515437,0.6396909374174473,0.6305125622945525,0.6341085714997996,0.6538285710008483,0.6429229307976176,0.19332335701146786,0.1635195362984373,0.11810615712900663,0.27608416019849635,-0.0252973916871293,,,,,,0.07619352428836201,0.09618290838986365,0.09237685148908947,0.1030303714293096,0.07523791180701878,-0.4038859449571579,-0.4219076664746946,-0.40204927283848635,-0.3926512798209878,-0.40843601769682425,0.2760379425450039,0.29057691194356705,0.16001187279493256,0.29578372726043056,0.18114194659896976,0.1740975705741813,0.1911244574351203,0.2183307896351011,0.2460850776813116,0.1855465038388724,-0.43732313120288624,-0.3628823787089097,-0.31959324991630345,-0.4002879768758889,-0.4424923086539496,0.766471146705406,0.7505269701659746,0.8230219786706413,0.8270186160863746,0.7861767608953175,0.8742245618121767,0.9254213697949314,0.9429502723900078,0.9060133252287127,0.8872498551603297,0.6911588718189408,0.8726146461383711,0.8329348224084343,0.8397527018307664,0.578831026951811,-0.48076244753772635,-0.4806290952925165,-0.4804462323076335,-0.4811215455734743,-0.48084317663027587,0.42288067943477636,0.02818583736881064,0.16167084320337632,0.08351109098631948,-0.08720951449966607,0.30245358539788225,-0.055480567814192305,0.011319209943841058,0.13954791485127815,-0.2123614447001374,-0.018168824340097256,-0.08787978058163115,-0.009221335442503475,-0.04286865363269565,-0.008357593459968005,0.4252051824231271,0.4409634034208212,0.42889080890747533,0.4267033834248499,0.42825729286568703,-0.39605938354507564,-0.395041571607502,-0.38691494702067186,-0.3888648871210436,-0.38724981611324183,-0.2540336837303572,-0.24350690597239089,-0.30238766524139304,-0.21148569929579208,-0.3089721412813038,-0.43174373711043,-0.43164438922743,-0.43286281241324764,-0.4326325168684386,-0.43290691040195894,0.12801641051509138,0.10857040230970638,0.1282615389107724,0.15035604319735774,0.1366583409874732,0.5204482612254725,0.5604080172469357,0.5642768998903877,0.5408181633906515,0.5686181905920378
7,5,0.42935118539493655,0.059549427438929214,0.4420298961230146,0.31108373549181345,0.45007446953251984,0.6207820429254486,0.767030246029659,0.809483392855485,0.7527859806833845,0.5016591193146789,-0.06969413007957703,0.4637458835158359,0.4494675257069113,0.3079021155925653,-0.1567603895190417,0.791090370489908,0.782002771489726,0.7857107736583875,0.8058962415702373,0.7955638626824275,0.3809948127497911,0.31020233376945305,0.2942803811436747,0.45896152824343317,0.08017039191577191,,,,,,0.1845142672650354,0.2300561575326251,0.22208056317483538,0.2115553686069488,0.19297374989781735,-0.4789245798079258,-0.4959044671496424,-0.47794866505609845,-0.4699032732593884,-0.4826572675842622,0.43936965303921593,0.4417363231088933,0.22500106952363097,0.45562016331487176,0.15383489475846313,0.1849534758969298,0.18250422458714022,0.3323806758540201,0.37498765818793456,0.17786875512847689,-0.42639340959397454,-0.3205584843360021,-0.28279747046973003,-0.36910393716686496,-0.4206928949810935,0.8690437834167327,0.8797366466051545,0.8185797242182761,0.820567430466608,0.7783974178243909,0.9020949709022981,0.9244673043634571,0.8769830322689427,0.7953798116390899,0.8644735809798826,0.6116369279589265,0.7447372083640356,0.693428964425565,0.8513828972463074,0.3934667632139571,-0.56136599540955,-0.5610276256487194,-0.560486205153139,-0.5611558515063872,-0.5612711392229377,0.2523835144534289,-0.195254308416426,0.09128643235712852,-0.11901305855012234,-0.3288000972198266,0.11699272182784803,-0.2971847484187413,-0.03707450652978417,-0.08414485450801812,-0.4561155664628702,-0.1899777579353259,-0.24784644055959548,-0.17811822203805883,-0.21361212747520963,-0.17911599734208217,0.5721255936035436,0.5956184878401167,0.5815965661014431,0.573796837343052,0.5842999120805055,-0.5454920775097205,-0.5449344293881675,-0.5490311145905813,-0.5412318143558135,-0.5475542226880683,-0.4423616318719219,-0.4197286962795532,-0.46707373327962154,-0.38646536219301764,-0.48838785904245907,-0.517417895210535,-0.5176126111275474,-0.5189095149514578,-0.5189955551624958,-0.5192410699310397,0.03373704906983621,0.012448360035632211,0.032768411464164315,0.061691916776249855,0.045033244068978684,0.5499049187453047,0.6328711758627467,0.6330491994303497,0.5934763979301699,0.621370274297695
8,1,0.09326904262677471,0.065085659779194,0.05520926775633128,0.012244117634460316,0.09518579001942729,0.8160541550212963,0.6512811260898468,0.7835677801111742,0.8338080554362594,0.8667516954707917,0.9011217166082848,0.8620849047255431,0.8736625983839728,0.9073874765292774,0.9136386608227807,-0.33809900719660546,-0.3100016641618182,-0.3209059043247888,-0.32254752983275736,-0.3348507703076391,0.5967898945216554,0.8104947618594409,0.7814792654281132,0.6559665833900027,0.6580759905940621,0.10147031864172407,0.19778771015295304,-0.03410048073391003,0.4995779792173839,0.47003589663436274,,,,,,0.7304589631869242,0.7615041676110988,0.7298717369660358,0.7497854038565689,0.7617334911132694,-0.0054045078648041756,-0.051885839685247515,-0.24261518340630261,0.05798525061183668,-0.2285296698272581,-0.4660829780666975,-0.4069869539320865,-0.483250897715378,-0.41606307369600093,-0.43050656134181553,0.4040496143041139,0.1714373470939201,0.041887027049432035,0.2392056644632098,0.21260129846470976,0.79105662129409,0.7000728581049676,0.8227950722040945,0.8208422072876962,0.8320288950943938,0.36896482145257226,0.3104246192165663,0.495889365411587,0.43231711940762585,0.35692138724545086,0.8508428411165834,0.7954209778607482,0.697189249161799,0.8029757234150559,0.8116360734939886,-0.8749268179042899,-0.8746645070778682,-0.8741295002111722,-0.875400048883912,-0.8754312451500392,0.11181069373240682,0.1327991265490054,-0.04976469861707855,-0.0033882018497728428,-0.10901248225381188,0.06000446880279309,-0.0711814447732757,-0.23026685123787338,-0.06993878675483378,-0.34803904105561156,0.500903668804115,0.541307943498091,0.506341182723461,0.5140416468462404,0.5044201807080382,0.9688590162609226,0.9611651819421316,0.9634678009810401,0.9682176137854026,0.9630779779969408,-0.8392321021211158,-0.8404796976517992,-0.7297212042030865,-0.8070655363557382,-0.769748500122327,-0.6942293903214365,-0.7702697279772543,-0.8688280701158582,-0.7810369878368635,-0.7245868855585582,-0.889277358500685,-0.8868704303454722,-0.8864580963635666,-0.8870600220687088,-0.8876805808393566,0.6867419922091903,0.67323995615713,0.6832424896087951,0.6975571250799423,0.6804798172114924,0.8140787483553068,0.7361196613722137,0.7480552795223486,0.7835719194927959,0.7914972425385257
8,2,0.1851691768739976,0.1489937580918519,0.14818084702968204,0.06105343847850775,0.18716289892778692,0.7754207377759923,0.6810568342752478,0.804026559106627,0.8288344581976004,0.8319989625277003,0.8643669607927142,0.8750885929112738,0.8569213950765323,0.9012526702104643,0.8993319333938077,-0.27836224232574147,-0.25069076749625085,-0.2612657782383083,-0.26281674782328035,-0.27448873543468855,0.6712673183961355,0.8622505830630546,0.8392290477438924,0.7260113843771763,0.7195338546372695,0.16415375931828868,0.23726309925020916,-0.04149876669058794,0.4840172458276164,0.49580450615590743,,,,,,0.6800345526203186,0.7111900143094315,0.6788978835231967,0.6998216864172229,0.7117967881507701,0.08839875949530296,0.04060920870808937,-0.18754719695989563,0.14935363955433245,-0.20623768150453814,-0.4447552542517552,-0.39629108490033205,-0.4062343270647135,-0.3336786084211516,-0.41432391974804084,0.411707178125569,0.1823074809021039,0.047346824939360155,0.2508629455855793,0.21742022710502296,0.7956759356014008,0.7210290853141735,0.7978466598454196,0.7932044835018983,0.8004856217720103,0.39219075319917907,0.3373011580992459,0.4784474543566599,0.4161505674684651,0.37819554427476487,0.8229593651459579,0.7848130990764689,0.7103359954976491,0.7901786129441627,0.7636125007907523,-0.878198393695925,-0.8777571069316241,-0.8774524695502659,-0.8784020294669688,-0.8786339900108642,0.11742669114271742,0.0701771782114744,-0.036361299755921506,-0.04205942718327149,-0.18209911739864237,0.09230198294645087,-0.13132428894983184,-0.1967094332964856,-0.09579473374505065,-0.41237852333849134,0.41844154882471263,0.4601815836454115,0.4243611081493017,0.43197929300402915,0.4223045307701634,0.9815664166526333,0.9781558914044686,0.9789209678273239,0.9812304482649863,0.9801078203845316,-0.8675362415294563,-0.8690986588734306,-0.7768563354953049,-0.8405869023291128,-0.8107910942018317,-0.7456753956602729,-0.8077057868379474,-0.8908590022708587,-0.8166131320959944,-0.7719540847419988,-0.8943731684271636,-0.8926694808943858,-0.89207356354652,-0.8927712989345449,-0.8932589935180826,0.6207065502409049,0.6060239825667734,0.6168631154299494,0.6317889517509536,0.6137835342687522,0.7759087254961561,0.7250463459243925,0.7335953298829302,0.7597474199402685,0.7660069402085438
8,3,0.1802012037178653,0.15253235250515873,0.14315313847770672,0.08584779720519653,0.18169537653116485,0.7731304574530224,0.6591706322014842,0.7900029873197396,0.8178493537411903,0.8268986096573051,0.8631576588761186,0.8689980486502203,0.8460512530573776,0.8915012496712841,0.8927162389680013,-0.3010050679703056,-0.27414647625139654,-0.284563863354965,-0.2860595735217655,-0.2974709783685774,0.6636780317227953,0.8598049232414906,0.8346545677937726,0.7222591362173446,0.7220081772834237,0.15248177567835752,0.2335064420249804,-0.02042719324128628,0.49115162036508897,0.4869075077370215,,,,,,0.6962744636342002,0.7259853773539224,0.6951518273688518,0.7156047162300557,0.7268429947924143,0.08605751840884857,0.040260463017662174,-0.1646737128841036,0.1452046037645317,-0.17738650523876953,-0.417735926260393,-0.3677501695045158,-0.39854736664265134,-0.3322006072319099,-0.3866226858064086,0.4125829382513557,0.18151090093208522,0.04649955019386043,0.25047193515409605,0.21872266248335637,0.7811259984480503,0.702688318865058,0.794853685989089,0.7913000992848831,0.7992382552250774,0.36909539394953694,0.3154016788996492,0.46591086429895223,0.40054417550833965,0.35593440350387606,0.8129361477958907,0.76848224425935,0.687924058026911,0.7755237822565522,0.7598582843074989,-0.8764486967819423,-0.8760294726299618,-0.8758410521930202,-0.8765701686172997,-0.876895288858285,0.09278577911784613,0.05553122549255263,-0.06213140193185884,-0.06149743088527293,-0.1894134450962941,0.06770938147244221,-0.14511591369461496,-0.22099521455841886,-0.11671676559592048,-0.4156254723690702,0.4268232512015746,0.4675187148769486,0.43310152307051764,0.43963371164266496,0.4308425026922832,0.9780737012261288,0.974457954471312,0.975204264668198,0.9778519201608773,0.9761826453929648,-0.8679409664988764,-0.8687053607667501,-0.7751206187348929,-0.8424544349319554,-0.809304999130283,-0.7499805396646,-0.8149887656136401,-0.8942512125808229,-0.8243039515682284,-0.7739575463770243,-0.8934330928434264,-0.8916519394717126,-0.8911078167166302,-0.8918492141363019,-0.8923150098735655,0.6264744071275223,0.612485383267879,0.623042929872758,0.6370458679166585,0.6199650061458684,0.7676048771017134,0.7078651028449807,0.717243391922261,0.7463557997703695,0.7532826346935121
8,4,0.09618651106743115,0.07630170369807943,0.057845164403770855,0.03648381324356531,0.09770332479486843,0.8111931380667585,0.634395529038444,0.7731040819825733,0.8233120415934537,0.8603468986665322,0.8972906055620983,0.8552845498464423,0.8641031322110099,0.8978354403600919,0.9059652036755274,-0.35264341730066207,-0.3254671098359192,-0.3359890133428254,-0.3376069683923073,-0.34951034152084226,0.5960477750513778,0.8127589736517155,0.7823110484656532,0.6579489369571602,0.6682450152023791,0.09691815183262109,0.19873723605740568,-0.018923016157803785,0.5040166837679284,0.4653713947093119,,,,,,0.7413076461372919,0.7709679805302161,0.7404650503644086,0.7601659948958229,0.7712546775875478,-0.0002802408074942253,-0.04492880426759682,-0.22236413500000363,0.06044462337645795,-0.20688711208860622,-0.4464678823721473,-0.3877717778290872,-0.4726985183827985,-0.40901951475284015,-0.41158546765396986,0.4049478484100577,0.17118699831130257,0.04131516859956175,0.23926977162731222,0.21384449773292913,0.7796372791936447,0.6864305505222562,0.8193027000607622,0.8179412423677985,0.8293577969721172,0.35252165809292757,0.2941609095785075,0.4857730226888335,0.4201155395867595,0.34084227001782785,0.8406446768287754,0.7814598494013821,0.679568669697574,0.7907244665446865,0.8054812157366726,-0.8725334333456334,-0.872271544023143,-0.871795962751369,-0.8729589981984591,-0.8730241940785914,0.08828266754044223,0.11181378830743671,-0.07447761922201157,-0.026603268931996382,-0.12389941059441911,0.03840819667281148,-0.09065237082007704,-0.2520530359998525,-0.09328995014427144,-0.3579493348607192,0.5023779345398248,0.5418809997621044,0.5081241150507787,0.5150496743235946,0.5060348755684075,0.9667216285356718,0.9593982431118968,0.9616620898335431,0.9661533919541099,0.9612651903481171,-0.838504905542198,-0.8388454725246994,-0.7285184404262792,-0.8081393743116094,-0.7685177035495809,-0.6985491014142284,-0.7758266470713144,-0.868848561550758,-0.7862502507252489,-0.7259851483592188,-0.8876408132371993,-0.8852746920073935,-0.8848798628388079,-0.8855172062660714,-0.886089823178954,0.6855868309841169,0.6727255336908462,0.6822855797229087,0.6961215340629654,0.6797797979798108,0.8048444207542347,0.7216428244479196,0.7340770979905862,0.7714382977232457,0.7795810134759653
8,5,0.1503519383115267,0.11173769728181648,0.11288490368737258,0.03205137439681449,0.15211215390153898,0.7948236381429364,0.678026151232998,0.8027155466884041,0.8370479457151782,0.8502214253600354,0.8808049672165562,0.8742112387667826,0.8680058913955099,0.9079845265337109,0.9095205265691522,-0.29500034236895334,-0.26744517696015624,-0.27805739372383886,-0.27970789140794716,-0.29171675286825605,0.6443965316954897,0.8442548879713553,0.8177070115003425,0.7003071749889879,0.6940193234603055,0.1457378566792069,0.22499880744260325,-0.04231000370769422,0.49129538785502713,0.49170882239443015,,,,,,0.6972959705810874,0.7284555762839182,0.696407288567234,0.716994150309558,0.7292345450953563,0.05042742285385349,0.0029572100842424343,-0.21570696915523002,0.11407800129448609,-0.2227029938628795,-0.46041103811752837,-0.4072185690716972,-0.4399113890791875,-0.36796895089237625,-0.4271312927523665,0.40877949983601725,0.17788293452865622,0.0454079687996628,0.24614358704521888,0.2148504819456185,0.801217270022868,0.7208117026133416,0.81190253415468,0.8080950658559362,0.8168723383469944,0.39044633763475556,0.33388161817260864,0.48899710872786273,0.4278783909228818,0.37685231532346086,0.840445329329541,0.7970248528462808,0.7136543253300411,0.8027050153349371,0.7872560921708984,-0.8825765723206094,-0.882221152179659,-0.8819013556065434,-0.8828915416517136,-0.883034187231617,0.12216172408849979,0.10192518809389473,-0.033767361177348576,-0.0205434165428815,-0.15048051797231365,0.08543714145416337,-0.10191376964267596,-0.20464090683926517,-0.07983720511861492,-0.3868368079561595,0.452248319742933,0.49342034979645244,0.4580188127614204,0.46558008174584875,0.4560189488886237,0.9800552412752394,0.9746919625459306,0.9761100631968133,0.9797140139237307,0.976352398062698,-0.858438341161895,-0.8603883743913872,-0.7612828277942563,-0.8283580325525868,-0.7961392457037255,-0.7235627880724165,-0.7904225658209827,-0.882165081189433,-0.8009850120288053,-0.7522547010322935,-0.8975873827675707,-0.8957371501321925,-0.8951621352826615,-0.895802233550254,-0.8963274031162562,0.6508035010552824,0.6359492893137707,0.646901383374214,0.6613772208155825,0.6435191920300642,0.796787869846295,0.7375355139754762,0.747188245592181,0.7763260258322402,0.7830630230122627
9,1,-0.49237051471478477,-0.42636925793867775,-0.45438455064454364,-0.08762955404755801,-0.4651224980968778,0.4058224629678544,-0.28355102173395963,-0.1558028956494879,-0.01748164639342642,0.5927972058729026,0.6293550191598708,-0.2602192600569524,0.2312474085314512,0.02265503716978734,0.18922433843520325,-0.8118683591069871,-0.8239190251518145,-0.8060522882515766,-0.8502389929232195,-0.8451726394815928,-0.09597401883427192,0.34885045287154415,0.265716680831829,0.1617655114198291,0.29133952262730833,-0.41320640228570715,0.08392987795009188,0.5167022468114584,0.5795807873735787,0.13701062035435352,0.6065680754755917,0.570148522977435,0.5883550902871412,0.6619881453791848,0.6102039612151563,,,,,,-0.3459463588382281,-0.4241006691541911,0.1301562533951951,-0.360606885201352,0.21709952935801624,-0.3345438191605439,-0.250964634511035,-0.3016782674770795,-0.4475343710649531,-0.2907900841719959,0.2026458304302059,0.007667333955531763,-0.03410846901377296,0.08179507088227089,0.11941795374854636,0.2990617643101926,0.1260589060081807,0.7009783229866019,0.7173566128553368,0.7398469652264602,-0.2075170622808724,-0.5773789067817847,0.36598129173054983,0.274521397971472,-0.32678963217240753,0.5471168911517652,0.3335817538904211,0.0017017338028151308,0.3623118670904555,0.7704932362674634,-0.405821194628865,-0.4014038241388471,-0.4061815146554415,-0.40444336388433544,-0.40426195962553235,-0.5902579781480788,0.0037585371370254528,-0.6853970556387363,-0.28891564981160656,-0.008905782423163755,-0.6983218733788439,-0.023116328083384596,-0.8017385455119528,-0.4195515703464108,-0.035460172414072844,0.8698674065673946,0.8702645772483442,0.8709947131064746,0.8707115638585029,0.8694947228879374,0.43939924657134966,0.4240752702152977,0.4464752747342702,0.44578291284207205,0.4344005104496399,-0.167370939148896,-0.11818228249048346,0.04222509816136255,-0.15462844862426195,-0.01912421910299633,0.10081467987917092,-0.1191193810303166,-0.14284389255761654,-0.11670970512804124,0.056805229315823436,-0.41838409856836645,-0.4149430646442891,-0.41442567038805134,-0.4162348084712839,-0.41796620652858274,0.8465466869389306,0.8512000970399741,0.848452999079791,0.8498055526289295,0.8521402157466436,0.5676408999412589,0.2348851021958256,0.2583013802078957,0.3841965603063626,0.4086345850070259
9,2,-0.4856521211552338,-0.42265565739166555,-0.45077301233253597,-0.09405556496274814,-0.46026907930452277,0.4395014076446987,-0.24665272399737104,-0.11732773598257906,0.02272858012222312,0.6225454851258996,0.6605675544193039,-0.22476289287819884,0.27192758848101883,0.06506460069064479,0.2300832411293714,-0.8059489859761206,-0.8157219825935516,-0.7993473135615021,-0.8416091269529851,-0.8369398056123054,-0.07604320453955848,0.3660792127050203,0.2857818589452904,0.17602572044331966,0.29980177461195967,-0.4030419239512262,0.08500698815317498,0.4989468940773396,0.5838332135952734,0.15328144577892455,0.6375771969524852,0.6001060144570517,0.6177083278109996,0.6903281432157515,0.6395029182249132,,,,,,-0.3498662433324533,-0.4279535270013266,0.10359041372585853,-0.36097902987028685,0.19285624942308166,-0.3481773277940099,-0.26444562292244567,-0.329184487489496,-0.4679736476895171,-0.30440412513077053,0.21213099158410198,0.014213524894618135,-0.03153966320418866,0.08837092875299613,0.12442132565343789,0.3297494327681372,0.15577576289381212,0.717538029352773,0.733524091002489,0.7557713166436965,-0.17960873802894795,-0.5470987694121101,0.3843868253561489,0.29367840169221493,-0.2959673257239501,0.5777914039482772,0.3667188291100347,0.03839815933282986,0.3947849405598095,0.7901249049266984,-0.43291206205700417,-0.42864669591402715,-0.4332173890087492,-0.4316547867554743,-0.43145087757772815,-0.5583651056877166,0.023640558217847718,-0.6611590528792544,-0.266409078582025,0.0004833401542522209,-0.668068283299345,-0.014436755638459475,-0.7842749161901785,-0.3995570089360998,-0.03823490721065914,0.8687569286039101,0.8716706581595745,0.8700015805882316,0.8704170258153833,0.8683411247500565,0.4698619508058588,0.454160614082489,0.47579413002987536,0.4760292242771499,0.4646126678758634,-0.19789943607549776,-0.1498924702711275,0.01467182871515349,-0.18264541864329087,-0.04945057748785486,0.07518506633224198,-0.14538007323856128,-0.17664597834703177,-0.14235458559621317,0.02841734411794372,-0.44523542769015556,-0.44175985993957534,-0.4411361069412043,-0.4430556427394108,-0.4449460469186608,0.8488844135467527,0.8524186119107431,0.8505084094650895,0.8531451274117917,0.8540224927758401,0.596220284970818,0.2678952875617323,0.2917038321008846,0.4164848208590467,0.44081184149015884
9,3,-0.4953422626955404,-0.4301985239057162,-0.45710218340974307,-0.09162708399456121,-0.46807794158148885,0.4021382001642322,-0.28567999124462284,-0.16004579915305417,-0.02096215486364872,0.5896690683759309,0.6269667995519305,-0.2631707685795719,0.22800857070516378,0.020078849055611414,0.18629622305918092,-0.8142084661935796,-0.8259997688166902,-0.8082856364487405,-0.8524748886991995,-0.8474210588749611,-0.09943842360651622,0.34492438622897525,0.26248737363112407,0.1579417015099579,0.2849717541624974,-0.42143708954032677,0.07493555747010272,0.5121572778072244,0.5736255268467404,0.12912198902660355,0.6047055241502356,0.5678891299802167,0.5862290312753593,0.660073349057304,0.6082378358072521,,,,,,-0.3487322939103503,-0.42742726170370693,0.12708463545748683,-0.36264901331285193,0.214882312805857,-0.3362627336159627,-0.25234385365774337,-0.3036206034903821,-0.44970154803661666,-0.29223310984465156,0.20504101639335148,0.008247679909226147,-0.0334384588122123,0.0836903630276975,0.1212902251108533,0.2953516306772699,0.12242359448478557,0.6971135476731897,0.7135378840253024,0.7360476025404941,-0.211868487967092,-0.5805055673746833,0.3620150591657566,0.2707815622306322,-0.33120348038274927,0.5457172197657757,0.3321990143107213,0.001779980622396371,0.35946282524293904,0.769701365680327,-0.40072823928331824,-0.3962814293722903,-0.40109809270675467,-0.39933640861535546,-0.3991727064386621,-0.5879875969934458,0.009593440300109002,-0.6828768637579037,-0.2836062678739164,-0.003564331559121614,-0.696163899082447,-0.01682486583924847,-0.7987178695388495,-0.4139264942606886,-0.030562155761067578,0.869998944343102,0.8704555580191365,0.870943648930011,0.8709218284110721,0.8694544785848892,0.43590256435027386,0.4203429192327346,0.44268503621142985,0.4423189349962042,0.43076824981819095,-0.1636562000991877,-0.1146694828590118,0.04632966393997073,-0.1505064677040997,-0.015437464729117334,0.10432525033943774,-0.1158564035774321,-0.14093332773263478,-0.11353992238624877,0.05974492692881883,-0.41340614846092394,-0.40993333085113326,-0.40937145613073245,-0.41121932124779637,-0.41301395285816156,0.8456234809534519,0.8503547842986752,0.8476404527909511,0.849002976097787,0.8512977524836549,0.5652602199244422,0.23179494003762136,0.25519374867997013,0.3812921093025643,0.4059636689274555
