f_id,i_id,2_1,2_2,2_3,2_4,2_5,3_1,3_2,3_3,3_4,3_5,4_1,4_2,4_3,4_4,4_5,5_1,5_2,5_3,5_4,5_5,6_1,6_2,6_3,6_4,6_5,7_1,7_2,7_3,7_4,7_5,8_1,8_2,8_3,8_4,8_5,9_1,9_2,9_3,9_4,9_5,10_1,10_2,10_3,10_4,10_5,11_1,11_2,11_3,11_4,11_5,12_1,12_2,12_3,12_4,12_5,13_1,13_2,13_3,13_4,13_5,14_1,14_2,14_3,14_4,14_5,15_1,15_2,15_3,15_4,15_5,16_1,16_2,16_3,16_4,16_5,17_1,17_2,17_3,17_4,17_5,18_1,18_2,18_3,18_4,18_5,19_1,19_2,19_3,19_4,19_5,20_1,20_2,20_3,20_4,20_5,21_1,21_2,21_3,21_4,21_5,22_1,22_2,22_3,22_4,22_5,23_1,23_2,23_3,23_4,23_5,24_1,24_2,24_3,24_4,24_5,1_1,1_2,1_3,1_4,1_5
1,1,-0.25170185520824306,-0.27145423947700253,-0.2758401548742686,-0.24062922163305012,-0.23735538854836058,0.8773415686135253,0.24702119366835762,0.27124071489019497,0.7179061586756817,0.949755419032906,0.609197613583096,0.26196238712503006,0.6884718937010919,0.3765808856468402,0.40725561704533275,-0.08240839382212406,-0.08238697493940084,-0.10376356963145361,-0.12688775436693933,-0.14464313495032766,-0.01266775015565269,0.25112251071786806,0.2080240183736295,0.10555801213305505,0.0800866977319753,0.21769368661468036,0.322260634424271,0.24508493369213702,0.7726106307068231,0.5809694281261801,0.7974187424411088,0.7923375580390672,0.8066505402911388,0.8338412870538837,0.7878110652302784,0.6936105532827297,0.6744263628785873,0.7091125561703048,0.6651120351367648,0.7513915597702258,-0.39391439371181347,-0.32193703101077564,-0.4659878169924585,-0.41887179071768665,-0.4298066200175563,-0.6455821199773086,-0.5724293008173018,-0.633801896360223,-0.5715923707369397,-0.5889725325367228,-0.044776529238882645,-0.029858734603185555,-0.1462880553758421,-0.13418864107155803,-0.09735757705065629,0.7866868767631386,0.6835365887478863,0.9425431398913245,0.9544526578127068,0.9344562137761303,0.44501989053767654,0.3209923509129422,0.7588919693016601,0.6519954814723506,0.4599741954482601,0.9214347877334711,0.5107727556851678,0.3960417652411832,0.9297349571704611,0.8820928358252039,-0.6982077888795208,-0.7013917800532772,-0.6923397089074705,-0.7104504502599904,-0.6945748973918873,-0.018683628924909934,0.2534320458454602,0.05609833929744701,-0.0784595334238205,-0.1935520480567432,-0.13891331736107726,-0.03658617883189086,-0.2041866020621168,-0.21852697508738017,-0.1566547794124593,0.7437946661448029,0.7848091487015036,0.7983195605890419,0.7263930817747374,0.7231473047927386,0.7847595760880429,0.7491395921423561,0.7707828349027999,0.8099556362481516,0.7484348671614598,-0.482993745895935,-0.4944560540788294,-0.41014431000607576,-0.45494070041236334,-0.45253043075238697,-0.3076824284409192,-0.4015195305721211,-0.4746635774668717,-0.3287936496762516,-0.28581133596420005,-0.6919034662256294,-0.6609405498868979,-0.6743478013465092,-0.6782203518074539,-0.6744435152666783,0.7440246116087889,0.773761707323926,0.7517567452175423,0.7818319374464435,0.766021304259633,,,,,
1,2,-0.3199422018729987,-0.3337791603693272,-0.19291117885818698,-0.18103901487038865,-0.18863453332118696,0.6371200552058799,0.18603773269095925,0.6725115069505071,0.6329716220968069,0.6587647688809171,0.3269822695952136,0.2381544047938946,0.47263623788686027,0.17509529578440985,0.2037759701708597,0.5067457816274139,0.5147524471911307,0.4983013252078672,0.4770338248634327,0.46600883072321664,0.45520640997021955,0.5587979474228789,0.5810597418220176,0.5124726701045065,0.46203651457574746,0.11804757836380997,0.023291217974958922,-0.019163265810205665,0.6863531792972304,0.3788232581286959,0.6711091263716207,0.7527564283416617,0.7757979729980313,0.7317349336204481,0.773313987452897,0.3626172418487279,0.3477736261466229,0.37577363746697423,0.3364227056846718,0.4213495870902666,-0.398510996986317,-0.4686088353462401,-0.5326461979325066,-0.24247042887609727,-0.5359779155566482,-0.5716063330088563,-0.5094473746798154,-0.5847556267981644,-0.5526421915555599,-0.5285799820253185,-0.11740097629150203,0.001736164543773011,-0.1121027662698606,-0.14587970268891048,-0.10236078162883544,0.9443056918672776,0.9492992768102201,0.7735214123866115,0.7800188492751644,0.6322003945600764,0.765211370668749,0.47297818164790895,0.5129937217907631,0.4995316082671374,0.7799913125744574,0.7294197954206609,0.4912638055241152,0.5612249914201809,0.7590253177446952,0.5642377462147087,-0.62860556113182,-0.6304762688791175,-0.6252997332018659,-0.6352214475794296,-0.6271975090787514,0.4548569457516367,0.04961702040551119,0.27363853827009343,0.06796415558480051,-0.2282636246623253,0.3624644820555538,-0.21343575101215206,0.05865634038062817,-0.07090193810908696,-0.22959141414631712,0.41968392792577236,0.4598249947491623,0.470125622431407,0.4054091712320367,0.40344179241020195,0.4407127111824012,0.38884378679007436,0.4229474087457066,0.46717423778023615,0.3960067241507529,-0.49184349934266214,-0.500538091018083,-0.4422928254386276,-0.464527288054688,-0.46801547332555504,-0.3764202229247886,-0.43852653946488274,-0.4991876269257509,-0.39397552333763497,-0.3739052943206316,-0.6173710224501043,-0.599653349594262,-0.6065498048079228,-0.6082353010163417,-0.6063112217044258,0.46142962700975887,0.4885902174399601,0.4745287491677209,0.4996026224260246,0.4813523703352821,,,,,
1,3,-0.28857398636148157,-0.3029318657508209,-0.18022875237701497,-0.21173785248834487,-0.1802742303421363,0.690815490352235,0.23318626499774409,0.6565935500523578,0.6731037344118197,0.7190213409657745,0.3779417464316561,0.26471583901209184,0.5402858747865527,0.2185710252554297,0.25757909342250773,0.44292034657642043,0.44982589641395265,0.43133158812334926,0.4117049424231255,0.399310273373237,0.40509781885430707,0.5332033828692618,0.5451277373662138,0.472590481950677,0.41566011791036406,0.16126359266565005,0.08552477934621172,0.026541226966845022,0.722902718054596,0.43559418694728036,0.7058485202634431,0.7768248265176841,0.7936789691324709,0.7616535287905161,0.7925563081167184,0.3996266717415977,0.3869261329133231,0.4123753120410226,0.37484735209418774,0.46029448147555563,-0.4002946395502973,-0.4518126624367431,-0.5392905337615863,-0.2701132078254451,-0.546849024219549,-0.5958105114654617,-0.5330424479984934,-0.5982602073192589,-0.5569712481705189,-0.5505729852830794,-0.12052211094314202,-0.011121868014536629,-0.12923128511648518,-0.15731054983427595,-0.11469095498068604,0.9526870486882555,0.9449240160525159,0.8182516666765922,0.8249433345001024,0.692575286425047,0.7464368878403157,0.4762979257880696,0.5674266137647592,0.5485477925527524,0.7614974187011151,0.7776621523983486,0.5152117899259397,0.5519250585389377,0.8113811151553431,0.6212602068348709,-0.6588819373679649,-0.6604621745404977,-0.6551545791318987,-0.6658341753975434,-0.657087916359524,0.4016208851681541,0.08191167263866228,0.255900804649676,0.057067905878891434,-0.2226909243930979,0.3030391897975464,-0.18988140081928262,0.031104567928940008,-0.08479921862095963,-0.22267680305122717,0.461811248628226,0.5039752185694218,0.512645219062098,0.44688919324588094,0.44662694195777,0.5045633480088241,0.45706432474701597,0.48850877789973546,0.5302689254496029,0.46132230860441026,-0.5099273085241149,-0.5190943952064371,-0.4562302658126507,-0.4809997669775845,-0.48568579539275314,-0.3825247028361045,-0.4484892788000492,-0.51491912068654,-0.4026148262999034,-0.3820993391938414,-0.6462961447343392,-0.6276704667691351,-0.63512595326216,-0.6370914629085858,-0.6355539917566493,0.49925197426883594,0.5257446238191219,0.5116685467994645,0.538872219169287,0.5194989948352999,,,,,
1,4,-0.29134238699570125,-0.3139383795579642,-0.23803940359248976,-0.23624782654810694,-0.2189551442052664,0.8209985208198831,0.25985232450771023,0.5611926293872581,0.7308735264584573,0.8513137263928988,0.481384107931647,0.2775386059035143,0.6386281822762336,0.2992821290594414,0.3267607533673458,0.25166429686851166,0.26176454265549776,0.2418810632571795,0.22479671815730184,0.21166001823376368,0.28055334336933124,0.4552684405780234,0.45599297451239607,0.35543431804479575,0.3034878746923064,0.20330797505059395,0.19493615370775697,0.12864821131231186,0.7668262208082094,0.5209021624027881,0.7864674888025345,0.8155292141223571,0.8185106764304838,0.8198482813102883,0.8296055895730713,0.5133721293209391,0.5103072579652087,0.5182758026828203,0.49766215922139745,0.5598386183229159,-0.4201308504222494,-0.4376199289870808,-0.5497753166472157,-0.3465795896626209,-0.5509487115044145,-0.6487244336370623,-0.5806903883196068,-0.6482778683102224,-0.6050803189520717,-0.601393383651392,-0.1105449961871614,-0.027575693164092474,-0.15714038232649985,-0.16833261973614522,-0.12994062579322696,0.9389898018831766,0.8943372338200668,0.8924451290429863,0.8856646231451514,0.8125043142853896,0.6747820882963368,0.4492239236703963,0.6664067148673394,0.620368669650517,0.6755283166549412,0.8734681463016972,0.5412611730078708,0.5217937077833356,0.8957565092616286,0.7398931318602635,-0.7072111231373399,-0.7079921970589593,-0.7039321433246757,-0.7125712609083907,-0.705773984638459,0.2849578224747409,0.193182125490459,0.23545171930478037,0.07926921641274898,-0.1633125704119014,0.17333561718332313,-0.08690892538235317,-0.005035070867692504,-0.0680703207830522,-0.1867508646555378,0.5889135510744412,0.6251992020229127,0.6250593629330087,0.5774984666232656,0.5799782394425645,0.6276357843936269,0.5894175858262376,0.6154723437859974,0.6427614766759692,0.5955291192387356,-0.513784841987456,-0.5209682194919496,-0.4332957658287917,-0.47249161863899025,-0.4762742747004207,-0.34522740917598305,-0.4289396124432705,-0.5220296312413055,-0.38206601619136715,-0.3623362520824138,-0.6906538723057332,-0.6756600553832808,-0.681142266462091,-0.6823855809645702,-0.6819892059373251,0.6323782412315648,0.6501621520511346,0.6431771099530231,0.667697605393418,0.6494533409878134,,,,,
1,5,-0.30155721397464297,-0.32074916893948413,-0.24904429897835323,-0.2122681588060209,-0.22438991193359525,0.7979539551178705,0.22476863114483914,0.47614776756299326,0.7242073694712519,0.8508728263526909,0.5060354480921938,0.27468012445662815,0.6108780152012461,0.304575505750863,0.328619938370313,0.20738325277052794,0.20967533047923548,0.18921981433406398,0.16421439509863456,0.14802992863671194,0.2177966391513323,0.416511360137962,0.4011629449390006,0.3146503561838738,0.27835591211436506,0.18371894948348033,0.18937014668130647,0.11541051622286158,0.7723670722406297,0.512908772945126,0.7744898487272243,0.8189335479145632,0.8445475995649006,0.8307095019869265,0.8235864540495346,0.5667053124306954,0.5420623932265155,0.5869025084110154,0.5316432043237399,0.6356905647633571,-0.401390608896369,-0.390837929775514,-0.5120255451422615,-0.3348407558224751,-0.4890895320275015,-0.6308194079822078,-0.5583151324830906,-0.63832497253467,-0.5838509877945799,-0.5762937918206688,-0.06451647091895008,-0.00021201773176615646,-0.12096165973790773,-0.13105965645806372,-0.08730831035537068,0.9054952904165385,0.8503325356556449,0.9104103091263348,0.9265573574006856,0.8329206784622528,0.6365464315919193,0.43305846000363224,0.686310527666549,0.6163710885321347,0.6585749447651917,0.880391388421054,0.5358257376935731,0.5119263586017572,0.8998826186976838,0.7799762878670462,-0.7085905801246071,-0.7120710704030151,-0.7031247093213615,-0.7204204556654967,-0.7055490302745593,0.2166568222291121,0.15186492093627602,0.15792220690868763,-0.037544102622500075,-0.24480991800531515,0.10433018644921566,-0.1482669869621085,-0.09831227343945947,-0.18175242833360628,-0.20917759914598988,0.6130914926828614,0.6588384462620615,0.6774711541425602,0.5941967907018009,0.5882579024700779,0.6691411510896034,0.619763907582385,0.6500616594213277,0.7006015310625395,0.6224295047648672,-0.5310772078157693,-0.5434615756038066,-0.4743372506145116,-0.5062149275431185,-0.5071160088884863,-0.380254546838549,-0.4592219881887034,-0.5225446674561125,-0.39067816819575785,-0.35532322999232857,-0.7024729434472627,-0.6727776431123074,-0.6853430013584454,-0.6890824050570334,-0.6850892418690058,0.622459813885758,0.6581299229274583,0.6338570501109805,0.6659512993076718,0.6473667691982861,,,,,
2,1,,,,,,-0.2007607027882259,0.8642370449965284,0.4644199704633514,0.39121039375823474,0.005025103198847747,0.25008995546996093,0.5640500776690063,0.6658230504656738,0.5115397982327234,0.6426281356797953,-0.14251671307525982,-0.13914827293027487,-0.1326909417617177,-0.06975729241881012,-0.12421846167976258,-0.0246858246145798,-0.11296202457784732,-0.11773908388363763,-0.016732845565960996,-0.19459703188293287,0.3726869276126733,0.22166597265169474,0.19340836744486367,-0.12861620652884231,0.1221213828209673,-0.09429437748296432,0.07776237440699507,-0.16911227805336893,0.10905621502558971,-0.1431830061843371,-0.27533631893962673,-0.09429882485496055,-0.12093074412856941,-0.04396019408392271,-0.10051675224833079,0.29088675406197306,0.1876317755784933,0.2537610230531492,0.2947729333285044,0.2490665968550685,0.17563968892902926,0.16314366499406674,0.2969325474350668,0.3570275798422127,0.1184929778993492,0.04498362516827381,0.03208162490461497,-0.022663362679265164,0.03659813189758754,0.019215169353396844,-0.14705741117144022,-0.10804078109829218,-0.07380654319583901,0.020475331693058818,-0.18737057131597945,-0.12999134491154152,0.09087727369048859,-0.04535831246571154,0.23093282908950585,-0.00948707250694536,-0.18347829229004176,0.26777026611243115,-0.24511948062156774,0.09053469473581899,-0.11487304160971079,-0.05208085508113047,-0.035067631646514164,-0.03514896796931333,-0.03657102254427391,-0.05616291818290309,-0.09323349998171437,-0.18901621388192624,-0.29493206485278556,-0.055057735251831996,-0.19478876326572192,-0.0917127869366452,-0.15534269261278522,-0.33319056871427755,-0.1999246919729467,-0.2452569703437606,-0.3056809584588147,-0.19901823661331552,-0.316562578027086,-0.4035554015940812,-0.27558907245270103,0.17591335138091402,0.3014514515190555,0.1811485634764476,0.12722429338100272,0.07895716737559799,0.006958957318749737,-0.10520245161837583,-0.18537868257176426,-0.22271103615454702,-0.07132630806473705,-0.1074991687371385,-0.1958611641997854,-0.06900089905774864,-0.1831168405625052,-0.14188194769535611,-0.054223958209398626,-0.036102312472443554,-0.04688055927562762,-0.04214145228020283,-0.08231748063430877,-0.4354145866073127,-0.302995441738668,-0.4227724749305062,-0.3901014322776708,-0.3906441984735767,-0.12658560305454247,-0.3369829983246997,-0.18678554866705444,-0.2636775954135613,-0.24474143092182388
2,2,,,,,,-0.2197189191003237,0.7692096887305749,0.40173651329682425,0.21356453950583676,-0.08787102419005177,0.3327076194447274,0.5542015619164349,0.6208224698393916,0.42087959574511236,0.631387301264854,-0.22161827479380047,-0.23503724741633825,-0.2398949526104035,-0.2184747515131673,-0.22516113679923966,-0.04098538756469039,-0.010263178436218379,-0.10047375540803039,-9.038099213620754e-05,-0.04749118987479939,0.23838759150366984,0.1742801727671468,0.14349686829245034,-0.05289951760277911,0.07004115036268,-0.07970533918188383,0.019112848184567266,-0.13197001007334452,-0.01725792491457767,-0.13649381719174425,-0.12057366043867446,-0.043343067286328196,-0.08688213071587225,-0.043803033855146056,-0.033608903864717155,0.2349793539864623,0.22818933105172368,0.37651796377920244,0.17294495122734865,0.2895115249907598,0.22927913397466948,0.19229800647672768,0.38098473022806645,0.4040329790920001,0.19657091088695477,0.023822822753508888,0.002943368097702126,-0.038319544272754635,-0.010149962990449568,0.005371949023747047,-0.2287060194598085,-0.21366429740025095,-0.14222419965718514,-0.03773265844398477,-0.13242097427188693,-0.24727444794727016,-0.13134831142557046,-0.10360825424133058,0.1259920517677624,-0.1806459470212356,-0.17163889364756413,0.1116694386207362,-0.26276386927483397,-0.027857858000380764,-0.09066465380950128,0.0004287923734069832,0.007945373981825377,0.007810534067934749,0.002115382253479292,0.008397433583562264,-0.24284458882984272,-0.1811513045369435,-0.32099967929076634,-0.1871528684229009,-0.12597884513695412,-0.18909131014031932,-0.1261975746071684,-0.21986351687208572,-0.23712032740271094,-0.07726344980209077,-0.26446621335408405,-0.1600466865758754,-0.23775923239660046,-0.2921202029180001,-0.24536851818258154,0.11595062760445907,0.2227067625682847,0.16504481204319477,0.13620905350795764,0.08707902759200381,-0.03160663080686432,-0.0523979617208834,-0.1195250870333251,-0.12554448237037308,-0.09276109530219534,-0.07696486089433052,-0.08396120761675085,-0.046438860810344096,-0.13064214829893928,-0.11292759313013656,-0.0024378963897928596,0.014464272464954187,-0.003523558037739738,-0.006260684684905371,-0.018556202460291438,-0.3268167952793253,-0.31074869155730567,-0.33674486879359744,-0.33278941847114973,-0.33501090730015815,-0.14219507385348873,-0.3533667905035056,-0.2538504353084938,-0.23869361883199636,-0.2951023514617708
2,3,,,,,,-0.2297915344929864,0.8920486072657505,0.6626223607946705,0.40323241766267737,-0.15565353164040552,0.24709310889949876,0.6708005324551001,0.6577855902069815,0.41922767543001216,0.566253138493156,0.05373998621167175,0.04964875699503313,0.05237193289070119,0.07337588421144448,0.060685477124595155,0.14907540564834454,0.056173228492065186,0.01720066694047484,0.16185563769844158,0.004544400910680868,0.3594356981092379,0.10273580551084316,0.07241627319958133,-0.005427517967152795,0.09240310642735272,-0.1293880880791034,0.04078473252817594,-0.10615515162152378,-0.01949140723554854,-0.1274431937038243,-0.30807252780215433,-0.23542164859386716,-0.2455209960875897,-0.21943799679055576,-0.19069666442306676,0.3229712275438251,0.22792422119826283,0.2749956759800217,0.41045626600138163,0.23988292283533585,0.211157398524365,0.19514533290455682,0.26848812781148645,0.2987523061470916,0.1787120309884106,0.055984142474678866,0.051915873462388795,0.02081670378354894,0.03098126092672604,0.04728801244097525,-0.059373409760920426,-0.01026735147532043,-0.15251861700447233,-0.020633283215958143,-0.21200520004380197,0.039459232928531596,0.11749490800082663,-0.06933426206633975,0.23452971114614762,0.06181210423986294,-0.16043944706269286,0.2332446794331886,-0.10005805056126293,0.0416386342636299,-0.1362755070827233,-0.09449956088945255,-0.08710096873813655,-0.08622956340828813,-0.09323749507060164,-0.08638166168180383,0.005005786965695758,-0.3101685357139734,-0.2712835049703579,-0.18875315706011508,-0.2660108354618975,0.0499565938590919,-0.32338150022814793,-0.22503220291990034,-0.269295184156503,-0.25560063784872256,-0.41423557737910555,-0.2970216688431697,-0.3682465320083512,-0.44833569693261444,-0.4095314904937566,0.07739098352836948,0.18295211830427793,0.12836801642681872,0.10630795297500772,0.02330097784542151,-0.12086592415470476,-0.15331813518090787,-0.23183515128873333,-0.2375789993370616,-0.1830144437599175,-0.16789811697135737,-0.1675459944737263,-0.15707949259458998,-0.21097812595760512,-0.2141126497401611,-0.09282444200377027,-0.07258620740189947,-0.09292036117202951,-0.0958994167217262,-0.10924415057529369,-0.4630963110540587,-0.43184430715468936,-0.46894833305903294,-0.4592228725731917,-0.4644016775427471,-0.12130217516282693,-0.16695996657392653,-0.07636771351382654,-0.1314046538736775,-0.1754978822722577
2,4,,,,,,-0.024530935937880916,0.11238874967260193,0.11869116958969894,0.08026600186948385,-0.20128343729327303,-0.13314330934023122,0.11429323412297987,0.03320297051815568,-0.03548651234420297,-0.0992518727824847,-0.08782107804917683,-0.05742798742766353,-0.018049492743898554,-0.039007724626158646,-0.02345914440991259,0.19502472948193372,-0.0738506139182209,0.036235001334532835,0.023207274261346833,0.09127602851478744,0.045231697890860345,-0.1343957282956767,-0.08261267528545013,-0.15407190042873964,-0.1930375397892108,-0.1449374566007735,-0.06763332483628037,-0.07965163335264336,-0.07058931327458429,-0.10283115662078046,-0.28237558029785914,-0.264113567833701,-0.2285276697261167,-0.23672916475505357,-0.2469407867892044,0.1907495328991181,0.10392075773920662,0.46233888599732087,0.28712859992205286,0.5722810410947176,0.5151361755454517,0.5693536218418082,0.12065864393800552,-0.007506521058043392,0.46441943570648436,-0.009957482976685084,0.022323419032905134,0.01708953179714945,-0.017113448274883147,-0.014291589999621213,-0.17803982513935335,-0.1293671935282834,-0.2859118914708554,-0.24193972767286676,-0.3466528060216547,-0.08225322925529288,0.017584125762338254,-0.38013428955406803,-0.29908123520349705,-0.10109090455420455,-0.294339481914355,-0.1519649060770818,-0.17603434486396607,-0.25033417730978735,-0.3300224794799198,0.1283865670995955,0.13054920641495116,0.1316393926982693,0.12965899794427593,0.1272491470649113,0.0666214221601904,-0.17187131400640943,0.024222958224608404,-0.02463421578913838,-0.12521648115550676,0.1126631426284237,-0.17292175628900197,0.05715734878738188,-0.0432844442014888,-0.17899149351468546,-0.39993710253184034,-0.34195423763498045,-0.37088145329969047,-0.4091457109003629,-0.4149427467129747,-0.06409607663368955,-0.038538485486845575,-0.047714179478838936,-0.0592399181954002,-0.09427919407895224,0.09669938120829968,0.09127151378291909,0.05818292867352648,0.0490032087120581,0.10910408312452924,-0.056852937329104014,-0.07324113596387183,-0.07860192133980193,-0.06993239348941205,-0.07480206667973421,0.11798389421653332,0.12298871922466448,0.12123936741762142,0.12166915766470965,0.1153991189629826,-0.18004334994434634,-0.14415518147172546,-0.1735577592518993,-0.18258067187820037,-0.17544221505669633,-0.24857726354602994,-0.14355389907841198,-0.1794410090450902,-0.21525982218033257,-0.19967588501264766
2,5,,,,,,-0.20916857081924656,0.870219779409412,0.5989808227612881,0.4282187584854442,-0.08685302107203974,0.1882300827635649,0.6049133779132112,0.6363052147520354,0.4395083198066161,0.5546208513846473,0.009128132376575393,0.016136597721104207,0.02713932528128893,0.07191743643078485,0.03169226108457679,0.12890376889753963,-0.024876646425275428,-0.007882890842108248,0.10991663476459379,-0.07823689235083231,0.37672314337151813,0.12167696044201037,0.10403567085716181,-0.08927878390566346,0.07893197480590641,-0.12256224100590773,0.07648600147773676,-0.12788993819513217,0.06828343425512218,-0.1244203547576126,-0.352403634040664,-0.20951159302438205,-0.21614044384998565,-0.1641389235357802,-0.1868416041918992,0.3236460937106742,0.1878024824670893,0.2670689456613372,0.40758788578507243,0.28190474653367115,0.2274796000620729,0.2281404760999557,0.2543186298153768,0.28862404169298495,0.174565364297812,0.05273274478716927,0.05443031894296202,0.011188361508790878,0.04355087642288635,0.039647094822633955,-0.07076228277054453,-0.011044690989161277,-0.12285203746888951,-0.007883979943473118,-0.2529297992295132,0.004678759306864455,0.16034945251574007,-0.10158047448996133,0.2027056088223277,0.07975397907491222,-0.20309181980683988,0.2631866278509153,-0.1572200078619741,0.05911470114486461,-0.17452439199309633,-0.07657886099487277,-0.06301377357400884,-0.062165152263443435,-0.0659675777712263,-0.07708220091539397,0.0323362660069354,-0.2858517122385624,-0.2591028862424327,-0.09530708993630443,-0.268104284267777,0.049209594992632666,-0.2866910789426509,-0.2837771705489729,-0.23162014769400585,-0.310978039164413,-0.4117562663970449,-0.2937578356858823,-0.39502053457440356,-0.48997967274715437,-0.3963069908982719,0.1075253017777823,0.22137667778168957,0.12619601006671155,0.08727722120750125,0.013370868586676354,-0.048658089834135776,-0.13818323785043352,-0.22160970526258672,-0.2490222215787279,-0.1182026412363768,-0.16658656428206187,-0.2254272241120241,-0.1422119162881501,-0.22936666249035165,-0.2040954839570175,-0.07840274585649043,-0.05814707537155539,-0.07234834304117865,-0.06995179948639607,-0.10146926864970651,-0.4817255460207226,-0.3735803459739335,-0.47237725162726507,-0.4471680752876015,-0.4489631009019466,-0.14062040920795238,-0.2134656685205587,-0.09566560863395934,-0.19665937353287588,-0.18991845424166276
3,1,-0.3044078716591305,-0.369220124390341,-0.36331958621265703,-0.1321950535532197,-0.3263393198598583,,,,,,0.607782853178916,0.38518201526032536,0.7215546375179936,0.48984065456814874,0.37681762795325935,-0.3162047286367846,-0.2932466527794153,-0.3131564844935226,-0.32651838296464164,-0.3314719459709863,0.02826964346196692,0.2802452787428986,0.2603610573528852,0.09128426330206285,0.04371996069928963,0.14007519349612707,0.30115573807644935,0.22114150578660108,0.6560072291796083,0.5895974940071683,0.8392866442970047,0.7317988165025383,0.7523826917919904,0.5993580408193618,0.7861160340586291,0.7121368997150138,0.720195725924793,0.6879732814665156,0.6548305738536705,0.7088522532931782,-0.4066594148830691,-0.3262699798882207,-0.4514140240677271,-0.4287904906432789,-0.4311085659642875,-0.677096112869453,-0.6418710529717564,-0.6908971184450499,-0.6808937030168516,-0.6441584471568527,0.005403705037822282,-0.053718984461677666,-0.16322721642064386,-0.12975924171361597,-0.09919446419960831,0.7330492305999915,0.5967063966858961,0.8196464162529736,0.8124442645246612,0.9490978154838676,0.33623868066810525,0.31150998589200296,0.7348802222891966,0.5916210794860085,0.2654028559339582,0.8965833255161624,0.4298567562732054,0.3472960953650026,0.8670921691616671,0.8532195923945457,-0.7179475211675461,-0.7196328717910525,-0.7193558003735256,-0.7203432697358814,-0.7136668492579599,-0.01745410505199474,0.4030452662429631,0.1637071624482469,0.10075660450172286,0.031154070049778215,-0.14506391300543142,0.1480401647822871,-0.06956142538888166,0.0076124458285597996,-0.06864937122989456,0.816919246825535,0.8041531655394534,0.7977263942735093,0.8094314864449402,0.8155112718832649,0.80005376309039,0.7712506296518278,0.815802702413743,0.7980272515665191,0.8170963625649279,-0.49529274282768876,-0.515963746025685,-0.37528907892318375,-0.41976440753637645,-0.4377902257420938,-0.31654109536461705,-0.353566519069084,-0.563416650881237,-0.3811833466047303,-0.37346782594221417,-0.6990413468954553,-0.6982581163007109,-0.6995654271896816,-0.6981952515339225,-0.6907849578795611,0.8500826498169203,0.8360062712859361,0.8707589033541022,0.8867251965718139,0.8828319294030159,0.9220898352326138,0.660403647871074,0.7250591752845632,0.8232684674128359,0.836233703482271
3,2,0.5928068645490994,0.4556985585186222,0.6611179205633223,-0.03369186607186836,0.6389271308831498,,,,,,0.5795920353923174,0.7831620083782144,0.8100310882436992,0.6938045484936595,0.770765797777063,-0.1350899945688837,-0.11689515204687173,-0.1277235427778065,-0.1122362659472198,-0.13110536844355325,0.05373875734792777,0.10758007224567268,0.10057132941821556,0.0789945395192524,-0.045735220314949254,0.19536134797729487,0.1090117822715575,0.030197833205348412,0.15143662503805755,0.21869827816193688,0.3099446993032968,0.35013847132209763,0.2563437707199251,0.26435374763659336,0.2714466530748114,0.157079255277358,0.22729591599145915,0.1980154591535105,0.2079977692535525,0.2302752285506241,-0.06809460221585328,-0.11309246698416486,-0.16719443010754853,0.017223437635884742,-0.19240415923501342,-0.27108595777218514,-0.25510441010772933,-0.22149535217576588,-0.17949246162494292,-0.27409487472226335,0.14599532714769092,0.11812011178126591,0.0076728944139004,0.0661616838063741,0.07859557483520974,0.2730347093617076,0.23753516968475474,0.23822070266991158,0.29176974842250103,0.23747497061376,0.3292596718129217,0.40158855234556823,0.39923656067073976,0.5422236571787582,0.33245928648602674,0.39795298159859815,0.4441633444364472,0.26768275225617355,0.44163218300924867,0.38044920435535334,-0.5318646434202887,-0.5270650148505194,-0.5279352096198482,-0.528063076366903,-0.5291867666550529,0.2374097878741699,0.1072091420319441,0.06320566315730602,0.05170897394427998,-0.07444075361657632,0.2036377523131474,-0.06498454515119123,-0.12111204325395208,-0.05534224607192506,-0.1527544902338338,0.20457672693195983,0.24940104903340365,0.1953112260909029,0.17543028387464488,0.20280745452243076,0.37384515581911293,0.4050843060894078,0.3878193132236951,0.3698611012569277,0.33785389363453855,-0.4172790327923881,-0.47066310394583066,-0.45209555457466855,-0.46949601042408773,-0.44179690268342986,-0.222960443009097,-0.24872469428958288,-0.35024130449238244,-0.2784075086389046,-0.29206626622293164,-0.5201108862000123,-0.5171144486681425,-0.5231964626326129,-0.5232589107064358,-0.5320211067380618,0.05494372129546976,0.07793443837709035,0.06722291621032683,0.08449217737273451,0.07835392068694713,0.3417407096023831,0.22178288409906544,0.29803368655790696,0.3032043370550468,0.295679037880227
3,3,0.04699272035699531,0.036483473027780544,0.3809221005523251,-0.016611877840986278,0.2684495731681388,,,,,,0.3258997330605986,0.6716152102583722,0.440144780126829,0.23610407181240523,0.2389104650005327,0.53076878758482,0.5472213403115778,0.5310242098996095,0.47430285713357034,0.5327465971277651,0.7123725885735648,0.7233890014861061,0.7083390236909881,0.7485529178462919,0.5962603064980055,0.022243909746071044,-0.2193987158954087,-0.20895278019846852,0.5018114698431495,0.13418006358945334,0.3481525661595114,0.3791353262590771,0.4681920696065258,0.12593447349623355,0.43737046781556776,0.10980444293924152,0.00832984550689686,-0.02495110207490092,-0.06406569669357176,0.03851828174045335,-0.09909140806624706,-0.16511416087609998,-0.1763914913613669,0.17302265140474904,-0.26902598492799945,-0.22558979577059635,-0.23191621748639268,-0.2585506237066988,-0.3022843366804153,-0.17495773211367283,0.034834566635323916,0.09514958715663502,0.014840747603988902,-0.03699539353588821,0.03562971428593831,0.6367711121817816,0.6679915938083774,0.2052189490473031,0.25798860025575954,0.23614450824605548,0.7556185900567969,0.41469476512211656,0.27848525399371393,0.39552678631311955,0.5737373124358474,0.4114765809402686,0.28612041003620003,0.5516210483153667,0.326148722019344,0.24663879404195022,-0.5704553363483069,-0.5804332556913496,-0.5848523628781264,-0.5824136029690063,-0.5526250635024943,0.5662847616314902,-0.21327518167817394,0.1982859123907209,-0.11928970748608991,-0.2252351193192037,0.6167281504001143,-0.41736844390516037,0.1740626540717225,-0.08449939874620416,-0.21564677272384092,0.023942135077816062,0.04456653937088073,0.07138142195104835,0.110192652905725,0.0034317365969148694,0.08874077596316354,0.06887968384943988,0.1639677531966428,0.1860507628793242,0.1434225517231571,-0.6081223582255115,-0.5183138951422135,-0.47093851151343813,-0.43685796863461146,-0.5868223450110608,-0.33724349484561733,-0.20449776101755246,-0.4872996356928656,-0.34162016390499095,-0.4356336769890843,-0.5480117094225343,-0.559344712406302,-0.5689295992897172,-0.5770477988187306,-0.5426839004302488,0.10313978066695084,-0.05227793278298987,0.0863082930379756,0.06178914554531445,0.047853370690289165,0.3196368899321993,0.6998156059053154,0.6396051473633659,0.6133133688874168,0.4803887602831063
3,4,0.043570615341627095,-0.16498695339221525,0.037968180281633734,-0.15772122524196552,0.07511135866103458,,,,,,0.7144116983311577,0.6706091979770838,0.8252762154776311,0.834023123525971,0.7194709516533119,-0.21235727944537297,-0.18093943609017793,-0.19630739391006324,-0.16274885790540106,-0.22111834118064233,0.12615967969154118,0.2649115805447808,0.3208794853988892,0.18385660496935485,-0.0036453336314692386,0.24508341901492192,0.30002744138479853,0.22499468853847715,0.46629013925485197,0.5446947877098796,0.7708535922808284,0.7909678116107506,0.7021212665681271,0.6986702893803389,0.7379135890638664,0.5413030218138503,0.6544317098427868,0.6501050569863672,0.6433615787377355,0.6510832838456444,-0.24836073450585472,-0.295825553447814,-0.41551964330213,-0.2099767843302054,-0.35925857329431876,-0.619046422259931,-0.5737556403137778,-0.5371144198434425,-0.47145614384948753,-0.6220858281083514,0.17729067692870215,0.15055115155152077,-0.04500748203419813,0.058636427021664494,0.06899522596943342,0.722191735796919,0.6451248948565171,0.7803390805108583,0.788974911375548,0.7324360964183482,0.590673350503694,0.6906196651691006,0.8301178218951107,0.813883714016245,0.6314559658362797,0.8469609616764106,0.6804572206409968,0.49317866783161013,0.9092898710989191,0.7984866864352357,-0.8838699783313833,-0.8755076803239217,-0.874578394287794,-0.8745689168377018,-0.8905468382191872,0.34322457854731525,0.2557399802964806,0.11663670455282427,0.14549368649148542,-0.1435012637573705,0.21348255159382623,-0.01958825388072416,-0.25729719070422985,-0.06279456491946056,-0.2753397250018843,0.6658538828029845,0.6736439208158164,0.6289675010497605,0.5856475092502286,0.6643038846028589,0.7898125664368083,0.7762015634109534,0.7571533859316041,0.7334770678649845,0.7198727351541138,-0.606620435323842,-0.7394527775534088,-0.6604988126133386,-0.706186748729422,-0.6134556286369204,-0.38692315305613767,-0.4802199672238081,-0.5677751902911701,-0.4531246411412364,-0.42353947832552796,-0.8743461346641794,-0.8703015956027542,-0.8671409073196674,-0.862108104572326,-0.8829673364310147,0.47238023166639453,0.5836307378426293,0.5113009425343497,0.5628998915908893,0.5551656640008665,0.8056560067573808,0.613408272068882,0.7231383794731798,0.6911140331911739,0.7844866155768215
3,5,-0.07887882423755088,-0.294720652065501,-0.28436545675764746,-0.16716938588383146,-0.14894873487617244,,,,,,0.4631427513969506,0.1690513325108307,0.6359729981217894,0.6458237937596647,0.5386291574106192,-0.3924780794405396,-0.3510974483446958,-0.3602423388158753,-0.26962913025035906,-0.3927131832674666,-0.11226866708089478,0.008009204565794681,0.13767456802988842,-0.0756891884360027,-0.271586681461053,0.18756515919856143,0.39261848709964786,0.3471371682619162,0.2751738104993222,0.5163051569015192,0.7874164227288338,0.81775297173794,0.6429386241313311,0.8769562515490774,0.7327450736183444,0.5709826910048796,0.8144731556174342,0.8047557293772521,0.8560557572771136,0.7634527500203093,-0.404725203851535,-0.4788682789359875,-0.5512604793589522,-0.5027486798978549,-0.39604393129056703,-0.7176163073734796,-0.6535801901313583,-0.611308812078786,-0.5109292580820037,-0.7673287386719982,0.03366169245727879,0.01573557505105161,-0.1493228035701324,-0.02126019161572046,-0.057244763591102865,0.6593051661507094,0.5642350262099195,0.929698835916355,0.8847675035799295,0.7740042003649332,0.2082781926646735,0.4435506840246687,0.658556109753056,0.5502581525270475,0.3859293579817813,0.7106267666626702,0.5679131928288069,0.14953848314112483,0.8918714984248841,0.7091132061232651,-0.6554945569311592,-0.6376510466990601,-0.634316821169878,-0.6291493755584399,-0.6789487174582853,0.06682049237815346,0.35049001785377754,0.027692393594161535,0.3027225682969851,-0.10084211861608128,-0.1564973912614751,0.16490102850524568,-0.46092504874433216,-0.03817951764301597,-0.3124382398292176,0.8087309722250723,0.8115821254422622,0.7118263162059038,0.641865014113256,0.8408949910101465,0.8226575649736743,0.8235195259326273,0.7143356041080793,0.664872657870842,0.682524272734649,-0.24636915777970136,-0.4878966098974471,-0.3990077987681866,-0.5068817434438129,-0.2545217667116697,-0.2742153599661701,-0.520759857204887,-0.40225207836970855,-0.39050250072665516,-0.2586929572591643,-0.655297215447437,-0.6425024714779921,-0.6310271008803556,-0.6131039973208354,-0.6670479124359243,0.6299239359869704,0.888236708854117,0.6971422458442013,0.7710434974082325,0.7771596191685034,0.8182768845678136,0.45895461009090166,0.6365301960493174,0.553115905672238,0.745282928611294
4,1,0.013458076941109454,-0.035479585664188074,0.005648891447804227,-0.194744404420931,-0.021629583594402924,0.6094495166241167,0.6627440801539298,0.334568298252251,0.8471983648813151,0.6849397490086532,,,,,,-0.44534397275653914,-0.42869888292158964,-0.44635074673599995,-0.45848756799930035,-0.47060139627245245,-0.126203628298863,0.12829138260389172,0.07715984169678791,-0.07668452648589819,-0.0026202248976159304,-0.07340688994019517,0.07674402032466165,-0.04620382635055331,0.26770838105740624,0.21451907581904328,0.6440958051046171,0.6199893765423515,0.5737235778083417,0.6172462091895473,0.5722719457134474,0.706415606326207,0.7272741898826204,0.7120678872961367,0.718894878589467,0.7213716624199744,-0.2990852760067646,-0.22867417873938334,-0.3405694019823762,-0.3090014387003901,-0.35299072489750927,-0.48194300960010095,-0.4278413396842269,-0.4688512218935945,-0.4224421087566608,-0.4472653272560696,0.24948749928064262,0.18625260100395902,0.01241676086946708,0.10838457414293301,0.13703105072105526,0.3627111684812051,0.24737536536515614,0.5047269857910474,0.5244260840682344,0.5596761990588859,0.34844322769018543,0.4705415311211196,0.6073010878314469,0.5836710531541304,0.3806623058880685,0.7452243871776596,0.5239933242335006,0.4310588597792159,0.6656412792857728,0.7440866715453738,-0.6884828680380997,-0.6887705877643695,-0.6846802068429563,-0.6936615490046414,-0.6875865930325704,0.1893948319404939,0.4097192007964632,0.18552490131055088,0.0881732531600361,0.04628960346738087,0.13457774915099607,0.1649330640368467,-0.06120356168562968,-0.021777595881560696,0.02169520568790162,0.7202724537165307,0.7445767977259093,0.7172651393922396,0.7148644687519041,0.7026159694406519,0.6590873624908985,0.6379397752020634,0.6544957123723157,0.6660292637226123,0.6294300468342783,-0.5060050609608271,-0.5169859036826681,-0.43911179228271524,-0.4739534407852368,-0.48272715572636415,-0.1143097747289783,-0.1708852724481853,-0.3292754195193197,-0.15749463482704407,-0.14633883435537576,-0.6867567863620327,-0.6771693671641592,-0.683263759007644,-0.6860451593425263,-0.6882975374469407,0.5218760306770097,0.5308891455052792,0.526707212300747,0.5351281133251246,0.5336464980008035,0.6599447694964593,0.38668157942611914,0.4431307269992928,0.5558182085969225,0.5607577945658931
4,2,0.2924908237847266,0.17086472422718557,0.40063700997392815,0.02150935003366916,0.3150163008656699,0.35893386951626194,0.8664520651852301,0.6286858407059492,0.8205322571332131,0.38185106339016306,,,,,,-0.20738746885292736,-0.18752153622428014,-0.19734144682507915,-0.20368985045848298,-0.2101481604496116,0.0966290798424927,0.20481448536741298,0.18204698752500725,0.11879345790369822,0.11237904484792938,0.016123883982697707,-0.020574473047058284,-0.09449287816593044,0.17152028748654347,0.11152227455064057,0.44632349046289854,0.4849606792127992,0.423244692325637,0.43467692388770807,0.4120530304779877,0.37490080742061505,0.40366739727855205,0.3913104604590809,0.39327080439561857,0.4070576229708418,-0.1063413483696869,-0.12783381823587914,-0.16756215804999774,-0.001588027361627553,-0.1659193489473707,-0.21199523027873735,-0.1615974562761291,-0.2842880445955631,-0.261200011207275,-0.18576660252793675,0.23300527650760205,0.22316071671963789,0.05316502007015367,0.12523810490598297,0.14944570788010858,0.2946492499873259,0.24426522792843341,0.26923769057312663,0.31586787539014516,0.2769812454245104,0.471412150472576,0.5937738715404738,0.4525456790361908,0.5267640813271677,0.4908605615095971,0.5179027031855334,0.4710615012259711,0.4142987859600107,0.47306233133858033,0.4757144171082801,-0.6561904579489082,-0.6545241073270809,-0.653593901429131,-0.6580605711199059,-0.6550557064002163,0.3743659782818479,0.12240873214373271,0.10241830045734579,-0.013393244401967097,-0.12317642684523933,0.35146324764502,-0.10284425169808409,-0.09917650117456578,-0.10517271002893902,-0.19195772030494718,0.3456028101461981,0.3832724107949177,0.3513866602882021,0.3377769824154926,0.32536908780117224,0.4438726794917105,0.4408746555221066,0.45317255395095657,0.4571413789296459,0.4112997929404574,-0.5340398521286658,-0.5387882936037234,-0.5035815091862375,-0.5249632193249729,-0.5271657291736813,-0.14447633446546693,-0.1718696346495916,-0.32224165134133864,-0.17915986920791127,-0.19954446243676793,-0.651667110230048,-0.6493883540298098,-0.6543867256638329,-0.6573675508386612,-0.6620505249994164,0.157746232683868,0.16431070016222882,0.16662408629598124,0.17781668039469078,0.1728305527295294,0.40998267186196413,0.316819806607741,0.35267219419789253,0.4002900326192307,0.3840216438284154
4,3,0.17719608647488705,0.0755933096910546,0.1852087276889891,-0.12478690041371898,0.12895343986112617,0.7079168910806576,0.8333215719831599,0.46243655080330504,0.8650177268283269,0.7387636258159289,,,,,,-0.3527718043867616,-0.32813529376643813,-0.34235689476560216,-0.3500005864938758,-0.3605512575387051,-0.0539904778809841,0.1754079745577095,0.126394242255784,-0.007857083647708096,-0.040092202786983,0.08023276362589993,0.13491682091036583,0.02993599262586999,0.3903206889740871,0.3167699258086232,0.6646910703915784,0.6442658093711994,0.575969720980216,0.6418038481421575,0.5982588451526969,0.6067574358792035,0.6475647292655321,0.6122816742837446,0.6321194828201241,0.6322145374181001,-0.33172187257627517,-0.29396821567853904,-0.40161920525138806,-0.2995798334081401,-0.39916242104979993,-0.5227379738996716,-0.4608959123359577,-0.5558676589615152,-0.5131170777998668,-0.49194558737954064,0.10843716468984144,0.046338281655429414,-0.0884787643648568,-0.024844606164039273,0.004076280474738847,0.48415368113572677,0.38172549024623126,0.5752154299306024,0.5992532418960378,0.6226869575551879,0.30686254297929016,0.37946375814187494,0.5607648614998626,0.5716549897664391,0.3075143498686055,0.7425671530179321,0.5241796233815406,0.3375684428467398,0.7372563242721764,0.7225548014791335,-0.6781761153324908,-0.6761170272778627,-0.6744964636215376,-0.6799316507085993,-0.6754184790427502,0.08372025611615774,0.3940348169148722,0.17326520758320574,0.13016332328060531,0.055982534561249464,0.007520948837929975,0.14468730126242635,-0.07401060485157074,0.005262014715292529,-0.02522892118068687,0.6639873500151316,0.7006699971723781,0.6557276974980362,0.6567647351572224,0.6595719384710543,0.6844166701866602,0.6966393961008117,0.6957615650250598,0.6898104262634608,0.6617628628354496,-0.5152762436727487,-0.5203385174910307,-0.4360242364081195,-0.4877784601885178,-0.48229864345854634,-0.24839843495118874,-0.3224137751551326,-0.4795580658334764,-0.31928444635369724,-0.31448048251286176,-0.6651542823877103,-0.6569337358690057,-0.6637620973422145,-0.6648855048495108,-0.6694925858674274,0.5794465610665367,0.5783950611799448,0.5856688560208111,0.5922815453448261,0.5886350951948581,0.7215462017725087,0.46136005321494566,0.5351348963053818,0.6521543932752892,0.6189494447552272
4,4,0.16971080098288083,0.07885232633984829,0.17017509037864387,-0.1049793219146995,0.13514502593240296,0.49402444883023466,0.7343644483691164,0.39558258104324195,0.8346090714487995,0.544713919573684,,,,,,-0.43910485019119894,-0.42060921217853586,-0.43785211373545474,-0.43855696725067395,-0.4485142736901848,-0.09598898714831083,0.09150178652165897,0.04875872808652737,-0.06518102673285364,-0.0273183230164058,0.06875971987809437,0.16173470377453003,0.043525721460690114,0.2160178765220635,0.25442608208783946,0.5252848469930702,0.5041971280313146,0.43963146851108514,0.4835750984631908,0.4387164584679706,0.5297277624666381,0.5572556276514626,0.5301152215253403,0.5503516075170484,0.5357933898803133,-0.10159484173609967,-0.058551896587494934,-0.18182011222920247,-0.11004152376128973,-0.2109783920098931,-0.32138142609709264,-0.28261732647173665,-0.28559483032389443,-0.248178128460949,-0.2987686568664516,0.2688273971037255,0.22477690366977898,0.04469446494706886,0.14063870998852945,0.1558629346488153,0.27278142802225946,0.16501785860887042,0.368351887315002,0.3803292811081216,0.4307614387133142,0.401659437289817,0.5849848186689722,0.6135044254121391,0.6255659717117995,0.4053868535165137,0.6469181780230447,0.5006482453322088,0.4176699961507617,0.5754133803451588,0.6321546848869208,-0.67204374963814,-0.67184406474271,-0.670881461609365,-0.672581144336982,-0.6725688252324789,0.253758316689898,0.3267314585542951,0.16360657249051203,0.06659500410310437,0.01609461631538578,0.21202667211262916,0.11471570871682635,-0.06267007189197193,-0.012571168402052413,-0.04853826045035747,0.5329795760669149,0.5454169780821536,0.5158583697669428,0.5307924787498105,0.5193726656558455,0.5935573209457062,0.5865626188202676,0.5932738146584114,0.5874089570852108,0.5756980299149821,-0.5173009543848419,-0.5248902954639092,-0.46065675960095653,-0.48814224219117097,-0.5004513717910026,-0.07154024923882085,-0.10990638561608757,-0.2796792432336579,-0.10845297455285086,-0.1327519548293168,-0.6673112034509141,-0.6676768198912717,-0.6703551458096104,-0.6715768462221288,-0.6750138634375804,0.32166160278862543,0.3173757905952077,0.3267971663988679,0.3302032411752611,0.33035733003947376,0.5039406871068153,0.25112235103976666,0.3032359699211481,0.41548264972586346,0.4057316361933443
4,5,0.23682202656141227,0.19349024086870603,0.26795108507889664,-0.18842236036725235,0.17838669061722578,0.3876402964012252,0.813713827880975,0.4036047817435504,0.7300235234270515,0.47498742950045936,,,,,,-0.3770653613563695,-0.36484836214946004,-0.3853964120104518,-0.38951198554943023,-0.39982542298654544,-0.12482603528506764,0.07338353923687735,0.015129320876157482,-0.08555350312665833,-0.01970082239875337,-0.04654957658664993,0.047653404527629895,-0.06938456599393983,0.13067698405478279,0.1312378186211759,0.4479618738157798,0.4487806361704365,0.38350736350701053,0.42458926676425124,0.3786055236136632,0.5076676874752312,0.5385890528420298,0.5115121728088319,0.5260571624850608,0.5373920124786103,-0.2080183738037591,-0.15800929636887528,-0.2331969344322118,-0.21492326514332483,-0.27562039121168036,-0.34762364294800574,-0.3135492717262631,-0.29779893178928996,-0.25115410633799495,-0.3222309748765997,0.24073883239362026,0.19068884815347698,0.03911673563080731,0.1274095870367017,0.15084345242512143,0.21588851945772747,0.12092111656103566,0.3078462271238762,0.3456772445524373,0.3535296038222441,0.30489319452861063,0.4256571986643125,0.48443649638801434,0.5361610089070351,0.33864650369069316,0.5610133702630099,0.4742956910624514,0.36107797894926774,0.4978613532936169,0.5707791241404162,-0.578313247260954,-0.5787365194216643,-0.5754765905511938,-0.5815826468559397,-0.5760724725410706,0.21870453329478678,0.33376982003679334,0.17258174727138909,0.08313820601564004,0.06023229397979746,0.18729904493942628,0.13748634827550354,-0.042735840935794744,-0.01456703288972383,0.05067717414964834,0.5177435038245927,0.5567864629998588,0.5159797130037732,0.5112992254687062,0.5033369107052245,0.4837064591506549,0.48092919456555805,0.4832800072480743,0.49303789499877926,0.4521796731226597,-0.43943774948927605,-0.449249540747545,-0.404360832436935,-0.42979423231606173,-0.4398606132365548,-0.06786851862263288,-0.10932099416699059,-0.23869876221938258,-0.11014216449383363,-0.1073525616597335,-0.5765800682007591,-0.5670621088912888,-0.5760209216783041,-0.5785114997833856,-0.5806860476087223,0.28420440983226536,0.2876012311464322,0.28852571194402143,0.29051119546635196,0.29193600062365976,0.46115199714611244,0.2308987160901651,0.29012070836049364,0.3771272990518375,0.36691372306525993
5,1,-0.15979191442551777,-0.183630090090094,0.2684343253310697,-0.08417799805076642,0.15834197266534378,-0.19596387830462647,0.08360530851854864,0.8185170250037525,0.11952745135088083,-0.3038452884375802,-0.35952315766661513,0.15165512700585992,-0.19035038071024912,-0.3736185569713262,-0.34952139729625675,,,,,,0.8415748057507607,0.7580986286165579,0.798664176653102,0.8490105270051662,0.7367188022702237,0.04899073031620904,-0.34682353591003334,-0.30625219720757024,0.37272863883940255,-0.023913520194490667,-0.00955212546807549,0.21045035943161983,0.30397030691686255,0.0043649522237775296,0.2691320252020265,-0.40499526292493204,-0.4881612184368591,-0.45752161356429566,-0.4816914862363917,-0.42294948693421275,0.01993613383506565,-0.21208285634688884,-0.17269604619193757,0.3712505322540036,-0.24190723652339963,-0.06091495562571425,-0.08445688095064918,-0.031971554761695664,-0.07588784365702006,-0.049259412416984505,-0.15176522980111828,0.05346962112799902,0.046554116751575725,-0.06234114261981771,-0.014957277797300383,0.6851993836465143,0.7760917887321911,0.07789672543865567,0.10794340416432568,-0.19779836844023868,0.7927237496378067,0.44342110599876183,-0.07418427516903092,0.1176197243242384,0.7256742615336804,0.00753517578390539,0.17540070122437923,0.5258538103031611,0.05878846411336658,-0.29696157972007486,-0.07221364427044152,-0.07883569638739552,-0.07922516854361472,-0.07738572002866095,-0.06584088743305827,0.7659510541177901,-0.4089502985268103,0.4942426812283023,0.11579652227528925,-0.2519254230821657,0.7955998379665299,-0.4265739205152981,0.40581483226494597,0.1426355416575894,-0.20077884628717402,-0.4086300463333423,-0.39482289622128874,-0.3534440288242884,-0.36484360802517646,-0.4230309079505752,-0.41088025775313963,-0.43609708690596527,-0.39397475469913545,-0.3496231332498738,-0.411456412596662,-0.18613576944586563,-0.1454890280066401,-0.17052195844920504,-0.13137576767489167,-0.19864396659426498,-0.18103659482357926,-0.10313468668019654,-0.16465941411117346,-0.1528821046188631,-0.2051956956727894,-0.06781235762489013,-0.06897524111157649,-0.07464304430374558,-0.07710343028302669,-0.05916431645593079,-0.2692062066656753,-0.3353585654141562,-0.28132682307178003,-0.3034154407671876,-0.31210491933744966,-0.04843563866849987,0.743944142400744,0.6802968882742901,0.48879627744470544,0.40570293047119266
5,2,-0.1481967114951932,-0.18338587676471452,0.2706713620335648,-0.08365768634304338,0.1679499102611175,-0.19321737213968238,0.09027220716456619,0.8203116285181575,0.13023202191917138,-0.2838640404984403,-0.3693477714623685,0.1402997159464462,-0.18878693031790217,-0.3568312562852185,-0.3364932087664987,,,,,,0.8462165558087165,0.753557351254318,0.8049678247011358,0.8499812296906493,0.725230873118627,0.05269951625098512,-0.3405891038850606,-0.29601197828519243,0.35169219924942796,-0.024579810308558825,-0.000410762108949303,0.22681693913522483,0.3020248796903514,0.03198693001269026,0.2764142576328039,-0.4174323554028583,-0.47966267036518007,-0.4541653846928888,-0.46665391748908647,-0.4246697424810626,0.015252092613526447,-0.23089414660033647,-0.18583919016727557,0.3630837870595842,-0.24738360871228604,-0.06731975928076905,-0.08808792199157489,-0.03235596747110647,-0.07245353869426907,-0.06059624578140643,-0.1492730275704115,0.05964119528768985,0.04643940489091736,-0.05491386292355149,-0.012044622274598904,0.693583797603031,0.7856540723175911,0.09076713393387181,0.11351991729845401,-0.20763715059776744,0.7957765134860854,0.45937075326522925,-0.07589143311792212,0.1214585807531402,0.7385411458886153,0.002783539777956201,0.19430934449673987,0.5233245858147009,0.06898781045635416,-0.30507469309960755,-0.07804393383403041,-0.08303948975470998,-0.08388923244798407,-0.08009482472112106,-0.07391083267076004,0.7839053792666856,-0.40256066030118864,0.5016878870324709,0.14803096533695337,-0.24862837139791583,0.8073540220133547,-0.41678656846995876,0.3918628512226663,0.1583594982950881,-0.2144738077777939,-0.40811384859149813,-0.39417779404450437,-0.3631459252184652,-0.3737771971849151,-0.4178353433410684,-0.4082632121878309,-0.4302414579936724,-0.39982195275736987,-0.3609279162292085,-0.41789034880339715,-0.17799361814810322,-0.15199205717038966,-0.17575178130995672,-0.14276687272886157,-0.19296940274622965,-0.1824990916253295,-0.11826457736312279,-0.16564856070609357,-0.16098484797529933,-0.2084466029919032,-0.07349792830377666,-0.07572423727236233,-0.07960319099560342,-0.08043680621764948,-0.06712238951128158,-0.27907681076394253,-0.3279849601228144,-0.28761536499518514,-0.306715400108025,-0.3144913624907222,-0.053053344166756,0.7410813151462586,0.6843330898419197,0.4810686483414459,0.40479842846820757
5,3,-0.14146121039003678,-0.18045212936761046,0.27247127307065555,-0.08312086397396512,0.17265525332608644,-0.200338188661072,0.08651325040033664,0.8162607850261506,0.12624619444654794,-0.28390378130118,-0.38061692407840897,0.12880101782821451,-0.19789652023726134,-0.35966991741010235,-0.34026598894654825,,,,,,0.8447458906018516,0.7485903903829413,0.804021089464861,0.8483444122312324,0.717424847926048,0.054119273975227866,-0.33804619828521076,-0.2867494378429223,0.34260071946653325,-0.027784582795326696,-0.004822833960153039,0.22561091014865076,0.2939070364485892,0.037637534936953654,0.27225182774041734,-0.4229630730323479,-0.47725577962219656,-0.4520548851472972,-0.46073552164871323,-0.42760289268160756,0.014852350111776658,-0.23584543142329828,-0.1867008682384601,0.36105981267663056,-0.24396978776779332,-0.06583328310193304,-0.08657273522116449,-0.027613393421669574,-0.0658358113125741,-0.061734109032581586,-0.15198709090497808,0.05845310057729691,0.04479974796066877,-0.05449395384317768,-0.014128144171984491,0.6883313858309668,0.7847422112571838,0.09179454611976012,0.1123253219360485,-0.21426780773025644,0.7910150447847775,0.4601315194955049,-0.08199934855325997,0.11731403055380307,0.7402268970558102,-0.007855563439417956,0.19587045084683607,0.515685371468135,0.06555559066453576,-0.3142808028884998,-0.07326520242556378,-0.0769789630939357,-0.07823302239180596,-0.07431207448598398,-0.07008142091193692,0.7846901891678756,-0.4086330127855631,0.48935939261760963,0.1530643939803764,-0.251862891403996,0.8071859625540072,-0.4182578321487793,0.3802048209404314,0.15746598816518054,-0.2230611664800286,-0.40793400969868987,-0.39575161218711896,-0.36717204850904595,-0.3776478448608964,-0.4156081021965763,-0.4133491591969827,-0.4335752802640791,-0.4064028469247407,-0.37046359007123986,-0.4258591537405696,-0.16614830250644053,-0.14484233860333684,-0.16965569694253535,-0.1384774106654718,-0.18149672449415477,-0.17635563572287083,-0.1166119441643978,-0.1565525217432826,-0.15709594513146552,-0.20152630329882903,-0.06834170980922272,-0.07175140000105396,-0.07421372419660877,-0.07483637231953355,-0.06386998508835262,-0.28434326578042435,-0.32555604826649387,-0.29182629748236977,-0.3076465471681147,-0.31617844477892354,-0.061595320642429785,0.734844367881678,0.6804285074926704,0.4712351078586674,0.3978198873745933
5,4,-0.07801255418673936,-0.16608534800328867,0.28903506299680526,-0.07717348231601773,0.22060261012640225,-0.21454212518155358,0.0965378899700623,0.7851759779595562,0.14957755887227142,-0.21592142426466898,-0.43606620754412284,0.06392933772576781,-0.21516288939850803,-0.306710600181352,-0.30407189688472425,,,,,,0.8300016188675218,0.6990781133826023,0.7914218086239792,0.8244996068835119,0.6474080055562972,0.09812449504287823,-0.28245429821520585,-0.21638093692124638,0.26108698502260497,-0.009450558906567874,-0.005625896924893459,0.26110740094310714,0.2602213704988383,0.13030343617426476,0.26529060219169476,-0.4785849510142226,-0.4568516753482239,-0.43625985953646307,-0.4090990208845713,-0.433217287166739,0.025924391076665776,-0.2705608056232385,-0.2098088253123298,0.3472774260445224,-0.2319733008958409,-0.07043431689872004,-0.08284766305850755,0.002653264438054803,-0.011488207674752893,-0.0867865240262764,-0.1530028767624778,0.06860704901238435,0.03736239082056547,-0.03427167465501624,-0.015049549795612238,0.6905195554656394,0.7952021097242771,0.1408866270155238,0.13959277292734984,-0.2507431584034774,0.7799234624379158,0.5151647611152036,-0.07908030482350803,0.13264337983793084,0.7752367181446513,-0.04929151665011666,0.25170201529880365,0.4733139801645174,0.09669766410768499,-0.35175174702141243,-0.07438770113592086,-0.07153946158477353,-0.07340259461190546,-0.0647367279732276,-0.0800901064779953,0.8141760938935289,-0.4077325962224161,0.47416642512318374,0.23689314324765154,-0.2692736898654451,0.8127247848079163,-0.3975987995234447,0.29409181280993224,0.17622961685783445,-0.2888681911274251,-0.4131884219583275,-0.4016546810235784,-0.40426065926466914,-0.42612698654217374,-0.40614263335844236,-0.39280948175711505,-0.401078711803762,-0.41983282014109946,-0.4017955292627222,-0.44502346323371267,-0.11385394255608783,-0.1529181969046951,-0.18410187980475534,-0.17268778125842887,-0.14393691596153513,-0.1743015692037777,-0.16654814891114156,-0.1339635648635884,-0.1726118694637273,-0.19398637976525723,-0.07151026342316813,-0.07584312428490936,-0.07243143139695007,-0.06740119369197606,-0.0750031204474304,-0.3413278891085414,-0.30492865249357615,-0.3349342227803127,-0.334388376737472,-0.3399780245102255,-0.08825390005903588,0.6928916728788254,0.666909961189434,0.40798287047503246,0.37608829076941963
5,5,-0.13286321979754634,-0.1674411995489542,0.2794466148261766,-0.0759989509768546,0.17778979391235117,-0.21130736309882603,0.08661320255617244,0.8187682878367564,0.11150291721091188,-0.30545254828906865,-0.3902801365648014,0.1288101937050914,-0.20543032863673982,-0.3681671236459172,-0.35096071132015205,,,,,,0.8497764647282878,0.7507483237678527,0.8048247651827614,0.8500220060089071,0.7212116209180642,0.06086953931107475,-0.3326281143070702,-0.2808115718241031,0.3376284482904808,-0.02788401756963088,-0.02046645928587032,0.20381329405634108,0.2725044311220407,0.013973716166696182,0.2541145800200315,-0.44054246811037845,-0.4977844721549092,-0.4793192153654866,-0.48256827687402226,-0.45647024131033564,0.03082154211014121,-0.21972503698193457,-0.16750846811769926,0.37462089358038386,-0.23327810819934847,-0.046311558773120876,-0.07061603731572963,-0.006029245975739617,-0.049649637521991696,-0.04377980828390493,-0.1537175986001058,0.05649821533010346,0.04476631807053133,-0.05612367473097213,-0.01620252677350864,0.6755251834069068,0.7738115705418743,0.06537440001025674,0.08170658010929932,-0.23122797422984065,0.7874945274074068,0.4546078099648274,-0.09334443667636139,0.11095151498310518,0.7287129465228062,-0.022558906330724104,0.18444755432794901,0.5128595120507361,0.04545428958754927,-0.3326969406713358,-0.06132529597504521,-0.06510009763197933,-0.06733832567440512,-0.06186456740018653,-0.05781512496429286,0.7841412208537527,-0.40451318158163363,0.49757143532391335,0.16071952284382363,-0.23339219846181725,0.8106545471266648,-0.40677986065049554,0.39875491384251793,0.17702906757380998,-0.21115898948874468,-0.42878657805572495,-0.419908992479048,-0.39179027615266016,-0.3923144615932328,-0.4343526962385118,-0.4277318381607882,-0.4451651245748074,-0.41656721070016167,-0.38477158827123414,-0.4326060705644317,-0.1626238905559676,-0.13442376762576158,-0.15774593530815584,-0.12540706420448466,-0.17513670062662534,-0.16785817080742782,-0.10312359508724778,-0.1513003301496636,-0.14990153163407194,-0.20014961873182147,-0.055195585293591254,-0.06161923375396827,-0.06309985707289312,-0.0637425663026876,-0.05182655327621255,-0.295582702268542,-0.34831325389392553,-0.30517500455604063,-0.3247687192045956,-0.3332379426146279,-0.08790612983890633,0.7198549929496498,0.6615790358913082,0.45780665461817005,0.3715061950518572
6,1,0.0476292598883572,0.09854350487837737,0.30492806785514603,0.08587221876129147,0.21586233041394165,-0.1581796164201088,0.14632825062261645,0.659855616999076,0.11704529392858709,-0.24047048366281176,-0.0720639617133596,0.28367524679070455,-0.042279911197586895,-0.025280934476718198,-0.1353810095110406,0.6054007502859363,0.6137674678061801,0.6090333723879084,0.5804906840918582,0.6180998605154522,,,,,,0.042370876484208786,-0.1686304644463279,-0.10102878306776675,0.24312387654320755,-0.0009611032219201121,0.22027762404562545,0.30231440223009476,0.3560801706190748,0.08446160094215183,0.35560815388393174,-0.10257211892349449,-0.17940253610201085,-0.18593377514955378,-0.19955980228136871,-0.17553253984546702,0.36203242886442166,0.21142241928932204,0.22743090269697752,0.5481753785031963,0.1720255914312192,0.1505890328777607,0.11039899169300038,0.1945547950369737,0.14813547645602865,0.14424415180467576,0.10928102542887452,0.1502999709518109,0.0981618670016089,0.11080562420948303,0.1391929122643576,0.44967267112876286,0.5274628785185925,0.008466016035625357,0.007595622890186338,-0.0639276565333553,0.5560011966000203,0.2772704851930349,-0.07296050161726808,-0.005390218458696694,0.41827835236989297,0.04825682764165928,0.0654172860623552,0.33377203331659366,0.004013731142559762,-0.1411799350196994,-0.32567557758268606,-0.33201388048913705,-0.33923091703938324,-0.3264445169496275,-0.31662650539763115,0.43584076931270177,-0.4708987729383458,0.12214883136045662,-0.134236993290741,-0.23522846071241443,0.5190081133759459,-0.46573892353836954,0.18244045309981116,-0.03239524688003037,-0.1881566179166856,-0.41152670236356914,-0.40067381420957116,-0.36794293270491263,-0.32836227155189435,-0.41678921869683516,-0.047162153686123975,-0.044303025155747244,-0.002272680374024061,-0.0019798842874596545,0.00501695773064903,-0.4639843622874411,-0.40535393539863707,-0.4036816083989121,-0.3630871416219419,-0.4553208019843191,-0.4094989461385268,-0.27335248138689305,-0.4102773586695265,-0.3835321926818822,-0.4550450974692086,-0.32752580285292354,-0.34767565897601815,-0.34634266606290653,-0.3479031751616444,-0.32359549558429057,-0.22735784549722293,-0.33293268880509386,-0.24279368280853064,-0.2696903021083825,-0.2814753312348861,-0.08650558472367753,0.44345700015884537,0.3614269546546427,0.26071505395727823,0.1618992925938727
6,2,-0.06485895438960032,0.09349195932827059,0.19991183746779972,-0.09033240047202606,0.045548731547560894,0.05571994881594222,0.17872886118540843,0.6466149996688196,0.21052208475331158,-0.14512120826012365,0.20069937401059312,0.43989915586977435,0.1486476362188177,0.03274367320295568,-0.04827812166447232,0.46089885457563606,0.4481844394672496,0.4304650998442219,0.35211722129023104,0.43632330474186776,,,,,,-0.010027833987986012,-0.14938951602251715,-0.13319757068484273,0.45429254993714796,0.09250274788642965,0.3906318653301629,0.375990224629686,0.5383704591151212,0.05958516930470381,0.495835923844661,0.21168431966937773,0.013333704440154137,0.015412994110631462,-0.07445512406986854,0.06667398819043457,0.2905333581116558,0.276985009704923,0.1868082137286875,0.4461971654815957,0.062114627372483966,0.021331965930458607,-0.028073980466185366,0.07011139228460683,0.02726601946090923,0.06322198175954474,0.1645430817763236,0.13586013498125038,0.10764614717219667,0.10579035080428678,0.16771310056593725,0.5007068860306456,0.5069124511466049,0.10995234570667112,0.14439851314337604,0.21974339651309593,0.5218895673538367,0.16144381913542505,0.09881029481036152,0.09194917353369769,0.3031538287154184,0.3088835656356581,0.054914242312919415,0.41841681678298803,0.13422363344837263,0.1484158147307324,-0.46392129576469965,-0.4817501502636854,-0.48636843756526216,-0.4848571009815055,-0.4387496216236051,0.21964845407654554,-0.4009087016780519,0.03183647978596138,-0.34765432058004375,-0.22534823377026503,0.32483488248672177,-0.4709591662110415,0.20274684716808444,-0.1629974856920544,-0.06958939919536777,-0.1698541654966148,-0.1605303551737065,-0.07341548280765542,-0.021292910668737175,-0.20164103031198954,0.1287692167196266,0.10522240401416627,0.2279913091214052,0.25998770313994546,0.2457076099993224,-0.6360222741222041,-0.48029423778901537,-0.44428152259730047,-0.37434562535349447,-0.5969968817610285,-0.43920271960162194,-0.21398049237888794,-0.5041472197143193,-0.38227820759875164,-0.4803879877731141,-0.46237818429906774,-0.4760631831072808,-0.48714981001447155,-0.4989929130221742,-0.44118424231556697,0.04252601233939479,-0.17789812634089186,0.008863213734627506,-0.03309760366017955,-0.05123038859489837,0.1666227031391816,0.5558298222009177,0.4477717970657622,0.4777200951067908,0.3324593348474303
6,3,-0.006950003998261289,0.05283974018608939,0.20972728478075475,-0.015593254748482277,0.12481496235687917,0.01845152156594576,0.15951114945140588,0.6417284675767142,0.2555848600041367,-0.04195322139052449,0.05201031425088032,0.3073696585196023,0.07481503985326443,0.07823899889484998,-0.028985323351262027,0.5069215548704884,0.5155007222405408,0.5069866759467262,0.4866823781230374,0.5100748908445372,,,,,,0.015763003272513343,-0.13448792292544232,-0.07479791452525042,0.3040173371222865,0.060962240928131406,0.41806581392202735,0.489369822289641,0.5246491175314496,0.2618968617757469,0.5384395336204327,0.0865053508742113,0.0407948980152425,0.0340151613380586,0.01469228897641428,0.03899357961358252,0.26454991398502836,0.12919463085552663,0.11116166742536127,0.41310280538778876,0.07083678852239617,0.002379189242386559,-0.022434856708983153,0.07180656276855124,0.053307336159701624,0.004910341968550669,0.14565105513642496,0.17253617169782898,0.09415316283487574,0.1310800259835634,0.16128553991250483,0.562877425405089,0.6139159922812436,0.19614966055893535,0.19276289719693418,0.11868898841950637,0.5545606381598719,0.2989628030365421,0.04643332931594113,0.07162040590823637,0.45364211256082343,0.2181489859516904,0.1599042399171302,0.36819347615428777,0.17646804093647717,0.03584191575504936,-0.4672428921180598,-0.47074980424182655,-0.47709289270126964,-0.46650451008407723,-0.4605284546001147,0.3962148101176528,-0.4351716691001495,0.044519266016826764,-0.15063853275344163,-0.2829895310254231,0.44865008480421653,-0.4719307559844128,0.07007424611239965,-0.1044514920264843,-0.24137643780714635,-0.2087810949065969,-0.19659752760273563,-0.17531643851616674,-0.14773000141275094,-0.21184862898267487,0.11917559119694532,0.11440299881313132,0.1508138183349178,0.1490218699681124,0.1528926866288538,-0.5311417007685468,-0.5045729265244712,-0.47958413741840733,-0.4538920687299921,-0.5203960071767415,-0.4586343600080296,-0.35418867443227153,-0.48687955009139916,-0.44985584804068557,-0.4911907018062831,-0.4698594707257917,-0.48773738156413415,-0.48445343017226783,-0.4849544901155729,-0.46736952660174036,-0.06999555881002162,-0.13722212844138681,-0.07417163798959159,-0.08280134581805432,-0.09707609579590848,0.10682024140459989,0.5418026655086241,0.49043869673092755,0.3902050266164434,0.32805290151382294
6,4,0.031858367923939035,0.11554223007652764,0.2977026410189021,-0.028339502615558176,0.17466473396999593,-0.09474676612684663,0.17799680170735233,0.6736962144119085,0.17244483716231196,-0.19227992347453093,0.010338553905779646,0.34116909844326004,0.008066775463223985,0.010892876829633025,-0.09904733592554948,0.5800670004364131,0.5767332761783764,0.5655806214974852,0.5269318774078289,0.570984169227118,,,,,,0.056716101187970214,-0.12974712968258606,-0.07709611108450964,0.34436550912989117,0.06748994671317377,0.26533007764306826,0.340501994218809,0.4218344008434963,0.10075478115071268,0.39973758256686653,-0.010466325818050626,-0.12154811942647603,-0.10818080943292441,-0.15567489455824823,-0.08500727739465619,0.3428678423468332,0.2364731384485339,0.20036284704931173,0.5003839271593499,0.127247887335612,0.10082816846732878,0.05767472966211118,0.18139276060248188,0.1515834292375685,0.11112476895874346,0.13963672310500796,0.1483388189317495,0.12177459356158249,0.13587384738861907,0.16933341000845714,0.49975233377702244,0.5574768213546014,0.0950846115336611,0.11317695294026398,0.05960874628598789,0.5744843104955253,0.2817431195190796,0.03766545119503617,0.07462211308764266,0.42844079976694127,0.14398060545230473,0.09383672446189528,0.3617075169800943,0.08081360557143769,-0.029799088176420074,-0.39925179706920577,-0.40822443942009823,-0.4133223635731256,-0.4069321673134494,-0.38591164839697933,0.36953302908403907,-0.5171949568198757,0.01587767931229911,-0.26105227427967503,-0.31628106879897877,0.4418156958545494,-0.5467625386013166,0.10523243295932583,-0.1606751985465431,-0.21729015141616403,-0.3247096794187101,-0.313901364413798,-0.2571086250035717,-0.23171115907499296,-0.34015454672568923,0.016684615771088707,0.00989625662788296,0.07027276392925152,0.08859919441570185,0.07467296951258073,-0.5370527151428584,-0.46392705836625137,-0.45890157962120526,-0.40778201161742245,-0.5293211946381209,-0.43253771005140096,-0.27199402683809115,-0.433854700739712,-0.38800794878518996,-0.4588269580901878,-0.4004932806102741,-0.4139503564297382,-0.417689013032837,-0.4227110193117247,-0.3906840900828583,-0.1657996946313851,-0.2862571013381747,-0.18473796186700908,-0.20495389105546447,-0.22141724750685787,0.028523542854252182,0.5052000623672612,0.4258684971831588,0.3453290840133675,0.25591192656704487
6,5,-0.16425124396669477,0.07302853159219569,0.1596483980092267,0.032778421154022075,-0.010276834332219487,-0.05668959639904103,0.04586844338568696,0.6066459920938944,0.017584029684338587,-0.34548786874995563,0.1777050632050292,0.4187788172961653,0.02878361202798041,-0.12821473766758995,-0.16240766140464058,0.4995597851176179,0.4783859103150063,0.4619419380889269,0.3421077201586198,0.4687455568280403,,,,,,-0.13210730317008856,-0.2902882341563444,-0.2798711610082769,0.4125133656047071,-0.051660380591812105,0.2456486066428748,0.1898296306288788,0.45023497191996775,-0.1614418404543856,0.36184814265977927,0.20666514700746785,-0.09281437615054644,-0.08872155537776716,-0.21187708471475508,-0.008969544211287817,0.29016493864802784,0.32853424435746603,0.2878761327324755,0.49592034562612186,0.12951907324582468,0.13466145731767665,0.07197189012370775,0.0939883726222367,0.005194676811508314,0.19202881303281694,0.101972816309568,0.09439809371735142,0.07558871469493955,0.018383929119296205,0.11015656720653977,0.3362113895890888,0.33832511498874007,-0.11236402922748812,-0.0552628566084874,0.08682501418872768,0.42908694512908574,-0.021211112053630465,-0.07422637337548799,-0.07972440830042982,0.14645542768815145,0.17881222810506947,-0.15308233942776717,0.3822528017791883,-0.0862473581523977,0.02813705687815571,-0.28080063731438676,-0.30930167768441663,-0.3115916384001136,-0.3154199560012163,-0.24494696016559336,0.1496262536685815,-0.4170414355285974,0.07460050611645208,-0.4437333086498536,-0.17784688518785208,0.31959683963633057,-0.4646786470797304,0.35857985713487683,-0.16290806183286155,0.054447732238146584,-0.25218397730140985,-0.2403554907790646,-0.1156064567969457,-0.05009026835082464,-0.3047309537485341,-0.034817297007345926,-0.07680503654425852,0.1028269975209718,0.1606657181280997,0.1320672552291997,-0.5369809381588633,-0.28892214913364156,-0.26393751707170665,-0.16620488098949449,-0.48053574498593665,-0.3158103216097179,-0.024632868822222598,-0.3750512421576113,-0.22639733692447406,-0.3551129945859184,-0.28318390562004137,-0.29254531607928635,-0.313551217082084,-0.3320859525645439,-0.24819590421073712,0.03686515158394987,-0.28080511774939065,-0.017821971624404798,-0.09548491872507281,-0.10779379847596982,0.02892527664739386,0.47683538747988674,0.3063046716082529,0.39828743335085226,0.1920311328087143
7,1,0.33649366516428025,0.36900129430388606,0.33284985685946955,-0.29564217374981094,0.15356024545234492,0.07565211962494534,0.595771775772194,0.3842681424280534,0.5066996356536184,0.11449802362200379,-0.06149640146638591,0.410449364205008,0.5114415757226758,0.4266050372203536,0.147721276806411,0.26910571057299304,0.25567997946932697,0.24007105331712242,0.2561643286353128,0.25027978014092567,0.4614166186268851,0.5067420681254594,0.45439563197078736,0.44925350929318775,0.13975946251216487,,,,,,0.025736858536881124,0.31083315162126934,0.2556410517616319,-0.0037499707800339177,0.2707238982585396,-0.30262996365009354,-0.3053607608423583,-0.3066480068758952,-0.30304878577338634,-0.2759161074458638,0.6726125824952498,0.6940103966082238,0.28359887516075544,0.5280263205364745,0.09516793951929436,0.05961711661213631,0.013022308197786936,0.3275428093951729,0.5331308223143777,0.05425260527114251,-0.2693811905507082,-0.17921073625123518,-0.23812897994740245,-0.24760947182070225,-0.29405164151790575,0.5386499083684129,0.554070890543212,0.2512293542637851,0.2131973468882432,0.2505992419287084,0.6389097018426482,0.6865518750831615,0.39504290180845136,0.38613271322370357,0.5784752576623297,0.18018225361746398,0.10861058485072261,0.041785678104101054,0.31420847513342576,0.0679338819914228,-0.3429859552032659,-0.3415925251636873,-0.34473595458875583,-0.3366473383557529,-0.3441458274766296,-0.10645699765693273,-0.15978346931606469,0.5229484908698493,-0.1108572666574148,-0.13583027641284007,-0.12127724283575825,-0.13735230252249298,0.4902701995740666,-0.09093586004989129,-0.1363364918614094,-0.2739860826458136,-0.2703113907532082,-0.2590266980767948,-0.2791589609695979,-0.26443414632675366,0.5825916341772107,0.6171756956046995,0.5930968803381012,0.5488712053146912,0.6172143429074919,-0.41020872414922627,-0.40688906386661317,-0.4359114820639418,-0.4092124929248806,-0.44287123365224157,-0.34879847148867693,-0.3098007226071202,-0.29453558620008335,-0.3164607316446897,-0.37933755017012105,-0.35969130606808086,-0.3697757278562077,-0.36619995806236005,-0.3649883438909649,-0.36503090796276405,-0.21415111143178445,-0.22047204129904618,-0.21457840738776235,-0.20726992148705592,-0.21593186742667703,0.30015675818162335,0.32883274655363226,0.36416178255433906,0.38482032661278276,0.3268446788672512
7,2,0.27612285408196013,0.3233528176752163,0.15217222818264364,-0.4383317655226566,0.03099804348185986,0.1511882272979359,0.45623084320618523,0.1369680694907469,0.4154904961693493,0.2398672193427973,0.056795496621925845,0.2649231326804421,0.4903130686260948,0.409989502192758,0.18525115039997053,-0.02111218110320734,-0.04027288853414435,-0.05866034000468212,-0.04439721520417317,-0.05126550681593045,0.20152082832397245,0.3392615452104615,0.2530507093494325,0.23471463457491393,-0.0428810979022638,,,,,,0.07581959226250978,0.2812361374290794,0.2261725976726655,0.03951303168040776,0.24519358739492758,-0.06358180858275597,-0.06497840351143802,-0.07609296132423804,-0.05970910008903796,-0.05512584062430337,0.5759075320593702,0.6585744971175279,0.29794699814393,0.3342758389499385,0.13975658416328096,-0.05708353776146691,-0.1116230544260437,0.3240736329584317,0.519249696176628,-0.0568871721200499,-0.22258457807840304,-0.1946924839116002,-0.2465330888580286,-0.22892979956088477,-0.27136889243257567,0.4286926488085505,0.3946384214177985,0.3527432441941638,0.3053225680035294,0.4103297285810036,0.44721420115992383,0.4982945276496824,0.51704961621222,0.4587084509148016,0.387547583714557,0.27230811824587686,0.12137574304673915,-0.0342445539242231,0.36778847549156535,0.2458211952794448,-0.3205645252041027,-0.31871464727536236,-0.3219920008356594,-0.31523316557109893,-0.32102420807434484,-0.31648985782071115,-0.020396653062783487,0.342129895113782,-0.1336307856866461,-0.05861582502835283,-0.342530696288434,0.006354861526206346,0.3025050385848196,-0.11073671421675213,-0.04172523991673649,-0.02261094836131372,-0.031797037379843296,-0.020081416989645717,-0.026194467261050347,-0.008254445257330323,0.6329918533308099,0.6689047925851106,0.6435288773965152,0.5993425987891389,0.6732170088679659,-0.3305352548323566,-0.32473385289127554,-0.33292635474203447,-0.32445027584536246,-0.34983207040484254,-0.23129245708118606,-0.21558746048971789,-0.20007143756995127,-0.2161321676691359,-0.2575846535014501,-0.3341933027726034,-0.34227038132530385,-0.3393155895816282,-0.3382693722610124,-0.33836884562371927,0.0009504182725892374,-0.008060027011224769,-0.0019625751098346633,0.0034289762974410998,-0.0011517429570422344,0.3705792832590016,0.19170101690359387,0.25002956487839756,0.33243174193947445,0.2928749825521728
7,3,-0.04139255514259954,-0.031219424897481307,-0.1823902497538057,-0.44144138470691097,-0.20537914248140643,0.15405431370337797,-0.10174225279467408,-0.30192075009313957,-0.17071204764039338,0.26013026776345827,0.11016257024118448,-0.30799838801185286,-0.08043422744383588,-0.10829440151173597,0.1068892509482684,-0.23053138579781862,-0.25180436298230635,-0.25749739055083243,-0.2563085259689757,-0.2553919065458494,-0.16401950954166344,-0.019696729521442746,-0.09442075360506519,-0.08097155704022585,0.10308713158583094,,,,,,0.09278839543175232,-0.11470628304790575,-0.14862316538493836,0.07050085079270074,-0.1224172029748718,0.19945225474422312,0.20287020310537118,0.17767785715650786,0.21841904100271647,0.1617659209541631,0.21329699338411912,0.2877483029431065,0.4949558927601573,-0.026375391025611705,0.4583380297079356,-0.025641232779497702,-0.07747959273989946,0.4346298252363505,0.33896842089132084,-0.020461355040785723,-0.1372584259987375,-0.14581164557724047,-0.2028326434788026,-0.16743332300395486,-0.18767095880107276,0.06486854337823611,0.03148519632817559,0.470863785606215,0.4123711947957539,0.515257627465959,0.04179370697094642,-0.013643034368880924,0.6955972579966255,0.6804661359622667,-0.004519805111542485,0.38015993907913415,0.2693073634947818,0.10270420770953614,0.42880200605281993,0.4276764571735101,-0.13798753335903524,-0.1330804874129612,-0.13900692460536002,-0.13235145444506102,-0.13760516212434104,-0.14169641743465045,0.24487371316645856,-0.14099958977108384,0.14876287497653995,0.19122208901787996,-0.16292444044547705,0.32526273151710505,-0.14949043513643678,0.163489051972048,0.22426219849291318,0.2780851096343434,0.2344891294418041,0.24585534244102503,0.27720949620554425,0.30055476451904894,0.1738226398054059,0.19795295198710394,0.18409666860930196,0.1547127152419605,0.20751985145715968,-0.08886033581956743,-0.06904668927723812,-0.06527046439230055,-0.08580656139428133,-0.09174632860277487,0.029739861042732296,0.014357518221487675,0.046415122442551415,0.017025014476996336,-0.001797652097423219,-0.1625939186459009,-0.17459316174179862,-0.16859698788300448,-0.16882313300425933,-0.16983356387110904,0.26547747924857923,0.2510256218617801,0.26210667816395994,0.2550231302812014,0.25985623165015537,0.08960539813317003,-0.10698473526592389,-0.06688566224116999,0.0023547218181103613,-0.014329903032190616
7,4,-0.21543699529370186,-0.174439212150739,-0.21880333877677716,-0.42459211622172965,-0.24231831492304035,0.5493258181604205,0.1382541332515137,0.1510863207987837,0.22766933231879416,0.6479518824812269,0.3442558605327918,-0.026941829069647927,0.23958579631717192,0.04273829833439058,0.3191005999607175,0.10633309634570565,0.08481442414530027,0.06902451477754257,0.05673102955381437,0.04594517156300215,0.13538170481376055,0.33074356854421394,0.26025952287016296,0.2680811452732579,0.44070662912763514,,,,,,0.5452067151339706,0.37381256517285044,0.37965811480064393,0.5833089649606144,0.37391426965591534,0.38432652712639825,0.36780402429889647,0.3875191081081293,0.37272305399411754,0.41742821480439063,-0.06829996161341167,-0.033713386119627264,0.03736293141496794,-0.17680948202237157,-0.004189613218298582,-0.41783224919288253,-0.43916491457190676,-0.04432482443038621,-0.09073755802532935,-0.39531986772118666,-0.18968677133196188,-0.13379944177908176,-0.22760231513503237,-0.2270537805273487,-0.2190423257813472,0.5928047171393624,0.5447957390185254,0.9054124991611705,0.8845289727049382,0.8470530140000646,0.3524405641312649,0.1957304026811053,0.8262226559809602,0.7705016733152298,0.3404946416201934,0.7721280222458469,0.4866523408637211,0.37220129687197967,0.8494407883184913,0.6867059664856561,-0.5492106411928017,-0.5487669271012781,-0.5466915768415177,-0.5528978146140007,-0.5466887476479387,0.06662315874746805,0.07286204376266014,-0.11666566895982311,-0.020905223549947394,-0.13837951389649383,-0.014343015220288802,-0.017257776296648153,-0.26320063044934283,-0.08638926510532263,-0.08028876736221058,0.4453068639201426,0.4567270066690251,0.4772633828530284,0.4320017548890136,0.4450603880006314,0.42192134274370074,0.4001139428342073,0.41040113072345064,0.4368210347845791,0.40239260138158306,-0.42694005443936955,-0.42431264060061014,-0.39304072927288836,-0.41497205922035874,-0.4174366845166908,-0.2727631191291686,-0.31061011561119445,-0.31873843550517433,-0.2793001951904239,-0.2693718843090831,-0.5672528923239644,-0.5560663813466915,-0.5611475840424034,-0.5629284666233336,-0.5607586830847606,0.47569704587528605,0.48961491745838503,0.48043511279560747,0.4959481841831912,0.48562889973081047,0.5809354108331706,0.5300064771042443,0.5603469346337363,0.580969457378032,0.594644474652606
7,5,0.19809153847811212,0.25593838077187425,0.14647516191837728,-0.44406703231801936,0.01900674639331179,0.29419601110387394,0.5798960777724393,0.3652611374286927,0.5971369871693484,0.38170816227597393,0.1316435999507901,0.38929795497746333,0.63951010519016,0.4809708294952182,0.24973335106889194,0.1480241530705526,0.12971171349910005,0.10765931109162286,0.11569820678334097,0.1046095728207751,0.3665936154277116,0.5277360614266033,0.4438919998523536,0.42063244540080924,0.09884248895401793,,,,,,0.24924691056886505,0.5038519844443761,0.460700603657364,0.23800549649242142,0.4720800963551357,0.011886710867666461,0.0052828978171352015,0.007021060669146539,0.006531603856838153,0.04429461339031415,0.47018986403139795,0.5215381783386038,0.09615784362130686,0.2909903550050533,-0.06078018044030098,-0.24459043070742692,-0.28705574766571007,0.12018001051801419,0.3473359276145753,-0.2386372022471237,-0.24699566807342244,-0.19142505884557814,-0.25794888652256853,-0.25449748908646086,-0.2851616230183889,0.6830301118173133,0.6440511221452926,0.5266365498857449,0.4909422481404211,0.5370865237644827,0.6244498975198463,0.608777124124275,0.5632425395661292,0.4963864951981971,0.5720825366499838,0.42674225014802003,0.21735640836241443,0.08725795157972915,0.5307614918944732,0.3459340650884656,-0.5107167466575921,-0.5103264424706286,-0.5113961980181667,-0.5077652910502066,-0.5105600606840639,-0.21487839456045754,-0.10319518845309084,0.38694524505750705,-0.19352665241783007,-0.18878952097049084,-0.2684193586983805,-0.14460084982729415,0.2860581997637326,-0.21023710302656218,-0.17469828691163536,0.05317177884766355,0.06285579560287236,0.07567366319630342,0.04579317048451237,0.06026846608957215,0.7385742350076137,0.7583614732407441,0.7423535451002147,0.7155310008256811,0.7598265662596345,-0.48656595052193974,-0.4854060482665372,-0.4786984961199978,-0.47578216809482377,-0.49671947713817155,-0.3633232754202689,-0.3610095598518579,-0.36422346671587613,-0.352957202294061,-0.38230167513452895,-0.5204880999338537,-0.5215735333943603,-0.5221457589099106,-0.5212064694729399,-0.5202016366255493,0.09205436367175412,0.09160795140012268,0.0932305576623692,0.10455425547769504,0.09532482143556387,0.5825751513436564,0.4838338566008742,0.5361093266212413,0.5983697521773801,0.5607109650828365
8,1,-0.06222146180330501,-0.020782499385578967,-0.08395808298614882,-0.06601941100894893,-0.07632577155169473,0.8211445894513026,0.30190910263784254,0.4256623145135303,0.7666723058801713,0.8574807269413338,0.6601742281504459,0.48502382347608175,0.6870936108184488,0.5506366124521618,0.4946770778991363,-0.14013180916491463,-0.1317066417572259,-0.1447911729879232,-0.15434751227563281,-0.16541214748632616,0.3703924256445329,0.611328803468639,0.559163875163129,0.44564330354192394,0.4565270671614807,0.12745839129438497,0.17880821983979744,0.010255511295779951,0.5547765282221201,0.4281459784823409,,,,,,0.7576132370628661,0.7763896523595428,0.7518607071432081,0.7716262281323374,0.7549077825298586,-0.06687453154403955,-0.06801222884890579,-0.29231672509292395,-0.05596959885804487,-0.3380463177832653,-0.6662398915100538,-0.6631616809574821,-0.4773472367071263,-0.40608290265641034,-0.6676096814352823,0.12563921071772433,0.12001082523065065,-0.05883748881614226,-0.004902357929750023,0.03889819008857176,0.6934943507721065,0.5937117223564763,0.7916952311313834,0.7666357466969056,0.7966855723416227,0.262257408975475,0.2056666758530652,0.4321317259348457,0.2774454016488723,0.2538985645397114,0.7980220090490996,0.4022759095605605,0.32392130023875854,0.7813503408711184,0.6873381255408676,-0.7691149710373362,-0.7684719856091493,-0.7691723512469304,-0.7695334529809346,-0.769406733162393,-0.10820094449221584,-0.027143280450025342,-0.1461714409963717,-0.22001339555597754,-0.2672533650118305,-0.15695068658901556,-0.21259253034136205,-0.31025517879290465,-0.27426594128000525,-0.3069969822432854,0.5750559316386256,0.6015329895782906,0.5847658616954187,0.5766969967882198,0.5739814390910537,0.8550861917328701,0.8395760168899953,0.8545251018179535,0.8476167184276598,0.8470348321625982,-0.6775144780210802,-0.6826970958850689,-0.5766736820219132,-0.6211641737730558,-0.600807074593102,-0.5367175453639046,-0.6035915923935178,-0.718421859620169,-0.6013148755375743,-0.5532740802985443,-0.7755611902440818,-0.7740081941745669,-0.7732327974972086,-0.7713782504712245,-0.7740043421596283,0.6738978436236139,0.6743090419136928,0.6778669759316567,0.6943678884369104,0.6819891823353301,0.8104561108159395,0.649769752424494,0.6873726005311285,0.7791011342676033,0.7716441448425314
8,2,-0.024858287221085407,0.01381161790733898,0.017819474261266288,-0.04662498775917734,-0.006954970044215525,0.7415773523103896,0.36022445002372694,0.5521654483379602,0.7826529469318185,0.7919854051006406,0.6156952742008716,0.5399723169066601,0.672953421439447,0.5362390655501866,0.4995898278371609,0.032793727954662066,0.03784765729979722,0.023107453283336743,0.009612750219195387,-0.0032233676992297067,0.5019829537197257,0.7213450484225258,0.6729327441616663,0.5844239211657066,0.5854959907272885,0.16060930118291228,0.14093194936836506,-0.052999322585858044,0.5828126544324689,0.4298343341908254,,,,,,0.6819048430865794,0.6884436873703298,0.6874466195951612,0.6827774096240548,0.704604248335596,-0.01374789795496345,-0.04809075913520555,-0.26807571019187737,0.043775040444604674,-0.3260097735122671,-0.6519108342185556,-0.6483849989163359,-0.4427456419527178,-0.366398530540502,-0.6492856039367652,0.11850041781564002,0.1471463434462671,-0.03963090030813099,0.002322724708796131,0.050868398724582375,0.7772109385064715,0.7011204616001591,0.7976941871840314,0.7922823874220707,0.7568420973297565,0.3868695832637794,0.29448283987010826,0.4220003529401205,0.2925149844036836,0.38679211872868735,0.7731826946628917,0.4228006447713757,0.38416660019383575,0.7831551404471355,0.6364333211765221,-0.8095280507775366,-0.8104420355149005,-0.8086200231589058,-0.812453891947599,-0.8087681843499976,-0.012698496456116093,-0.17252890994900305,-0.1290208948198659,-0.30980422395976803,-0.39950818598142535,-0.05720934148196455,-0.3749561527213703,-0.30854108324083773,-0.3720767170554704,-0.4114326481229056,0.47326357449625434,0.514140497456652,0.507310196401945,0.46858599609834173,0.4607916119249933,0.8289788371190077,0.8079053469155122,0.8253032315360473,0.833663096072632,0.8084795626117677,-0.7445486563092261,-0.7516915865370208,-0.6705637894742229,-0.7058855630384193,-0.6876384952604055,-0.6172324517013583,-0.6736283974663761,-0.7615036134892712,-0.662006229955129,-0.6147929460700414,-0.8203287810730808,-0.8111326482751253,-0.8150023930145993,-0.8143678043494624,-0.8147127784821051,0.559813261927029,0.5725897092655112,0.566402268461246,0.587488685070941,0.5740501910349715,0.8007371184792313,0.7447318115252834,0.7709531843191008,0.8173582356528327,0.8202727056229469
8,3,-0.08712288645650279,-0.04178045081214399,-0.039368405509845106,-0.03263679561034838,-0.05086698039870896,0.7267352813162238,0.2795403004136885,0.5089694589723176,0.7466395839978669,0.783471589859951,0.5840745644252019,0.48231977186468544,0.6138376886937337,0.4789136825813708,0.44014043351315024,0.0604164358386039,0.06218225312308867,0.047375016991525576,0.02906694812869115,0.01487785701411437,0.4783454344265883,0.6993757724986672,0.6508374295626337,0.568882657071694,0.5819971020495719,0.11343895322509656,0.09901015138769098,-0.08232396124637065,0.5917629116582221,0.398938520768764,,,,,,0.6955384902981615,0.6887551013462003,0.7079122907219336,0.6842923042228355,0.7296175834795244,-0.0529492724963978,-0.07968632956681065,-0.28775514261735635,0.011996438267126708,-0.32005982302691804,-0.6569571128554506,-0.6472546362703637,-0.46739160047626394,-0.3897881799464653,-0.6477084597455973,0.1058005652645676,0.13769173938687695,-0.03777877139709185,-0.004733962193907093,0.047174430922124366,0.775986069792773,0.6987040222326146,0.8101807185297063,0.8154239337355901,0.7580622566490195,0.375145337154301,0.26892843307021064,0.40794294483566484,0.26112913102643076,0.3867808171397489,0.7586741271831358,0.3908591093829654,0.3695155911292426,0.7668251849907116,0.6315800668297333,-0.7750170397987814,-0.777657496799679,-0.7732538944232381,-0.7811687058706964,-0.7736096468451752,-0.02260030919539613,-0.19531413816069154,-0.1480770718405784,-0.35362982002462706,-0.44294198500978865,-0.0716090095841384,-0.4078552868523504,-0.335882933432639,-0.4191547685711936,-0.4263545621640952,0.4872782982763999,0.5326592649346551,0.5368050093748821,0.47832101685444117,0.46702769088157414,0.8055241070836096,0.7740963700963961,0.7956754526970082,0.8195861638315629,0.7761002797176533,-0.7099214174119248,-0.7204721770861187,-0.6469286096627251,-0.6785608517695358,-0.6592429101232389,-0.6057346949367721,-0.6626642204195636,-0.7316405921516638,-0.636297935014976,-0.5792109999382604,-0.7899365871348143,-0.7730193406023091,-0.7803740393333851,-0.7806963426409892,-0.7788965023569698,0.572562391893759,0.5959873500121867,0.579937340649136,0.6032372476368097,0.5906938558959807,0.8135537713444239,0.7627410046188766,0.7832651639774965,0.8179106618271653,0.8426670926705232
8,4,-0.08617276150547837,-0.03821495887722981,-0.07696568528823677,-0.06954522270639862,-0.07880180550351157,0.7986424980759745,0.2904398575593097,0.4494787501071329,0.7569713662124062,0.8465813202092924,0.6414481691092372,0.4746777386131753,0.6645243358473375,0.5119371881910398,0.4770889133896248,-0.07187962870324394,-0.06783410147444702,-0.08271565824184068,-0.09713914460684325,-0.11046877980271685,0.38330461056575826,0.6292531154697028,0.5726969279532702,0.47471495268092523,0.4898723625796749,0.09671377185777785,0.13273020099085464,-0.028130475903893837,0.5895852933685409,0.4094071049742487,,,,,,0.7666728564448909,0.7718874231119811,0.770039603103693,0.7671000433723839,0.7837707563701714,-0.10352680041567908,-0.10669733902512935,-0.32124449242600717,-0.07402267063384915,-0.3457141910235284,-0.6909984159981004,-0.6840176908253772,-0.5037788596174786,-0.4258161113507861,-0.6849244584115199,0.11538703912825221,0.11916674266579674,-0.05276268847321863,-0.009029027343969931,0.04135561496225193,0.7296719579735413,0.6315204441196731,0.8239342788680257,0.81771497463984,0.805588849706365,0.2888906974970822,0.20745029163584416,0.43003921339185003,0.27461951683888974,0.2963289095552062,0.7953874062413467,0.39874577847387627,0.3333718460695708,0.786972728981385,0.6884992941066043,-0.7699313947341648,-0.771221127190663,-0.7686992663597656,-0.7740843453694493,-0.7689994511107057,-0.09476903576784346,-0.09719860709947392,-0.18303577825826478,-0.3010867713510246,-0.35853119902287656,-0.14965708254841803,-0.30310802404870363,-0.3685879948827604,-0.36690838727927444,-0.36623335115665934,0.5784565449817701,0.6157627150753304,0.609407930087713,0.5738359399641086,0.5676402610192994,0.8362260031017742,0.8111901245611683,0.8296452605984128,0.8418571640961123,0.8143242944565189,-0.6771039586859482,-0.6862640251040879,-0.5920535011340307,-0.6335521447877253,-0.6116079919397626,-0.5530240836720992,-0.6206063434882569,-0.7130934909174296,-0.6037092108299298,-0.5436135578477872,-0.7807088026365876,-0.7691042108870927,-0.7736142749563757,-0.7729939938670105,-0.7731569785267878,0.6654262260404128,0.6787818631059909,0.6711551864092113,0.6909706811832613,0.6791524862836765,0.839617898579489,0.7039149961602926,0.7371143941635344,0.8078771567193428,0.8205588340955889
8,5,-0.08916277974469611,-0.04704942778020471,-0.056634263355408,-0.04506016425450632,-0.06334755469117725,0.7589154614892043,0.28397879498086165,0.5250288165434851,0.7498798717768913,0.7992324398660433,0.5773026801761889,0.47080494831923536,0.6328922973998302,0.4756883897502706,0.4286064102315065,0.038898757953966134,0.04548270217107975,0.03317362512374844,0.01953972690925687,0.007750968190915808,0.49589518550088996,0.7131498394380745,0.671176151130582,0.5758056006449569,0.574798438448038,0.11709775088932306,0.10763740139889655,-0.06178206532283892,0.580628435689004,0.40070572527487713,,,,,,0.6895518813297875,0.6988719418519038,0.6922977805600352,0.6939692771887316,0.7027702795979712,-0.06726154318814626,-0.10405927798488301,-0.30923595487529965,-0.005342310558667629,-0.35317028144650053,-0.6668686121531802,-0.6601826096305965,-0.4818795651711618,-0.41261502721499665,-0.665218129482916,0.10036524541686109,0.12597225076896512,-0.049677192859258534,-0.011940700305137053,0.03649465009834052,0.7755806764732974,0.7015377319117859,0.798834959124987,0.7851431989555288,0.7576172259525125,0.3625472166430467,0.2541418255012391,0.38889454903187937,0.25147219842869584,0.36182584357226977,0.7663152265087609,0.40253398494815795,0.37117822039448767,0.7682996491930972,0.62793674022127,-0.7756066798635195,-0.7757427162515314,-0.7750520329962798,-0.7777719155455678,-0.7753523660674468,-0.00913626250623567,-0.13581484653769382,-0.11512907112413329,-0.25822544981472717,-0.3540822980724896,-0.05601330787195491,-0.3316761662508967,-0.28333235642791554,-0.3217287371418105,-0.3775111230767776,0.4970835615031932,0.5321379410233761,0.5235636388333764,0.4951444443669395,0.48912070788363793,0.7995360549499593,0.7765501644374224,0.7968620860043072,0.8022464839918552,0.7820749232924904,-0.7028203010194511,-0.7086873631950512,-0.6187625997148989,-0.6562748965565195,-0.6362639459419988,-0.5924224801099389,-0.652691683725144,-0.746156216866352,-0.6439168471133876,-0.5936196327682917,-0.7841242018839463,-0.7781034826166509,-0.7795545415378453,-0.7785397271083796,-0.7797783098575217,0.6054804764500193,0.615098097825972,0.6112311488131983,0.6318042843942449,0.6175339242059183,0.7994049791808016,0.7545773407243924,0.7772955218017555,0.8249921088299635,0.8227912177866716
9,1,-0.23277012189730506,-0.16991245853431147,-0.3186771460780349,-0.1051424341569045,-0.2543258612929318,0.7326286357839157,0.05747034186169897,-0.019813814243311523,0.5144875281891543,0.7454532938154269,0.6891839277509664,0.2440393607036121,0.47108678694341966,0.4138029488045223,0.41391507538440964,-0.5472065374820212,-0.5487416475556592,-0.5601493709339627,-0.5747967906113538,-0.5853135864457784,-0.16334561497467837,0.1412210856894618,0.044645003586390564,-0.058060874003171836,0.08870734432084593,-0.2331191348357533,0.01473609624825456,0.07799027763160615,0.4142382898469752,0.15450232835994482,0.7634444300946,0.6879908955588531,0.7007055581500359,0.772014565038069,0.6947683920433768,,,,,,-0.34152154353413855,-0.22516520069190604,-0.31273023552307233,-0.3967561628378906,-0.17572249541156015,-0.5635400712353023,-0.5416062115511593,-0.5323529508848805,-0.4720850744443561,-0.5409831322962049,0.3233383285774081,0.1636205973631879,0.02870129823054135,0.13183622213834645,0.2070831764132931,0.28035407642662435,0.11250048381184685,0.6295442291404996,0.6381986291165912,0.704261732815451,-0.11273465722981313,-0.0794012704501923,0.4070732312004557,0.2707828692708234,-0.03597207694893512,0.7269281792068183,0.3845736897183616,0.2626020010270306,0.6014390138311198,0.8029065775750535,-0.5044739027005585,-0.5067410383861288,-0.5009591989761195,-0.5131041932450218,-0.5026301590948359,-0.24843912081083785,0.20370622358626445,-0.500288402940777,-0.2372646578216968,-0.10297098392572224,-0.305042227445639,0.043337833615882504,-0.6765882674930195,-0.27712344487642837,-0.06332190186080577,0.8689778695644257,0.8753286075839517,0.8765456842358271,0.8653634748821945,0.8560827143325743,0.6484350713005935,0.6099815700311026,0.6291671603549304,0.6569335934329208,0.6171074792558572,-0.31950583351688033,-0.3326784610382243,-0.2236395521901704,-0.2820118337470223,-0.2447314088911101,-0.16134450445483717,-0.2456788109910888,-0.3249660103274108,-0.21984483434721946,-0.11308364799416193,-0.5218317766680456,-0.5042737254365974,-0.510102979496045,-0.5115747842453238,-0.5100099079821336,0.7761690524157184,0.7932681960482985,0.7813480967420056,0.7909083116605685,0.7896409157367691,0.7013727176575728,0.2888709265703353,0.3370405638790741,0.47896756673394514,0.5358389231285364
9,2,-0.20973697697059812,-0.15172410192544294,-0.3006246998311981,-0.10485669577010093,-0.2388835864279577,0.7525946551489844,0.09284530497563526,0.010011938671830811,0.5288830517739974,0.7539799428744562,0.7004605938384973,0.26452218784914505,0.5025818520533386,0.4335324330111351,0.43247013412066304,-0.5636764265776009,-0.5611920572406832,-0.5714101644026872,-0.5823666261950089,-0.5912530172565726,-0.1496876322458509,0.1499679386042847,0.0583830379374487,-0.052691068914293204,0.08201217442422204,-0.23533690133660157,0.011754955093090658,0.07706149983935984,0.39386786010663655,0.1472547448141348,0.7811248086010765,0.6932557054922559,0.6927197531667568,0.776118996964647,0.7029398102268882,,,,,,-0.3480908129597722,-0.24153211518497875,-0.3287873231501619,-0.40156100718815146,-0.20180796830607894,-0.571008144143939,-0.5513961032194716,-0.5413668123750863,-0.48628773391835245,-0.5544857508721721,0.3225136121470771,0.1611976782920691,0.02345565639873448,0.13010768828523678,0.202737018312094,0.27690241925804515,0.11031118922589345,0.6138171634981441,0.6124594171966248,0.6968541602713643,-0.12192783311719313,-0.08803043660233656,0.3899653931241267,0.2629372115756319,-0.054450932467724256,0.7273510592170164,0.39121257656303454,0.26027442979668236,0.5982303630215472,0.794258997271343,-0.5119283368348859,-0.5126569137976555,-0.5092605159918517,-0.5177803374267411,-0.5108155031218651,-0.23647253049725636,0.23069664317810756,-0.48227417838175435,-0.1848128986853066,-0.05781673888259409,-0.29138712333550165,0.07807470092758817,-0.6487124081803124,-0.22641007956113213,-0.048853140496577074,0.8697366044728749,0.8716465085044511,0.8624976283484783,0.8703426330310811,0.864447940484534,0.6447525688693776,0.6134046280790142,0.6303253895247257,0.6456367738921885,0.6207052173561175,-0.3219024522832856,-0.3323972433759339,-0.2118718084990352,-0.2754049321043246,-0.2376922281482119,-0.1532175180601989,-0.24046670007950066,-0.33926801873558077,-0.22734930996320046,-0.12600371791692622,-0.5251968071519104,-0.5144809084884661,-0.5169211402216205,-0.5174713976535017,-0.5179423090563149,0.7907576757148276,0.7983641585684966,0.7952169668124318,0.8021649941777917,0.8003936201485738,0.6898470173781626,0.2784998800797329,0.32920480692987075,0.48073228935010404,0.5179805025485307
9,3,-0.22847176170421335,-0.17270191345681818,-0.3031815273948806,-0.08900509921140842,-0.24142285296864463,0.7222414889594514,0.07469717089926886,-0.015833934519002613,0.5312720237709213,0.741178677063503,0.6982049328681877,0.2647416307132866,0.48197133400385206,0.4201292212759491,0.4245912227324409,-0.5300588360121301,-0.5338963196577153,-0.5437737619105008,-0.5629447663930316,-0.573695122204954,-0.16762952616022253,0.13706001369113585,0.040770293555318915,-0.057704950523304266,0.08256559321039891,-0.23328904304243903,0.002437590054243932,0.05690677868109062,0.42441468478517497,0.1518735235973745,0.7585692282238767,0.6945239742386599,0.7140849010046209,0.7762779239228708,0.698506115554659,,,,,,-0.34897604946484817,-0.22938444045886786,-0.3184188864539541,-0.3930250975526861,-0.17554672227339108,-0.5738734107105321,-0.5467839653839035,-0.5502006133589927,-0.48599162404995244,-0.5471512808647714,0.3220973986633042,0.1664440669441941,0.03304663348692738,0.13234999832993088,0.20808432595007065,0.2889032083866331,0.1272745462735807,0.6415607313260323,0.6619984736241558,0.7095407692612801,-0.09475315957693775,-0.059218653927687104,0.41830013998443016,0.2799703419833435,-0.00823137101915461,0.735631446697656,0.3918905755375939,0.271634240766104,0.6149327289827556,0.8136884074453875,-0.5122926556774563,-0.5145862268712422,-0.5074137971487049,-0.5233946095381143,-0.5098209780706182,-0.24509597704672736,0.1893703532785629,-0.49959098273413205,-0.2663966841530916,-0.13497232974371487,-0.30219264770073595,0.012680479097053055,-0.6784529242555415,-0.31008616145112655,-0.07758811819061351,0.8640561898540494,0.8768820577422723,0.884118313672999,0.8568511021216972,0.844703230041009,0.6584358087141182,0.6158032833567744,0.6391112415304947,0.6755480183191264,0.6210434654685848,-0.33420337591577876,-0.3484998190333244,-0.2480003099185628,-0.30216502396360534,-0.26557379031901296,-0.18066295027730028,-0.2623647885578593,-0.33547802323707554,-0.2296934875934178,-0.12053111693012086,-0.5313808295458653,-0.5094522167748743,-0.5170579594671785,-0.5200439548238123,-0.5182559643432665,0.7623737868791587,0.7884144244314346,0.7682975167925573,0.7839243076385428,0.7803223214903594,0.7208605752883959,0.31287451790865406,0.3603184035752427,0.4934289910158236,0.5634048987954385
