f_id,i_id,2_1,2_2,2_3,2_4,2_5,3_1,3_2,3_3,3_4,3_5,4_1,4_2,4_3,4_4,4_5,5_1,5_2,5_3,5_4,5_5,6_1,6_2,6_3,6_4,6_5,7_1,7_2,7_3,7_4,7_5,8_1,8_2,8_3,8_4,8_5,9_1,9_2,9_3,9_4,9_5,10_1,10_2,10_3,10_4,10_5,11_1,11_2,11_3,11_4,11_5,12_1,12_2,12_3,12_4,12_5,13_1,13_2,13_3,13_4,13_5,14_1,14_2,14_3,14_4,14_5,15_1,15_2,15_3,15_4,15_5,16_1,16_2,16_3,16_4,16_5,17_1,17_2,17_3,17_4,17_5,18_1,18_2,18_3,18_4,18_5,19_1,19_2,19_3,19_4,19_5,20_1,20_2,20_3,20_4,20_5,21_1,21_2,21_3,21_4,21_5,22_1,22_2,22_3,22_4,22_5,23_1,23_2,23_3,23_4,23_5,24_1,24_2,24_3,24_4,24_5,1_1,1_2,1_3,1_4,1_5
1,1,-0.27925180472402933,-0.3806022610923976,-0.30452873065496155,-0.3164042649960881,-0.24301510018552697,0.9651893442518518,0.5353072111935822,0.5906864395275006,0.9476680596363526,0.9845328339504805,0.8573318377907134,0.7570159177479271,0.8606636990311308,0.8941327272353363,0.7251078648282943,-0.2855962120962652,-0.2458136571163192,-0.2712518387891516,-0.2626756374284773,-0.2808344657031583,0.14844175885330668,0.4254080502584823,0.3856633649853083,0.19009791877758353,0.07931524358082132,-0.04678323402085982,0.0364593563768556,-0.09570902302463358,0.5086246658773926,0.3267882353697631,0.883814377742975,0.8519645594056712,0.8405689546617301,0.8773743479139159,0.8584990434953425,0.7189265349659263,0.7388961856298419,0.7186523112672284,0.7263299046719329,0.7478419362623017,-0.4438626496157341,-0.4693427263928154,-0.629085083770907,-0.3590334443812222,-0.5868913032672254,-0.6894158714785712,-0.5983127352802549,-0.6880375180416634,-0.6474726191011893,-0.6339792930961474,0.36934547030894893,0.14940189050045793,-0.006801155903119804,0.13979024783741245,0.17899426807207974,0.8017715602375001,0.669441126089479,0.9315454155605214,0.9379525302282867,0.9498360495908186,0.47583622391027514,0.4414778972846045,0.7058098135148431,0.6432888871911067,0.46741332762366095,0.9853945483632471,0.9235691748941499,0.816768213807824,0.9450739882526792,0.9771794194353177,-0.8298615014997841,-0.8305895506058887,-0.8285742846913879,-0.8320628103978966,-0.8316526991800239,0.3967138253616407,0.7201177981444289,0.39289460022162814,0.5955208241090442,0.4923131557240916,0.2211815547172853,0.5151663985056141,0.07837587995971285,0.5097192622393244,0.1813450814880292,0.7895215881597757,0.8049920782896061,0.7934529751389197,0.792991189118241,0.7954174444846711,0.8151230464059388,0.7900697011458333,0.8039792028427005,0.8163650844652928,0.7938174077385317,-0.6522813742691169,-0.6668193231863255,-0.499747448119388,-0.5732514747328379,-0.5539664767073247,-0.3564673256219546,-0.47935485052210325,-0.6893877789347962,-0.4971916616124037,-0.45711686602864887,-0.8178535682660824,-0.8167353968253459,-0.815439766659126,-0.8142144573110857,-0.8160053129073779,0.8642056992731967,0.8568389807074436,0.8684677609263081,0.878231076522831,0.8676315940318066,,,,,
1,2,-0.2710969140277959,-0.40626014483319617,-0.22733013672666047,-0.3579425803222822,-0.20359420766006675,0.7199234487302745,0.4604829940972026,0.8150713386808427,0.8352985963693355,0.7587140702017698,0.5962186255116546,0.6517293287876469,0.6730331415590132,0.6768064628507565,0.518082854249209,0.23557491167548783,0.2808625726317844,0.2540743131699075,0.25936379320386793,0.2458369984984825,0.5399103299832892,0.6922648831941047,0.6934296524220263,0.5646035568559864,0.41997745880669946,0.03784737850825293,0.012217587842498934,-0.12752385493143414,0.5480243065088765,0.33479507331114533,0.742264520318577,0.7738259817313609,0.7792700199111441,0.7570616521271764,0.792263091837286,0.4162415885823392,0.43951739245966404,0.4131851786127111,0.42375544750271077,0.44800444594390043,-0.32731101186524425,-0.42034254034532204,-0.5624553390752358,-0.17456339202916338,-0.5690950569158941,-0.629368026681612,-0.5608588455905639,-0.5726152622299105,-0.5387732264345724,-0.585854913156727,0.19919753815959518,0.13079187423684147,-0.011790247353001382,0.07234746301586181,0.09898029529869845,0.9506921608225621,0.9214322089936234,0.8498733758469278,0.8479989306137938,0.7641391047460564,0.7929871420195601,0.6392458255846944,0.6255065211401653,0.6264890962644403,0.8142199251546759,0.8449387038684647,0.8784657105524246,0.9377128254859884,0.8488308740577531,0.7363824036756388,-0.770762863285678,-0.771168921176391,-0.7699747736427991,-0.7713439289021187,-0.7726386208801959,0.774404864989557,0.5175712798375842,0.5942833877921438,0.6073658840041025,0.32745113250152835,0.6691972915365612,0.30174646836845853,0.34377907497274784,0.5511186396480126,0.057546896528384184,0.49762566398496455,0.5170268019749993,0.5013192280626505,0.5035047977776377,0.505481099660342,0.6197453752831753,0.5878385510244595,0.6044021926152167,0.6214653009954685,0.5967097198790958,-0.6636727122253046,-0.6745364642529621,-0.5696622642840392,-0.6039762353771865,-0.6062521560939715,-0.4371630991472899,-0.5165689610963697,-0.6665568298000362,-0.524481562244995,-0.5223258388043557,-0.7560639239096387,-0.7572411710843032,-0.7551542752970102,-0.7540114260160875,-0.7556838191792412,0.6025813139567104,0.5960850236189404,0.610181460945938,0.620349155559585,0.6056134671928494,,,,,
1,3,-0.24690124602070895,-0.389403735693725,-0.2070282038688167,-0.3594916698198136,-0.18571365288992392,0.7616921484484146,0.5168170076849625,0.8197342698919784,0.8757064493236498,0.8009103494138515,0.643520849066861,0.6991200933945497,0.7307402971374349,0.7286475068010089,0.5714931894239562,0.17698529993707002,0.22179285348393885,0.1945698616813878,0.20108660980832105,0.18622189115939214,0.49948939295652195,0.6681102778295579,0.6615147374029862,0.5269298080555932,0.3749296174267722,0.04905233317441404,0.029701554773101324,-0.12142041831310069,0.558473535812845,0.35450691500313325,0.7689284295766886,0.7949799942605116,0.795140641731249,0.7815212382592966,0.8097232755777453,0.447283033633896,0.4720289124394441,0.44505594902237133,0.45589356262086955,0.481779824733106,-0.3369882289703887,-0.423458234077263,-0.5807011331028344,-0.18814297161133453,-0.5854567676717195,-0.6511106774442745,-0.5791327094480423,-0.5947175325485856,-0.5568709892821904,-0.6056960051476454,0.21430746758801322,0.12754794148086734,-0.01780345298046382,0.07269256819082082,0.09990568740178896,0.9522989786880108,0.9108962263731696,0.8763947976933988,0.8794216017108764,0.802681824899686,0.7731840092577842,0.6359801184041588,0.6536309956331203,0.6546413535113164,0.7884999966408827,0.8789201424168084,0.9089515826113354,0.9346347199513236,0.8841068662593494,0.7798275201687989,-0.796574486711739,-0.7968928603115351,-0.7956254549478463,-0.7974695290288971,-0.7981825002930756,0.7316132620349096,0.5494405581360677,0.5816057575661399,0.6124306112831974,0.3478566077158438,0.6138882506710958,0.32735390636267525,0.3171534685247872,0.5496109084147376,0.06609601989849379,0.5322318501133785,0.5536821746824035,0.5367225616481264,0.5373413820351878,0.5400474967181981,0.6630364789772165,0.6340783456976725,0.649041954384608,0.665984922846989,0.6391470312885829,-0.6798298539153864,-0.6915583278026183,-0.5801619048117441,-0.6187902793533508,-0.618498874591416,-0.44203673446336866,-0.5269421749379699,-0.6867559757070856,-0.5367323389622776,-0.5319257506324737,-0.7813741068118303,-0.7817156239263992,-0.7801589070870447,-0.7792417960329443,-0.781082009351846,0.6361943188085286,0.6291865910179367,0.6435928219740253,0.6543000576879443,0.6393697707041592,,,,,
1,4,-0.2765368993514472,-0.40091986479016795,-0.268552764813335,-0.35693719954553016,-0.22680693419172582,0.8766009644105144,0.5358203808979949,0.7363477687555156,0.9343298161731314,0.9104170811580289,0.764256276800674,0.7464734201209965,0.8134702296641154,0.8297706073622535,0.6628116024103256,-0.025110740337888737,0.019555058191780272,-0.0077955558489901655,-0.0008074271693450097,-0.016903290705127638,0.3577776827328638,0.581486928229243,0.5612100683943542,0.3899325781930101,0.25786372466539464,-0.0018230036534114813,0.028262675536012027,-0.12132193371368483,0.5468874570758789,0.3472161986086354,0.8462865930414782,0.8466289088090576,0.8417476883710144,0.8500196928810022,0.8589967160668374,0.5829887056231237,0.6066397651877192,0.5812968380026501,0.5912773205158246,0.6160623331527826,-0.40493333475729854,-0.4656312829663847,-0.6251678954730049,-0.2825706303019533,-0.6110123232248461,-0.6941191983862185,-0.6115267817228704,-0.6602736055949383,-0.6206821651762249,-0.6429467967722053,0.28732552565706015,0.14092042347597955,-0.014974573628493637,0.10350023008383924,0.1362251426190726,0.9147230408747306,0.8315169410789574,0.9283856769250283,0.9316407040690624,0.8930271013766145,0.6660353997481269,0.5689926846093722,0.6971739011040166,0.6669630943897124,0.6724121641825699,0.9561341271621584,0.9417745572278541,0.9130126138943723,0.9392606241653124,0.8930849210196855,-0.8324164914432886,-0.8329424530236635,-0.8312682770062523,-0.8338857884607218,-0.8342565001759685,0.6122472692259423,0.6548194399410269,0.5322055879612695,0.6385400337453779,0.4374038210630373,0.46654077813906847,0.43570446839340093,0.2392314475797599,0.5652763002342033,0.1360183764874382,0.6650002703015746,0.6849457283958239,0.6694340731778892,0.6697487458163067,0.672276122393744,0.750882765993482,0.722294962591697,0.7373566915357761,0.7528697239083075,0.7280533959654063,-0.6844210298609548,-0.6978099513993685,-0.5571870775386507,-0.6122774912070823,-0.6049675937685444,-0.4109195351996551,-0.5161399664721382,-0.7050928074297147,-0.529131087778441,-0.5097190849811053,-0.818066539170798,-0.8179641508881326,-0.8163262084481144,-0.8151957312041826,-0.8171876418597352,0.7607078915321288,0.7536276316423428,0.7670837589576989,0.7774449686466023,0.7640698178689892,,,,,
1,5,-0.28844621605740395,-0.41601795987986345,-0.28073092226772367,-0.34819231771907555,-0.23418309482153488,0.8861778549913398,0.5146410857193836,0.725926968033437,0.9354238364938454,0.9149945345282632,0.7531101133597367,0.7307343848158082,0.7986358130785693,0.8199773219260285,0.6385406995477393,-0.035481727834143495,0.008519200542277616,-0.019070575070527118,-0.010905334546506662,-0.027847509276079263,0.35950255347075755,0.583617037549211,0.5631934923955204,0.3943010850565565,0.2564029607734134,0.01448919489741829,0.0462646259440056,-0.10023719372068651,0.5652583950285156,0.3662286791530911,0.8533684487335196,0.8520076713594904,0.848851494048421,0.8568387916229333,0.864582134423901,0.5910178007098655,0.6129551756251422,0.589289612602501,0.5985436154625603,0.6219492480247415,-0.3853194073653321,-0.44566759093604014,-0.6136584904193028,-0.2641692611820201,-0.5948743591037258,-0.6840173377763501,-0.6008440230952605,-0.6531714403031057,-0.6137617292561126,-0.6323561182976909,0.3023863807823025,0.15005128077975094,-0.00809655499858919,0.11411154381969069,0.14728570365657145,0.9192946413868575,0.833382784195402,0.9389608261515511,0.940113457840526,0.9052001115841439,0.6674182306738997,0.5774472005768377,0.7123694505168074,0.6769524932503284,0.670480485974571,0.9620474774221316,0.9457829646626125,0.9187690720958388,0.9461978443596392,0.9010231768113072,-0.8407215772519496,-0.841341402881691,-0.8397244597120117,-0.842122820727208,-0.8427466449737546,0.5998222119353724,0.6445594044865974,0.5109757752935018,0.6226488846450287,0.4230138791599656,0.4513099216830738,0.4243265277377045,0.2163020890393671,0.551568026676324,0.11683640505229931,0.6674746961520802,0.684444530616024,0.6711568436090658,0.6723911439497087,0.6745007463812419,0.764600491750519,0.7355749956373671,0.750903741838249,0.7656931135459419,0.7430945363757584,-0.6969362105298149,-0.7099427347401077,-0.5686962811324865,-0.6244669484974832,-0.6163283689364132,-0.42634613462054194,-0.5309473938392464,-0.7174301460350139,-0.5425190323967448,-0.5231629031492349,-0.8269693822256334,-0.8272862838515196,-0.8252596026036558,-0.8240815461289677,-0.8258939072689089,0.7630209306783828,0.7555915264918499,0.7694639518160449,0.7801464526051606,0.7668268200384608,,,,,
2,1,,,,,,-0.24307171684376727,0.891874418795786,0.7391776025938709,0.42095619649780247,-0.18981431292588447,0.26745687856878986,0.73092032215666,0.683184500484156,0.4634225825285292,0.5979915349491357,0.13166640560630904,0.12392093880500465,0.124650191893525,0.13008819882250477,0.13156803060364974,0.23629259274511094,0.18429870862578013,0.11997381671878293,0.25732639919059785,0.12800334019448312,0.39223773885736923,0.2094242447667849,0.05234362093847145,0.045802458337500296,0.1874349227792893,-0.0910986576830799,0.08124433362558692,-0.05670759583093066,-0.048984300222807864,-0.08242850260362666,-0.3320823088342313,-0.2847909287499899,-0.3086065390684043,-0.30423700216477134,-0.24333704038061565,0.35205076964453164,0.3204036805167323,0.27965309098433777,0.4042173048594464,0.1520156729487181,0.14671087438666697,0.1160028115600511,0.2798078679143863,0.32335279652699656,0.1185722756972265,0.07667546031025818,0.05233749114906561,0.018521097919269813,0.028919190140662465,0.053737440045008134,0.024995291401538222,0.08620119433645868,-0.16587061641695833,0.018531554333710676,-0.19657887014815012,0.10116868317377303,0.14602420718605957,-0.02543553628124884,0.29246208608516144,0.10670528160749904,-0.09563619961180359,0.3398574445671897,-0.0529508375687624,0.12091296664484585,-0.12339794415891547,-0.13267982350450813,-0.1278855772167975,-0.12568866600455575,-0.1371817804691562,-0.12026053917253843,-0.028217073042749785,-0.3253408708461447,-0.0918673836249615,-0.31127811491633883,-0.33632280551735394,0.05435214196783744,-0.3688079526977943,-0.0771580390604929,-0.3278189207733586,-0.2722090044950525,-0.42522951725155567,-0.3330563021865194,-0.3991951189758485,-0.4448801040528263,-0.4257154624762014,0.20628944262347415,0.3239065515802504,0.27203989056929145,0.27048120880667503,0.1715441698570207,-0.21118010874598347,-0.21173255948292136,-0.29648904405820087,-0.29003231781337546,-0.27821623145348306,-0.2352460634032616,-0.21920915232861526,-0.20631703442129057,-0.24575824421502324,-0.2632308463872879,-0.13994498899836527,-0.11614540844766807,-0.1389920882044331,-0.14576864927693345,-0.15141623049508324,-0.46505037337158805,-0.4675613862130359,-0.4636902487341188,-0.45947871366141735,-0.46426828495783434,-0.09137616234524337,-0.10322575439200499,-0.006674992396241253,-0.06016875837858615,-0.12926425576295997
2,2,,,,,,-0.26697809719082377,0.7610102175807293,0.5721841839285552,0.24341074995706646,-0.2175293543490202,0.2688235018882531,0.6100647609165588,0.5893067755615569,0.3936038620569857,0.5804919308145706,-0.08735340777109846,-0.09570272782656186,-0.09229064248718877,-0.09466141635296577,-0.0848732547942046,0.1385034588420706,0.10883590109927854,0.0476475521715799,0.1572754834227924,0.11430965712044738,0.26111055038960995,0.1786847402450169,0.06700238005079195,-0.018035464998596096,0.08772878825169661,-0.11373724343581348,0.03412374534939455,-0.0940352189366096,-0.07899687238008801,-0.11337170373407801,-0.25210102141005386,-0.2080581696892463,-0.232248957003226,-0.22615798629718187,-0.17084222416562422,0.27225603994485803,0.2819479197272561,0.4012747531671188,0.23463992506326048,0.25297840578609354,0.23845341171299406,0.20357570608667164,0.4185092682519189,0.44660035945536825,0.2023686660894859,0.05699545796327121,0.0301534470863023,0.0010010010099722466,0.013664901922916473,0.051408698917418616,-0.11851732965596096,-0.06423687437078329,-0.2286043777626554,-0.06049635090406924,-0.24390625029937674,-0.07628310245542624,-0.02142702533992824,-0.1704953692201765,0.1271954349263632,-0.058450679613501144,-0.1866335203735352,0.18138113310114112,-0.19865623694807177,-0.029989404969536615,-0.18165242168382156,-0.010988372897591692,-0.006453363141323498,-0.004332469619644952,-0.01520823821314643,0.0005714408960776352,-0.14727940968067732,-0.3152216386628117,-0.18897347992944935,-0.3431415895664569,-0.2710202856071715,-0.051233545114441226,-0.30502716691096565,-0.1376231951548743,-0.35931406799096366,-0.1684984383812047,-0.38207779726950175,-0.2905486541066584,-0.35658393039250735,-0.399005034155421,-0.38169481802102445,0.11011730772440198,0.2199778164717453,0.17200354467762125,0.17120353776020059,0.07765053400014343,-0.11860859774953525,-0.11894595657617213,-0.2008702337027486,-0.1932298791779985,-0.18501512940360776,-0.1850411420877267,-0.17238772547993642,-0.1364373270806456,-0.19970125597471422,-0.19873887488016306,-0.032096092828233,-0.009606087106398986,-0.030729416807520504,-0.036998320920964556,-0.04220878471953027,-0.42398356237508317,-0.4231297769057458,-0.4244231236525182,-0.4217867068365744,-0.424442472174583,-0.17956314005383178,-0.2427629093641388,-0.15298180391961447,-0.18434962410288014,-0.2539658726904028
2,3,,,,,,-0.2270970948154729,0.889821309087384,0.793062338670217,0.45534603526622663,-0.2106502732842972,0.21434354433210034,0.7398963137786947,0.6445744069136383,0.4487667787532452,0.5449293938242326,0.18652325781347256,0.17738656376518958,0.17582258801757122,0.18382128361082395,0.18367151585680264,0.2897251478187175,0.2115338922862221,0.15953081809146763,0.31331435872983515,0.15047658373125794,0.47772096101940864,0.2854142599521453,0.11726107692248666,0.1243988761127428,0.2704982431030778,-0.11073408439693289,0.07981096475072813,-0.05780201996460144,-0.06512581249896399,-0.09497059189389723,-0.39589577623454364,-0.35018659849398803,-0.3724154879466848,-0.3686373581712352,-0.30953557698996637,0.4282495251303472,0.39085306372270656,0.3245042062091841,0.4835864000103478,0.19921900367704048,0.1920970300182302,0.16103846631138297,0.32454671220220777,0.36517072982750476,0.1625410551544657,0.09033758612848264,0.07343873209308871,0.03905097729273321,0.044949915453312284,0.06604710755907828,0.08049533401205144,0.14749348137842966,-0.13333748189349093,0.04885460608587533,-0.1836826161399956,0.19370083870804544,0.24651522937460202,0.057233938722467625,0.37005321551869874,0.19565602473626198,-0.07768045910199883,0.38357032488322385,0.011671020662348153,0.15607932411319358,-0.12853394752459257,-0.1850299083360909,-0.18055450668048545,-0.1784956039808887,-0.18947790486821336,-0.17310579133623838,0.05712735157745985,-0.3942913411796063,-0.08470136982304122,-0.3471351153372253,-0.42585802799893946,0.13268658483910833,-0.45737029288175113,-0.08249102962423605,-0.3693862417159324,-0.374019499028146,-0.47803927370241217,-0.3911454371892402,-0.4539001469009032,-0.4964819518561796,-0.47891497281320605,0.22449284026054073,0.33975594238942053,0.2913181018471561,0.28799133582574377,0.19071751896920341,-0.2646250162783006,-0.2653369712171254,-0.35114975394791936,-0.34365775263329423,-0.333104838267845,-0.2587926810967791,-0.23726360338263786,-0.23388163480890034,-0.2640696112401364,-0.2939022776174067,-0.18725469669085393,-0.1645437421971072,-0.18667271800852725,-0.19354691697147697,-0.19887011043918723,-0.5125280030351058,-0.5179672684743677,-0.511881350837404,-0.5075343114021424,-0.5117365493210131,-0.09189104955629901,-0.05975898713098782,0.030342210126704905,-0.0380632193351802,-0.10370840476213883
2,4,,,,,,-0.018651490501168988,0.10394633421615873,0.19349184979743772,-0.021481841622684072,-0.23753968046463214,-0.21224658544010966,0.06009314921831088,-0.078243570062418,-0.09784742438687855,-0.10192843835808563,-0.21325426221384247,-0.22660732634175118,-0.22681067772408592,-0.2251977064168229,-0.21120507952243783,0.17564918655622652,0.07013351249678257,0.09225637171837009,0.1913805020886723,0.15294308918314659,0.3565051343351944,0.41410845637591276,0.4475180528844567,0.31764987365160313,0.2807906316001758,-0.15002141481572528,-0.055744700063311114,-0.07709084112927944,-0.12581346975889396,-0.1357079167469888,-0.23609530251293487,-0.23941735726695024,-0.22998629271375637,-0.23559446080173418,-0.2311387539355947,0.4220316851562994,0.46312047912138365,0.7351842420017894,0.2801256160085852,0.6695167199809775,0.6229018593128379,0.6101192700274698,0.6169023290730699,0.5374313265164181,0.5805546949799236,0.06320107238480333,0.04538884775437535,0.03892543538879656,0.027356721441915144,0.0615569430724785,-0.04722678496811583,-0.01543163152619842,-0.06073813047115273,-0.004892947538326808,-0.10160137405357217,0.008889018248570357,0.11669594662305827,0.0005984758728618811,0.08082685593405203,-0.0033583296033881105,-0.1848701026313524,-0.01739313339702875,-0.11424189326191714,-0.10862709485099131,-0.21134576046732811,-0.03784660530524531,-0.036921847123498885,-0.037882768599030836,-0.03756440461180999,-0.035084117312297325,-0.0548855242069759,-0.5109183369982537,-0.3785060880229223,-0.5024594071558426,-0.46086587903299514,-0.01271674616871099,-0.4745033368185414,-0.3200128028676297,-0.4817517209097426,-0.3964302252574301,-0.3650839959001617,-0.3601270881323755,-0.3630956366218543,-0.36883151174369444,-0.3654884532036693,0.06204320365622962,0.09736666849885867,0.08903649026137128,0.08166346220263265,0.0597460674481608,-0.16404862908679574,-0.16004944870448679,-0.20494248147255445,-0.19685352925332755,-0.19007633807364344,-0.2187570592022523,-0.19895186101096862,-0.15826642785603595,-0.20494682420333232,-0.21566298149916108,-0.05817123894559084,-0.05462463046843169,-0.05858119272291673,-0.060628939364462786,-0.0601985861514458,-0.31473896290783543,-0.31593249794196776,-0.3155939552124756,-0.3159533357165145,-0.31136156141181415,-0.25318579431735033,-0.21741142009540515,-0.21208116424836376,-0.24566392825394456,-0.25026158682290944
2,5,,,,,,-0.20901324207740135,0.8833658817847612,0.7874867069768499,0.45278534335091014,-0.19981135980510212,0.20588343381495633,0.7264665009304258,0.6427477568371758,0.43448424242881556,0.5326836060712249,0.1734433717583166,0.16382862910783924,0.16212466467669318,0.1709051275437904,0.17038082145385158,0.2895999739574382,0.21219005147326753,0.15928192187390977,0.3140148796341432,0.14948143517629675,0.48255591014400623,0.28863131676811626,0.12290437805972476,0.13429651562830092,0.27498871800912617,-0.09982406809497446,0.08804510532794929,-0.04798464537722702,-0.05372208019266678,-0.08513826945774472,-0.3848235102509203,-0.33955452964230926,-0.361234981090085,-0.3579429163634562,-0.29884901167924793,0.4335277371800743,0.39582717479236273,0.33022656078233603,0.4886252326116065,0.20685889260007317,0.19640741946047835,0.1666071463396832,0.32242716111485736,0.3603644187927604,0.16627894751765548,0.09067946836247498,0.06802720905037063,0.03551989275109457,0.04130266755921874,0.06378104821236863,0.08359264343361361,0.1479730845941346,-0.12447809209633487,0.058731509202762044,-0.171983772383294,0.18181616438097858,0.2354532544931205,0.05159812575070111,0.36383766315749777,0.1806448432421287,-0.07326619254742206,0.38395696359913,0.006052788160527345,0.16114843574328497,-0.12086335761210121,-0.18447556814899602,-0.17997416486895568,-0.17792755370128122,-0.18887553204495422,-0.17255079039768506,0.0355941191865089,-0.3955640041616981,-0.10379764634879018,-0.353700316883268,-0.4237559664735182,0.10962680600200958,-0.4565940547021863,-0.10046156934567718,-0.3736937881671629,-0.37280194368590935,-0.4716179312595141,-0.3852609212804523,-0.4474706903417889,-0.49007653146084973,-0.47227719798089085,0.23554145978470586,0.3504524064161696,0.3020690161272923,0.29871438451902455,0.20159889154961785,-0.26703230446019033,-0.267699181661748,-0.3518941462353291,-0.345583103744052,-0.33345076910222016,-0.2713878514090762,-0.2514320711033873,-0.24682079255258604,-0.27774843434735685,-0.3052322408253523,-0.18761952271714666,-0.16479757550625607,-0.18685823678206726,-0.1935782982768326,-0.19883921194253706,-0.5011559066946056,-0.5064350567608153,-0.5003911924441877,-0.49557627636346346,-0.5000751674689297,-0.08400999515624052,-0.06102375734442056,0.029982222067253983,-0.03601964816520353,-0.10016456957549447
3,1,-0.13417330289130835,-0.11794911416385978,-0.19026716546833722,-0.00538077487401889,-0.1478977417283578,,,,,,0.6852390373251256,0.604752672125418,0.8886046221436934,0.6992509549106235,0.6442155809792264,-0.14635849058318473,-0.12815202755334298,-0.14541807373805327,-0.14542682011681918,-0.15703161165407709,0.05081935947280758,0.1945303209744078,0.1731900219121837,0.05663241878225489,0.04393220805760123,0.2598549805925935,0.398368601110646,0.2122689326635161,0.6362862415788986,0.563827378709252,0.8129461114265278,0.7428693020699253,0.7233350764269858,0.7844137716916781,0.74989566746507,0.5118177962726063,0.5340418337818013,0.5011342630852796,0.5203343988938894,0.5351466070452623,-0.17233971268465265,-0.1672896811488449,-0.31638278122727215,-0.16364929641518788,-0.36862860654936025,-0.5835984617363668,-0.5469024804525082,-0.47829109248388013,-0.46142010602116246,-0.5819993598120754,-0.033758114639631076,-0.0465694469580924,-0.17857807145748406,-0.16844567033185598,-0.15165931948646172,0.635689613125087,0.49982881157566394,0.8892258414133715,0.8529635558573339,0.9389036919580109,0.33860446019763357,0.3697495524155502,0.7117745045369501,0.571813581787582,0.3040518347864163,0.8779353296677205,0.603506280476603,0.4125615145577939,0.8642815556224446,0.8019533278514555,-0.679551764878217,-0.6807536061562129,-0.6787882661332341,-0.681052189240682,-0.6806701333282792,0.039971364536356746,0.31897636955721675,0.26020061395822447,0.14956403201037927,0.025000453644897336,-0.05450755035786292,0.13769602743812426,0.0362940018969693,0.04625974679457856,-0.07625975136613206,0.5693361270344443,0.5948069783415049,0.5774140755631512,0.5674231355562939,0.5774652295237475,0.8099110182902954,0.7962217726748717,0.8099097645391424,0.8047430593939039,0.8048417392667905,-0.524624401667634,-0.535010903956382,-0.4291783431743821,-0.4686992356770623,-0.4644708666909967,-0.3717615421181195,-0.435188401872765,-0.5614107725012596,-0.4303721717504603,-0.4109873490351932,-0.6852701768940186,-0.6828759890290352,-0.6841402102143659,-0.6817610109647732,-0.6842414879921244,0.7409965092645536,0.7284228304084998,0.7456429914196268,0.7523291291159381,0.742948243847928,0.9109822699505795,0.5822060700856602,0.6410251284719574,0.8016663580908836,0.7925673435963069
3,2,0.4060158795623917,0.016725378056188234,0.4943796058250719,0.02462761760456389,0.47567998065359873,,,,,,0.3496304378800228,0.9448926046886138,0.6436331746979775,0.6966643272305657,0.4115448821439778,0.31644454607968386,0.33043411109721665,0.3160694914030001,0.32223228999934905,0.31361148632126623,0.6688686532533066,0.7300449233943055,0.7103640712269235,0.6702554795721006,0.5628600109647324,0.5195115860448942,0.4170600668721104,0.11047846342647549,0.509789085745607,0.5986604870684333,0.5054122479608801,0.593681329511579,0.5277178913232266,0.5057945721024864,0.5294440680174037,-0.06515014077203451,-0.04133265906327832,-0.05768364299712858,-0.06014506715124446,-0.022837716319287438,0.3796895350304329,0.3042792931091918,-0.056533386145624975,0.43281919778496447,-0.17040653223098223,-0.1943731022613231,-0.19958212393772556,-0.11003989883460696,-0.07238834294886631,-0.21356726910807033,0.31533238323883506,0.17501960716062737,0.13738196382943568,0.2667504549928813,0.21518999111527892,0.6997551103077153,0.6872247726207479,0.561294148338897,0.5168839473414102,0.47887057942816236,0.7268550413690874,0.8110371297142146,0.6605893838694806,0.6164560207424091,0.6694353916098932,0.6364745199097069,0.7398484474666053,0.6685737878562021,0.7117242203913903,0.4173858181528616,-0.8241264077720629,-0.8211940791999481,-0.8250756260473051,-0.8205973654668552,-0.825314598287044,0.4844777255666357,-0.06406234184939263,0.5282223473176643,0.07137506997910592,-0.2618314322341524,0.4314807922235425,-0.2233707996394605,0.36338199206574606,0.03814171916820597,-0.35958583882216577,-0.0857434865932627,-0.05622327144096895,-0.07481569132483035,-0.0711084840463212,-0.08190173941885592,0.6447224733480843,0.6676864594105225,0.6544215198222476,0.6365068287216117,0.6479416634472621,-0.8040257285618146,-0.8051636693845303,-0.7792520342830782,-0.77803312252184,-0.7887648028146899,-0.6044577002567828,-0.5896055916212093,-0.693945394511422,-0.6133896867053545,-0.6511729536769266,-0.8194037566912888,-0.828780463617369,-0.8247646635482377,-0.8239338889288823,-0.8277754352633506,0.03267689060182766,0.017336629249910418,0.043068049719778845,0.051391024880095504,0.036882226019797626,0.5168157835035897,0.6241729861665107,0.6421096833642418,0.6518387378558288,0.6161040510354375
3,3,0.15139608083084777,-0.14356553325068488,0.5408292094895261,0.1117304219708829,0.5035813221809782,,,,,,-0.07110785546833753,0.6028428748044823,0.320529719016202,0.1589691263460572,-0.024166493458129157,0.7747707954137966,0.78939684239711,0.7801074506675392,0.7839389588334799,0.7794821625768058,0.8589550462719766,0.8178570573999095,0.8637893084562078,0.8474185884723321,0.7502592842466893,0.44907437110995385,0.14728642516082602,-0.06916566490558673,0.5927990196030997,0.47481829434862144,0.4512806042030698,0.6279735526471408,0.6083129364662615,0.4996347523431809,0.596443301191423,-0.23182460503373803,-0.2115477800191392,-0.23589059471425822,-0.22656565044018206,-0.19428345934973135,0.2821826024282936,0.08089107514702187,-0.16187515127773322,0.4739445032720626,-0.24305720824616994,-0.21891612083394318,-0.2115234635651395,-0.1729482078967608,-0.1636705527381288,-0.22953728043119503,0.023972214617660415,0.15230839868226154,0.04445489258866464,0.019945580469501012,0.030573947310081118,0.8949869704591213,0.9519148792301029,0.5321636372540515,0.5057818152253576,0.2827452196638154,0.8932072281874628,0.7572487353297633,0.370595520032476,0.4415680731437408,0.8745330713908519,0.44513758083076715,0.6427401158877702,0.7680482206048278,0.5771819133878429,0.12110676476567972,-0.6875688237568429,-0.6845305939599626,-0.6888688285706026,-0.6839199737754371,-0.6892174133874693,0.765965067344772,-0.3967381637927876,0.4567778835736618,0.023790601833057257,-0.4896731460716528,0.7492905848729675,-0.5334762164521707,0.3428899823444693,-0.049824244705899856,-0.5910846220400212,-0.2565885026428143,-0.22966787874996508,-0.24420838633135578,-0.25352173993756866,-0.25100156093875126,0.33163433414122845,0.32960902064555286,0.3456954853043648,0.33356941266883156,0.32189370022653985,-0.7145444682043804,-0.7139821132613844,-0.6997073815342549,-0.6994774466288542,-0.7031035376452355,-0.6322692422520511,-0.6197215691874431,-0.6887689087308724,-0.64710378826185,-0.6809966814105071,-0.6857902655942638,-0.6962944850002399,-0.6911960731108195,-0.690693801264048,-0.6943959969893265,-0.089946002796357,-0.10508671161477179,-0.08047160129026243,-0.07225286524007579,-0.0863748451894828,0.3938740205486566,0.8884017231820741,0.865621164167555,0.7521494166640601,0.6894484520826314
3,4,0.1483438830031839,-0.10095017267128092,0.22282841514486185,-0.020613431945410987,0.22620401768882392,,,,,,0.5419063628509997,0.8870370016139805,0.8505569422419433,0.7467102980340352,0.5610137236935917,0.21616169105816496,0.2342081926409716,0.21451233496419808,0.21682282794810537,0.20391730365221594,0.4915316751893293,0.5983975499508851,0.578889709369203,0.4954318324076228,0.43647608503524693,0.4472813097933066,0.41409969808015146,0.11356353993459045,0.6685615040073453,0.6548982998881439,0.7601853544130465,0.8010271581245066,0.7631896551974431,0.7607913918818819,0.7671484630756705,0.21853026664585107,0.23844570691300804,0.21851931981567696,0.2191162717680325,0.26872143828890327,0.13508810520630699,0.07005390366934994,-0.24557138942721868,0.20590238561190788,-0.33911949947606157,-0.4691571448979235,-0.4534035730953079,-0.3632715511243778,-0.32647565123008593,-0.4768752813853667,0.1544179656564666,0.09742431478044944,-0.015204422151195995,0.05271961171578332,0.042518345108332856,0.8311328124331673,0.7572844937478125,0.8388552318897743,0.8007547628586105,0.7776212157435368,0.6814766755898599,0.7111332577864478,0.7612959488151756,0.6716003014650496,0.6378259550971936,0.8583524133685988,0.7908071276921342,0.6813710058395871,0.9086140831181304,0.6631796330002683,-0.8723357765410045,-0.872628262379634,-0.8724188047322254,-0.872476881359002,-0.8731760311731143,0.3793920702925986,0.08492085695658758,0.49238936264930744,0.10986746388927382,-0.19799528260722932,0.3017042323562078,-0.1176592765723723,0.2640617636367839,0.030220182353236646,-0.2930543855946186,0.2206583995242557,0.2598676717969255,0.24296476114368137,0.2244152450258401,0.22280163797060837,0.8137370088297372,0.8130083953663635,0.8151257453424634,0.8119611437349314,0.8049212004149422,-0.7943008127998219,-0.8026259848295161,-0.7378157496024311,-0.7555240315049052,-0.758803402644856,-0.6142129443132116,-0.6390815170756676,-0.7568258635130558,-0.6443533186327572,-0.6547356206602091,-0.8780870439648572,-0.8777001106873104,-0.8786262894036208,-0.8770001363804485,-0.8791369924573484,0.38722499378497777,0.37640060401094466,0.3972510481557521,0.4056816742916448,0.39222019677267195,0.8147817635382376,0.7689441632426607,0.8050013338776182,0.8715394929802567,0.8522215584346913
3,5,-0.22738298325545125,-0.14428401179419703,-0.34101752681527797,-0.15199660594012587,-0.3029623336353293,,,,,,0.7911501759924032,0.5221846190140246,0.9206759812605938,0.7150288035250053,0.7325067805346835,-0.2428860859646056,-0.2250717908441311,-0.2447028808270828,-0.24735096644355448,-0.261232564055087,-0.07750451152444526,0.10693144062749149,0.0678210836104911,-0.05899597096635234,-0.022344855383773954,0.08793494717337114,0.25867319915091025,0.06253498717718364,0.49790048379674123,0.4191518302104158,0.8453272814135034,0.7501881829254223,0.7464621443528162,0.8237965479247952,0.7740107920142342,0.6560964509599262,0.6670840592588176,0.646431406173948,0.6546530615314936,0.6868945551673342,-0.3056326892522663,-0.2766265996369093,-0.4218752734592055,-0.2967877005599142,-0.4792833645678347,-0.710583367804043,-0.6811695664991193,-0.5735243873039886,-0.5433994178708379,-0.7071769984395193,-0.03985432919164378,-0.05667441492758507,-0.19333886893123675,-0.1804936841312823,-0.15196582196926878,0.5470327392668822,0.385844626203395,0.8664503050135155,0.842542016678759,0.9390409082753239,0.18919534729879506,0.18618147858469847,0.6172926488386837,0.44565531646163326,0.16670091848591684,0.8605894950937618,0.5055634374507716,0.3030915461634779,0.8107824526965359,0.8320683900271105,-0.5781595819856316,-0.5822467217204221,-0.5766628542541246,-0.5825845697326195,-0.5784967660991367,-0.0979850087023948,0.40332856984470367,0.20032970215816936,0.13985125391154796,0.10845808054498296,-0.19052794963036934,0.22694771850493023,-0.028180945597328533,0.044873799517982205,0.0534902814740732,0.6855252827839861,0.7195838299287105,0.7072493989422364,0.6794710338017182,0.6882682204228588,0.7977539828169427,0.7718801793852963,0.784774777030595,0.7988464399824692,0.781931690440501,-0.4244703985339304,-0.43987660083705515,-0.3309496442240554,-0.3733706620045132,-0.3653713606427018,-0.30293903429445734,-0.37834485426687103,-0.48468256008971755,-0.3566090211499864,-0.3206020702209924,-0.5915847972271959,-0.5795465058113729,-0.585729982467404,-0.5832000973508782,-0.5835192385777344,0.8324434432313712,0.831192204703394,0.8374434818691486,0.8433530601579622,0.8364407034467456,0.9381659870302762,0.5196132996720348,0.58334326742413,0.7614420134327766,0.7778988033441262
4,1,-0.37132315252076653,-0.1901466709979418,-0.39178560568864684,-0.46269392045628965,-0.4188443212012838,0.6140432719179879,0.5505840946541054,0.3126604488197907,0.6696462415079305,0.6804065387080883,,,,,,-0.6093954194590809,-0.5813231511053893,-0.6003630029065705,-0.5922920297565626,-0.6035236791696947,-0.0752127581898312,0.1942798428408541,0.12888804187776504,-0.031707229912021795,0.035896394355340644,-0.4778738584224098,-0.3176700436413178,-0.30427205410461067,-0.02427636329796723,-0.17640147211938073,0.6427704077115924,0.5817371311140696,0.5558508851464533,0.6234708965540346,0.5843722425548941,0.7044779225475402,0.7214891938951006,0.7114218546312884,0.711093850931672,0.7213316808999902,-0.5156374657691418,-0.5031279073189721,-0.4764883935425792,-0.4760837395629254,-0.4877926845199747,-0.49652526423985055,-0.4477687988166066,-0.4419072751361228,-0.4183304559140333,-0.4685284999810191,0.36850048389767753,0.20458799113916348,0.13631896933385512,0.29396327954994295,0.2727340796114588,0.24779211032049253,0.0892023625810896,0.4141736906786522,0.4193393823648359,0.5055447102324474,0.13192434905480943,0.14234950346218866,0.4050913749325691,0.3262650831637848,0.1525418828116084,0.6919881014109821,0.48436533606090404,0.4228227481861012,0.5092332445054888,0.7390131454247179,-0.5605590223982841,-0.5616181768041058,-0.5591210364621837,-0.563976674464697,-0.5626283699645811,0.24865664578949376,0.6270289233609083,0.1240262928143212,0.37368001529640704,0.43152655914830007,0.15433176662935955,0.49200845663106696,-0.10801699582676161,0.28568929447175606,0.2785016286822384,0.70039135924137,0.7185208779582541,0.6975697193659254,0.7139159281967624,0.6942068517663421,0.500295308626627,0.46607582060978325,0.47368025766902744,0.49272746267591305,0.4695713614978596,-0.34470898963465224,-0.36046002405356115,-0.20916367703152927,-0.2682424161142922,-0.2626304270417954,0.07742052126789767,-0.014129695854371516,-0.224431244147147,-0.038390774168880926,0.010832628350634588,-0.561163068211255,-0.5606122741825459,-0.5589605337850123,-0.5594955286025531,-0.5616378403916116,0.5634724359914978,0.5527672729110222,0.567078104827092,0.5698350083580223,0.5625252413455062,0.6262502814718809,0.3516780126081578,0.38157309211535106,0.5026031491169216,0.5112172780820792
4,2,0.18254179721008168,-0.0663147757008995,0.26460873430374376,-0.1489742448724889,0.23375265004186085,0.36289140918669516,0.9038744719853995,0.7395968477094294,0.8403260002417505,0.28976683370080747,,,,,,-0.05822317037139291,-0.02280288831864863,-0.052269154298522746,-0.02238658580054209,-0.03727434079580849,0.47007131546205905,0.504788580970032,0.49929450431339695,0.4457502312371958,0.43257664310035304,0.0373747290160088,-0.07807537719723401,-0.30162581848646,-0.006580334939922272,0.08328399550150356,0.4026520085179248,0.45236640587958843,0.40329270033511766,0.38317547175286504,0.3814512138257442,0.09376152983192154,0.11906277623925254,0.10678034117989588,0.10433315141453614,0.12078077540314791,0.05722340114063318,0.03684042577140223,-0.2260631456670137,0.1376503940468733,-0.2297860196442747,-0.030326634275189335,-0.0071400545508897295,-0.23365949000700148,-0.19854945553857517,-0.02250076860736616,0.4485893405670529,0.33052627049740135,0.30112573978889956,0.4384670683839347,0.36015121930196936,0.3437077969651767,0.30312570175090103,0.163296366534056,0.15970725566541888,0.15927652251907776,0.5719513894112437,0.7317570199686593,0.4601580048051863,0.4568453037987178,0.6111878277960202,0.49019726340177117,0.519842367432155,0.5924303476983391,0.4354780397953568,0.37485491432687157,-0.6429192159429864,-0.6457707874343903,-0.641742794024045,-0.6453909138942704,-0.644848514238185,0.7012883266507137,0.18749891909949512,0.3967084398186804,0.19658484473838556,-0.04814710996515936,0.6636894289395565,-0.034750420523612435,0.21611995897471303,0.16898057510595943,-0.19806668809005523,0.055882103265276206,0.079769218388688,0.050493284305137,0.07524178523942204,0.048513314183958434,0.46173954295851416,0.45633982920107863,0.4442280413662456,0.4569985149561273,0.44076878985057677,-0.6046279788742221,-0.6223339411180735,-0.5854608763529732,-0.5788339091154044,-0.6000756550445963,-0.22969757651751066,-0.20260091918047474,-0.3779729283694999,-0.23125327440380317,-0.2750086045983744,-0.6438935374752914,-0.6455396401834084,-0.6454313825487259,-0.6464426314305609,-0.6473732913670553,-0.04303638648566377,-0.06185431607803693,-0.03752556763652293,-0.030677821580004316,-0.04418023241686164,0.32843922056721664,0.39090769186680274,0.3895090216627173,0.38537165621756,0.38450918030476244
4,3,-0.3030930388974833,-0.3188970311080077,-0.3053968308074704,-0.5229398607263505,-0.29941830012804616,0.8372269127139164,0.6934277541225743,0.6431826666221403,0.888785265409394,0.8692691151618084,,,,,,-0.2546712156063142,-0.20893628636125228,-0.23927285948800847,-0.22114976636331174,-0.238278185791295,0.2213802186304239,0.42878740697101914,0.4047128013853434,0.2185888117292616,0.18853208514224384,-0.12658217788123682,-0.09524080639318444,-0.30558476200742124,0.2734255533364438,0.2054474360122217,0.8492186828810873,0.8252896241564449,0.8028331739266144,0.8295741045967608,0.8262808927304377,0.5574302076331625,0.5871287367934886,0.559429247547651,0.5683546136398292,0.5911312039875989,-0.4192527960336041,-0.45602295365070944,-0.6316801130251206,-0.30367588262955203,-0.6535891552873925,-0.6204763354439942,-0.5632452815748497,-0.6317276543160268,-0.5822509166910308,-0.5868212182650514,0.23454839070179767,0.1576769907396487,0.007740026896123187,0.12062470779832923,0.11777114987137904,0.6934562300281649,0.5725044911808299,0.698449517219264,0.6962328842666144,0.7207009788601534,0.4315807574270264,0.3893911025571537,0.5867877974468002,0.5152613191699702,0.44014501498914926,0.9144948435982622,0.6815575527088621,0.6424056451924625,0.851769575692037,0.8447830377441492,-0.7331833335692441,-0.7342406669395829,-0.7313949942196052,-0.7358009056352519,-0.7353394804531019,0.39742817095596084,0.6768050761060913,0.43444729691099926,0.5733733490059147,0.39270065454203484,0.2848215845692341,0.4654894828276277,0.1921053892179908,0.5030968350349828,0.16763927819891922,0.5712879594798225,0.6026687516253562,0.5717217229369561,0.582866090328058,0.5709534297421691,0.801591303015332,0.7795637029824323,0.780861996682371,0.7963858186996622,0.7824188692968513,-0.5935790141422128,-0.6131807803696789,-0.46623952843123884,-0.5146417889774104,-0.5183231198244389,-0.3178687578400581,-0.39850398772077544,-0.5986348701470696,-0.41334658533150015,-0.3955592775222805,-0.727140750094299,-0.7257801168088445,-0.7238332665634728,-0.7231001619554154,-0.7259922682848008,0.5602580753905307,0.5434777461048199,0.565354115229504,0.5781196827710924,0.5584969684453824,0.865441610125736,0.7656272933728357,0.7883547323120458,0.8492809471748773,0.8524583889891669
4,4,-0.021040340605783303,-0.053837946341116716,-0.011430825544434198,-0.32018340303540227,-0.04619899681818174,0.47180375639687044,0.8153745582523956,0.5643211802116853,0.8023919578646126,0.4802638221261534,,,,,,-0.3571564998028436,-0.32505511511282204,-0.3501182680921566,-0.32870673855108357,-0.3416337671777765,0.2300410451873034,0.38735602701222527,0.3418010050590804,0.24643280806449663,0.2631231566337475,-0.1746947932644216,-0.13692737172013358,-0.28943001995418216,-0.01230761786546064,-0.005709005178214044,0.5158859951490229,0.5134705356040147,0.46604196139399234,0.4937828685265073,0.47282875469354746,0.36417455168368695,0.3864344597589261,0.3760679496814009,0.37353716630769496,0.3880092975763352,-0.17693188617677325,-0.16734820394882832,-0.31580288617784213,-0.14352387267043065,-0.36360979767653334,-0.2697572585697514,-0.2451380031594339,-0.2674669671032175,-0.22904417339783922,-0.2598615691779269,0.4507400448909382,0.2982653592762269,0.2600336196059847,0.4229690625429131,0.35842921655857796,0.2989146101383964,0.19768512449499243,0.2850760532968488,0.2859081866982318,0.3324378133415622,0.41644420053051523,0.5171311905929576,0.5026338048352393,0.466861783366034,0.44452387682645256,0.6159427289844216,0.5473849774742361,0.5488684974879081,0.49538773657960966,0.573859047070246,-0.6406762599817628,-0.6427975491824744,-0.6392133174346184,-0.6438495666720772,-0.6428992398726971,0.5173266349104741,0.41405183488683917,0.2837519832174129,0.28097839104204136,0.20118528709564754,0.44870367673658484,0.23124439397296315,0.0682741968725511,0.23582551637256655,0.05208957336421827,0.34471759839238114,0.3651842628344725,0.339763408283252,0.36318974682093996,0.3368300571731897,0.5065759924382112,0.48833437025440807,0.4824912242600544,0.49928868123765857,0.4803646965416517,-0.5198082569595193,-0.5378758637601875,-0.4510405662780719,-0.4683804741325357,-0.48450573851875967,-0.0763999503376096,-0.09732682548601912,-0.2981803913543426,-0.1218514675233544,-0.13392771684976634,-0.6413085852808478,-0.6423110349342291,-0.6413213444963033,-0.6424997886719761,-0.6441894478405465,0.20830621172249797,0.19237659897992954,0.21375512702798194,0.21996186594021627,0.20781359498784335,0.4718592239077044,0.36240624104464214,0.3779700188308601,0.43827137101971947,0.44356512714029206
4,5,-0.19809469554138248,-0.0017550278410194409,-0.27036635468506964,-0.3981985198864053,-0.29576629058245674,0.4790555739486888,0.5832718436490972,0.3246908609467607,0.6432326438504044,0.5356944226501935,,,,,,-0.534395508256521,-0.5080582207206288,-0.5289645722539551,-0.5142442742514977,-0.5234346750174295,-0.03909710568798741,0.1648450133896211,0.1059265416295504,-0.03226632695734244,0.0738941017700877,-0.3530865392786322,-0.20894791296476845,-0.2707003033494155,-0.06499193314464136,-0.12715549572078388,0.522124180264433,0.468488882665,0.4374880161997887,0.48681328675640556,0.4649755459764393,0.5226793021245052,0.5419534359817777,0.5272699081534131,0.53028197224737,0.542314679144225,-0.3791720061637265,-0.3402591358535463,-0.32760013621471096,-0.380542462135002,-0.3782637955867567,-0.3322264635696275,-0.30077589670910365,-0.28017479887838714,-0.24996286655041677,-0.3139218451692063,0.35290492941353246,0.23393958020959504,0.1523690722686315,0.2961267534835297,0.269413536091724,0.17551681015282505,0.04748918469778307,0.27826156382736356,0.2797246773221138,0.36172642316480763,0.19837078613020442,0.28055584545861956,0.385295911677183,0.3551675169820785,0.24521946108175985,0.5942592161830321,0.4562830977694017,0.4382480008710248,0.4285149810353849,0.6145240098871103,-0.5152703475216793,-0.5168000940708748,-0.5137712710907285,-0.5183067432920323,-0.5172202764251603,0.3319595186623042,0.5889551329904135,0.22054063666684143,0.3731906360908033,0.4447409564033793,0.2717438038904495,0.48386896211695873,0.0360534818558097,0.3252528039957071,0.33974746587170224,0.5104743531701413,0.5324624307456356,0.5068208913160461,0.5229971572333734,0.503228027521946,0.4416485289056149,0.4063699609676009,0.41198202098323256,0.43158592088592096,0.4118462936154301,-0.3459885543238854,-0.3634534125485531,-0.25703082969782187,-0.2819864187624914,-0.2984766676523307,0.05590013162511909,0.002608599062891015,-0.17419525962369997,-0.01935118277410952,0.007536401186661323,-0.5175364228145145,-0.5183107233670259,-0.5168696698136845,-0.5179700959487477,-0.5198874784344047,0.34609489861203946,0.33541153662201384,0.35094681799115857,0.35315370238943644,0.3441303632524051,0.47076058022246003,0.2591733347941818,0.2846605242071276,0.38109854182475766,0.3858729983267948
5,1,0.12436118540581509,-0.23566383124488088,0.41639488722170215,0.10034411566280832,0.3197070593706075,-0.021291916790499466,0.29036208743484937,0.6108016920295951,0.32291496177134316,-0.15751522771924442,-0.5784537704073387,0.16243010135822966,-0.05727616763528931,-0.27698743523806946,-0.48992266891240277,,,,,,0.7470666315928164,0.5809228538813141,0.6257293946353693,0.7087236060788074,0.6264448374623169,0.694796841644932,0.371903800113075,0.11046026463029923,0.4153065451128948,0.5700708208432517,-0.09778996262157214,0.08574357699092783,0.09161275337128516,-0.06272319919080704,0.03987209387020196,-0.687564867157171,-0.6886779688789746,-0.6902023260315928,-0.6903790912591137,-0.6856044652814777,0.5857869042701904,0.4779927166620852,-0.05566442214615552,0.6993374957151759,-0.07329029135335019,0.07910384363894873,0.051947800571431,-0.021792487442735098,0.002916930658296568,0.06401931985592269,-0.23139585841285681,-0.05380528579096211,-0.06127428676568991,-0.1588160672161123,-0.19387626185703621,0.5642224251607106,0.6855782168675323,0.19520638750812203,0.1911557786598177,-0.06765862027739433,0.7428299620187818,0.6394996696391284,0.34457008389515276,0.41789254267287634,0.7273938811900678,0.021016726678774855,0.2558433548466046,0.4152618433400984,0.3218644692218685,-0.3044654950978529,-0.07316126613466878,-0.07280132929278582,-0.07558161253569806,-0.07032301284241038,-0.07229808668300741,0.5978466459549739,-0.3889389845111144,0.5136270050165864,0.09841939835564784,-0.4842972907359002,0.6229985120285794,-0.4444727624668805,0.5853318146627733,0.1781600605634157,-0.5038749168899339,-0.6008675415567382,-0.6056383634573537,-0.598381710857455,-0.6042558613031015,-0.5954566718457666,0.12653778125941173,0.15683364654476195,0.15332475674389556,0.1299939873435053,0.14766112073878768,-0.2096129443640926,-0.20451554948731854,-0.31074364225233597,-0.25343244204916515,-0.263063077431938,-0.335270487541353,-0.24281325797038722,-0.19260016939077929,-0.23477520661476903,-0.33593751596946775,-0.059173341261284707,-0.062257382677776585,-0.06204357116700576,-0.0628075744241412,-0.06094554104529215,-0.42850600655493865,-0.43146264474136764,-0.42469816624907963,-0.4192744311833727,-0.4270528284215993,-0.010650730626670102,0.5285207054807922,0.4904568969704335,0.31228293969898635,0.29077169741698683
5,2,0.1250604949450803,-0.24362406643055334,0.4029247016022539,0.07265473442652559,0.3083795857226834,0.0013332733703635968,0.30393099107083577,0.6195475481069936,0.3472018871495286,-0.12688213706790696,-0.5470103852569497,0.18589251850467858,-0.024334491166383643,-0.24558841249241747,-0.46431388383630434,,,,,,0.7514358949987278,0.5958537162804098,0.6406344749098059,0.7112781766706691,0.6309620992099882,0.6774691027285579,0.35988868825937437,0.08980154625615888,0.40810673029771527,0.5618242030603632,-0.0647030492909082,0.11462679282310095,0.12090349555312041,-0.030449717065092807,0.07126524960640646,-0.6683379309017492,-0.6677395624003648,-0.6710983687213594,-0.6706419901549638,-0.6646224739919879,0.5621306997501693,0.452439798514479,-0.07839564706862845,0.6815049086180639,-0.09910542139668221,0.060074688766737494,0.035218175460144496,-0.0511693518834353,-0.025328013513989056,0.04630401701730502,-0.2245869511974643,-0.04788591138682641,-0.06085823622845443,-0.15588847648096515,-0.190982748497734,0.5836521987412596,0.6989840311847091,0.21046000538817067,0.20491474546767818,-0.04443826207622248,0.7468727339680804,0.6448710362859266,0.35224593486754696,0.41730478478897925,0.7361076941067991,0.05247385015610384,0.27151136885906224,0.4321504924508315,0.3432248144168484,-0.2751029098471265,-0.09715069906614704,-0.09686362772476587,-0.09940335904687814,-0.09439989153369632,-0.09639957306675173,0.6168432018447352,-0.36055023724539526,0.5427758245663101,0.12846580102267358,-0.46579393200788277,0.6406829385951084,-0.42431478861348504,0.6065903833429402,0.20553238565082155,-0.4935896596755507,-0.5814165151521284,-0.5844490278758496,-0.5788212165357338,-0.5842378945273232,-0.5757703940316055,0.1520726654788308,0.18185714361650618,0.17732076850325362,0.15575415074855736,0.1722243617663176,-0.22963405718835572,-0.22532703205727467,-0.32591111885738155,-0.2703236864347902,-0.28116084934884356,-0.3470219392627869,-0.25807366129539844,-0.21544900172323267,-0.24971012235248202,-0.3513764767080845,-0.08293930563389629,-0.0859376273198229,-0.08565544852274454,-0.0863059750462345,-0.08462747819967342,-0.4068321788902085,-0.4103913968927153,-0.40294096866008844,-0.39644815873748973,-0.4053394780264479,0.02068303465126886,0.5545167827945905,0.5185283950320256,0.3433091249004838,0.3214985687925923
5,3,0.11479352178699487,-0.24333473372184344,0.404903771720045,0.08997958378935134,0.30981533133233974,-0.008693442009184649,0.29410567522881903,0.6143118391201101,0.33205654359931147,-0.14180240318040727,-0.5657672613309828,0.16932122297620678,-0.04367047195038665,-0.2679914815962863,-0.4806324442361385,,,,,,0.7502413644038926,0.589140752737394,0.6344466240885724,0.7106708836423993,0.633234053799947,0.6791376958696924,0.35629139085767636,0.09698464966153475,0.4126796130053434,0.5605145120878412,-0.08175225896210359,0.10090102847009297,0.10683471217914176,-0.04702087944643152,0.05612187482838571,-0.6736979198767172,-0.6741509290130963,-0.6763852045467091,-0.6762378505577737,-0.6711666014858171,0.565616138010421,0.4554806527715505,-0.07369726426177681,0.6822559797847497,-0.09138081194631686,0.06081050720303094,0.034731325881890984,-0.04200063298460521,-0.018147601870024843,0.046411615398948114,-0.22865703275819582,-0.051239477467857286,-0.06145296454532567,-0.1574443596035746,-0.19190876605956775,0.5726328981521579,0.6926815686972616,0.2057586399290291,0.2014225357828131,-0.05741576362254497,0.7455617718532003,0.6369943916492891,0.34579430509585696,0.4168423917448024,0.7313907398192099,0.03613888171745727,0.26323826662796224,0.42478365974498833,0.33204646518935443,-0.2897536386046762,-0.08068976395433136,-0.080298456620437,-0.08304908067400896,-0.07786632028962748,-0.07982599387945144,0.6076565057302925,-0.37346638221086126,0.5284986437722993,0.11753863345054649,-0.47331662949782105,0.6318997895642016,-0.43203013459266915,0.5982306223215791,0.19616237360616728,-0.49615987759849545,-0.5863290263400098,-0.590360660582558,-0.5837944965594954,-0.5895321982112027,-0.5808247666475945,0.13259958329598787,0.16215922011925255,0.1590722281965815,0.13603766871442524,0.1535266340941116,-0.2134409377356874,-0.2084287141938368,-0.3115445024625756,-0.25585788711594293,-0.26536048419643965,-0.33580054669384385,-0.24555471847494403,-0.19885651575470198,-0.2378431087327546,-0.3382128857227593,-0.06659458063696544,-0.06958744144548157,-0.06934875296056853,-0.07008335355021655,-0.0682684631889432,-0.41180760911731107,-0.41490036519652707,-0.407932628828358,-0.4024373572995663,-0.41047526542153956,0.004602055753015977,0.5430035420407909,0.504732604167268,0.32811930799151845,0.3058709598010657
5,4,0.1643331440215493,-0.22114236619158123,0.40632636240004016,0.05395766713302075,0.31340373422505396,-0.03394225091390446,0.2876566761109238,0.5866237272557998,0.3194501132182934,-0.15211578814234716,-0.5433304145240898,0.17347731386101062,-0.03842345306807671,-0.24286037942364858,-0.46080046030835864,,,,,,0.7242260402407927,0.5710775797191944,0.6122045978168659,0.6832946191492028,0.6028990218574657,0.6722124811990972,0.37215997723029925,0.09680709113435082,0.3755851428472703,0.5465437328189772,-0.09106789857631181,0.08044899091603452,0.08885073619822426,-0.05685360656656657,0.04059895010541681,-0.6781321075104496,-0.6788805020350539,-0.6807469112338953,-0.6807852476929694,-0.6758756842442726,0.5701375405077984,0.46890146878340533,-0.044669870956829394,0.687690476512205,-0.06991086488698994,0.09610495261850616,0.06858904592647674,-0.026528446344479484,0.0005014936541042347,0.08034680976889985,-0.2339227948103908,-0.05863469984512992,-0.06494244589216147,-0.16370604657861598,-0.20087726567995068,0.5522856761048244,0.6644084213865058,0.1685884194259455,0.1618183594609568,-0.06534765476819615,0.7120200724436948,0.6269299943569286,0.32646955275961176,0.3846759808216733,0.7062090806262263,0.020706728996387258,0.23692246324964517,0.39375353463512885,0.3067551994714698,-0.2984285327853202,-0.07494073176869454,-0.07476451762264391,-0.0772243537548487,-0.07223471646308766,-0.07419550656809482,0.5931335169769584,-0.3578484000329887,0.5344703276444162,0.11612081113779005,-0.453089544508283,0.6221720020925664,-0.41161168711870744,0.5988574505212412,0.19835706856528534,-0.4753290702524793,-0.5914836863188413,-0.5965188829295323,-0.5891308531649666,-0.5948907714502407,-0.5861604728847145,0.14052831685308131,0.17372406792203765,0.16426395938595428,0.14507095056332264,0.16018968361431396,-0.21031607979828304,-0.2067251417487479,-0.31012638823661276,-0.2514791031070782,-0.26382274954590823,-0.33318543659195576,-0.24214343773669933,-0.1955225000003893,-0.23148204215214152,-0.33544046125353466,-0.060996447131511866,-0.0640093599291458,-0.06375219043121128,-0.06443710132216696,-0.06269987549500433,-0.42354301164107055,-0.4267697856333885,-0.420309191395863,-0.41263473860108446,-0.42210126237563017,-0.0074138625710507,0.5171931006456387,0.4852334169983026,0.3099074340304224,0.2894060589992552
5,5,0.17697110250594483,-0.20880158641707047,0.39910338602478124,0.038515866851700165,0.307197016323705,-0.05903675954457377,0.2717566970850114,0.5618749754191512,0.2935773642319379,-0.1665972007497476,-0.53835185971734,0.1581870709629868,-0.049336773037270465,-0.24664494169009643,-0.45681176980161053,,,,,,0.7079422817064199,0.5597813201024061,0.6001659925344447,0.6671222888555925,0.5935699542439066,0.6529003172727141,0.3674326634730787,0.09827270591019044,0.3537508791118076,0.5266848776900027,-0.10697435705053882,0.061506134877581164,0.07113264025020627,-0.0720277817425603,0.02471694891231946,-0.6763022561341683,-0.6778619595078841,-0.6790602825680803,-0.679238209436674,-0.6749107655764606,0.5583523373253663,0.46068775543158935,-0.02724939410487459,0.6724213319109965,-0.057940789843971885,0.10344759656274749,0.07406032981144739,-0.013191293147340577,0.012127151462307584,0.08651457547678965,-0.24413736644799533,-0.06683538209197204,-0.06926156349147017,-0.17034144028672982,-0.208488486642882,0.532661246560359,0.6441868706423803,0.14785445616954374,0.13993197460366746,-0.07831218374752957,0.690833615579161,0.6039603623924764,0.30681375415015677,0.36029002961970447,0.6877468529907158,0.0014502664546857114,0.2125077556402184,0.36985303526964675,0.281368394928579,-0.3121971867206179,-0.05660772522025592,-0.056371770367487084,-0.0589087529572343,-0.05382246336403029,-0.05583859073615827,0.5833564079234503,-0.35001901886820397,0.5381377138757952,0.12037434243191114,-0.43879383325923627,0.6164407577508881,-0.39660792064580797,0.605562700522678,0.20334450480054989,-0.45580743824312675,-0.5889673969244607,-0.5946369833509761,-0.58649593991058,-0.5928223792822769,-0.5836757207224319,0.1225964636990764,0.15732350251971583,0.14603971072062116,0.12777491980299616,0.14260973671329424,-0.1910517078298697,-0.187148894436878,-0.29174294817752,-0.2323240013317458,-0.24544127125877524,-0.31483784870400155,-0.22441489204078868,-0.1752150827154355,-0.2125023869749032,-0.3170175992039168,-0.04265405581569115,-0.0457735297563846,-0.0454989578226479,-0.04620940699089804,-0.04455024952639186,-0.4220725831707446,-0.42441231907673194,-0.4190115082874466,-0.4114479761494836,-0.42057884569424653,-0.02408467562540695,0.4991825355438332,0.4679711587017088,0.2926974890367202,0.27158399756988794
6,1,0.5004751502062561,0.34413620530429045,0.4894119888888384,0.10551586755671094,0.49004108744125596,0.1558135311958624,0.449952425596034,0.7056667124559787,0.5415871992386774,0.24608757674172888,-0.00034330528694792584,0.5226474724076928,0.33695636974744614,0.41185765750342473,0.17382081239350955,0.6223734456235074,0.6334567581183407,0.6232781337025352,0.6263091252498554,0.6219833144992344,,,,,,0.6586341415851256,0.5552697553854881,0.04708583851354875,0.36293211725528496,0.6544452574633776,0.4714327946161738,0.587077304107424,0.5800626148642007,0.47469252691919694,0.5568603749934561,-0.31408494300158263,-0.2976029514851426,-0.31938640116222317,-0.30550638423779164,-0.2872917354851823,0.7167395226755956,0.6633434866488344,0.2661930584211992,0.7402200990741222,-0.011193085317761975,-0.07277635286888273,-0.11366779965933538,0.27789140717990624,0.3332071642901606,-0.09473946318651683,-0.03268580653953723,0.11505413094036254,-0.06219711567653419,-0.05456805052254721,-0.08899110155508305,0.7292038710250143,0.8078850548199582,0.44496531096572634,0.41758247857728814,0.3380083281563818,0.7028173769307798,0.6522368204424331,0.32922626290942036,0.2764978022012914,0.657997567275428,0.319164605299607,0.3074771986047635,0.39824897367690015,0.5214806172256577,0.0030009686649264955,-0.5666676711981489,-0.566141278835528,-0.5681920699153586,-0.5639158927609422,-0.5668526518679564,0.19260050157926623,-0.4160568520512298,0.3928196363807175,-0.23701790689444802,-0.5218226992749302,0.2843525054816085,-0.4985664057401924,0.4303253435065858,-0.142873267705929,-0.5271179494336922,-0.5310734734321416,-0.5000214041503594,-0.526612256761132,-0.5222223776196273,-0.5209443461457572,0.7357553170541512,0.7602226410928942,0.7474456714973987,0.7356093829853838,0.763849306491864,-0.6947091840138666,-0.6970841711347198,-0.767494876132425,-0.7025745902273881,-0.7442602934501639,-0.716042069321517,-0.668512883393837,-0.6329729901984509,-0.6611568600837532,-0.7307919047804452,-0.5776480557747132,-0.5826751553785883,-0.5805254000453284,-0.5815771252507083,-0.5805826989443688,-0.274017531503993,-0.2928537608597559,-0.2744584447538181,-0.2606825628292888,-0.2834586737326348,0.25111597393251595,0.5846186000100655,0.5597852867630464,0.4469436135523517,0.4437999360150954
6,2,0.38438385310484513,0.2603896271138295,0.3573912649141404,0.011119328711615029,0.35959716260599817,0.36205818933459066,0.47312752684385084,0.7294045171280908,0.6685744885271446,0.4674803066365315,0.25325059465577815,0.6329552492624863,0.49794360630697376,0.5945193679243796,0.35720849787102715,0.4376308018383468,0.4568177930261603,0.44371264087305207,0.4452459388566704,0.43741121786946047,,,,,,0.5004021726438862,0.4361671611152844,-0.02169047835184923,0.377169721834133,0.5788796433009356,0.6947589979082014,0.7827997137196788,0.7787689208169777,0.6972563525444813,0.7628764918769663,-0.03864723626441369,-0.018934183669755855,-0.04441867707008851,-0.027943100866147708,-0.006674902970853935,0.5327662875859305,0.47860413985467176,0.12040976539628001,0.5703834147910274,-0.11274125401453605,-0.224604190455177,-0.2404278254547072,0.09299335513857776,0.15160197134858933,-0.23240924125905016,0.06413992940405344,0.15926560039011117,-0.05833208861626704,-0.015533515893370708,-0.02656717468132186,0.7926275735137068,0.8187939187982862,0.6043794101336114,0.5798173320003056,0.5295162512494397,0.6356441711419496,0.56268655688493,0.35443428312912584,0.26932894319707856,0.6009218217112842,0.5224850566022979,0.4200555313131238,0.46879926079195644,0.6514052988715063,0.24656547812704077,-0.7124077190102369,-0.7122719178662198,-0.7135213027189438,-0.710598007818438,-0.713234274389293,0.16713180993542986,-0.2604954761722853,0.35882483115978814,-0.15386975187067264,-0.4063468905110701,0.22523663864557852,-0.3760560526812393,0.34011689016567814,-0.08953447784342505,-0.4534579394096505,-0.2783531806817774,-0.241886432962102,-0.27249754339281984,-0.2685560080520346,-0.2665245302406649,0.8675536717546766,0.8785036154217698,0.8723713672487061,0.866178885438135,0.8849947522598854,-0.7743858281214822,-0.77923333657155,-0.7971759174618422,-0.763508672873705,-0.7878301686335774,-0.7337217825009064,-0.7234849198025879,-0.7355051773077572,-0.7258355032997734,-0.760647012556046,-0.7262836185154184,-0.7301174000190287,-0.7277595633023175,-0.7281382989384195,-0.7274801740395862,-0.01412796647371084,-0.0343389276976398,-0.014690576101287212,-0.00029112011439114127,-0.024458362627610253,0.45708082700067765,0.6901428985647281,0.6734173941793489,0.602194173739063,0.6012199232800501
6,3,0.37452485646287736,0.25734540715215093,0.3500298912090408,0.03136525886407959,0.35139712091540276,0.3350847637431579,0.4521805199417972,0.7196431872584681,0.6501152796219871,0.4336467598452083,0.21169004901005684,0.614615869039722,0.4651843111107503,0.5687926396481457,0.3243192952730187,0.4787057201716707,0.49926641025047047,0.4855966069484634,0.4862115602789241,0.48029136187848076,,,,,,0.5139899894581877,0.44726257691444815,-0.02707088131704749,0.3616143044670215,0.5842613347128814,0.660389786088233,0.7536528944673281,0.7503088198115511,0.6611591352201964,0.7324426635625944,-0.09242412195922567,-0.07198272021699026,-0.09871613932033707,-0.08259267305149898,-0.06191780985957096,0.551459116398042,0.4945489845379545,0.13701947216917743,0.5811746986484428,-0.10608579371644944,-0.20527443908344978,-0.224110655131319,0.11378850960437725,0.16771398829742867,-0.2155906292723868,0.03687544582673297,0.1529510936778209,-0.057527751251620796,-0.024016765315174826,-0.04190617142343078,0.7904107637179516,0.8281790003675209,0.5777774049050542,0.5476480413669612,0.4934123897812771,0.6603787350569105,0.5874638031488075,0.3553708880397364,0.2607500125844683,0.6237435285483204,0.4855194821431097,0.384427162429525,0.4583151331879063,0.6265445455501462,0.1931989237969668,-0.6781599212682976,-0.6779604030588948,-0.6791164833423919,-0.6760211562071667,-0.6791176218216834,0.20363449205062445,-0.27803086111516073,0.3992447195143598,-0.1495447167911359,-0.42361729120312197,0.2663921908144379,-0.3910059303031521,0.3934103607036701,-0.08524529016528093,-0.4649146571853138,-0.32423225288350865,-0.28788739373045136,-0.3191467675996007,-0.31343350343371945,-0.312778212588795,0.8399820766069312,0.851998931491532,0.8455809746264823,0.8374495380474907,0.8620810967197228,-0.7570580241368896,-0.7610109320679201,-0.7862932086348551,-0.7472706006653487,-0.7790656364682249,-0.7248646460728905,-0.709235389057572,-0.7149865156215087,-0.7076368612174933,-0.7518743709094771,-0.6910154342760186,-0.6956118401418379,-0.6928666880102399,-0.6932102256541126,-0.6927520097401971,-0.05668559820026697,-0.07495688288443025,-0.05640335196793744,-0.04217184735914792,-0.06549327733191124,0.4236813221186969,0.6872761299459427,0.6654642899751297,0.5848929698739087,0.5832838038521934
6,4,0.5064702900059771,0.3474753690770578,0.5051507168183871,0.131190674804176,0.5068557341057695,0.20944844713200084,0.46087199926498923,0.7362761054713715,0.5737217412323239,0.2818572112049802,0.0037652718016414344,0.5356363750956432,0.34845313074273765,0.41889167802339133,0.16226798124711772,0.5719442912206089,0.5819995378843223,0.5701136445691274,0.5773083380660875,0.5701357640914387,,,,,,0.7046595652885801,0.6192049329994875,0.13546549320453338,0.4568892186524882,0.7192381172340488,0.5014267067020919,0.6160606520461811,0.6085214017641197,0.5084273539603951,0.5819927203857765,-0.2790073490598046,-0.26481595169018624,-0.28371073868427343,-0.2711592374735228,-0.2524358817568453,0.7383817353898848,0.689275333173447,0.30249719424918675,0.7543441753192105,0.04114153475644722,-0.038032615507323175,-0.07054322783812816,0.30463466963653785,0.360795966882696,-0.05473218026725113,-0.01959209683312868,0.11959232059745695,-0.059423258497404596,-0.05077317594708375,-0.08141405148203273,0.7605567885361656,0.8244608038689613,0.5112215109027152,0.48817413904809226,0.4088169591427453,0.70873324167197,0.674152637022532,0.3964936213808312,0.339411183971161,0.6608451929751931,0.35947728686413205,0.3409469674658503,0.39944761846114085,0.5641174574311475,0.05601840138760328,-0.6218429633493527,-0.621392260133337,-0.623245731944227,-0.6192070243699253,-0.6220697618421498,0.1436947709887505,-0.4564230021780764,0.3095786220843545,-0.304393539032797,-0.5730981900362242,0.21411704694458766,-0.5570787443081846,0.3287209387674497,-0.2186565571791197,-0.5921849375705976,-0.5007461500903396,-0.4739621720031588,-0.4961700038888299,-0.4931460632273157,-0.4901513014783334,0.7811311153147488,0.80573151403903,0.7932236056471363,0.781154858144553,0.8074712082898643,-0.7487387856781216,-0.7498503431544563,-0.8128722424939974,-0.7579366935197551,-0.7923374046658167,-0.7581593789529097,-0.7193224014337338,-0.6861466890041132,-0.7113172206451641,-0.7751362282813881,-0.6327888989157757,-0.6373898891992917,-0.6355149610127155,-0.6364831699545976,-0.6355709340089597,-0.24805933424862703,-0.267817704694719,-0.24775910905529286,-0.23258752122069337,-0.2554678214828936,0.2924254048227012,0.5950365129468383,0.5743660572561724,0.4704216805546677,0.47133716645433443
6,5,0.35910818214428286,0.3277801432629932,0.3133468878246328,0.09237590939990425,0.3135624162063386,0.11653422150826398,0.24757509904230757,0.4834940433535485,0.39193901787973506,0.23036047543026938,0.11000670585604067,0.4229133728714485,0.26794762082540036,0.38197658185468775,0.21255893093454525,0.41328098263769786,0.42502602937460776,0.4189786315602875,0.415165625803267,0.41511065919984624,,,,,,0.3770415403824372,0.3188741198558813,-0.047373883410945616,0.18828111217261168,0.39082023106969,0.5257366996858905,0.6130338270973514,0.6201206895590164,0.5274153947854987,0.5995700733053746,-0.07766915490001414,-0.06970357609402011,-0.08696136406644195,-0.07158846645018735,-0.06331011461366143,0.5610391798263997,0.5251190386872605,0.2670360852531779,0.5720074489805725,0.041777264597062325,-0.03673247494747933,-0.07453920682397719,0.21500309191418943,0.2502173385360924,-0.058250337282361286,0.017194139667237596,0.1190618064987169,-0.0982805819346868,-0.05624820768678118,-0.055654247155817016,0.534969516656444,0.5911300996098364,0.336094805548089,0.30225959889906606,0.25907867260005735,0.433996631628898,0.3599572594979561,0.08408895416491824,0.004249289895865482,0.4071874555182431,0.24673724253752316,0.15579993212749665,0.2636024038163767,0.3505626309499903,-0.005571028098455333,-0.456842000914212,-0.45680050660463545,-0.45880415367302385,-0.4541769228165582,-0.4578899592015866,0.03970026717916775,-0.35963387975227046,0.27530659783860445,-0.22574450095425602,-0.40200399534976494,0.19084749755166297,-0.37725667757178893,0.35178210176642044,-0.11413165217479948,-0.36241024593744875,-0.3886147546929979,-0.3576240526045442,-0.3832540047390949,-0.38009594628027354,-0.3784239490464214,0.654365577799385,0.6669460064293239,0.6595574544981152,0.6506463555015702,0.6799115675033331,-0.5566086915013384,-0.5586588253437246,-0.6054709663224345,-0.5577634354977188,-0.5866353710332082,-0.5906724044516096,-0.560330141058595,-0.5210207757847294,-0.5595437932483911,-0.5919621701107216,-0.4795452764784729,-0.48469550152089136,-0.4815271023304901,-0.4820297431984528,-0.48055900962988884,-0.15424045784067264,-0.1669389297620456,-0.15487582239453634,-0.14773329056934226,-0.16512615015988485,0.17286294488766973,0.42836926028039557,0.40187951678086287,0.3221990704292882,0.3186629486154011
7,1,0.49680700037022363,0.3004135510563861,0.5511328342465525,0.29441853270050367,0.5653512502227271,0.07616422263258404,0.32807210502647766,0.4913647592551158,0.3462863079129378,0.026266811799972256,-0.3725754103816792,0.16557031133895728,0.08170450764620085,0.022870514352694937,-0.20478115385441664,0.4540775490802056,0.4376201993348434,0.43111145011391083,0.4554578255847088,0.4448121900291522,0.5379941719099935,0.41513991969898023,0.4084672916104721,0.571751166936439,0.2792620285392956,,,,,,-0.005860563542825492,0.09626863130770547,0.07504552596999203,0.0028109649144483217,0.04698247468817174,-0.6201390573463561,-0.6256989829684374,-0.6195756791103357,-0.618271500878842,-0.6135357415864364,0.8173335626130012,0.8047719013595946,0.4844038975146311,0.7682615581197361,0.29489413575066603,0.2647645355230177,0.22953129259090588,0.5661180410606175,0.6107752336885819,0.24466578926622584,-0.29561312332230893,-0.14687668439210233,-0.1497436230921092,-0.22854788510280533,-0.30060669920895444,0.542448846304468,0.591148775876023,0.36752217882008886,0.3672420274048458,0.2791651240727324,0.6524166397338554,0.6821438481508839,0.5915051684083074,0.6394015910641618,0.5753604396824544,0.14855492325730246,0.3622482807241252,0.2695308102185445,0.44556586626627204,-0.07843680434870226,-0.35604531765743874,-0.355606241776395,-0.35772746210095785,-0.3544058659430602,-0.355245790307013,0.059673816243836386,-0.45920725210266955,0.1296225248829912,-0.330879129341636,-0.5623068442839934,0.03774395098630601,-0.5181172685553561,0.129805926248602,-0.2601999010117606,-0.5964993385844084,-0.5945875915558458,-0.6121230476426271,-0.5915648007921088,-0.6000691951119239,-0.5877566666319578,0.46612249129502126,0.49617775313550627,0.48339969519906023,0.46918383815333864,0.48011116322313163,-0.5221511417663325,-0.5189598245279714,-0.6149281605491423,-0.5578248776245809,-0.5790822921180709,-0.5763340455333434,-0.49899433330454657,-0.4351251538162988,-0.4794517820034039,-0.5801893186399121,-0.34525247018300975,-0.34744030785224056,-0.34736425673253923,-0.3482803698831578,-0.34651600931818893,-0.43822052036677706,-0.4500891240897553,-0.43838454153454287,-0.4245784915651418,-0.4356497064082294,0.09519799571252241,0.3016595450742736,0.30939440105081084,0.22474289865043584,0.23745599096327585
7,2,0.3514170540772308,0.2746268971241561,0.34055399793988683,0.32204609853695465,0.3545862404584038,0.15026580735673012,0.15452079385557593,0.2391749908175178,0.23409603346621966,0.11616603594281649,-0.2801789094701175,0.025684103832880223,0.023741088573129066,0.005791193391874616,-0.199837780724075,0.1364101330412586,0.1210311501024427,0.11741694523439916,0.1327752452189508,0.12654439717549004,0.30651860361059513,0.2583906507886471,0.23847863214612608,0.3671168847236068,0.10807944164136629,,,,,,0.0003520586762686406,0.051873501991629545,0.03321845301787385,-0.0011572978772629305,0.015049714799719727,-0.4181259446031129,-0.43010640240557074,-0.4193643543238361,-0.4177057185131834,-0.4185957978728223,0.6839663582837062,0.7261949046831301,0.6180710311431267,0.5379322237934501,0.4514083085113727,0.31214670356629215,0.2893459695674122,0.6487040138813516,0.666394083956257,0.2982281016085586,-0.30471435250769874,-0.19636135455662584,-0.1863275892805225,-0.254737563425522,-0.32408642282111044,0.43022407524039696,0.43703687807545166,0.45958012317761154,0.446521928690808,0.4295056978115226,0.4843695657370731,0.5249719882617266,0.6821862891899895,0.6684274977127597,0.40774788348800084,0.2127762723125095,0.3062797724976618,0.13530211751375743,0.4264381503969743,0.09097045604157339,-0.33611302107545105,-0.3352759688643192,-0.3380065811565862,-0.3339530529909236,-0.33572524326984254,-0.10684852430975611,-0.296079415441991,0.03829672465617118,-0.2936140241837977,-0.3864160175766169,-0.14994735513628665,-0.32340120451945786,0.025677290498878902,-0.23428417664770884,-0.4066081624203777,-0.3773312977087593,-0.40529498868773683,-0.37534806799157083,-0.3840448848080156,-0.36953519735245144,0.4754037790980523,0.5019727393336546,0.490511447865271,0.4765157558962736,0.49474736696593347,-0.45045596318778935,-0.4418947814513252,-0.5065256064394481,-0.4748897368335725,-0.4865856315936363,-0.4536262924403678,-0.41063308741294846,-0.35808856812831635,-0.3873153529534843,-0.46953282166741395,-0.3245350327767431,-0.3272006246429917,-0.3261129105802638,-0.32654171109497154,-0.3248329744695826,-0.23042947042034978,-0.239990869551568,-0.23219362267654997,-0.2207652348690743,-0.22754116247583633,0.1419387098350099,0.17354245799997492,0.1900129527440768,0.16795657227376382,0.18801670156222738
7,3,0.006300453028295183,-0.00014603895604614614,0.03858844104210413,0.30079778632028353,0.04434622388266807,-0.011975936385475672,-0.21715196910087142,-0.15788039017611322,-0.17711128398712495,-0.08158417578966204,-0.3488797315269665,-0.31661045122673825,-0.31424446288590824,-0.31403524442522746,-0.40477868566076247,-0.1803943216677304,-0.19923594453543814,-0.19571997176374079,-0.1930313380859756,-0.19592490319965927,-0.09585591983523489,-0.07481544582995014,-0.1036512083034653,0.023195351639991202,-0.14185453169719042,,,,,,-0.21290185739426692,-0.20779436624925718,-0.2021280873770419,-0.1908359608785004,-0.2172250808441598,-0.06367346989371447,-0.09589837172339455,-0.06228024714627178,-0.06945109757356649,-0.08718152060137996,0.35396656045852926,0.40271034809323436,0.7000396637407486,0.20660823744246892,0.7623221379426847,0.4774527401395794,0.49026678136629254,0.5645908531850936,0.4991238283676993,0.48936627109782227,-0.22504286072355217,-0.20897483152995244,-0.15757343740318008,-0.2045432430207157,-0.22449070303302143,0.069228526890036,0.04155182330484053,0.34151380893630146,0.3447636613341356,0.34435165616065255,0.1311449419505446,0.13840650338847282,0.5571597758805682,0.5539214940277797,0.0893117524333139,0.023563283197618023,0.08705357431658967,-0.12265606336845991,0.09749756851581248,0.14226207000624447,-0.09875881998256819,-0.09710044231572446,-0.10068845069841359,-0.09641154249358608,-0.09786692347009152,-0.22516995112277205,-0.2119706395788854,-0.3356274177738672,-0.3013797958442215,-0.19628640407805542,-0.27671571739667034,-0.17879001185004761,-0.34756185650931437,-0.2975235625916768,-0.1770370616785999,-0.01364667298523714,-0.06755662272272711,-0.015309338313026277,-0.027683046324530336,-0.009682027885094646,0.08418134614584583,0.10325451444108158,0.09837678069613409,0.0853876986624511,0.10097041647813976,-0.13616324202994434,-0.11008861993312413,-0.13515481727322465,-0.16924875122363425,-0.13806125218286525,-0.11252251903046617,-0.13969861360164648,-0.06419887309752026,-0.10987440533305604,-0.12459460191945104,-0.09032898924336563,-0.09149008922882707,-0.09104404424642798,-0.09166915082598481,-0.09016921879785578,0.015425070044125189,0.021158425053590668,0.01908114227387525,0.01656320476512252,0.026286254293547584,-0.049953876725517654,-0.15100681822798112,-0.14340414548501035,-0.12683501526184537,-0.09828868388702161
7,4,-0.020532836335006355,-0.09773404270709607,0.07578341775030717,0.18930444887868358,0.08513394647779726,0.4036201013502899,0.06070615879802255,0.3184942406851038,0.28401353917956995,0.34164578852608884,-0.17551994763492518,-0.04778084404250804,0.07435337618828697,-0.0782593668236784,-0.23760444799208957,0.12446613527207928,0.12231845349805992,0.11397867920200588,0.12115020075439387,0.11176102791814446,0.296975353781036,0.3520252390221499,0.3276369635791353,0.41057630916221055,0.158177212833565,,,,,,0.23509301131041993,0.2735075971558014,0.27706678252488026,0.266033068332993,0.2688283376216092,-0.05376278634501919,-0.06272832158484021,-0.05418999802113755,-0.051158099954462743,-0.05035339517334014,0.33272576550049315,0.31617644514495336,0.3630649259649438,0.2721053331035833,0.3693008712210668,0.13962647922486704,0.1731357281071395,0.2899395391754884,0.27306767263617027,0.16283236233896803,-0.256019361650337,-0.2047628402618129,-0.21042319436669632,-0.2607099232257517,-0.28049206517276515,0.6204815752348755,0.5744113577001546,0.7652509785803073,0.7715916010535812,0.6966810404411797,0.5343313915742481,0.43197078765913843,0.77835011416138,0.7611258438472105,0.48300694132440736,0.4816646987790838,0.5477853774185635,0.34511602984448786,0.6053704669530171,0.42939982521480247,-0.5175607290489912,-0.5162460442182173,-0.5190428339165902,-0.5150958085568491,-0.5172312835179249,0.06736041971926465,-0.12160902837586685,-0.0230158969834946,-0.07233927574171517,-0.21023643778396228,-0.04115667940481371,-0.2238146598488644,-0.12697024658791922,-0.10446440638041388,-0.3173927961286611,0.020733206091495315,-0.007523736970426853,0.023798993379589017,0.013929087025245424,0.031085527660982715,0.45166940018453094,0.4546401228134601,0.4596195051641889,0.4521645495845694,0.4560356726003363,-0.5363303763528726,-0.5186782268577206,-0.5025403944858311,-0.5420967717775067,-0.5147398563431498,-0.48444216526187445,-0.5241321051819654,-0.5125247321984681,-0.5005539641872141,-0.5205498114286444,-0.5007391358265174,-0.5015481357188443,-0.5004637635890081,-0.49960387922035876,-0.4986484582661981,0.1655205956228506,0.1588153565896393,0.1718551950476782,0.18028087543008753,0.17469805774258906,0.42869433367055265,0.44021224696299655,0.44902977981252745,0.44580576003482153,0.4705294869350417
7,5,0.31393144795508987,0.16250865532345116,0.34935818764319115,0.20918303026456608,0.36296685866737866,0.32570913194008644,0.2843753655247705,0.4712472190380137,0.44745562902293634,0.29947452826356946,-0.19999396778545497,0.15181158386373106,0.19830312184777332,0.10421169000063002,-0.13239146617855702,0.31782409061527694,0.30998828381479093,0.3008092886513345,0.318734166600424,0.30777663436605784,0.4941617433030736,0.46183619728481695,0.4459640304950483,0.5545232248443694,0.2534191980268994,,,,,,0.21193554259033276,0.280840952561605,0.26466638789002483,0.2189777060666147,0.24828249701672822,-0.3871040888502375,-0.3893112819862543,-0.38842872171414267,-0.3835570921933713,-0.3765657335697723,0.6568404128948551,0.6514932404277302,0.4013383294369788,0.5847768884146683,0.23338014992451606,0.12005030170186748,0.11039941480893711,0.45160336048203953,0.4913135932927877,0.11558823800897033,-0.2913604356274282,-0.173221909388509,-0.19295905009893866,-0.257655844048958,-0.3219669203533948,0.6852091795008389,0.6846704302675629,0.6400402510198807,0.6307703709239991,0.5718931158961597,0.6748254250614106,0.6464664513767358,0.7662337115946259,0.7498308708668929,0.5920907704087428,0.4163411766706864,0.5229793333991611,0.36970321934779937,0.6516973564086155,0.22030181358482503,-0.5247149821551074,-0.5240456268949818,-0.5263785720756848,-0.5225502298617641,-0.5245975969311958,0.04862551379131874,-0.26234524565294404,0.17086066773578956,-0.1849284640843818,-0.40172580022536275,-0.01964489029945815,-0.358567976614689,0.11310145544394223,-0.14662118465027962,-0.48724877877920214,-0.33822151467724226,-0.3556528763990481,-0.3345522704374153,-0.34192937694236436,-0.3284984982761765,0.6223201192646349,0.6403283125769759,0.6345778412181776,0.6229806952296226,0.6356171744686692,-0.624991437722257,-0.6190795041792008,-0.6613694199972437,-0.6374477647759575,-0.6469738269719087,-0.6110159151038093,-0.5777834560501285,-0.5563971387283897,-0.5568994965654874,-0.6370674832267638,-0.5097545912356471,-0.512345066240482,-0.5109881120720279,-0.510839205259525,-0.5095020271995327,-0.1488947474283817,-0.1631495055846508,-0.1482208948221082,-0.1328151027489768,-0.14539959408858416,0.36163068591498637,0.45836259760344933,0.47309862155330895,0.4374024110262875,0.456634220302393
8,1,-0.09617373921766026,-0.12110136862115839,-0.12823295451422156,-0.1329667371593981,-0.09230150377599355,0.8576805043768153,0.4543594758506554,0.4780462409578541,0.7383063358690429,0.9008852113669747,0.6008403625572009,0.418650945311565,0.8483752274758618,0.49552496397438395,0.5033480738993392,-0.07708249810553913,-0.05193201442154782,-0.06481546549640838,-0.06279131123527315,-0.07113669319357152,0.2893244251721414,0.4642592773644916,0.4474880321597401,0.28823308628414057,0.316164003432293,0.06567277018103346,0.08740082440151198,-0.09726522795642323,0.430335809625229,0.3453548861238227,,,,,,0.5931164521987614,0.6209934683520313,0.5859958682127749,0.6062892500936566,0.6257969320892994,-0.1830003137019829,-0.24021207063357308,-0.4173846967062349,-0.09332433333130252,-0.4412117650072196,-0.567150183539334,-0.5048299748917506,-0.5156028005428677,-0.4696289633798827,-0.5288677506911434,0.16962170252106223,0.14560225445634267,-0.06615489530901564,-0.0005270423779946132,0.04353813740925272,0.7074040189644359,0.5836368698593326,0.8229933270834909,0.8217640364646355,0.8107718230075306,0.2798842170761786,0.16363343805094865,0.445155616396261,0.333962083245968,0.24476134756359147,0.8634955966999779,0.622306934304035,0.4867654633691394,0.8281465928996881,0.7494528092552469,-0.7191592685284165,-0.719130688001703,-0.7182214856184657,-0.7204527609211244,-0.7202998243352896,0.0640923579818129,0.27649254431924786,0.1708039426398943,0.21729550467191516,0.04493920451340627,0.010210289682843321,0.08415528263534944,0.012436274992243201,0.1229213273789932,-0.11107637806387616,0.48425297665429023,0.5217383045439944,0.49235039760328725,0.48909218111683306,0.4918182681158817,0.8316212167710684,0.8076648413138453,0.8234148603405917,0.8333168643625921,0.815390170536286,-0.6052923969132444,-0.6126973040128336,-0.4761910859366072,-0.5418882632219248,-0.5228541365262185,-0.5153298146571781,-0.6130135449399803,-0.7312157899507024,-0.6220815611946859,-0.5619654261159899,-0.7242970764421881,-0.7214132990278765,-0.7199458813598043,-0.7188607281968897,-0.7209545488033953,0.642920195646606,0.6279732210006089,0.6453215035305417,0.6600673115062454,0.6406987370109434,0.9107346145993722,0.6803737757377246,0.7273324813046819,0.8474915187095257,0.8576544992798918
8,2,-0.013466911738422516,-0.12379969205845698,0.06039257814287147,-0.08271882589144042,0.08208747646720649,0.7757295860065295,0.5432374460676087,0.6476822747659893,0.7725370460547426,0.8056229450779078,0.4956676543514731,0.47960360583786354,0.7972220283851228,0.4623920612759269,0.42099671959433294,0.12523769132352247,0.15027812389901052,0.1372315946973861,0.13837664495298563,0.13059296204491688,0.4954325830339463,0.6373427934830936,0.6339706316006738,0.49298126593953906,0.5066648615903875,0.14828088266506034,0.07815220481354435,-0.1335667745536,0.4641259926904,0.3805278857020308,,,,,,0.4463189044085122,0.4752302844077365,0.43996462529750024,0.4601242676808892,0.4812984424604583,-0.056634613947205814,-0.16596055127912024,-0.38555858124622433,0.07352433945890813,-0.433441269028064,-0.5391360715084292,-0.48497908677826573,-0.4638312062882155,-0.4193915114799558,-0.5063896219896473,0.18313082295135485,0.1907625627470998,-0.01199842013695962,0.04704561456842293,0.0779128593179973,0.8192329878396009,0.7287906066998299,0.8090053383376503,0.8086536378813347,0.7323826033004057,0.4539289575562595,0.28964252455576367,0.43943780407022315,0.3583762926480505,0.41560107523773615,0.8278144788294157,0.6739651237142735,0.5941776481720537,0.8308355462480496,0.6448642203621939,-0.7814821960581666,-0.781375851048824,-0.7807185334678675,-0.7823235798976256,-0.7825494018349568,0.22942022980596644,0.10997428799827158,0.25564968479645556,0.17977482627646446,-0.11951740506981512,0.18328537320789662,-0.10106154063746042,0.10208405330653658,0.08481105944794909,-0.2711884314449784,0.3242653871830783,0.36339655621412215,0.3327575354394342,0.3301771139080494,0.3322694347118942,0.7948867685037387,0.7741250971301703,0.7908592587443759,0.7993990205135676,0.7782215088563157,-0.7104241063063679,-0.7165437393423479,-0.6030079931456218,-0.6591028613148513,-0.6412980033480915,-0.6271801383786695,-0.7050325406604792,-0.8123464487552525,-0.7175305235721652,-0.6736149618774157,-0.786759840168318,-0.7843833969043543,-0.7831414167453614,-0.7822044519061133,-0.7840170148922148,0.5116119445854725,0.4966695401839061,0.5154288675997166,0.5300398240245255,0.5101468875307247,0.8589371130256348,0.796921223074676,0.8281228921523419,0.8943706105448763,0.898685388235184
8,3,-0.05456770542499978,-0.1464648959820014,0.02578710629227332,-0.07581369455738773,0.048761216461534085,0.7719734510555224,0.482724448631767,0.642076508785486,0.7361861291756286,0.8006996751335397,0.46049114553742654,0.42863986333024573,0.7627344461531402,0.4042386645150253,0.381485463315983,0.14430674903735718,0.168870592671031,0.15668857306348694,0.15733985283721708,0.1498193746583304,0.47681084690212017,0.6133621958884932,0.6148923677899526,0.4732220078883742,0.49345060645847905,0.12061565118180007,0.047824030397570105,-0.13497580128529818,0.46916626545395124,0.35598859268827154,,,,,,0.46243647348976047,0.4900686285342688,0.4545252749937183,0.4758410694652555,0.49542682706054086,-0.09505506417693765,-0.20960522155348493,-0.39879837749870783,0.048590275387062065,-0.4286683190954377,-0.5353221617292099,-0.4773495062820863,-0.48670549061971524,-0.44615404692006644,-0.49945259113728113,0.13813319290925963,0.1728307161792455,-0.040841383796926145,-0.0028736554652704083,0.041891096813824524,0.8169355729747082,0.728067692471461,0.8082258231051072,0.8099537191554402,0.7275843286194016,0.42710671631486685,0.24730679560093138,0.39490355923331966,0.31751264343009455,0.3942274616768149,0.8029168014186546,0.6367851285333783,0.5701659239092022,0.8067420746664906,0.6239646292197861,-0.7488421878020883,-0.7487441434542164,-0.7482567788812995,-0.7496026376384362,-0.7498260949623003,0.21621376305122242,0.09575400460836969,0.2287701028989222,0.17124929189767002,-0.12524546477306853,0.1732632791479598,-0.10877027037372944,0.08221501781682028,0.06980592966354293,-0.2732001391143035,0.34007301191040773,0.3784546695593656,0.3489577671635429,0.343979614596001,0.3484978700222525,0.7645852353579168,0.7418409283980166,0.7610062046431282,0.769611216088472,0.7478459329446057,-0.6711415349784497,-0.6768226891073259,-0.5613189465716977,-0.6194795925753209,-0.5995434832160869,-0.6106452376338396,-0.6939035520853478,-0.7939859619142995,-0.7056319058898026,-0.6540067914780376,-0.753953503546662,-0.7514470842558014,-0.7503116968608716,-0.7492796569399944,-0.7510274460357498,0.5335156898947035,0.5193222738190565,0.5372132547058602,0.5511957357412214,0.5319942275876007,0.8514120979496076,0.8006796396199548,0.8297625073871183,0.8914197203169834,0.8952746450931437
8,4,-0.11696328697534875,-0.15065082772920646,-0.10309218167249234,-0.12279636752422518,-0.07560243828187185,0.8318467677936688,0.4403487665995707,0.5158075098737331,0.7170670076134086,0.8758952121214818,0.5617556199529933,0.3977523308056523,0.8096302415941052,0.4525238255013473,0.4496450390008927,-0.020487383822220595,0.004194615925057987,-0.007568992816594289,-0.007596419334582105,-0.0153845790158611,0.34469825573288526,0.5222922952264223,0.5068104529601242,0.3550685756143933,0.37713273993518015,0.0488472176965703,0.05251421278092905,-0.10306305258374637,0.44789625916903064,0.32579663535458103,,,,,,0.5850831586026352,0.6114617116941556,0.5785693119600005,0.5977004032913306,0.6166603556927324,-0.18379468094898965,-0.2614396950793263,-0.4214602703514676,-0.07665191774253688,-0.44075827636670417,-0.5778803364113407,-0.5146799174969767,-0.5147373790716236,-0.47428901073161667,-0.5395489466176095,0.16341842220545555,0.14260643433374698,-0.05434343980773204,0.009039856122400436,0.0514860784832869,0.738648348661508,0.62163223217405,0.8339127892492949,0.8351679135900293,0.8000712400791975,0.3051773258478623,0.14836177839289433,0.4195317644550267,0.3104467568141609,0.26611123878319876,0.8425483878245238,0.6132869621825958,0.48943191106575434,0.8116585340623111,0.7183247131886611,-0.7229873165533531,-0.722761113164994,-0.7222004181137001,-0.7240718138896585,-0.7240458379902432,0.08996464425312134,0.20763534310556875,0.14741677355873328,0.17978492383304046,-0.017536744258319414,0.03455955613862838,0.012158775712821757,-0.01175898158422739,0.07610383405437116,-0.17213908168291137,0.4723402096398033,0.5087769729529036,0.48115764551201634,0.4774885524982284,0.4807338177873294,0.7943621710568547,0.7710206087304503,0.7876391134926842,0.7973797511624271,0.7773515816415753,-0.6099977158540508,-0.6156330368797214,-0.47987606640802016,-0.5492305265200508,-0.5254343517267883,-0.5230051828209235,-0.6227967654620103,-0.7370525824896932,-0.6327130449478915,-0.5694857048886277,-0.727826674858914,-0.724807997375922,-0.7234720293958761,-0.7222921244671672,-0.7243580020072224,0.6449845653540403,0.6313853449884359,0.6481575988211543,0.6623160860315596,0.6437447435422582,0.9026554390822658,0.718174691119422,0.7592099705750295,0.8643057395670684,0.8735703644323392
8,5,-0.08546397995173294,-0.1482706565379499,-0.028689905855642683,-0.12887001615820814,-0.005054467123912554,0.7837537917272064,0.4662238888211263,0.6023122056688185,0.7218079320954943,0.8287230683086957,0.4927999467540294,0.40397603990920894,0.7847615242383453,0.41312456593075275,0.411179712742924,0.10680744790074059,0.1314848533804418,0.11951051412440428,0.11922364514207118,0.11189149313890079,0.44243438278605496,0.5949444117849854,0.5895319623725377,0.4427047232225696,0.4663896323411755,0.09414406001773323,0.04535239193725926,-0.13422604416395312,0.4631841373364136,0.34531287837894964,,,,,,0.4959773927747566,0.5239699056788417,0.4878201687678485,0.5091474512306896,0.5300458062137154,-0.13692339920921714,-0.24195225159385525,-0.4197941406089951,-0.0034084225749291264,-0.4574929458804107,-0.576287312548325,-0.5169741798358363,-0.499929981186249,-0.45850026716860315,-0.5391794633064668,0.13186590066545534,0.15749627558780788,-0.05275381031537818,-0.009574110963208371,0.03506611339147203,0.8063161211669849,0.7103399227596842,0.8254127275398215,0.8262766288170625,0.7548044820653617,0.39879898803432723,0.2112974105240646,0.39952195001243107,0.31790943839479957,0.3636794098550038,0.8252063828658651,0.639658631996917,0.5556195364745401,0.8180654535095165,0.6594089522231321,-0.7376642675462799,-0.7373677111344619,-0.7369632330717579,-0.7384349645311574,-0.7386358938270203,0.18239100461498114,0.1569649544571663,0.23206054325146197,0.2092085295700381,-0.05833593638960766,0.13466604809816363,-0.042690151699016354,0.08349344002497905,0.10874000054311928,-0.2060747514659258,0.38239644881467405,0.4218334107290522,0.3917070509830922,0.3867113767250241,0.39137741679767934,0.7705903447894014,0.7459077078935098,0.7647545744311721,0.7746703363971436,0.7526424804001786,-0.6480789639227331,-0.6540339459074436,-0.5334381994988333,-0.5922448145335442,-0.5731765158764035,-0.5835617125999568,-0.6725821565092387,-0.7747258709377416,-0.6835895288544647,-0.6283619224288153,-0.7421930192548349,-0.7395484468342337,-0.7382207633126503,-0.7370590006055169,-0.7390245266318911,0.5722898952712626,0.5588541439633224,0.5762540130289407,0.5902306667399498,0.5705015609312448,0.8744169626180684,0.792084075117361,0.8245313013306629,0.896951360778208,0.9017335351311904
9,1,-0.5923406369072142,-0.29011318931678987,-0.7158732263839029,-0.2650853812438472,-0.7108634322002665,0.635624886170078,-0.10964626141372258,-0.2069563528843954,0.21109617077964626,0.7168428322268,0.6909534351511392,-0.008417836182297966,0.4969158211453236,0.3063055102187313,0.47652150495554213,-0.6384128916220027,-0.6257590603074845,-0.626477167080083,-0.6397531637027725,-0.6422690881503583,-0.39558626651678286,-0.10673246023039984,-0.1682574129342682,-0.31470744080959,-0.20012434486944386,-0.500032124517638,-0.15614176063741203,0.12688847332201858,0.2031841022730032,-0.12161639084851217,0.6461709122448146,0.5111072623663065,0.5271529100999011,0.6398073806447547,0.5547448632786419,,,,,,-0.6390305863499912,-0.5786815030555945,-0.30524869589218717,-0.6470364064364444,-0.167414305049578,-0.4556867583449966,-0.3780229249305327,-0.4635127299140427,-0.48503909671665424,-0.4092476572408217,0.1835715365459044,0.030069984076850353,-0.07178072981374672,0.030720856530772278,0.09335916491913232,0.07071773147723526,-0.109997766455324,0.540563906068275,0.549191856192736,0.663883445533426,-0.3532573176724727,-0.4742569204350695,0.2467914002572581,0.1120361471493928,-0.36201658731438435,0.5674233058506908,0.21181018659650164,0.014023972994436584,0.3702264020406064,0.7610728421377125,-0.24981478657747136,-0.24847007353422668,-0.24886654456895307,-0.25088708723628717,-0.24952425592612526,-0.34182668258736437,0.5380501191352848,-0.37684146506195404,0.16791898021122553,0.42824353043829944,-0.4032250674444433,0.4942487191168,-0.512703743500396,0.06008336702434902,0.3385886274860337,0.9511207356759812,0.9512900136552301,0.9515331051558387,0.9514156103441423,0.9508443841348487,0.4067372189409397,0.38132138709749785,0.3991741704230898,0.4045979898037324,0.39453147895068397,0.024063363150149675,0.032560747545745006,0.2061076625797279,0.08674652187689624,0.14257518637688826,0.21444408164261164,0.049797323564475526,-0.05534391752308698,0.0461370040153658,0.17649299537294105,-0.25539931185392306,-0.25214825861926715,-0.25164068938526873,-0.25078497844821523,-0.25231438737278133,0.894508747268424,0.8951023119786976,0.8960783181271172,0.8950130290668645,0.8976156961424808,0.6335524265694098,0.09103537744582768,0.14227714061506724,0.3485528710171051,0.37014874791471986
9,2,-0.5978305683714362,-0.29707545494345977,-0.7180331400137048,-0.2827740582578677,-0.7131799738358904,0.6594311435729118,-0.07846977729195226,-0.18098201777771883,0.24521258226223897,0.73829368748219,0.7105734593342892,0.02256151705328191,0.5299321271258491,0.33242593009350974,0.5002134939647662,-0.6306999310194334,-0.6163121613663511,-0.6181823679807144,-0.6308347426166057,-0.6336801596941897,-0.37703104241724916,-0.08822799144053417,-0.14722375148008515,-0.3007495180903761,-0.18759863546080702,-0.5036608484976595,-0.1656025974969566,0.10202265700575852,0.20277256948198152,-0.11960476078846338,0.6733077781746494,0.5396389615738857,0.5543348513040075,0.6654111074964684,0.582156839085536,,,,,,-0.6503482354952848,-0.5925836582246591,-0.333773263682029,-0.6524290169606966,-0.1968249057842284,-0.4725792247163678,-0.39345121724147747,-0.4884253639203413,-0.5068216071972311,-0.42518297438545716,0.19345789091834198,0.041546650037496025,-0.06569455664303647,0.039297404390006396,0.1010936429718946,0.09658578454550826,-0.08551433643655915,0.5555004212233319,0.5633725127375175,0.6754418301090168,-0.3312827050436422,-0.4484498179178953,0.25779808835183193,0.12318036269666965,-0.3386218478389118,0.5931694498664255,0.2357122270640103,0.041942488655419496,0.39609580262657407,0.7763521019510099,-0.27410434344695456,-0.2728561909874576,-0.27302761937050857,-0.27523789643029106,-0.27389340521475347,-0.3153260934502249,0.5576850336309962,-0.3394851851067011,0.19900526258879303,0.43837086255299285,-0.3791300669628228,0.5032022114571506,-0.48222326145659733,0.08639079514765169,0.3402212886658429,0.9507187130341447,0.9543050586771838,0.9512328454385003,0.9521790180070362,0.9506429690910656,0.42638622444964747,0.3998650334834922,0.4179866973008646,0.42416152384734884,0.4133506557741553,-0.0004353667387071436,0.007025364470753859,0.1841564391515239,0.06474686835602228,0.11839922315195173,0.1940912036560135,0.029010249262043986,-0.08289865079352876,0.02471067257005788,0.15391167475409273,-0.2794446590962112,-0.2760965468769301,-0.27557838770683896,-0.2746495587669653,-0.27633532908530745,0.8985832774766173,0.8983760713291497,0.900132286652282,0.8998131961259065,0.9013236845082271,0.6586569953058093,0.12097861548204802,0.17296789766177956,0.3795130097697734,0.400543992090572
9,3,-0.5889469565390617,-0.29237621539557335,-0.710037501223971,-0.26635717416849447,-0.7066554820834665,0.6305053699318086,-0.09888701641116171,-0.20823772687979858,0.2137911386410284,0.7097521855714154,0.6958810894245595,0.002350466751210867,0.49583284686142104,0.3158969382439192,0.47939875020279654,-0.6424365495392323,-0.6296407721434449,-0.6303955353253516,-0.64363461613832,-0.6462072622053259,-0.39025221831943413,-0.09971496759032727,-0.16253110740653565,-0.3074601537973458,-0.19686088952456826,-0.5065426450959176,-0.16277123552138018,0.12370430863536352,0.19582240485940106,-0.129973920000503,0.6407026296756105,0.5064907033665563,0.5210846398720238,0.6348965317685682,0.5483135578929582,,,,,,-0.6365438860712476,-0.5761885568401386,-0.30521960081576704,-0.644668123386344,-0.16497498906088826,-0.4513803337548139,-0.37411731752270017,-0.46181888126487936,-0.48368659553301363,-0.4054101528731011,0.1978983745788735,0.03499218434994633,-0.05981325009956695,0.04800259041802468,0.1070989533965303,0.06442767224789381,-0.11649409024794699,0.5332964189135876,0.5420990892047778,0.6575945940764693,-0.3516138795797028,-0.46894936803896536,0.2491191460976303,0.11397037091392359,-0.36100593871033415,0.5658109526268719,0.21494322140040678,0.015927730236020787,0.3662042099028776,0.7615088429980198,-0.2528736909258118,-0.25153931805488017,-0.2519318351567512,-0.2539663235783536,-0.2525725749335255,-0.33553885666549244,0.5379177589054183,-0.3780934403232965,0.16763305510767046,0.4281163606902051,-0.39839057113636045,0.4925435633634294,-0.517009683573153,0.059664665915885706,0.3368096602368891,0.9510984458192832,0.9508097301586356,0.9510955353018233,0.952150780496246,0.9504322971003553,0.4017129931796487,0.3773193229100149,0.39408913947819624,0.3996505277005391,0.38946659646270976,0.019225166965684992,0.027926765891823302,0.20169041493608508,0.08146683196660198,0.13770151324015467,0.21519370107355562,0.051207564824966356,-0.05557526465923912,0.047555194423415714,0.17745963651349994,-0.2585303348301524,-0.2552815610627084,-0.2547657032580357,-0.2539825055155338,-0.2554728621808482,0.8900208646820266,0.8904630610578481,0.891630341409894,0.8905917281907378,0.8932663662386915,0.6291401724571235,0.08587630774425814,0.13682196926942958,0.34313294782004844,0.36518066157248164
