f_id,i_id,2_1,2_2,2_3,2_4,2_5,3_1,3_2,3_3,3_4,3_5,4_1,4_2,4_3,4_4,4_5,5_1,5_2,5_3,5_4,5_5,6_1,6_2,6_3,6_4,6_5,7_1,7_2,7_3,7_4,7_5,8_1,8_2,8_3,8_4,8_5,9_1,9_2,9_3,9_4,9_5,10_1,10_2,10_3,10_4,10_5,11_1,11_2,11_3,11_4,11_5,12_1,12_2,12_3,12_4,12_5,13_1,13_2,13_3,13_4,13_5,14_1,14_2,14_3,14_4,14_5,15_1,15_2,15_3,15_4,15_5,16_1,16_2,16_3,16_4,16_5,17_1,17_2,17_3,17_4,17_5,18_1,18_2,18_3,18_4,18_5,19_1,19_2,19_3,19_4,19_5,20_1,20_2,20_3,20_4,20_5,21_1,21_2,21_3,21_4,21_5,22_1,22_2,22_3,22_4,22_5,23_1,23_2,23_3,23_4,23_5,24_1,24_2,24_3,24_4,24_5,1_1,1_2,1_3,1_4,1_5
1,1,-0.32792509862867325,-0.41146033370579693,-0.30482044853555457,-0.2382231551300502,-0.23186193701028612,0.9249982528879036,0.5914311262348207,0.48897567739438563,0.7961322909699641,0.9663248343708375,0.6400249213703101,0.5020191475273323,0.8984839209832209,0.6170541529348159,0.5462789497031008,-0.17137898990153833,-0.14227574373155316,-0.15698087497481739,-0.16953754622994888,-0.1816441046811208,0.12966926553186653,0.3162403462268244,0.32111675413854557,0.15639361841553323,0.10065843900973481,0.13364223583625334,0.2503465150120219,0.22966488684842146,0.6372410430976317,0.4699049072684778,0.8472010655933312,0.8057854370253101,0.7960126837471081,0.8424391285072185,0.8244543741531395,0.6290387455720144,0.6514485410679115,0.628177938905415,0.6400129307497652,0.652047460152773,-0.3248952901322799,-0.38624606488473145,-0.5578623447793865,-0.2574916588214746,-0.5480883812035271,-0.7654390814886978,-0.7436256507770245,-0.7216034102461419,-0.7103003987338767,-0.7546031303161369,0.10979125476052054,0.07739589773223254,-0.08579669099780629,-0.04128323018516644,0.004196843553708529,0.7785786309734902,0.6435570284162662,0.9169672086456564,0.9104943063586831,0.9373434032273158,0.49271564236332566,0.3905267673038355,0.7729690928551648,0.6842323404331839,0.48599350066826696,0.9685898502771411,0.7200205321011519,0.5874623020048486,0.9109515200650522,0.9290564496597863,-0.761784683640611,-0.7615818874306624,-0.7599377428708576,-0.7633221993717694,-0.7630727140868281,0.30606245807699717,0.44898894420910185,0.2686579827271549,0.3948885609695256,0.1395173943537824,0.1807073518754263,0.21129331836145182,0.0048402804365449414,0.25081951302106753,-0.06393727654866654,0.7134121274646104,0.7243891955653073,0.7137039566856809,0.7165476791549598,0.7153581010835708,0.7776435352037554,0.7527780231246021,0.7686986635102704,0.7793614854341598,0.7643662213931091,-0.5135301051729222,-0.515673677854843,-0.37378952510502894,-0.44616616221096583,-0.44092173841852755,-0.22557778577974852,-0.3310644272079386,-0.4978217402370184,-0.31896059127881027,-0.3143874550781698,-0.736019538547557,-0.7355751364377352,-0.7333340296373316,-0.7332139306962904,-0.7368818466155869,0.7764097354921575,0.7597148731922921,0.7804681903356849,0.7925387168821783,0.7799783688964446,,,,,
1,2,-0.3166927343734449,-0.48310147398495507,0.0067970710881913865,-0.11026834982648137,-0.03475229882516806,0.7289134472693913,0.6691377943681452,0.8687940833862161,0.7944495398032551,0.6588489989786517,0.2299970653244252,0.535829886354032,0.6207141219151454,0.3155237736995673,0.18343436904866195,0.4441939955898959,0.47221005827542184,0.46157240291777735,0.4354304497315644,0.4209768473288755,0.5663111898438093,0.5958430209179073,0.6530778119752325,0.5575609313048838,0.4561227847685613,0.2899802604262185,0.15225382112046715,0.10839115748549932,0.7102314387110739,0.5091422134023244,0.6712892482387863,0.7522750550098674,0.7564246770283254,0.6948565555985055,0.7421282694950014,0.22512206823049297,0.25085344011091126,0.2212565497545429,0.23701551587191394,0.25217846702137736,-0.12102669772486041,-0.28026511345963745,-0.5747618747521535,0.04884436466802777,-0.5290424835731349,-0.5877676340883382,-0.5664099446590316,-0.6479524295100623,-0.6341175873841134,-0.5746607843591132,0.05167126284360346,0.12405022219757988,-0.040665206360970485,-0.04084505345085221,0.006866715350019037,0.9579472409346227,0.9381584054486594,0.8221456339871069,0.8187469287929123,0.6611602051873113,0.8403275828845564,0.648555916993694,0.6812781097997767,0.7034411194690479,0.8602084804034154,0.7863268000875602,0.7432959043684594,0.7703629524522829,0.8344716304630789,0.6056483512981629,-0.735567661433576,-0.7357282181330098,-0.7348618672249771,-0.7363513809138271,-0.7363006769274087,0.735813114394597,0.10425516084187947,0.4452239660490368,0.3392021834725769,-0.18163194240235847,0.6551111929988802,-0.14375359741760874,0.24688273726362653,0.20814046239740924,-0.355811192990525,0.3071132579948833,0.3240933019748129,0.30810246966275145,0.31001541106861863,0.31012375598962305,0.5318498600404803,0.5090856094806473,0.5341656924231932,0.5386041260341513,0.5190526777887665,-0.5941354102507173,-0.5964994658821507,-0.5175270777967818,-0.5567120125677409,-0.5584153742999702,-0.37030943587560605,-0.4308509049406899,-0.5608810466376495,-0.43062370554914686,-0.449350075493981,-0.7172879017231972,-0.7170675089494232,-0.7164139232695841,-0.7163365692204293,-0.7181476534280331,0.4079075248044983,0.39020285461353366,0.4144153955332879,0.42445621539885847,0.41121228240284413,,,,,
1,3,-0.3095708137347708,-0.4829298738133032,-0.029924444912445836,-0.1402453880596055,-0.05843832348737066,0.7710654918339979,0.6783150225754424,0.8392607665458662,0.8167091274717851,0.7149956247189202,0.29053283467418245,0.5481193425353525,0.6749552660973982,0.3677458804779421,0.23706444717600794,0.38119012350919845,0.41089229554424656,0.397956480701418,0.3777615375101273,0.3639394467043239,0.5189196065042352,0.5696438490428158,0.6211082370274874,0.51333668368855,0.4129050186092347,0.28549129405280804,0.18317995156460887,0.13391412064593355,0.7170891914080972,0.5233539105770799,0.7077738430888163,0.7726527223746905,0.7759187237382534,0.7278876404268494,0.7666945847755967,0.27610357537025665,0.3020694350534292,0.27239980347603876,0.2883761572144278,0.30324292937574937,-0.1450017642623056,-0.2932385611212647,-0.5791860233204389,0.016847785888005395,-0.5371959752030606,-0.6117593779640533,-0.5890119647499721,-0.6699988711919243,-0.6539189448858707,-0.59810105443816,0.05277656974716316,0.1149844343183537,-0.05258174719958442,-0.0495146288764734,-0.0023937000139098163,0.9598462464530371,0.9229152638953125,0.8508221898158624,0.8463344009584874,0.7155654204506465,0.8145576369472846,0.6379357950230846,0.713615584100279,0.7182629230384536,0.8345577716020457,0.8293404213414626,0.7556356198652918,0.7621112274425251,0.8651318905909787,0.6620517255481517,-0.7591598113781726,-0.7593271146653453,-0.7583262352333686,-0.7600946921194436,-0.7599633298510398,0.7005800990216638,0.15458921158368577,0.4417724016199922,0.3567641554085642,-0.14362406744994338,0.6123773599363684,-0.09817947273957639,0.22758102258532864,0.2207262708797707,-0.32681155492771374,0.3635643561575227,0.37971792764803636,0.364424336095857,0.36626083528146003,0.3664211276327123,0.5821079978524445,0.5599386821796934,0.582617618704517,0.5888316406496555,0.5688896067689014,-0.6007819091772726,-0.6035200347306313,-0.5149532016592233,-0.5583607274088171,-0.5602042496286612,-0.3629390319343535,-0.43028003241794166,-0.5683762638776393,-0.4277489765043392,-0.44559058361607606,-0.7397708786105295,-0.7395577548141989,-0.7386499948890277,-0.7386458611088154,-0.7406892960325213,0.46165627769136386,0.4433844537276127,0.4677863510774847,0.47911951638143746,0.46512063740245524,,,,,
1,4,-0.33527554923855574,-0.47301360435667905,-0.153460259415388,-0.18918898700783093,-0.13907508303751914,0.8723702581505087,0.6735000387505606,0.7263468366626509,0.8467219261758429,0.853575253686605,0.45603516878048045,0.5603014153758349,0.8042798992622794,0.49537415334880786,0.3861634885028886,0.16083957826876583,0.19202495119731444,0.17797889363157726,0.1590394877118746,0.14563503699647717,0.37593164107355537,0.48576110819906104,0.5207626150450337,0.3809920470629333,0.3009623398017436,0.2245391166456958,0.20990231757611744,0.16818224312549657,0.707096737219665,0.5158804875430767,0.7988810318215046,0.821316923398978,0.8188396834495565,0.8081160874860361,0.8251524166118155,0.43712083575899763,0.4633112315664645,0.43432314993456234,0.4495562134371992,0.4639619454357268,-0.23754526205445248,-0.35441899860699877,-0.6040535697249119,-0.10925252900140547,-0.5736616390656166,-0.7049687592387528,-0.6817560809391758,-0.7310370368322592,-0.7166616632275342,-0.6920697224899712,0.08059750844810598,0.10561199848989578,-0.06830237080281143,-0.04691412160199815,0.0017125251706248124,0.921712907565319,0.8421369922373784,0.9126326200258086,0.9066800790180556,0.8363965584908263,0.7128859949486618,0.5628015861963321,0.766290204628517,0.7315281852589651,0.7240894810783084,0.9246923895388037,0.7721283814244798,0.7226868916370296,0.9212181630732877,0.8029847447209335,-0.79001938594019,-0.7900624225099238,-0.7887008312302286,-0.7912894173934193,-0.7910673763058433,0.5697203083236942,0.2933401054539203,0.39926339062630944,0.3976009721319218,-0.024213666810534162,0.4628935004491763,0.035660036363277525,0.15622859419030766,0.2521967635081337,-0.22410256329361666,0.5272808242357321,0.5429595647493213,0.5279977158134374,0.5305471155784962,0.5298684372152784,0.6879878517579514,0.6636009336589574,0.6844641829964698,0.6927533221647121,0.6745455358654765,-0.5862077266193486,-0.5889370295049847,-0.47383357348917965,-0.5310330719840968,-0.5307930483732055,-0.31709330713779993,-0.4031011996841458,-0.5600662879522151,-0.3966462263189623,-0.40573438091733216,-0.7672775065250765,-0.7670342911028305,-0.7654771063737282,-0.7654439743337194,-0.7682978972474832,0.6144390494451083,0.5960129948577325,0.6199335618965147,0.6318881451890469,0.6178539922167132,,,,,
1,5,-0.3268786398660335,-0.4693882152143718,-0.15174072171841657,-0.18651907052397787,-0.13561905256090578,0.8783454520590654,0.6750463351920684,0.7184378980251761,0.8487253266302541,0.8624362581419415,0.46327262551409154,0.556499178979254,0.8101788583886637,0.5028055688460398,0.3884892360081378,0.13995161607883055,0.17086017484414873,0.15630737918724713,0.13916040489953252,0.12525393663428575,0.36696737621150155,0.4821988578948928,0.5146449857489919,0.3767224092576126,0.2875246372930561,0.23257943098179756,0.22497631918789995,0.18475754034187952,0.7141903634524922,0.5258114991866771,0.8073758086712055,0.8265291709742526,0.8235511356793791,0.8169432903167815,0.8307897516111535,0.4498878173960501,0.47540750598935655,0.4476833770068649,0.46198818921089313,0.4763916450575115,-0.22683846537722907,-0.3416905925507854,-0.5925629344667618,-0.10172769513923141,-0.5623041664321966,-0.7070772077000664,-0.6835138694729355,-0.7217722448926118,-0.7065412731502643,-0.6940369242453852,0.09296452217929707,0.11071214363444148,-0.0634867451346266,-0.038546236051086646,0.010808801809145452,0.9211553143179746,0.8366831400636284,0.9199989620767848,0.9144805629126878,0.8504086495942927,0.7050934277076282,0.5584080187134113,0.7774301521993617,0.7395976000817158,0.7131336759578975,0.9335021374733657,0.7794788362330779,0.7217232684691901,0.9285227473711,0.8172962105334521,-0.7987657407663002,-0.7987919885971295,-0.7974176741971732,-0.8000320315439633,-0.7998717345362494,0.5510534364180337,0.29376358694390503,0.375559024346551,0.3857594990730233,-0.02294934124688197,0.44164508121992063,0.03501839469046464,0.12820004857565626,0.24131590824296822,-0.2248935637672036,0.5359170087283516,0.5501959912352233,0.5363744770027955,0.539178127144649,0.5382234093974798,0.7043679440322519,0.6803624555466599,0.7004208106942613,0.7090224555486132,0.6908588130997281,-0.5963691281873804,-0.5989951619270868,-0.4818897363593855,-0.5406111184893034,-0.5396163354443031,-0.32525158877703153,-0.41300266128538454,-0.5708094850321834,-0.40530579563207025,-0.4143897249891455,-0.775729045981266,-0.7754220182279128,-0.7738195496353857,-0.773800855455173,-0.7767650983844359,0.6209004724549633,0.6025454294743359,0.626711872364359,0.6391842480647102,0.6250841592706289,,,,,
2,1,,,,,,-0.07187354813873736,0.6228824571996688,0.356592698689985,0.17176863548072396,-0.0666335334592556,0.3955600304104976,0.9169322371876247,0.21238670258717163,0.9193759334904384,0.631265345800021,-0.020863168170714097,-0.0318418752116747,-0.019833893732593033,-0.008588122112377139,0.01814966507061566,-0.08700345838679469,-0.10247615800727483,-0.09901330135186859,-0.07549295516459087,-0.16209856039609405,-0.07187982110673885,-0.08464477809250814,-0.11157806096503786,-0.13229347064214592,-0.08697518012087291,0.3074599283585593,0.34075033513203323,0.29543337987722873,0.15820995950664507,0.18283228625026737,-0.11772263288545282,-0.11679088070559485,-0.11766497222567396,-0.11901531065655435,-0.11182227304177239,0.028554686105016214,0.025854686536699645,0.09301647210801711,0.030808941891574126,0.022990203010475718,0.20114152306642685,0.16398537973422456,0.17909346444876295,0.11517121525392315,0.11189867945492371,-0.045525221065793264,-0.029331599633212635,0.0017124798675050013,-0.005417174056067564,-0.04213981030256031,-0.10181692904571182,-0.10140935044223753,-0.1323668659245918,-0.12978186458465157,-0.12424268237662894,0.08239252688259402,-0.08679440810700179,-0.11630717868137319,-0.13831285941624416,-0.007223426995802473,-0.17367532432455812,-0.12570831731701193,-0.11382666398902153,-0.15089166430337997,-0.17431989611968968,-0.033026038037550665,-0.02517672511605684,-0.03171642643850303,-0.03763713670329172,-0.036059184728652216,-0.02968381108620055,-0.18223759044059662,-0.1613228448752908,-0.1901750674821201,-0.10078746922665616,-0.023568801995598854,-0.1894112309777909,-0.15506937853958203,-0.20389457325384486,-0.08935099109645606,-0.1360804004918139,-0.12903761457385543,-0.1330906840889201,-0.1341251917513473,-0.13562625746058843,0.015242282644025607,0.012487819187827043,0.019400853009314156,0.021516121662878085,0.027441704371917286,-0.08876844696858854,-0.08958132370976091,-0.10204724084290295,-0.09695647492645931,-0.09816390930710606,-0.12059012092243337,-0.11185796053856545,-0.09252164523438666,-0.12003996953828988,-0.10810166888942652,-0.036324956405271,-0.03209675410571511,-0.03407423737881676,-0.01639287767605402,-0.026032183809587828,-0.15051973029680932,-0.147497151797658,-0.14948396899923178,-0.14843658187568276,-0.14822905510468853,-0.11279572445741026,-0.10746563732421266,-0.11070598859228964,-0.12119453059819141,-0.1127774890111064
2,2,,,,,,-0.06929593724273575,0.6139794887454642,0.3507508144922664,0.16601040454511629,-0.062093818002764145,0.40497071170990884,0.9169736696161372,0.21302120554320625,0.9212982347662947,0.6428395088672738,-0.03345105817390914,-0.045563445808597836,-0.033946422650375174,-0.024314543237972552,0.001836755098045595,-0.0938624559167418,-0.10533540725059565,-0.10349024519641348,-0.08102409254359655,-0.16061255646036088,-0.0844253793076919,-0.09344812588896989,-0.12157238529904046,-0.13894587213705023,-0.09456009855689462,0.3123292870495682,0.3441258403763343,0.2981332075550541,0.16186308502986113,0.18534598119725665,-0.10686252558155229,-0.10521757594255221,-0.10760128958123927,-0.10783037082369384,-0.10111328836957467,0.01698683195220474,0.017689721544899784,0.08145259899456248,0.012641223058499462,0.010727172019824316,0.19585643092547056,0.1566654816220897,0.17635131532172177,0.11394833350617328,0.1066699825412003,-0.04508975442455987,-0.028821655931522194,1.0627538549523585e-05,-0.0052026256152657435,-0.04057268173290329,-0.1106994277545279,-0.11019079055272818,-0.13268585434719316,-0.13046033215140884,-0.12607498453227262,0.07241578295363005,-0.09608148235498937,-0.12171233546102189,-0.1447314811413929,-0.015701375714488153,-0.17667310953424065,-0.13224237285184604,-0.12039553801709135,-0.15598674687135872,-0.17498019877836923,-0.02458682836484427,-0.016841093995257017,-0.02325555607616492,-0.029299843265560233,-0.027634444362381716,-0.039004223238537694,-0.18029251290624781,-0.16872316139433075,-0.19261102520804996,-0.0964224015547459,-0.032074449683567874,-0.18448333063475664,-0.16004633762878684,-0.20632151495065365,-0.08030136978341806,-0.12863695492499705,-0.12056498159475759,-0.1256054817606269,-0.12621360294835826,-0.12769306915855805,0.010338928672085301,0.006618247604783578,0.013894338369775605,0.016192971881052842,0.02296350043908857,-0.08147513264273631,-0.0827152716853281,-0.094525160823836,-0.08954244632263686,-0.09182809853774132,-0.11429767491206655,-0.10471858431012793,-0.08351080441356085,-0.11375355822523314,-0.09943982305096855,-0.028473395366549914,-0.024049628522979427,-0.026107977170688912,-0.00844031872326001,-0.018003085966071364,-0.14852211782281444,-0.14567182834104542,-0.1478618421475255,-0.14701919791883378,-0.14664496236266844,-0.1141808490726508,-0.11467017476504848,-0.11755431821108697,-0.12637593263450486,-0.11838334552513063
2,3,,,,,,-0.05705603128174164,0.6527081575871707,0.4093627186254527,0.2041388011268339,-0.07444037487663735,0.34776964474060534,0.923602804460303,0.20460204529056647,0.9064417108007402,0.595321107163597,0.028332435739073514,0.015354566491018184,0.02901423150868976,0.0347698885934451,0.05882841453317411,-0.028547068500351047,-0.05991669924690335,-0.051318136145330984,-0.01867060360882289,-0.11525848004942518,-0.022037706392340706,-0.0644565562259316,-0.09943962774285398,-0.09070421929120132,-0.047440671774715115,0.3134247231684064,0.36243640306084457,0.3163790914958564,0.16755991072304566,0.19977497042124992,-0.15619644149583123,-0.15657105304978525,-0.1554718050372781,-0.15854915656437463,-0.14822026319874815,0.0788588878793296,0.06673685429714316,0.1000684432553609,0.0880949294719241,0.03361720314603689,0.21118347478810173,0.1743759771591964,0.19367702855324476,0.13070795804090363,0.12225032447561812,-0.03978028508793763,-0.013835884330531956,0.01064930086459892,0.0006952579546496418,-0.03490856889112548,-0.0608957665824692,-0.05198653606484771,-0.10938221895282307,-0.1056330342317493,-0.12445877405331873,0.13779143761615087,-0.0366260185518994,-0.09441978157372022,-0.10297252174568294,0.043369148255667955,-0.16536490169058693,-0.09668336371356756,-0.07575727202586835,-0.1217771972197208,-0.18805528622203327,-0.05578543007915404,-0.04794935615286966,-0.054577363380892585,-0.060244330536953994,-0.058847447521448215,0.005298937607044918,-0.23373765690189496,-0.16223757689968088,-0.21388927495572552,-0.150345771001825,0.010533534243222453,-0.24441741069513045,-0.15206071159642875,-0.22348620749216241,-0.142602087773124,-0.1826735813630107,-0.17511001834098305,-0.1779261945161732,-0.18108928773451405,-0.18282307670956133,0.030669938658523854,0.027574117210839355,0.037104542414482244,0.036611325697137986,0.04322214980368866,-0.1239861417218544,-0.12422335293522457,-0.1410359219396744,-0.13449731485404914,-0.13479042863836987,-0.16252181974056001,-0.15015672457400253,-0.1293112356011572,-0.1598099213483981,-0.1506523202047867,-0.059323635748742554,-0.05530880718944231,-0.05730506662828039,-0.03965325736735248,-0.049234429560724546,-0.18911344338651892,-0.18606592727270033,-0.1873550869354732,-0.18665657724563833,-0.18622020684616603,-0.11142360269181695,-0.07179230142018223,-0.07987192272395038,-0.10045067838075639,-0.09307406046911182
2,4,,,,,,-0.04677637018426806,0.6289031116316186,0.378583265927388,0.1965534343779871,-0.08699895798330592,0.3661575699536781,0.9203203228547503,0.21507187830181973,0.9001229902454775,0.5888177266623917,-0.01092917976625074,-0.018610521738503527,0.0019461666894986518,-0.0005336420988666379,0.025509671425512637,-0.0664732072969243,-0.12139199799769385,-0.09960015063262762,-0.07745983318266347,-0.1458693327386411,-0.09364953210213067,-0.16084938441663876,-0.17743935934580812,-0.1585397368654775,-0.1317262490256923,0.29449876808564124,0.3375064043229308,0.2953475526599729,0.14580867887808435,0.17864061711699986,-0.1329312026382543,-0.1320370393088528,-0.12893868377953743,-0.13536469260119754,-0.12582994829204974,0.012264351060699896,-0.008461335241220613,0.04748031636507,0.04606771802725629,0.016322633721152058,0.2084504050288445,0.18694341296705963,0.09982287322986916,0.02683844248071421,0.1180810299375602,-0.03879651813649576,-0.02162026315405141,0.010636617009552873,-0.0014909111574124,-0.03416525130719794,-0.11574521397979787,-0.10623101405659607,-0.16630215424054695,-0.1561577140454693,-0.18015451807263538,0.09129520453212625,-0.07874976445194459,-0.16742412650224114,-0.17121214915578342,-0.0071804677397164784,-0.2004643332901357,-0.13827650556143212,-0.11031622377558681,-0.17085615956603228,-0.21133644744530944,-0.0054457788199726576,0.002045467774354992,-0.004021649685596929,-0.01043452327634875,-0.00831484806978966,0.005435621190430839,-0.18596660811822208,-0.14168811491760747,-0.16717187040611048,-0.10658592852971971,0.011892663046460639,-0.2055020317789631,-0.12949569942278694,-0.18550395857260238,-0.10950429490932545,-0.15048191344981765,-0.13885596056437954,-0.14607245189607365,-0.14899537488296621,-0.1536281175194043,-0.015380697206782035,-0.0206458285131208,-0.008635012214210702,-0.007620877625450717,-0.0059308972972456075,-0.059864568132471874,-0.06013564323348919,-0.07245443115358818,-0.07111164702555617,-0.06478393250012138,-0.11295913615854625,-0.10678145961772256,-0.09429415584961598,-0.11439588978053616,-0.09979189846555414,-0.00962451205555559,-0.004245996670126928,-0.006761329420191364,0.010715931507430554,0.0014786209900528036,-0.14965324568335125,-0.14416261957950027,-0.14703685419472667,-0.14906603914624084,-0.14677806389639625,-0.12810281273263913,-0.09792690313377594,-0.11195594716280621,-0.12615943964997878,-0.11606709503416202
2,5,,,,,,-0.05682768719822806,0.6323794872372998,0.37902272256988834,0.18707702430942685,-0.06715481704372928,0.37676840464840045,0.9201234163739916,0.21017070075894917,0.9126994443792815,0.6134004680469188,-0.006430425663852324,-0.018094653657469095,-0.003969471748538345,0.001383418137504533,0.026485259106826864,-0.07113322840645697,-0.09769897692775631,-0.08953781782101311,-0.06200477058778575,-0.1511192198385558,-0.06329315910612876,-0.09567174355676666,-0.11946704252211937,-0.11746595608746935,-0.08185659229059361,0.3076356732279901,0.3480534017508251,0.30285777269751013,0.15966431524761704,0.18777365235805554,-0.12732739674353355,-0.12680332958141327,-0.1263594359927971,-0.1293305588575142,-0.1200811560160977,0.030490780509345505,0.02104787760027893,0.06965539783872865,0.04031262443677175,0.011342288129037481,0.19101879961390944,0.15704649251882008,0.1581179323701407,0.09344570723680123,0.10192942182796494,-0.04195644754821726,-0.025092284476190496,0.006420579342874322,-0.0018738506414808231,-0.03706327421778477,-0.08799834795885597,-0.08405957942961728,-0.122575873062307,-0.11799111595525003,-0.12836221960116045,0.10634477813982257,-0.0687300579046961,-0.11080734579952112,-0.12383997557337345,0.013333306794180544,-0.16804912396920146,-0.11085700658431552,-0.09443306646228677,-0.13893941178929214,-0.17529457228407397,-0.03635145448220434,-0.0286005849183677,-0.03501685191966697,-0.04111259460046868,-0.03935124349960839,-0.00842640487731594,-0.1932330813529739,-0.16033490529588912,-0.18880225466972744,-0.11371579875731297,-0.006191995682249818,-0.20662187102943963,-0.15488432242894756,-0.20529655245368095,-0.10637778817348043,-0.14254334355484155,-0.134523669606736,-0.13868879007196822,-0.14069592243435713,-0.14295743986637977,0.009879765814510888,0.0051902662336688055,0.014664594903149197,0.016458849801019082,0.021101741857948664,-0.09328056594360845,-0.09386929270589972,-0.10632055740149204,-0.10263518036093378,-0.10189984907845817,-0.12819407636556468,-0.11980981564972049,-0.10191952493355627,-0.12819115666290548,-0.11549954134573515,-0.03956168379230829,-0.0348671043351092,-0.03708566974977856,-0.019416720562414502,-0.028937981693148096,-0.15505996249862197,-0.15159747776919774,-0.1534472703791281,-0.15317262840332813,-0.15238426496191204,-0.10705747702797797,-0.0886579267162626,-0.09542129261817278,-0.10885461777628613,-0.10021276258620793
3,1,-0.3501133280287614,-0.27826311661471603,-0.13441360305630234,0.07226086100057094,-0.10997297788053073,,,,,,0.5202589044662356,0.6708056889981713,0.8658406885488857,0.6053395735020283,0.49012205480461946,-0.033171837548944705,-0.0166547701047548,-0.020620815423794125,-0.05888683188277044,-0.08085945137174422,0.23980544810744098,0.3570734375297302,0.3758694142665029,0.26168605001271383,0.18610010384123155,0.24350179737149558,0.2758721769434881,0.12104582776205774,0.6410568242222916,0.5257419481139117,0.8295366662307763,0.8187551419958917,0.8095746644524128,0.8213006378594647,0.8230252148905868,0.49131699796826167,0.510094650488168,0.4892000577873503,0.5004037357947118,0.5154221744426116,-0.17936383840757109,-0.24503618006201955,-0.4327194129782024,-0.12299956089888142,-0.38293975830426863,-0.5594894091100682,-0.4800165052245815,-0.5563821871992567,-0.546751513806977,-0.5207982440919383,0.0565437516259053,0.0400571746732431,-0.11670420781114088,-0.08893601694152853,-0.04568069517208673,0.7803469811185142,0.6879907199664035,0.9172844406737998,0.8945259786814412,0.9044974692277784,0.5415187004526049,0.5036486039747489,0.7327463416960446,0.6406005069064342,0.552907143538925,0.9042256945050232,0.7705546699499557,0.6558089442814405,0.8839087856335334,0.8286422228369058,-0.7374441836971233,-0.7381044919334836,-0.7364422555930099,-0.7389916584995437,-0.7384418216808291,0.337945111195328,0.21442692951605846,0.1811816221486897,0.18562474132164697,-0.03962359726458464,0.21669298123792569,-0.0008093243937279393,-0.00108808325604981,0.07525778696852203,-0.16980894602327656,0.548481810389603,0.5570611172414628,0.5514226207334777,0.5476795018663068,0.5489342225667984,0.7984326091428743,0.7752866926608485,0.7924671755476637,0.7843546134233575,0.7934340845932808,-0.6319866603763677,-0.6383297951489315,-0.5338361905805991,-0.5820785321933981,-0.576764674345736,-0.47727617707668335,-0.541863242408795,-0.6618894084147264,-0.5402704856877394,-0.5168253678271513,-0.7424423313763615,-0.7404392683769188,-0.7403495448991277,-0.7393573018609976,-0.742011945973732,0.687381697279066,0.6713885324251044,0.6939199218035867,0.7040967133587673,0.6960698373827561,0.9211350130134657,0.8160929738213489,0.8358405768086815,0.9025348742674273,0.8914739364912143
3,2,0.16574796171087292,-0.13180348292504962,0.48676683303257406,0.06662409488229282,0.461826466155296,,,,,,0.21239521204025424,0.8946803646162079,0.6274666355543845,0.5936317647122036,0.23848371694163328,0.43812637947690825,0.45268109538007884,0.44697635034779215,0.42299938767191225,0.40531877138966865,0.7833655453783771,0.8303952679022463,0.8379838571270086,0.7975729800994189,0.6320054736368191,0.4866152279118834,0.3433804594764327,-0.04246385141763276,0.47284582775580186,0.5807849055578189,0.5563560682754718,0.6628493520413605,0.6177110132475878,0.575799612429442,0.6037382503812984,-0.04045015635936022,-0.01663760618785659,-0.022431856212712376,-0.031996382540006696,-0.0018664805212973423,0.3584886962503161,0.27741992653847225,-0.28464910984905933,0.4203238082280799,-0.35705633051715546,-0.3945277115638042,-0.3947409231080341,-0.21226347484868802,-0.14401840704591362,-0.399254272372521,0.34050793584371797,0.19112288582662917,0.1494442147571433,0.275069300869379,0.23667661063660095,0.8068448509974205,0.8052613095045035,0.6450421012362859,0.611533789162403,0.5376870978878743,0.7884157489147351,0.7927897770415387,0.6704699449184149,0.6199584013131942,0.7572796619018257,0.6576514376523328,0.78427368451279,0.7734242894669752,0.7547500366798031,0.4357980451265009,-0.7944543490470106,-0.7954769353292435,-0.7966562285904037,-0.7918153672910428,-0.7950847132529955,0.6310455536736648,-0.17210532134812828,0.36153188029604055,-0.013100870233647477,-0.42656282278214963,0.5681477194919934,-0.3572453067359158,0.21866853458466862,-0.06583600105912168,-0.554856604137892,-0.06025112854617043,-0.03780287954877792,-0.051783392028582176,-0.043935206390087744,-0.06267162512694902,0.6868226566885545,0.7100230553107771,0.6907543596170153,0.6693509190356585,0.6946052096482771,-0.7761411011329487,-0.78458448827875,-0.7626555979393939,-0.7548075716969209,-0.7703091534245152,-0.5926412185342564,-0.5784009572687183,-0.6799613619543885,-0.5909017862516648,-0.6333670701230107,-0.7931746158227138,-0.7959844620978833,-0.7961132035146556,-0.7940874175729311,-0.7940171525982678,0.11338052064457171,0.09334027098934317,0.12126438534641792,0.13694544481450455,0.12007536872420066,0.5999868958649206,0.7771447475196921,0.7672102188071701,0.7331384938758337,0.7056033862243613
3,3,0.018955799677359497,-0.2432232909713372,0.5688392851993164,0.2806111310422402,0.5641021963557348,,,,,,-0.14410936192720136,0.6442433105182586,0.43649145449570526,0.1843210306939097,-0.1358932891542044,0.6393881462469562,0.647413364902108,0.6466748063384045,0.6041772511446103,0.5802714507434551,0.8235180145771295,0.7493079035813679,0.8065663483366525,0.8108418874145759,0.6568305027671878,0.735253026842751,0.5184290289304144,0.17456001383160402,0.7261958066487095,0.8129155062567639,0.5098349823925877,0.6580740134726476,0.6289019416199735,0.5305510287332517,0.5903936510944772,-0.18515473578036645,-0.16899638605075173,-0.18114662267556358,-0.1783542383001968,-0.15822700697105518,0.4909360560616587,0.37998124367132546,-0.2159718004647695,0.5706589447589654,-0.21910351188684363,-0.2686280340642444,-0.25343601237345625,-0.17061658330230922,-0.11827212814977206,-0.26303267049290424,0.1328260235748261,0.16362590211192474,0.03337931494437607,0.05115382285483483,0.06164426916367227,0.9273948127074749,0.9549468748368579,0.7273485364477551,0.6961386059251007,0.5181135368806288,0.9328853480074847,0.8865986975592884,0.7241464760404496,0.7644132865113409,0.8921750701513417,0.6045154076424094,0.8139160978461392,0.846121411945621,0.7970376341377106,0.3391039327147466,-0.7225045054839128,-0.7242588854422973,-0.7259850222369781,-0.7185013770881583,-0.7235309065757622,0.6952582273782822,-0.3868898763081876,0.2232240634838989,-0.0885062446045568,-0.5964091582408639,0.6613410723743645,-0.5445318962624466,0.12772300087476907,-0.1294228869452021,-0.7282041062531222,-0.20887602220484913,-0.20084417709789792,-0.20444543295759687,-0.20669368013154177,-0.2089939010967814,0.6504956803446462,0.66517868492989,0.6658440762301114,0.6267239920390607,0.6644113742795934,-0.7742225416646762,-0.7779923334518608,-0.7714739668541966,-0.7723033576924867,-0.7742530870326827,-0.6981519909108083,-0.6798625203099871,-0.7414207320940633,-0.6912431148833407,-0.7412508465544136,-0.7258143898112766,-0.7296873156735268,-0.7298231233633741,-0.7273243243918777,-0.7258845705021,-0.03461708203363956,-0.06168852582638418,-0.026846108713177053,-0.014568008023871037,-0.027909857676915006,0.537953795187308,0.8472936605529743,0.818856486544563,0.7450955710739936,0.7014699134544902
3,4,-0.10146530032298928,-0.27032840639239075,0.22083201106264672,0.06214741910972643,0.2176784449930066,,,,,,0.37890148277154123,0.8695829835206642,0.8160781743784069,0.6256959068381946,0.3567986706821408,0.26525686913650615,0.27850860761872553,0.27595680081718565,0.23708923645700886,0.21455257822168516,0.5801371563740061,0.6732782662885872,0.6899591440062212,0.6103791989095555,0.4662837974892766,0.43160009607828076,0.35170733138102794,0.06054256870283392,0.6607272799652055,0.6403172614404008,0.784953590985277,0.8506539756097236,0.8305122410026377,0.801077373089941,0.8192809179615884,0.25630118762406306,0.2717146516649531,0.2737265751299732,0.2602222498764861,0.2985794101400827,0.12237804123186846,0.040637487908343206,-0.3969599797562444,0.2019386223357742,-0.3891258729796756,-0.5223449776198108,-0.47345644111105756,-0.4499479689041179,-0.4015525876466721,-0.49613847307292325,0.21910904732246006,0.13791992360092342,0.015790552981362893,0.09353977115674073,0.10205965561784458,0.9046332155598673,0.8634683954518345,0.9022542774811892,0.8816168657040212,0.8227064291470598,0.7617305874855378,0.7410547620190974,0.8056521309334681,0.7202794997087577,0.7667843421339803,0.8799647557487943,0.8809361492281154,0.8166589047448432,0.9347856303587276,0.7163652077369476,-0.8635768318529069,-0.863625505949762,-0.8626792302441055,-0.865477659151098,-0.8639675552766066,0.5362440510855854,-0.028468967713407345,0.25761623022816593,0.03555842532967468,-0.3290209080439723,0.44345972723611427,-0.26082700311459384,0.09099964280062933,-0.05372472736652978,-0.45163038200305006,0.2594297106645045,0.27768532811065394,0.2780407298981391,0.26337151529807223,0.2534768592103105,0.8541633020774929,0.850516745804205,0.8570754506305084,0.8469389330450542,0.8527549890505759,-0.8104108018773108,-0.8177833575908751,-0.7570937587791611,-0.7761779791291428,-0.7802807759041293,-0.6373307526926382,-0.6609066152465126,-0.7748308578255902,-0.6623391436064918,-0.6705918840965222,-0.8692369313069834,-0.8673539555663639,-0.8675874401432044,-0.8678252387492258,-0.8698569011739905,0.427802894473056,0.417697903681552,0.4361121258540124,0.4612517647111669,0.44248465112103186,0.86659608896907,0.9208164673092059,0.9249529408035555,0.9291802770570919,0.9224875029994151
3,5,-0.290006299996457,-0.22730982384158271,-0.3032702756344734,-0.14673968704271667,-0.2775196969862084,,,,,,0.7182527163102702,0.6238020035869639,0.9497365367100736,0.7190852176072609,0.6785111709522528,-0.16716196153624563,-0.14416885224455078,-0.15375387725823142,-0.1701352655024151,-0.18396660991409242,0.06743352462974361,0.2538108988239616,0.253477219466282,0.08672149109229266,0.06239515643410054,0.013400800032622229,0.10874314009179786,-0.0498391035327701,0.4267737353862263,0.3173353369786822,0.8862302718948276,0.8217791484095173,0.8221682737516617,0.8707615056515308,0.856236338718371,0.6555134394449976,0.6750474343789877,0.6514187373827922,0.6654203949838979,0.6790591017762887,-0.3501882076087772,-0.39919955785029315,-0.5063455836151118,-0.28209036868419024,-0.4955529729315724,-0.6855099948407466,-0.6143919727412173,-0.6425497819406889,-0.6193851840538649,-0.6493182533317303,0.049651151616085354,0.026984330530300693,-0.14074041632494172,-0.1084800718204284,-0.06480142061283023,0.6553368636038202,0.5368673226105339,0.8290676267721276,0.8060690613232013,0.9013702096092102,0.3296104541014343,0.2783044717098181,0.5878298586351732,0.4422147536459762,0.3648571194270268,0.8969219554222791,0.6533907464679686,0.5308569415293397,0.80394148922221,0.8716347818222446,-0.662355802960078,-0.6625761946733537,-0.6601228063396871,-0.665774001854325,-0.663259132114165,0.1978027862216616,0.4048502265212578,0.23826473805772586,0.2909353700791415,0.1539576313758948,0.09140359692938027,0.20346537555510058,0.05991907289304832,0.18646972184869937,0.04424203137384497,0.6994639940340809,0.7129285085336245,0.7037849119711654,0.6987922712556089,0.6994524928243528,0.7984743315202419,0.7730694826736019,0.7863648577976217,0.791188576857385,0.7897819678603576,-0.5300114354451473,-0.5395289263456089,-0.4208696624024695,-0.4678953578317997,-0.46670800903941934,-0.3755525631833865,-0.4539095672895248,-0.5824375003816709,-0.447471270629737,-0.4126803844767779,-0.6713888704272231,-0.6679682511292135,-0.6675954927654018,-0.6671254014001435,-0.6707993980288276,0.8365833947902303,0.8238414204539534,0.8387903913414254,0.8517130559195589,0.8417921360933892,0.943453382596744,0.7361911434822292,0.7732326620895347,0.8693038282837241,0.8678230802626348
4,1,-0.019277240817092034,0.03255375368728175,-0.37596703232795914,-0.31684541724294557,-0.292500837238276,0.3142196859395251,0.25549742741382575,-0.20747000325477694,0.34677846493462505,0.5560883834692631,,,,,,-0.5239653099504717,-0.5018644622115285,-0.5225367151430413,-0.5063713884203374,-0.5001599760772759,-0.35804527964132205,-0.1480433167591504,-0.2138897807272575,-0.3567212767739698,-0.14031673089275265,-0.37185235227397806,-0.0642487482391072,-0.12449739265407778,-0.20530235744750058,-0.17846884292641407,0.4501461148405659,0.28848918728350537,0.27243693604099106,0.3912944891567688,0.29981845249829764,0.6617138020839407,0.6750936737529828,0.6579848939698952,0.6676503547915967,0.6745144390696566,-0.4043322955930233,-0.30955754980681593,-0.1326184418764056,-0.46054147900845077,-0.2062751730978858,-0.3682943164565584,-0.35707293755392633,-0.30857252724105066,-0.28519144304304866,-0.3669778993377171,0.1170989078847895,0.049904381906337725,-0.05360156984924225,0.020003054219916327,0.0241394610870872,-0.09995710809410197,-0.22992490766117069,0.13054965004246089,0.11968356914337086,0.34578664376336565,-0.15284050205181687,-0.07555019072626301,0.22451023741001486,0.06067680509417073,-0.08689559407229064,0.47882174152058843,0.09610551282062252,0.025280329591085837,0.1946564502003909,0.5916033158054309,-0.2655270564579175,-0.26959989967169884,-0.2630919321636611,-0.27103798493088105,-0.2656032753881914,-0.02376424771415353,0.571258919376145,0.28538226686106816,0.24858348359707427,0.35596518326172766,-0.03157349593281511,0.48441551053212994,0.12500555011115766,0.19593646374317975,0.37608519007163455,0.662533996366465,0.685542456522284,0.665633414714091,0.6633625206638002,0.6556995833081813,0.3624394336475705,0.33587067815176264,0.33584226165336395,0.3673122882867681,0.33797687301468216,-0.042516959408486876,-0.057416887389549975,0.018284204205143095,-0.008440617801976247,-0.014320863327279998,0.26380996327025175,0.21019414728613617,0.1122987268791299,0.22433920183501277,0.2486524353657773,-0.2728826673502962,-0.26205831846441496,-0.26869702332468526,-0.2671705219078446,-0.26658170479958754,0.5613423041177473,0.5618330788045626,0.5610208072039153,0.5548231466742118,0.5570860696217144,0.41243491387373343,-0.03207219840047193,0.016981847923479343,0.17167934847368982,0.1997070539766791
4,2,0.12621636091246535,0.04137681391244019,0.33634658704006903,0.07589114193110769,0.2473019318181241,0.3330135610107501,0.8813683501347114,0.5730385629812174,0.8375509464926482,0.3526364284610142,,,,,,0.11727184249333134,0.1277009121346655,0.1223274929232887,0.10356976208865398,0.09228553772499104,0.38649810900849024,0.41685661052839684,0.4082361979605944,0.35734650850066974,0.4175403094600675,0.23628101358660314,0.1460727376636749,-0.12058947631612349,0.18219728057062468,0.27092363864774605,0.4764135980687252,0.5347017488197037,0.4816200795807297,0.44181665440382845,0.4746946981746136,0.025733861136000846,0.035449958559456984,0.029911522231743426,0.026510860345381526,0.06380715709361306,0.21127550798341432,0.16285597652422878,-0.07661465755250174,0.25479980992647366,-0.25109351278782355,-0.30958843626929466,-0.31475752247179956,-0.07064397861399119,-0.03530824860437676,-0.32357703588985864,0.16979293922934147,0.2372614391757597,0.04482274840351974,0.10028759423554945,0.09640526432073793,0.4179209084171749,0.397433270461652,0.2951178002747865,0.2882385080570107,0.23049909371067523,0.5950145237215604,0.6636759691834623,0.4829393812729037,0.48438038295999375,0.6005242541958187,0.5694625226087764,0.4448676511114552,0.5103915425979098,0.5151865630798862,0.3611374351356271,-0.6670865925390936,-0.6672885174842369,-0.667255874818105,-0.6674062848097326,-0.6691499243346473,0.4900805887175528,-0.02442634701747659,0.34450341772663373,-0.005203737545557807,-0.2000178523605738,0.4745920891054476,-0.1577599071996525,0.2051425605123378,-0.023782346461054038,-0.24255477343516652,-0.029763885017325187,-0.00495483293761767,-0.018123862361680176,-0.028307754795227957,-0.04257331219257732,0.4862316139971903,0.4553349617786453,0.4845578653282664,0.48010539276818553,0.46498159085124047,-0.5517279447738175,-0.5607314738899158,-0.5303389538672278,-0.5229632119013834,-0.5404540097544719,-0.17966620169769976,-0.158228536828094,-0.2974203288257884,-0.17746974051877706,-0.2320981748421187,-0.6659209341366537,-0.6707552764561624,-0.670086842505158,-0.6700412786533738,-0.6736072601865495,-0.07659228841687371,-0.08633188472791131,-0.07071783990852265,-0.07457406691146873,-0.07952910954403247,0.3647657295141029,0.42396190770163833,0.4244416639101105,0.45258820717302295,0.4351743156689908
4,3,-0.022707261039837334,-0.05290836480454986,-0.12534909880089629,-0.14476588654491773,-0.1048608512806315,0.7366850545070721,0.6395804776815142,0.2323952366211275,0.7884198498219954,0.8460303550886101,,,,,,-0.17115024542473534,-0.15231747996106404,-0.16706310747058017,-0.1742266794945151,-0.18341945303996043,0.10551479534778818,0.27142761471564203,0.22176710440673542,0.09547658159035555,0.17823987941884034,0.1489404849877788,0.2819726282780407,0.014595734134856264,0.27545063733105835,0.3391464762109282,0.7516532196173512,0.6623303007099158,0.6163484050318137,0.6902396255974796,0.6641496596920858,0.36788407547521884,0.38620536193731847,0.36397592818993896,0.37125077523520766,0.4090052401505784,-0.09278485643505374,-0.06725087602556856,-0.26539251257732865,-0.11999121207639596,-0.43457675889998804,-0.6286424300390077,-0.6188296757408547,-0.3925405290154105,-0.3303376369583393,-0.6405295820341501,-0.031746980662943125,-0.03539527160562961,-0.16757743787270885,-0.128056868326496,-0.13315299175512174,0.4607027146582745,0.35142914632055844,0.5864955512916793,0.551270058423432,0.6700071246676609,0.2887431977494147,0.3348772682516489,0.5220958724456585,0.38524201138997316,0.27800225847353366,0.8175133814793191,0.3650536335386463,0.2691015206448175,0.7049943801465209,0.6998597562897177,-0.6088777460891075,-0.609881389967263,-0.6073445183881867,-0.610288691386671,-0.6093181669497474,0.05451698380107994,0.37343867705660205,0.4430688291121607,0.2002974344831301,0.10769161136188632,-0.003753512517724822,0.2259087070871354,0.25752695525939595,0.15426019362467913,0.0667676892248944,0.3886227058481704,0.4243229566153828,0.40377096830001835,0.3901698009955965,0.3900480881469355,0.7489596374369013,0.7265151140521503,0.7414126089454731,0.7434119464285147,0.73346004817713,-0.42189558098716984,-0.4346613100277148,-0.35529444134932886,-0.3720415681213849,-0.3795160471027921,-0.16842411854423167,-0.21192880979738793,-0.35508387251760554,-0.2114819246103825,-0.22183619565654333,-0.6011603133563836,-0.5968951356811079,-0.5996989337449636,-0.5957793272944711,-0.5981511795755841,0.486410859387832,0.4768506769556583,0.4900554167299409,0.49439255734007737,0.4820743800274204,0.7614238145868216,0.4573099441843067,0.5109755761385775,0.6621694918155977,0.6541527516774432
4,4,0.1906161655609464,0.14661916459319868,0.017452056810887795,-0.19078190438673426,0.017178822047028475,0.3062833213754832,0.6357574584197325,0.10211089903805703,0.6175557989280636,0.4876917501848983,,,,,,-0.30582679576987415,-0.2907554163002901,-0.3080627367850264,-0.2962330849663086,-0.2971566343506331,-0.06986648459015088,0.07061486204459855,0.01716387424485366,-0.08176676682446304,0.03627467718613486,-0.007989842276769243,0.17710753463045614,-0.04141341456836756,-0.047205237156040525,0.11158083285368514,0.4529349632112687,0.36777905347435114,0.3193253294739954,0.3846791130152105,0.33690879221133563,0.34068041971186425,0.3543861497614593,0.3386821635287691,0.3469138738830555,0.3632134260047033,-0.028413418131121082,0.03085981311709407,0.00039921102973417,-0.07773645681812913,-0.19105094685230362,-0.31281057377666,-0.3253541059182159,-0.08255689558611734,-0.04463721714310598,-0.3224160003020333,0.15848009313657074,0.1485169501470739,-0.0027491444732807846,0.07126934385770145,0.05525419990577185,0.10734550959422329,0.019593332106741634,0.1933174268698491,0.17315608528695203,0.33112337924903823,0.18145274000330658,0.30800083687864444,0.4315576571498969,0.31557912711555236,0.21181010198834627,0.5584874283461686,0.2702673032708993,0.2336155016689282,0.3751683641462811,0.5277098538863004,-0.4872450300553144,-0.4886651389336223,-0.48621317299697475,-0.4895288355803513,-0.48880296245141697,0.15321847622700657,0.3412991071954573,0.34373247885530334,0.12061414417272143,0.12169673478519949,0.14490841099333251,0.23843324913734798,0.19000660947102543,0.1031895636660396,0.11015997693421442,0.3211232267633446,0.3392766287745119,0.3234778619767802,0.32272910995152415,0.3130445843523586,0.5180355792700898,0.4973805272649028,0.5042829848201046,0.513159197120132,0.5028525681009992,-0.30638896468522336,-0.32007736191111413,-0.2683376622336575,-0.2683524583277903,-0.290833097368707,0.08553494400177175,0.0781037173024447,-0.05250634550369582,0.07402839870074251,0.04112538675117239,-0.4886672602507267,-0.488688775984246,-0.49011847795646535,-0.489465536523898,-0.49203776928986076,0.23073624524783154,0.22186694946573315,0.2307974059175295,0.22801487212319815,0.22514991755820746,0.39091388306735164,0.10539319503667766,0.1455743281294859,0.2639362855611693,0.2704838882300369
4,5,0.06837933648252281,0.13800546439792316,-0.2120148433315745,-0.34800935849532744,-0.18270706355090893,0.21358879866013203,0.40432604586976495,-0.0852653079409662,0.4060273650301307,0.4653334916325742,,,,,,-0.37999466158909345,-0.3635084084809974,-0.3853367546535118,-0.3716554286564402,-0.36724001419210794,-0.2058729614819299,-0.022333967814225586,-0.08565454755990265,-0.21625920410300936,-0.018522514853311245,-0.25642241420134537,0.00042263761384842,-0.1648727978846014,-0.2036041540146818,-0.09853662340458391,0.4042321363621266,0.2902590142379573,0.26009075843993545,0.34185246985066853,0.28344912943710887,0.48838640718839577,0.5036926480606392,0.48408883879091635,0.49333590535064387,0.5125288623438058,-0.2584549861483403,-0.17684585248983065,-0.07376674156353946,-0.3243844864935119,-0.24752981233549165,-0.36452418202805426,-0.38104681907399884,-0.1635397046148528,-0.13261648977691598,-0.36974749808514207,0.14514057592588347,0.1154767754711199,-0.009795735426248786,0.06680025665254719,0.06087250756542961,-0.02660808810752746,-0.12055049404254703,0.10780746028891941,0.0926852984547204,0.2696654140182504,0.0007554928551712914,0.07762463165030942,0.26723631784929613,0.13695062790532608,0.06463016080188233,0.4748861112954419,0.16666547379106744,0.13742351804827235,0.2303761262836903,0.517932709201044,-0.3288058785613788,-0.3319097581527657,-0.3270571885729152,-0.333113713416459,-0.3291944315616546,0.0970104659370764,0.49727538991884623,0.39336715261122923,0.24072502377656613,0.29988380734993547,0.09808135785803096,0.4155414510025811,0.24544932011792153,0.20145929167021726,0.3328208388373426,0.4768831917448717,0.5064687120252671,0.48311984550870934,0.47905511585298166,0.46887268057386344,0.3733826274828671,0.3465621001868918,0.34746496660557014,0.3753516052662701,0.3517537308540777,-0.13997629384805044,-0.15620851019302617,-0.10483685348618432,-0.10723976877317276,-0.13177095988014242,0.19632208568682785,0.17184564192410834,0.07991062951320305,0.1756731078837548,0.17718024375986619,-0.3357773186941557,-0.32884464232621746,-0.33354517604203493,-0.33327731183594,-0.3332441001078257,0.35554900806844414,0.35515277784083676,0.3548017954353486,0.34738609788285546,0.34850887772455375,0.3467856212661863,0.027279492242682224,0.06826594240792527,0.18533072278095652,0.2013109732473044
5,1,-0.07459339022408051,-0.053228141117209526,0.43073496711812986,0.0043131362842795395,0.21810055280563256,0.07376699085089455,0.4078227821048528,0.799525736257713,0.31051924354762805,-0.18664056143197416,-0.41075095145796525,0.3179259085244799,-0.03899260709962116,-0.254184307856953,-0.34196273477314376,,,,,,0.7478561704863624,0.6255516072363013,0.6718288465773506,0.7142084175406691,0.6476513610043012,0.48141984223150425,0.10792354144380556,0.012334401259803784,0.4881973426284283,0.4166099597004562,-0.006312215620939865,0.16203692952148063,0.2368690428454766,-0.06434934601902409,0.17795562846660595,-0.5059672456107336,-0.5827856262684796,-0.5809013980763997,-0.5771389779516425,-0.5606182792455516,0.3578998669886828,0.2090352350807625,-0.06407795665937432,0.545773932477368,-0.11826925073310912,0.01895232299222782,-0.025289448962694472,0.0831603503654681,0.09796991023838664,0.02564435032173895,-0.17425397669652254,0.02781652236561938,-0.0024636469640306746,-0.118853207424098,-0.09155306272870845,0.6592748634821715,0.7327696750563075,0.1820813390275141,0.20625372519238283,-0.006599160785100144,0.7958522729108154,0.5629969842994184,0.2700397346677701,0.3984110833936867,0.7075706996448581,0.13802727647651925,0.2575878616075289,0.5419748821746152,0.2788887126121202,-0.1770842702757749,-0.20213045626133352,-0.21006853941164683,-0.2116462742152767,-0.20781108403176596,-0.19344958790983657,0.696181249804841,-0.359015066160417,0.5142278572717072,0.04752446345448513,-0.3009366104401048,0.7543141448840803,-0.40065958032183135,0.47528553044309985,0.10985231059581246,-0.24443649819718472,-0.48861796866653906,-0.4883088947986973,-0.4519761389929078,-0.4427693811067539,-0.4943925337057089,-0.09614565535745401,-0.10277929507320338,-0.040745640761602475,-0.048160933383925686,-0.04775950537478857,-0.2838237515720379,-0.23583999870475725,-0.2801446474204192,-0.21699662545495535,-0.3139201247120291,-0.264447018564844,-0.12824457854044935,-0.20833830254584007,-0.20484900737519185,-0.28949572433717097,-0.18587020631597206,-0.1901696254989742,-0.19741744260780592,-0.20072667032685354,-0.1778892427150527,-0.321864211989179,-0.407659608733268,-0.33559540769742213,-0.3612020063825301,-0.36920039819397354,0.029478708436990853,0.6749858088401586,0.6106920563170901,0.46495782613350434,0.38002866836945604
5,2,-0.05621736515053488,-0.04990158973064074,0.42780164804069587,-0.004985883874061292,0.2229338495341251,0.07575638335838886,0.41643907941474656,0.7962305063174113,0.32137612289587625,-0.15958932860019814,-0.412468097589483,0.30843764449101163,-0.03138106020560083,-0.2233974196201194,-0.31073928100867043,,,,,,0.7474013094326653,0.6172378523770633,0.6753617434386566,0.7091357993279621,0.6294871338713055,0.4807249651416431,0.11710214513393336,0.021336460447127448,0.46321832362638315,0.41352646954514904,0.00490345673891357,0.180440103900816,0.23515788064985,-0.029971717247636587,0.18630508791252653,-0.5144546018730431,-0.5691731457035529,-0.5715777666438429,-0.5563644732378801,-0.5559669198764938,0.34665275743245605,0.18358541798410688,-0.07549516796871569,0.5310221223895226,-0.12110045774051081,0.016292109045720204,-0.02481188490248898,0.08092467648271329,0.10134478577885309,0.017789480667997015,-0.17289349124636266,0.03338725329916714,-0.004444174553112301,-0.11152531731495197,-0.09033599713467555,0.6692533193747892,0.7406340832270029,0.19561115187369005,0.21207335124157778,-0.014353591710621671,0.794967366167299,0.5787119738907408,0.26906523062028254,0.3988506490236682,0.7220483640978579,0.13407702899908092,0.27764291295398424,0.5358632362854922,0.28967519420031995,-0.18273404839850071,-0.2105790178963951,-0.2171146401126347,-0.21878008173028785,-0.21308780238344127,-0.20432209856503625,0.7216866018075376,-0.34542237861455405,0.5284466986507946,0.08788509088392615,-0.2939401080347941,0.7713247469694428,-0.38386057729087786,0.4587840978356097,0.1294794464737773,-0.2564130398220248,-0.48174232108940696,-0.48126828576757696,-0.45568624499498966,-0.4467902353548465,-0.4833073275213544,-0.08862203176565608,-0.09123096730157876,-0.04537794705861731,-0.05819961030617726,-0.05295958921435173,-0.2755016168013642,-0.24559737231083756,-0.28827757942828813,-0.23230751594411592,-0.3092957101091145,-0.2671464783936144,-0.15083926453901686,-0.21087257700431294,-0.21606557413210847,-0.293508722972337,-0.1947425946032002,-0.19939455354496127,-0.20515584081216565,-0.20654406124348856,-0.18863356783546914,-0.3295232850429628,-0.3967724884521391,-0.33907952503580563,-0.3617671390292787,-0.36856897408717293,0.02772012366424903,0.6703682365312106,0.6165340269950245,0.45645880068986666,0.3815989208790216
5,3,-0.06026016589589056,-0.0558728913643316,0.435616259037376,0.005504044493308324,0.2314009083187768,0.07800062965429977,0.41808334417204174,0.7957546741092404,0.32744286391844857,-0.15029724279193735,-0.43051553142812526,0.2964664421881369,-0.04069474670227846,-0.22915960367805277,-0.32005533156800925,,,,,,0.7496286400713815,0.6138488581244337,0.676600165497418,0.7127789391392109,0.6245647782258527,0.4946266299157147,0.1254966237192484,0.03168734263844031,0.4681529343379689,0.42495189001648326,0.004494181830465682,0.18940538653486283,0.23685482591137041,-0.0165954304715199,0.18862299211912348,-0.5192636312596179,-0.567092573637151,-0.5660475915027601,-0.5502489377523223,-0.5531447767390785,0.35508116642922394,0.18518167081941406,-0.08172908062088147,0.5365718404710504,-0.12155320054812169,0.0058349072557769555,-0.03402779174500048,0.08214589737616573,0.10588316325542624,0.0056131993304482375,-0.17367345471854567,0.034791513368587657,-0.005163391841552567,-0.10881246832906966,-0.0901722678945629,0.6746188334819737,0.7504035923829645,0.21498374973792844,0.2322377057609073,-0.011622139479959381,0.8014227637342011,0.5867109683343207,0.27796756063628236,0.4101841023682846,0.7327076245611481,0.13249707450811432,0.28891203052743863,0.533860080140408,0.30208192023756364,-0.18402368548660264,-0.21279915517001813,-0.21835477268170034,-0.21997678566406842,-0.21462327396853098,-0.20738503259448215,0.7187335979937859,-0.36250329710695905,0.5094025248727888,0.08145595978757803,-0.31560764545441256,0.7636599173301964,-0.4001144502548979,0.4369396532975285,0.11179691227854271,-0.2780077347043566,-0.482249349191747,-0.48123816424675825,-0.45711532498949436,-0.453044005196253,-0.48319702091036465,-0.08264719673127097,-0.08547338292471673,-0.04263789190583123,-0.057257679729944,-0.05295660746088804,-0.2683496022697738,-0.2455128903924717,-0.291108990489344,-0.23712578425602393,-0.3042315228433048,-0.267677787369752,-0.1573980523029619,-0.20467056881913948,-0.21746675004487281,-0.2895763208120785,-0.19745867232320902,-0.20155514141291064,-0.20675323710107119,-0.2079191784114396,-0.1922006702991097,-0.3347515533536405,-0.39129296905939803,-0.3425711726463714,-0.3621386070211996,-0.3689659036280526,0.0317582547406573,0.6716956819324735,0.621017186388199,0.4529520282467572,0.3869597967063293
5,4,0.04473985252487811,-0.01610638373126272,0.4413885956915591,-0.018100432803569433,0.26908088120507,0.037398054637584166,0.41269851776934874,0.7234126939999269,0.33264163232696464,-0.06855680408975462,-0.4699150552973328,0.2149441053223352,-0.06237380459797848,-0.1344995883735569,-0.2288493832098777,,,,,,0.7048336055615861,0.5345314001749745,0.6397338606008569,0.655084893632681,0.5129143364057098,0.5074116084860452,0.18698088006608016,0.0887394791486612,0.3479446612762256,0.41235303958390856,-0.004779714919532774,0.21765607879941884,0.18183529062766335,0.09691443395154731,0.16778448001416268,-0.572622472282426,-0.5325901587883903,-0.5341847025063733,-0.47975631241110417,-0.5453874151554188,0.34237623736828615,0.1266277204035139,-0.09159968609772817,0.495888313138113,-0.09921518720834843,0.022067321410046303,-0.009487693673388087,0.12364948189581448,0.17865708326628793,-0.003306187416281192,-0.18133877173530322,0.040171475936499945,-0.01975195729428081,-0.08652728233679419,-0.09853255993813104,0.6569569484688514,0.736027949750744,0.2484160686164445,0.24058014068597078,-0.06649368646068043,0.7538643968823917,0.6240073883110604,0.2549491863398772,0.38863542196055534,0.7571855155036163,0.06533290550708748,0.3362153023244202,0.4563620018589989,0.31224340170575116,-0.23732616900618053,-0.20434908538078633,-0.2028462722782698,-0.20450634831768055,-0.1942446081453646,-0.20915378509392313,0.7571646130860623,-0.3401425544966543,0.5026369693363472,0.19449159810165972,-0.3188489540100554,0.7683097055922044,-0.3508931916733542,0.3274489064217134,0.13934296021232218,-0.33794835386644273,-0.4751291155997426,-0.47422513970316116,-0.4865321329947043,-0.4966662455569566,-0.4608367848228401,-0.05919010822355908,-0.044749379302453596,-0.0689244913820024,-0.10254776686086675,-0.08661558377857848,-0.19202779488466426,-0.24572201417094153,-0.2995839276394776,-0.26973296482431364,-0.24787453744993826,-0.2550110172275952,-0.22314181181960202,-0.16224504435014575,-0.22786157999809253,-0.26539552239613595,-0.19240581278781832,-0.1960983367043534,-0.1950330654202368,-0.1894019674925853,-0.19561368548662972,-0.39566725816713366,-0.3640437044327762,-0.3878047245410654,-0.38837164232031807,-0.39202229288091983,-0.00975555393282801,0.5960322162599807,0.5896356041141572,0.35862095414876805,0.3483103989388201
5,5,-0.007551282448454266,-0.013813441763529388,0.4207097073244983,-0.02821065172103654,0.22031845737818023,0.030562222065186995,0.38621126402542605,0.7554842667579696,0.28029226244139915,-0.18211309591820224,-0.3963882056780177,0.28910890580484216,-0.04848730876862217,-0.21380852366347902,-0.29257122911285505,,,,,,0.7200363001743683,0.5987623840204822,0.6510052294266948,0.6803545750140892,0.6108662365460537,0.45679168698450423,0.12430684333692021,0.025025935529519372,0.42297168531178964,0.3845757096623539,-0.025439022229899688,0.14214416083813886,0.19801569504937833,-0.05113682298425637,0.15129308070363745,-0.5158040744759482,-0.5706524399034865,-0.574107556049948,-0.5571500552997901,-0.5601017158775687,0.3404040565971971,0.18698810504829755,-0.03813684877054757,0.51951832855557,-0.09627390025634086,0.048593729330393964,0.0033452247773498867,0.1171579960356719,0.13845331870880795,0.04655054792127422,-0.18514882238069985,0.020728321234069647,-0.010457867948643562,-0.12060473590217757,-0.10294846259517954,0.6338506973838429,0.7011212162867778,0.1522081958058168,0.165627093234326,-0.034958440042835104,0.7526174936890148,0.5480923447448445,0.23481233102684218,0.3557910657384329,0.688664335600977,0.0996607957964255,0.24147096682172542,0.4993134758654988,0.2451757004451005,-0.2048823339475443,-0.18889035077197813,-0.1955024403331156,-0.19718783824260044,-0.19109205264962958,-0.18278741962481204,0.7022119088525896,-0.33176316040926235,0.5312992116776015,0.08836991807909045,-0.27187233379855913,0.7560202141111576,-0.35897733666391907,0.4591808708588023,0.1319960493283393,-0.23463430757205472,-0.4817316247490795,-0.4835873583165582,-0.4577657260184791,-0.446966039223075,-0.4828061883046981,-0.10492177325114005,-0.10286516982043659,-0.06399905469322498,-0.07472269782853602,-0.06928966059571362,-0.251319120156821,-0.22054122738948623,-0.26474477819636455,-0.20771757199329177,-0.28607206469954427,-0.24203878775818533,-0.12774449456015602,-0.18160795252085404,-0.18919975133895806,-0.26833482676646025,-0.1730351441405129,-0.1780452829283523,-0.18369067323769528,-0.18498771019368787,-0.16697973632252916,-0.3355077103285691,-0.40330162417737236,-0.345998121623571,-0.36893292521459253,-0.37552388880096554,-0.0038529470839072655,0.6322235147989099,0.5806644390672528,0.42292283160234534,0.34478265133589425
6,1,0.35761127110577384,0.032262703993113595,0.8392073810250097,0.3634841595621252,0.8143142040773577,0.23494693745830986,0.7638953601153018,0.8728636294236874,0.5498081746628599,0.030107116916355148,-0.43715067089810766,0.5695450395034021,0.09326299057193421,-0.07978740344378288,-0.3978036633355646,0.7358098073713218,0.7405937818840811,0.7450028418165805,0.7197568369461728,0.7087914182339261,,,,,,0.7425443155860859,0.5351916190230319,0.27310683306833416,0.5825631216633559,0.7129324187337958,0.32168573757581265,0.5146102536834107,0.46504054479185375,0.3360449403603878,0.4286921288151988,-0.38735676954132137,-0.380523816960574,-0.3826883278642972,-0.38363227170439695,-0.3658947803178325,0.7699683037814828,0.6849299402445332,0.19412835564448705,0.8149768223575136,0.17046775073313924,0.1284732144771249,0.10329820024901049,0.18324481583054908,0.22245655094997474,0.10832263724320723,0.24149486082450855,0.2824104798657401,0.1318836879956875,0.1782204273910487,0.17362421110373105,0.7304475621788795,0.8140260983467044,0.416524316079418,0.3695068141868717,0.1888134927617252,0.7941174257957426,0.7650549443551706,0.44876056690469657,0.5484804870656089,0.7545422846366046,0.29003904903499467,0.6139074533354418,0.7232498642620865,0.5119548852865351,-0.0071870505191578005,-0.5787620006485756,-0.5769265655561875,-0.5839772069240912,-0.5687200297773904,-0.580899420094648,0.6241097359449651,-0.6813307505785633,0.16643852331487852,-0.2383289735340628,-0.6790903860160387,0.6787748543211166,-0.6853777456777292,0.18268153167881307,-0.19095241474488844,-0.7800487819916437,-0.5834885074609093,-0.5648114242693256,-0.568114299264169,-0.5796883689639722,-0.584783912363479,0.5046572946555925,0.550726601865498,0.5422407753385867,0.4679754857757079,0.5484625961495624,-0.7081032072249709,-0.7001975336792081,-0.7292672721428008,-0.7194297972272024,-0.7225674758861369,-0.6911426620040131,-0.6492238060764892,-0.6722806622690545,-0.6828815185692156,-0.7442982015741748,-0.5910318297403783,-0.608967195997625,-0.6025177559762895,-0.59994556359432,-0.6001729156415161,-0.4379079315372325,-0.4598287659855591,-0.4339841160061324,-0.4265062888829849,-0.43798245615005404,0.1229107289973812,0.5836173328378467,0.5430241449331943,0.427089901185416,0.3475752658639977
6,2,0.3613659047256199,0.057207473591457614,0.6977512386494119,0.2343316399273967,0.6754848524493144,0.3745818087444366,0.8023685510191194,0.8207314214801581,0.6595360311016863,0.26072368002011315,-0.15729137737219734,0.7122383120021027,0.32125683935065286,0.18709668638861054,-0.13590490431949376,0.5832939223902962,0.5940044673417384,0.591796631552165,0.5734867175556281,0.5642657453212483,,,,,,0.6128744968506761,0.487915392796205,0.23579800363561287,0.5897382062540046,0.6656045403050745,0.5635364390726111,0.7158398479395378,0.6790122491232736,0.582517551548085,0.6548914062252211,-0.09185820153365265,-0.0901293565637673,-0.0849334153590342,-0.09104629712337253,-0.06796017734880899,0.6315154662829868,0.5611154902375391,0.14456746670680498,0.6835544030490359,0.12166778478263052,-0.01207497181808126,-0.02014384025255911,0.048411707790899317,0.09641512386426088,-0.01822205309650271,0.34446849234886734,0.32186024042554195,0.1318380193933114,0.2191449071136139,0.23189641932942073,0.7913220183070024,0.8222489387311371,0.5702398625048507,0.5258037897399036,0.4187954145179271,0.7243635379859428,0.6868195155856825,0.5034402205860655,0.5357446783611888,0.7179457248138289,0.49366118757398425,0.6935321475961127,0.7590727221299916,0.6354449450887869,0.2472307420769856,-0.7410945529165178,-0.739824985530793,-0.7443355253041632,-0.7344723212106641,-0.7426668967285592,0.5131011957923544,-0.5859314455393496,0.10566635990720508,-0.2866010300556485,-0.6470218425267071,0.5584387769363559,-0.6304287617806956,0.06855433880849848,-0.26185783955721464,-0.7184637993323528,-0.336001582464426,-0.31394185118459506,-0.31255809132804324,-0.33497676466538695,-0.3422800084112969,0.7132166593497316,0.7492036025476686,0.7396398375153549,0.6817192558212938,0.7454110580486351,-0.8153595000269107,-0.811609523790713,-0.8146262352724722,-0.8155882528512544,-0.8167269837120594,-0.7592146315630952,-0.7425910586311901,-0.7756644047311763,-0.7652718584606664,-0.7962189293152555,-0.7634616123269686,-0.7754596493589627,-0.771022167783153,-0.7694785308829892,-0.769412297864553,-0.1907034211269294,-0.20546958538094495,-0.18583459460650897,-0.1707954397455067,-0.18591803176379895,0.3383693601455353,0.6736327012047846,0.6511678597273803,0.5734717806423795,0.5132556258279296
6,3,0.3386264680721951,0.024053122881171785,0.728786620026256,0.2720530527739773,0.7041024541791535,0.36206712779858385,0.8169587304682019,0.8598254044397724,0.6544321178908848,0.2120940050317699,-0.22404837955392698,0.7075192963876039,0.28141658718941076,0.1291847130240984,-0.2054385035774402,0.6285852185565723,0.6406985361463136,0.6402593120817065,0.6189295365358355,0.6104609754471,,,,,,0.629708664698416,0.4720183323166377,0.21775121165802047,0.5779860638874041,0.6638832521278527,0.5195757663250129,0.6817955697196045,0.636790929320558,0.5322719710169128,0.6146191399206179,-0.17561871706145538,-0.16704021691893978,-0.1699026464749951,-0.17038417562035457,-0.15436416016689614,0.6450206847558968,0.5608383956622048,0.12725859193664313,0.7021267114008698,0.10756176007695872,0.007511219858192253,-0.001283320735406157,0.046572895813175474,0.08535374960238562,-0.0018053637332406947,0.3224968933830237,0.31966128262991433,0.13849206517927048,0.21574727622816403,0.2225197334100888,0.7863853590983302,0.8355633430377758,0.5310415706145412,0.4817618083211124,0.3529725100382627,0.7552661165787926,0.7171419742439658,0.4887434908146713,0.535530087919281,0.7405290119539942,0.45159837234444766,0.683585366026228,0.7687244687218819,0.6108046283953291,0.179314923493618,-0.7033911220434153,-0.7011324269027019,-0.7070992205323279,-0.6952517487584124,-0.7054316380703605,0.5932845720177579,-0.5909841425680133,0.16242291475420523,-0.22919645127227906,-0.6439495890426223,0.6417551205803251,-0.6357252948721035,0.1424236134884359,-0.20617839188815923,-0.7388046365274259,-0.3989688713614612,-0.3771546200504263,-0.3814406966914994,-0.3950747902719274,-0.40170256076245736,0.6531837277712875,0.6930895886068984,0.6861420780837899,0.6196846045112402,0.69207728009537,-0.7958332478782331,-0.7899918794202043,-0.7942160393271291,-0.7944705268282406,-0.7977643362117708,-0.7401901080300806,-0.7186294277639318,-0.7627575637310815,-0.7477421379829776,-0.7911487992315538,-0.7190472448562937,-0.7351062037277474,-0.7286196934586049,-0.7267710113084571,-0.7282168336285588,-0.24202011309732963,-0.2608203945954417,-0.23749832171284102,-0.2233819740530152,-0.23841830265907782,0.2914501749134166,0.6740012050536329,0.6456323437357918,0.5584901738389701,0.4850205805123844
6,4,0.3536775432185044,0.008059952952627514,0.8399773481777056,0.36616843009025457,0.8176025961148065,0.2880116306667405,0.7826641564279281,0.8870616361859139,0.6054563455352324,0.0886750702913176,-0.41013798083647623,0.6036485259862123,0.12715512559027586,-0.05473942749185379,-0.38906000923249695,0.7197897110900024,0.7210527385566162,0.724231118754858,0.6975943256570154,0.6836975464318107,,,,,,0.7748817326565149,0.5800486437407145,0.3258477556655661,0.6615418296031021,0.7668495801326601,0.37425318617376124,0.571837790108578,0.5335156160972561,0.40259491727951824,0.48685494904272797,-0.3320389157142074,-0.33641179878383776,-0.3193726040981053,-0.33700021328030183,-0.30066503970564407,0.7786323431979432,0.702233834662481,0.2059625917473351,0.8262290750117774,0.1999695531907224,0.12254181865188829,0.10818130952010407,0.16860857437245236,0.21440260284492896,0.11273926701488035,0.2711258111435353,0.2949989024714914,0.1416714859814805,0.19147818644140424,0.194754692316649,0.7795546693395169,0.8505160662316823,0.5054094903405822,0.4674291138872172,0.284763732118141,0.8135775926490159,0.7923647347573303,0.525510846303577,0.6052801156108487,0.7848932333925804,0.3593600704472484,0.6668909247998567,0.754390504296623,0.5814274192296855,0.07833753834507995,-0.6472414197185112,-0.6457551046071053,-0.6512105873567062,-0.6398870682157598,-0.6487201402838352,0.5846456176664016,-0.7225235416249345,0.07892691289324705,-0.3333248145641532,-0.7500719750763487,0.6271134076343495,-0.7506273613839294,0.07424939174722922,-0.2914163381514141,-0.8329488591717074,-0.5400161099231946,-0.5214233566452262,-0.5111514145509386,-0.5410512186229002,-0.5476040085659792,0.5848166455864611,0.6246913157234092,0.6201861035573365,0.5560975955627809,0.6207472505182022,-0.7706162604511144,-0.7641680974932821,-0.7940175432540637,-0.7840375351782121,-0.7852619182868894,-0.7463018155372625,-0.7074128177487762,-0.7253597982704816,-0.7315070838296998,-0.7854260704395575,-0.659235615940269,-0.6724055406735556,-0.6678988525233618,-0.6664809390440998,-0.6663755173254158,-0.4051004648360397,-0.41740448316862877,-0.39959853269611445,-0.3831499512155563,-0.3977882475471475,0.20516233343288937,0.6347050036235853,0.5982257678943946,0.48319595263276804,0.4237578238658528
6,5,0.34022954584815723,0.17273200474513528,0.7091332022185705,0.3246293943119696,0.6840119050887206,0.20796766630795793,0.6271009860715089,0.7166332769453698,0.47549340483139524,0.08806593745704194,-0.2490199869658023,0.5595992457566927,0.14685725504479752,0.03284087690283577,-0.19768812665075286,0.5698906277777154,0.5734217293070465,0.5757156491347654,0.5440203338935593,0.5353012093397507,,,,,,0.5474213637845581,0.39576783430580353,0.1902123416110688,0.4805787995423991,0.5511315523420666,0.406156488498564,0.5784932914117872,0.5497706632092441,0.4319283043260689,0.5068491384174867,-0.14881545275840002,-0.15549494392515117,-0.14656309806890144,-0.15432310280283956,-0.12588382846601176,0.6470741063601493,0.5904410705828889,0.23307182704454266,0.671807169045274,0.20974197309498732,0.11131376132138948,0.08754871319476087,0.16703960573958598,0.20447903760867592,0.09624368239256464,0.3030955456670409,0.2865870797000387,0.1098805651732554,0.1923241528282833,0.21561276770176563,0.6307778714916139,0.6822599739286068,0.4027875441919111,0.37439166839146876,0.2143933103215261,0.6289646063129624,0.5780597705239574,0.32735688651405814,0.40153332205685155,0.6171477443454718,0.2925157333543398,0.5222640561904185,0.6271650898069953,0.44674362359684117,0.06369679359810443,-0.552664445866875,-0.5538488409282938,-0.5565319219401976,-0.5467889707974964,-0.5532688964416164,0.44608887087321303,-0.6504290294523987,0.05294188269230904,-0.33356263967190136,-0.6442303967451593,0.5243754043579384,-0.6238499353438205,0.07048825472486175,-0.2778445241921057,-0.6603986204902579,-0.43375959705592315,-0.4051219605741694,-0.40416795136251427,-0.4345043971430891,-0.443050603875234,0.5359959713322706,0.5682917217011417,0.5582468575131716,0.5086529226490295,0.5631988424481129,-0.6735597401955911,-0.6697389916262382,-0.7004893876089442,-0.6935344165784607,-0.6913222826359073,-0.6883873725595004,-0.6593936934806792,-0.6422109611174185,-0.6810363039091263,-0.7017635699333347,-0.599567289467636,-0.606495552264511,-0.6055995406165464,-0.6039039823255525,-0.5999356246303891,-0.31426727157063494,-0.32386237160561393,-0.3102082836261886,-0.3089684923954108,-0.3145980062424161,0.143582589130693,0.5073706740790039,0.4712990529181187,0.37401111108685914,0.3251046850089945
7,1,0.17683401112586106,-0.040648265860612875,0.6101517825510158,0.375036127139073,0.42581149147070496,0.1675554609135772,0.4558616779909037,0.7205790372438171,0.3699150478208998,-0.029217271698235514,-0.5958949845748911,0.12059840756503204,-0.1026494172426533,-0.30328094337539957,-0.5671621339348518,0.8104594207976121,0.7976936815532221,0.7990062108519417,0.7959176122804553,0.7678076008890595,0.6535338913922434,0.46686851285213016,0.5070099184863917,0.6527408409919951,0.438147699260503,,,,,,-0.0197135171588374,0.12842881254849725,0.11497141771249764,0.008828415091767128,0.06252019809030673,-0.542010723127631,-0.5623147731854725,-0.5286201375277628,-0.5548486080468402,-0.5074451373001176,0.7989494598338905,0.7625691512209143,0.39011336862685575,0.829691209429294,0.3758038138678619,0.30313544641151347,0.2920204955102298,0.444957860943882,0.4885975569129186,0.3018521694781441,-0.1752569297186981,-0.023757132390276103,-0.0831343839418135,-0.16272347649663255,-0.17727275945243903,0.6258827631579913,0.722302023106729,0.42572577814058143,0.40266899965832015,0.2685612686740344,0.8035382457627319,0.8270801687634712,0.6475233252461905,0.7518318470020492,0.7520370925502642,0.1766932807086974,0.50041134210219,0.5227362804828644,0.45818550997033336,-0.003411304634371337,-0.381649661388741,-0.38055608695850074,-0.38477574454535723,-0.3759930550885193,-0.381838630668919,0.40201017561473273,-0.5976828672042838,-0.045759109880357585,-0.3196028200728678,-0.6063798865964491,0.3972154423446741,-0.6273491016291652,-0.054639917584390796,-0.2805789484675034,-0.7029438888981643,-0.5354593151639209,-0.5473513443650577,-0.5094471587930933,-0.5522705859633108,-0.5406960543928774,0.345603225946576,0.38109014952057474,0.375953505246686,0.3241184138037403,0.3754237385001653,-0.5036142235958905,-0.4916017791628162,-0.5708389374157639,-0.5382269380001923,-0.5423469802686225,-0.5812040418793316,-0.5103760323740483,-0.4404600677473538,-0.5206953896185484,-0.5993981376613275,-0.3688226727652937,-0.3781364812897736,-0.3761183390493452,-0.3756510281665204,-0.3739049247452608,-0.4476135309987612,-0.4565111244147757,-0.4414096031677681,-0.42669326845871636,-0.43746468357278334,0.07921489400421666,0.4147004212625238,0.38672463148413727,0.27029186259230964,0.24188931564593164
7,2,0.24307421263385653,-0.023138437999268735,0.4752611635642805,0.176259976313082,0.319685886178968,0.1492990498595983,0.3808876865951991,0.576245341690512,0.32536975120251277,0.02785960067818083,-0.45289985579568537,0.09231022972754555,-0.04553771235275761,-0.2053828666078792,-0.4227717423287023,0.7170188884599233,0.7188911418770949,0.7079518075950687,0.7439075724985915,0.7307570807043673,0.5185103911449893,0.4091568597214019,0.4267097340708408,0.5267528648890804,0.3413437893155431,,,,,,0.002241670303667398,0.10850264726234082,0.10498240920810942,0.02850737053275265,0.06524089009780176,-0.42309761390506484,-0.44401071968888695,-0.41488647501991527,-0.432339181397946,-0.39711597719896674,0.6829905291157755,0.6685372216707288,0.4978342021892532,0.7029184379920846,0.4784691818511224,0.351383719155703,0.3543651169973757,0.44507397841375984,0.4732530500707801,0.3612556393663937,-0.24726766895752617,-0.08598746351889375,-0.1505131171791847,-0.24316938680917666,-0.2645962428244033,0.6053912847236884,0.662836029397301,0.4405888833173125,0.4100499628412515,0.37081306868973796,0.707917080047001,0.7426135236951606,0.6764590476371833,0.7234763317715688,0.6931271818939269,0.22613071368485538,0.4634771255098502,0.45094928092157105,0.450218850886402,0.09515476604047102,-0.4276743447618303,-0.42635146533910184,-0.43048406920937654,-0.42181325169996153,-0.42767976097141824,0.34097087137327986,-0.45473448798001526,0.02826709370665703,-0.2552231950664867,-0.4828042130130723,0.3370646914561475,-0.4845472258198136,-0.021942276176890596,-0.23336663349373454,-0.5661396669703271,-0.3887276026851687,-0.41097077591528475,-0.3697963413259404,-0.40854166604168407,-0.39063111676526585,0.3921365368155827,0.4343771746824987,0.41613936395580287,0.3723263808964603,0.4209855187864009,-0.49463531414983364,-0.4817921444907127,-0.5461640889262132,-0.5215859362756352,-0.5278940034803892,-0.5190656789285633,-0.4743580310094384,-0.4126255170550506,-0.47468126816037204,-0.5498504590923718,-0.4119997124568049,-0.4216261277415272,-0.4194081226316291,-0.4190073289818992,-0.4173188288876868,-0.3034231785251591,-0.3116978818028018,-0.29782574944107765,-0.2842419066786499,-0.29395917042692465,0.1270272286433518,0.39145671280910155,0.38230636090174497,0.28821922400704525,0.26133585978376206
7,3,0.1530477293245589,-0.08752697830900402,0.3107309327530319,0.12396205080996081,0.19857072615761695,0.001042599817637213,0.11795993002915661,0.3354288836401915,0.1126529709659514,-0.13226460343873025,-0.47917615952775927,-0.06385296468885948,-0.23486622892749676,-0.3329538638865386,-0.4767793225208168,0.48974453572650267,0.49196285576592325,0.486162033489119,0.5216662532023161,0.5159058032284946,0.31386454088187865,0.22086414253931907,0.23266052294255002,0.33725172389094094,0.19149230808303075,,,,,,-0.14315592549447387,-0.07227162070822635,-0.06771307395331161,-0.12408729659710138,-0.09685885604496436,-0.35499313874498917,-0.3751919919411295,-0.3525552191635173,-0.35767958996537863,-0.3519794678710948,0.5229167670211053,0.5194364799450307,0.6278532313514278,0.5248314662403254,0.7208362795476149,0.5859703884633729,0.6296732890439555,0.45470368847996,0.4197026038708833,0.6248440634027672,-0.22850339620894844,-0.10528612205912613,-0.14340472308415375,-0.22479794762898897,-0.23696100862961655,0.3707385830348018,0.41648820913920215,0.29406857150558396,0.26666379287767294,0.24457435071023814,0.501541550595966,0.5690003779724236,0.5460672169812294,0.6092267210202925,0.5116786261124114,0.08582997407329818,0.30756598827847903,0.2822996533779829,0.24795591781198079,0.035012927502891866,-0.27593466710854986,-0.2731406414749731,-0.27849981403630997,-0.26935206697745095,-0.2758375995703415,0.2859106989603877,-0.3548134860698524,-0.07034680509231706,-0.18951583129291794,-0.33228765594008824,0.3012597337221802,-0.34628392776077144,-0.07416034761229495,-0.16201588209261475,-0.3966505426174085,-0.31026429130032507,-0.3483756879708735,-0.30732684035013946,-0.3292975386441417,-0.30529526369821713,0.17289879092511407,0.20591376174810727,0.19510399632398034,0.15804070156506667,0.19638657826228134,-0.31423694416373715,-0.294491721832439,-0.350938317273209,-0.3405613907106346,-0.33761668991904004,-0.31242594030358806,-0.2874142654715821,-0.22708618188920493,-0.2916378830840889,-0.3479012995116264,-0.2596986085192887,-0.27246292032543007,-0.2680318452179815,-0.26770380727722287,-0.26802159710888285,-0.2708319477525709,-0.27656168507261736,-0.26374342171998877,-0.25941401717399426,-0.2623413757617863,-0.03579060297348624,0.16833350107837342,0.1595952831273304,0.08499653735349055,0.06562365776448531
7,4,-0.13076175584616423,-0.32642427185798706,0.2601215824180787,0.18727856909106522,0.16055354256140808,0.5509856594975938,0.5409353505963542,0.7628122188633742,0.6712171438412136,0.4003521614057952,-0.20459523858534978,0.3548099165090268,0.26810607798029895,-0.017084914689969644,-0.21986682590157303,0.5430957265663976,0.5372068269989612,0.5319088968366316,0.4939809343552328,0.4582897280954652,0.5031192160203934,0.46605969157548555,0.48822328951120464,0.545967947466717,0.3740846003777838,,,,,,0.3617018553406719,0.48531241380467416,0.49511954473863207,0.40603211068391887,0.44070316539014276,-0.06941596477271395,-0.10117098576922356,-0.04677841207567135,-0.09339690320539584,-0.015850936210627387,0.3973687675149,0.35611909446446954,0.09258416418878346,0.4596249001272983,0.2201328861388283,-0.011063436065938737,0.05141693611358722,-0.05148339973549798,-0.020773504327156633,0.04451874908443121,-0.05961172732672404,0.0314817034374586,-0.10154098500249975,-0.15235950465178894,-0.11574899149848328,0.8559692367450682,0.8771300856287907,0.8265460302831367,0.8127300688196126,0.6998341801368855,0.8615461956581733,0.8643827634110387,0.907040222547124,0.9333175840099047,0.8852335181361061,0.6267138019068181,0.8055115348645513,0.7882288865933202,0.8026151037670537,0.5105920043306419,-0.6786831547536556,-0.6791992499592137,-0.6781374995238123,-0.6804817962558001,-0.6774893110894471,0.4918902077962426,-0.3278715845702427,-0.013698275843232466,-0.2407139872279469,-0.5426966836881679,0.40617496480884174,-0.5168341170850439,-0.17671968038239783,-0.3040077122323932,-0.6252546317807028,-0.03935309193082004,-0.04399447796113476,0.005619240223615374,-0.06406693240247496,-0.056506175082709165,0.631194854935665,0.6279369252398246,0.6436289094057583,0.6286339831817401,0.6312703339281553,-0.6977566935384723,-0.6931363168387148,-0.714032525841461,-0.713013883664054,-0.7089096044953171,-0.6697615894918258,-0.6672760961681443,-0.6490681866991921,-0.653480863770437,-0.6720315303424091,-0.6691627012723005,-0.6642048049019538,-0.6676312717305795,-0.6695082932331182,-0.6676747391828624,0.028317040282919925,0.038320662823282836,0.04062606430002702,0.0632130610268824,0.05152002496291441,0.5369406568445335,0.7535183893877748,0.7368400762313309,0.6602400071130488,0.6596790665427554
7,5,0.04908386008947718,-0.1755531893680793,0.4451576213035382,0.2576377503349019,0.3008281698938011,0.4351582259290334,0.5759381245698932,0.8078710862456512,0.5973478536938636,0.2728698597164556,-0.35464657082842854,0.2900027519811563,0.1751835475442597,-0.09063715973888709,-0.3377775405472212,0.7154152010602621,0.7115680462132985,0.7045757269633618,0.692634873223241,0.6608262899791981,0.6155410212821436,0.5129327076237722,0.545330895515053,0.6301712720100687,0.4264814596441404,,,,,,0.24490337691841768,0.3774938066161916,0.37136713285262024,0.27742927139219775,0.32253056507979205,-0.28724311046246354,-0.3094841315957644,-0.2727019033774587,-0.3034514289265078,-0.24274306600493323,0.6109003292532611,0.5670918766634613,0.20574289028401704,0.6629085532922717,0.23445771277400962,0.07128170011687651,0.09175995932482017,0.1686930825751538,0.21784655621340576,0.09399068030252522,-0.13629195527639015,0.0016635649957296161,-0.11284345958065645,-0.18424877891125058,-0.1747250215151297,0.8284992366483749,0.8782167685398314,0.6912391518663671,0.6640269013437509,0.562044634305677,0.886296323234472,0.890059361130826,0.8364510633665143,0.8871687004459893,0.8674810517501655,0.4772241813804494,0.7139402632998425,0.711993351349602,0.7106908042987551,0.3103029151704165,-0.6027594868944548,-0.6028403839848422,-0.6046036555180074,-0.5998709200589338,-0.6026116589703041,0.4701034120768738,-0.44426876725333564,0.028526748887686026,-0.25958427064698975,-0.5767209482112512,0.4147603513303011,-0.5694056759870953,-0.08701349819532411,-0.2805631339043144,-0.6856401152183453,-0.2616111700748993,-0.26941109436040067,-0.2290541419246246,-0.28207511684208075,-0.2715689390131497,0.5784836715993923,0.5998328639601928,0.5992781261627254,0.5604595573992024,0.5979459337417721,-0.666355323875985,-0.6593900651901721,-0.7008467181658218,-0.6858183989454927,-0.6884687730993462,-0.6816802127521826,-0.6500546229384945,-0.6159875833231978,-0.6486091290558438,-0.7024238673740908,-0.5898278883712718,-0.5931426724975084,-0.5936597099618597,-0.5936564629675027,-0.5916563405435373,-0.16386517538749557,-0.1686322137596845,-0.15469547801176775,-0.13692499110183887,-0.14851405925805383,0.383818595374279,0.6622229656762493,0.6439213885551953,0.5524338988767631,0.527668122926229
8,1,-0.032528979659834256,0.016105825056477507,-0.00460530133404724,0.0041286861766477445,-0.00990726511724338,0.7582439552975406,0.467144921766252,0.3988551572338951,0.6823418665804848,0.8408952990994073,0.5718608514192425,0.49190482867516017,0.8220602258963241,0.5115684125370717,0.49456798751197817,-0.10785589367143467,-0.10382012872447555,-0.10584758384368675,-0.13719325067266208,-0.15226588218216563,0.37223056864813964,0.6214867805303996,0.5757383210523683,0.43607315209275965,0.5120350099954529,0.059953894241614125,0.08980130491249283,-0.036431752488533364,0.4077433266751529,0.2894659566722736,,,,,,0.6508843363924116,0.6626511324743903,0.6537693091199447,0.6565690687222797,0.6674193967790629,-0.02941390831210744,-0.04780064841729237,-0.22067019303123314,0.0043707587662623615,-0.24556113481057484,-0.492517857741529,-0.4679575111807899,-0.447336817231361,-0.40585057470548946,-0.4855009147485616,0.12355936999735129,0.12330457525917982,-0.058216431565008886,-0.007012356125682073,0.039001253296622185,0.6207215245467188,0.5284102451141757,0.7185942638781907,0.6972352164391817,0.7452311023258259,0.21851847089519805,0.12270387051726339,0.35951412978303043,0.21741161356999195,0.22927569994318286,0.7732257987454106,0.3733554754886155,0.3034716834598066,0.7047212746666435,0.6714455090580438,-0.689810119070684,-0.6891953104223862,-0.6874498357619889,-0.6935483131403393,-0.6892770959205023,-0.1296989419434833,-0.07646920008119684,-0.14332339036468866,-0.24529016397624792,-0.28610535177662966,-0.15993854112207884,-0.23052541755691358,-0.2599354579214115,-0.2949241587888827,-0.2885078577286331,0.45110598487306053,0.4857196415683531,0.4762300531371617,0.45027049336698366,0.44450031370301657,0.8297175185140417,0.8138572927734379,0.8291215193783233,0.8240528671048762,0.8223466441340757,-0.6239557384659122,-0.6268706948243894,-0.5328896139276607,-0.5816075700856989,-0.5615634966160683,-0.5051575072821395,-0.5750706838379518,-0.6685634113001377,-0.5726917466520347,-0.5111465947205025,-0.70292875943449,-0.6967845369715637,-0.6973042899194482,-0.6972980098072779,-0.6997446402106591,0.5748048824773705,0.5745926687676207,0.5760936363984521,0.5990609995233219,0.5806624235673024,0.7748759978571267,0.6356227419206923,0.6671539178289799,0.745327334701378,0.7353022330086615
8,2,-0.04030801671871953,0.007170632339232319,0.11358346527065111,0.07546905953210292,0.06710243663724158,0.7279570086729958,0.5391890354743264,0.5318776390774879,0.7317991620993708,0.7868284883321317,0.47296563896468435,0.5327339224370741,0.7657596469507102,0.46805048058423004,0.4284199506531592,0.054692294950800635,0.050951386782041475,0.050761342711758695,0.0028878300883541375,-0.01773823065901059,0.5144164448621935,0.7290028821898319,0.6893351700701401,0.5871415371514855,0.6377687036367617,0.1682659671540021,0.13267414399156863,-0.014839976083423023,0.5118753238927569,0.38062962011219925,,,,,,0.5608899137752997,0.5573683869406446,0.5742134881979997,0.5521774672049491,0.5995364002069011,0.07965614541288557,0.04350947161849872,-0.18437724925909427,0.12963245528232237,-0.20152086882379527,-0.4676380033456944,-0.44280201786188456,-0.3865396316441605,-0.33581578976776294,-0.45569838339203006,0.1336470290233085,0.1627034113090069,-0.031452473941424364,0.012130224238704801,0.06128657372161228,0.7277233183468798,0.6589934586340456,0.7719104693275989,0.7639423226953876,0.7372287842832475,0.3787133927697376,0.25042161688005793,0.4262722444297944,0.3144691524220017,0.38997019085788565,0.778514834289924,0.4339198700585507,0.4011194371885505,0.7574936724285494,0.6396000123388178,-0.7546679875894953,-0.7558032078739463,-0.7519611952304381,-0.7603933127513309,-0.753451628045813,-0.03616690366536113,-0.240059066931801,-0.15651011443159435,-0.3643387762137764,-0.45132027624025217,-0.07122206571880874,-0.40891383554625893,-0.2850363598421968,-0.4147389126134984,-0.4332894715827367,0.33934038395038146,0.38277156210286667,0.38681338921009933,0.33205692239904816,0.3220773375086321,0.8405356614199546,0.8165387013403914,0.837201976550264,0.8430431224227027,0.8240564770314459,-0.7185912484847541,-0.7231627567503405,-0.6523920051909549,-0.6922411099119361,-0.6747884559244981,-0.6011276378686108,-0.6582924113602515,-0.7295882570854975,-0.6477244474308796,-0.590862373582961,-0.7715971151837002,-0.7588292836213602,-0.7634215980709174,-0.7643369804123337,-0.7642669457233255,0.45924126656975495,0.47076988790140517,0.46369247675219416,0.48869151656772813,0.4713117403663709,0.77754363907004,0.7339584341742947,0.7502285184181124,0.7863991246026165,0.7908508111752675
8,3,-0.05489734605749841,-0.007825784821638315,0.08441477495174943,0.06046810565220606,0.044456635756121354,0.7022110462850143,0.4866344453969489,0.490121108074137,0.7030064557865503,0.7831998562547673,0.48031596170529356,0.5014410050112302,0.7409642170616622,0.44255315777748727,0.4235957920106287,0.06924382508348514,0.06293064511945368,0.05971483830000568,0.011676209855689179,-0.009351152620589609,0.47178725904634355,0.6993367640613797,0.6527326917645861,0.5574195460443827,0.6152680820786042,0.1319423742274558,0.1011933045891813,-0.03804896830094351,0.5098147139085638,0.3520448576645555,,,,,,0.5858660697789003,0.5708451098093656,0.6066760233582609,0.566068836608945,0.6392074157096426,0.04160192465749046,0.013629161309423599,-0.1915286187145555,0.09709886419693481,-0.19649764844377593,-0.4749487544532043,-0.44567988413109294,-0.4044807649400086,-0.34904120393292226,-0.45716523600885606,0.12364048532406624,0.15185059004894808,-0.030633290424117776,0.005574651934970309,0.058895175126188026,0.721857957165548,0.6470810350241744,0.7821036354636463,0.7891061945450042,0.7459317199034906,0.3541680760562077,0.22099779761536187,0.41697014057677806,0.29037283395550806,0.38235418413002265,0.7718078716128723,0.4109649260193926,0.3793937745191893,0.7460888057566861,0.6527517131761806,-0.7330835773476672,-0.735886340043638,-0.7292269295950864,-0.7422964654446118,-0.730779496527113,-0.06058354913277664,-0.24623053051890897,-0.17537550158307513,-0.4083480261478425,-0.4789300035305777,-0.09971851699094758,-0.42750695039310616,-0.3194842704252152,-0.4665902671644533,-0.42632625878346,0.36482651287377577,0.414887885354035,0.4281648874148556,0.352594097854356,0.33970266334785615,0.828784222518209,0.7969693925798634,0.8188508106866346,0.8438467395319807,0.8003973804876827,-0.7005015863854434,-0.7087499102822288,-0.6470029160840105,-0.684055050967106,-0.6656645515692317,-0.6021033156011706,-0.6623911569485679,-0.7129762033170319,-0.6361490729235038,-0.5686048456325281,-0.7542265332111533,-0.7324468437616645,-0.7415272696479014,-0.7436705918246862,-0.7415382279211715,0.4688205612715024,0.4914045857487068,0.47406345969789654,0.5026166704468797,0.48553440332821884,0.8007245215062481,0.7473749329695691,0.763892414011085,0.7889315076265941,0.8175004078679549
8,4,-0.06214548574573242,-0.025387669073002828,-0.013641152875254914,-0.0046779691697902415,-0.02331708862186832,0.7332563390024096,0.42826564308218296,0.38892743543386654,0.6633376870050299,0.8404429926152812,0.5583322862469938,0.45056577110865315,0.7843187882109195,0.46615050588217044,0.4633828675622369,-0.05944533093993498,-0.060382262916954366,-0.06444073359826419,-0.10105528661266905,-0.11798410670553006,0.3655639159405022,0.631140350632411,0.5763088259340455,0.45320778452262944,0.5257770777821776,0.05853924890509543,0.08656787059013249,-0.02050137906814742,0.45767130829982916,0.30106268581319906,,,,,,0.6820163653821331,0.6780019639678128,0.6938365244335312,0.6734595239458887,0.7157666356317195,-0.037459192488306314,-0.056510648228881966,-0.21423369878138887,0.006876370727115222,-0.2241178176306844,-0.5233775915426406,-0.494059262191765,-0.4517178188849842,-0.4060090706952062,-0.5099822939678762,0.11925221490837101,0.12284116564154379,-0.05145097528621023,-0.007974050230406649,0.0437439800601358,0.6596724058318536,0.5623910412158543,0.7698016887321982,0.7644797523383258,0.7823579802696454,0.2410335271214863,0.11356414154857086,0.3927558643619242,0.23992393416956292,0.2633602591593096,0.7906910335770142,0.38102176556022394,0.3128578331640388,0.7259319130686809,0.7049821893429292,-0.7028219772451114,-0.7040934283459275,-0.6992725988428037,-0.7102600971203947,-0.7010630858615179,-0.14607385033488285,-0.12960043116951492,-0.19155827506586087,-0.33127636632637714,-0.3629282114256487,-0.185791382606441,-0.30066254997796515,-0.33240141224797704,-0.3913039536188092,-0.3292434025567399,0.47851867383324564,0.5184547822010529,0.5227702450628481,0.47088680210921985,0.46196098890858694,0.834462825347446,0.8090930904678556,0.826928658631685,0.842457689898662,0.8133322860605469,-0.638094104468242,-0.6435628633625652,-0.5602375008597398,-0.6093275383117012,-0.5854081271573504,-0.5273698396696682,-0.6029128947452556,-0.6717446780165779,-0.5823857053693708,-0.5095781121465359,-0.7207178461223656,-0.7042058737275525,-0.7100308433444193,-0.7113992550422026,-0.711161495645583,0.5854097591223769,0.598583371710627,0.5888733917585772,0.614752665391093,0.5979360305960942,0.8179603852833224,0.6846966074116997,0.7135361930202583,0.7742808917339538,0.7907791193984854
8,5,-0.05714407423611778,-0.01215104336499473,0.03755610153357225,0.012457083109094436,0.0100597255962952,0.7181910465362535,0.47082635669347517,0.4738451048514578,0.6789249050088703,0.8041474940952226,0.49828574186764896,0.4698450749934242,0.7680792406668087,0.4404070318385659,0.43042734961086926,0.03319973734020021,0.033248620507216664,0.03307569874925509,-0.008874973766740402,-0.02519276880411514,0.469268173959712,0.7089715736073995,0.667388073322783,0.546144295894444,0.6028292303323352,0.09320878669299781,0.08394949717230882,-0.032333112356356164,0.4730019501390832,0.3188004132426012,,,,,,0.6083986043519901,0.6106204055787655,0.6184580731315408,0.605319641061988,0.6389457078927082,-0.0008967210286343619,-0.039188181153316126,-0.2160854633691729,0.05330244221324176,-0.23869505783373524,-0.5120894586582714,-0.4876470955671286,-0.42956872630067,-0.3862779144821462,-0.5016792447823035,0.110088311509694,0.132438564451006,-0.04906124210978535,-0.007875885750323164,0.04103338109050925,0.7029140595038093,0.6291209041492153,0.7620636794244955,0.7490643740216529,0.746153396041135,0.3103442243203871,0.16331831574524525,0.3741054552533074,0.24999868822906213,0.3269201785487802,0.7720104658099682,0.4017375035616433,0.3580865641676557,0.7281462279347314,0.6492638594984849,-0.7181425756790774,-0.7180845128225901,-0.7153072448469044,-0.7233872282407829,-0.7169041602534576,-0.06549541305900664,-0.16621719222116638,-0.1383760186098275,-0.2983244967946437,-0.3716185707406794,-0.09812270121832944,-0.3287373515475225,-0.2595844374582401,-0.35383355443260855,-0.3551370820778512,0.4023520451849467,0.4428042791759532,0.44191601216137144,0.3972396432497076,0.38996657694835146,0.8097844991700514,0.7876992340959084,0.8080862922347625,0.8134880692306796,0.7947419619752678,-0.6662119959797299,-0.6690275867632813,-0.5897430715322107,-0.6333996869402365,-0.6136203034585255,-0.5606467191334765,-0.6275151019790777,-0.7017749061823926,-0.6188969185103499,-0.5549664004611767,-0.7328906419843382,-0.7222467510497488,-0.7251487983983074,-0.7260109211025183,-0.72713665086799,0.5340416680284942,0.5425187994214992,0.5371197723796691,0.562453059738921,0.5438363362299186,0.7841075151114303,0.7279702907738186,0.748072970800964,0.7910021727429581,0.7891052051563165
9,1,-0.3399309349070003,-0.1553181141566482,-0.5817823661048069,-0.2423270287847903,-0.4591418959138349,0.4736893833414102,-0.2266698608639941,-0.22916911456006783,0.07394448079392602,0.45848795782763374,0.7737835103865571,0.0825962683343121,0.4857008731357504,0.23730555819965904,0.4471993804728265,-0.5596104440530858,-0.5717958350230576,-0.5848713676475337,-0.6538628580641095,-0.596269337241756,-0.3809585920762293,-0.006128422060901695,-0.1489442737083948,-0.2616891463175737,0.02768570116977087,-0.5140174213788216,-0.23998480304299297,-0.004494228061571404,0.20912305646915264,-0.20026853897245833,0.5840345248101857,0.382050808096988,0.5402514154077581,0.2923401963415604,0.531268835382114,,,,,,-0.5738152956127276,-0.4438955877813593,-0.07656426268791972,-0.5368149909781419,-0.05719837443105824,-0.4274503282617501,-0.37069196959188133,-0.4594549071953713,-0.5223549433265864,-0.34289784913870514,0.15233952674346518,-0.0031062131022259187,-0.04546836182516523,-0.03128708683084769,0.08154696008889228,0.03283938075093751,-0.13567176478614895,0.3311751273361365,0.38831145864936056,0.6514700047799712,-0.30949775439840965,-0.5068829794584744,0.1843340609840135,-0.026513122881103524,-0.32083032665113165,0.5677711112676718,0.011852506534999141,0.04018773941268239,0.20961261249555752,0.7456396482198099,-0.1947814049704666,-0.20516047674315763,-0.19837072403810896,-0.21987769118770006,-0.1785944377622879,-0.4228474472822765,0.36424006366897377,-0.29336428062443254,-0.17427606844584265,0.1874507611193953,-0.42249238870764083,0.23502722911080964,-0.1886663101191317,-0.15752880234886346,0.30520002188935624,0.8997183317123832,0.9006792705208696,0.937143048612044,0.9379995111063147,0.8680725517599632,0.3433853342468729,0.28295440124181537,0.38688808188376766,0.44832341228849004,0.38692331668578983,-0.06943226478656528,0.02580362047569551,0.13752954620709945,0.09118093188857235,0.015077037244038749,0.15203147087755975,0.1200880493709422,-0.04601942390386604,0.10033523698769475,0.16940314412222313,-0.20758227965368903,-0.18525310868036016,-0.20166155522044615,-0.21413699655868101,-0.18374395915924335,0.874450601757031,0.7952066867270466,0.8747625750360214,0.8687623274806154,0.8664390871455347,0.6053183390457653,0.19269163522379895,0.1897105892371912,0.3950130468618217,0.39880291244257227
9,2,-0.1950331377826997,-0.12417121428687894,-0.556849633406274,-0.2235054867209374,-0.3654190697477635,0.4736084689929778,-0.18358376060488202,-0.33177397195040803,0.15855602556748338,0.6801799064169801,0.669469423990748,-0.09171356961577803,0.46916026383995857,0.42514776122312137,0.6034317144852184,-0.6510859879087809,-0.6385130819923952,-0.6415062063721262,-0.6138907575548065,-0.6567695512461376,-0.4299219974009718,-0.1673159638470061,-0.17761546825897145,-0.345099120602554,-0.22774215265264885,-0.45132835485444467,-0.10874455710078523,0.1268827815568656,-0.008547450352156094,-0.18442702559055535,0.6289025620912052,0.5243633081191599,0.4809141465535689,0.5913345793667559,0.5577467662209638,,,,,,-0.599049301136207,-0.6032675058530768,-0.1869422702426684,-0.6160697418697074,-0.06363276550240138,-0.4792861548332339,-0.3949501352920206,-0.4253809253760199,-0.4271611290357944,-0.4540801646248329,0.1529008641635743,0.034265264745396706,-0.07262566463551012,0.04057083359700153,0.08259357281672297,0.051169899161926824,-0.08856453760568073,0.4850005783279008,0.482175668204451,0.5678485432998743,-0.3471280962152441,-0.36858807020537365,0.18330106297402327,0.0011003162282624546,-0.18954034692620092,0.4804714732909313,0.19384073473957675,-0.08087494118695826,0.30967251435166865,0.6673973469029914,-0.2063166930184901,-0.19747825844600175,-0.19271254066789423,-0.20220145614630147,-0.21486417420903647,-0.2683370115411263,0.39878710126339856,-0.3208299718558356,0.10446438350004206,0.15919080764802018,-0.37020821043871766,0.31714553287562175,-0.43481775217439944,-0.07923057393795996,0.13343430007739576,0.9325402791909063,0.9339313272891038,0.888591816395286,0.8633207412527129,0.9373399499344338,0.4118374108509344,0.3874265721572394,0.35232180601031426,0.35908582821685764,0.3297032960480841,0.09285103550313378,0.0074159567408861315,0.1077039930894933,-0.001946414598673396,0.13781852437736153,0.17246029157104026,-0.04270978582128104,0.026522938882105773,0.05157288518088354,0.2074841727106218,-0.2243044187757428,-0.20587027279490266,-0.2039088457427205,-0.20068867484078146,-0.22526525523678353,0.7779790450855386,0.8932580105233111,0.8155419711305417,0.8527193130512655,0.8563100709603902,0.5629004885412149,0.07836794626753751,0.17927619854830157,0.2357291597146548,0.3673003060366318
9,3,-0.19269519612011066,-0.13774294159360467,-0.5253152919630086,-0.20834351614450686,-0.3449261841382796,0.4615456652776475,-0.16778737762833495,-0.33414420659726995,0.18618941981211057,0.680662477721716,0.6609919400832406,-0.0749907811703634,0.45787666327112597,0.4231363788935032,0.5895825169493343,-0.621404657386901,-0.6157207167044376,-0.6189678614934473,-0.5969707392392454,-0.6442749535063637,-0.42486903022114153,-0.15392386868434338,-0.17282295559229355,-0.32027922179540025,-0.2183307996770789,-0.4145185262436202,-0.08358124816669754,0.1385803688100108,0.03959148598616635,-0.14346952163780768,0.618104484431305,0.541309092125871,0.5129243019033558,0.6047180753296358,0.5640090106293766,,,,,,-0.5671072215353443,-0.5618320755290691,-0.17263308211699835,-0.582980164350223,-0.03605971478093051,-0.4755419174684239,-0.38713883638847113,-0.41972615561558313,-0.4079250268468253,-0.4444089417083974,0.17249394760713133,0.04437217629244938,-0.05298317358837967,0.060516888981683725,0.10409333890852623,0.08335087457783252,-0.05606527311525333,0.5335132176939369,0.5503519787032535,0.6036199946828926,-0.309264363267548,-0.32645970276553715,0.24412176912791128,0.04772372607929953,-0.13878416268017535,0.5068065856197645,0.2191725222041293,-0.0615083398712708,0.3515744626206526,0.7032077009008239,-0.23771245978320477,-0.2301506433905105,-0.22211893928692472,-0.23800080198700968,-0.24511975319492008,-0.2847201227586693,0.3366046293623738,-0.3693137742951982,0.01874965832485942,0.06868223423628927,-0.3964948853784267,0.23556848216577553,-0.4874231412366006,-0.18091976731832937,0.08520309181649999,0.9228689076822629,0.9319788890992864,0.9017978271201453,0.8466376561374823,0.9167678562079685,0.4527177978176058,0.41970730038468806,0.38839956449923907,0.4134798745877971,0.3567140341825341,0.05402198458846763,-0.03889087054639373,0.046163039189791144,-0.0563050019450293,0.08566803698261138,0.12120735873678856,-0.08653925109868954,0.003503464319531191,0.02156950366012822,0.1853303247430773,-0.26082151963798816,-0.23238369430467376,-0.235045880794283,-0.23374128324776833,-0.25667531530869137,0.747646714123819,0.879706307379826,0.7864480193368499,0.8321847571925016,0.8337667229961961,0.6105968125005719,0.11875714686539884,0.22157748187419124,0.2585952398622774,0.425615882966228
