f_id,i_id,2_1,2_2,2_3,2_4,2_5,3_1,3_2,3_3,3_4,3_5,4_1,4_2,4_3,4_4,4_5,5_1,5_2,5_3,5_4,5_5,6_1,6_2,6_3,6_4,6_5,7_1,7_2,7_3,7_4,7_5,8_1,8_2,8_3,8_4,8_5,9_1,9_2,9_3,9_4,9_5,10_1,10_2,10_3,10_4,10_5,11_1,11_2,11_3,11_4,11_5,12_1,12_2,12_3,12_4,12_5,13_1,13_2,13_3,13_4,13_5,14_1,14_2,14_3,14_4,14_5,15_1,15_2,15_3,15_4,15_5,16_1,16_2,16_3,16_4,16_5,17_1,17_2,17_3,17_4,17_5,18_1,18_2,18_3,18_4,18_5,19_1,19_2,19_3,19_4,19_5,20_1,20_2,20_3,20_4,20_5,21_1,21_2,21_3,21_4,21_5,22_1,22_2,22_3,22_4,22_5,23_1,23_2,23_3,23_4,23_5,24_1,24_2,24_3,24_4,24_5,1_1,1_2,1_3,1_4,1_5
1,1,-0.48670355252023767,-0.43679754375936897,-0.4345879027471762,-0.20675323583600025,-0.4432347551507072,0.8664109557453546,0.743337450823777,0.27495668365077963,0.8909063994665642,0.947295686196421,0.9076874392716161,0.7737853247191013,0.8589415559327113,0.8086425274699766,0.9002252070307004,-0.015380411129563676,-0.018330512276121036,-0.0619897125105755,-0.08663092282273954,-0.114402039960245,-0.03123620633472446,0.2061220562645123,0.11461578627163271,0.06247040216973265,0.1978005549982198,0.36794580741364036,0.40614147284759716,0.2808136117205564,0.8915817011006906,0.7304814472379932,0.6809173960522007,0.7114166059726544,0.7459405809724993,0.7548503044767981,0.680822436634358,0.7487115413633951,0.706207483731825,0.7665469597191203,0.6990782092585953,0.8056508011038954,-0.36910207521556715,-0.23840449655050855,-0.4565970144254772,-0.4426497192962118,-0.336712427194521,-0.8099741170123438,-0.7978690462852855,-0.7589623535487513,-0.6820729429020118,-0.7854840900430688,-0.059076677370169195,-0.071234196166851,-0.11527976311391752,-0.12669393752846592,-0.09332245459904476,0.8137127056329603,0.6516644957937828,0.9769771956905147,0.9793728614036747,0.9530535784268108,0.6163552715911865,0.7403095876544334,0.8845163319207255,0.796663202841442,0.5833698881711956,0.9374958998746337,0.4782200694515848,0.3596086504779513,0.9660934154578465,0.8783562662639446,-0.7637012736516042,-0.7795663663474532,-0.7603212850139571,-0.7809713171479264,-0.7573820729889773,0.021402617019212977,0.1200043547073053,0.1801901088075154,-0.266473084044913,-0.36605695420115625,-0.14569322964912357,-0.21257733784948263,-0.3591270869092664,-0.42235357448603983,-0.25884089522782183,0.881984014748289,0.926056689127604,0.9282972664280473,0.8529540607935621,0.8424842748062589,0.7589945553853504,0.7090622759281006,0.7104193592992967,0.7937059199561659,0.6877408082186159,-0.5056571590086172,-0.5373399956343516,-0.5036477534736226,-0.5248467180431522,-0.5328907883672513,-0.2669344687330193,-0.3586728571108879,-0.35768389056882977,-0.2199938919190807,-0.17985655584040217,-0.7681276633443883,-0.7090938777156048,-0.7442806909673083,-0.7459204395400101,-0.7287214542481033,0.8974642380834461,0.9450361530647676,0.9082303175779558,0.9042181124960347,0.9181132099142609,,,,,
1,2,-0.5457103112094657,-0.49060461222671536,-0.19708639033822695,-0.33857626514081485,-0.29933034121128843,0.5063640739126495,0.5514038539809337,0.8137072095547713,0.6854515347086694,0.5737715847950033,0.5411710401991722,0.633753389325552,0.5241375547634496,0.4013692722464466,0.546788630975039,0.6364023155607482,0.6410258195297106,0.6114064540673152,0.595129893237825,0.57558469406006,0.5032200875743374,0.6095215218154659,0.5820498077881541,0.58647975415566,0.5694305639464278,-0.05240487551037942,-0.12703713718452625,-0.09606284271458021,0.7564309977180833,0.2876318548576047,0.5384948043405059,0.6632734850239788,0.7105056665806114,0.6496583718130723,0.6823492236412653,0.40829866091919786,0.3742756949938495,0.42647428110235086,0.36477779608890537,0.4767243151106608,-0.5766574611264841,-0.6318107122577548,-0.585253048666788,-0.37538263079884193,-0.5166764745296772,-0.7214831313104937,-0.7165515872705166,-0.6990525639918181,-0.6853525477809801,-0.7109470946586036,-0.1632258167568652,-0.0688342285973953,-0.09816512069351702,-0.1503642697247689,-0.11034580874710631,0.973256784787232,0.9720384034450851,0.762054330085976,0.7657686228308556,0.58215281012089,0.9140796635472876,0.7500599520457867,0.49719080607855115,0.5145899382593059,0.9201632203738705,0.6506444080316272,0.41382264225404,0.48835652638925087,0.6667059970822354,0.475700732348576,-0.675467541980693,-0.6844572396418243,-0.6735499241430993,-0.6850373356188393,-0.6718988155662515,0.5728719191556211,-0.14202067677774832,0.3097730473205277,-0.13099504359012593,-0.39229372489766257,0.44798139963013184,-0.42442073205671016,-0.139698238975265,-0.2996662735345872,-0.35259559170570065,0.5463507118398082,0.5943243522425006,0.5949182134411285,0.5235184857358237,0.515767956654091,0.25885479977744397,0.19997883071336076,0.20824297423776938,0.3091596984396342,0.17441921863443044,-0.46655032511119954,-0.4858602700228649,-0.45798501091242905,-0.4728397515635552,-0.48152376495055993,-0.26079487549869773,-0.3338157809106437,-0.34150047086238144,-0.2442398987713834,-0.21347177628894665,-0.6661432835455898,-0.6319643763242389,-0.6532361110608229,-0.6539027417736429,-0.6441696291186216,0.5815604346537531,0.6190735944915554,0.5921598367617505,0.5942140397407534,0.5978891864510338,,,,,
1,3,-0.5509987688215756,-0.4985435443364745,-0.23711295399751608,-0.3384088839101371,-0.3290536971939173,0.5800607517250704,0.6097111868964217,0.7790750182725885,0.7421875134114138,0.6439097575383985,0.6079305352709719,0.6802012868247793,0.5937221545549267,0.47444127768931144,0.6117309348902871,0.5702353467892515,0.5748336146434353,0.5436588252744702,0.5267236497507191,0.506429509476432,0.4527271275233471,0.5767491912982262,0.543004245246156,0.53719374103543,0.53442547902462,0.013942296119626607,-0.049560432551247535,-0.03116879447860721,0.8028359796892484,0.36339062797063904,0.5759759912629134,0.6868957575763688,0.729633726108144,0.6797980857428957,0.7021183337581036,0.45416899983479264,0.42279854981537845,0.4710509399441012,0.4133487374122464,0.5189654140254468,-0.570943347378039,-0.6056184057354779,-0.5903247617357816,-0.40242460398998015,-0.5166070034934216,-0.7538305448422644,-0.7489166745868494,-0.7298975168468598,-0.7108173171505285,-0.7434968553667933,-0.1676735127301101,-0.08069001568253276,-0.1128676296706983,-0.1622227970937209,-0.1242488819877905,0.9837912609033076,0.965078609067424,0.8134118858869523,0.8126742310166872,0.6506585177121178,0.9106226418432238,0.7839775057356956,0.5683223073869755,0.5742112349767886,0.9085738985707611,0.7101126862340764,0.43480973122727684,0.4840704895702158,0.7287551805104475,0.5394068610268036,-0.7096168477095357,-0.7187144933364686,-0.7076138761524231,-0.7194146203598071,-0.7059503393508137,0.5268211907289366,-0.10222647392719142,0.31476403388011975,-0.13347293165367158,-0.3869967570389623,0.3923208109206383,-0.39732605586097347,-0.15369706377628356,-0.3068826494518633,-0.3475643851742922,0.607149544109635,0.652634596346597,0.6503527806099124,0.5847945007712225,0.5788943895721834,0.32845179461309804,0.2714640377319941,0.279389154132183,0.3758062304822627,0.24686373358490943,-0.48048892392151665,-0.5003593599147913,-0.4672509466837538,-0.4845532602867484,-0.49420791141308396,-0.2567138266609146,-0.3343834990925303,-0.3475254785804962,-0.23928206843215727,-0.2096331032508889,-0.6989074778790041,-0.6641940828734496,-0.6857733284077088,-0.68650690511185,-0.6767539720440086,0.6505464969903166,0.6861122810190513,0.6607318741780733,0.6626063765750704,0.6663164672372526,,,,,
1,4,-0.5305993575412793,-0.4940188241836161,-0.33705109153495627,-0.33013465028418265,-0.39424901152376046,0.7701597307211889,0.7650177327494585,0.6633297133251481,0.8752328128321916,0.8104589876670951,0.7673870467702416,0.7890141446789422,0.7710509331088655,0.6648587134657514,0.7641294191228275,0.34697361269646,0.353338317277064,0.3212557160722027,0.3049839765927318,0.28531053537354445,0.3060328564566158,0.47147591450888404,0.42713384032823853,0.38535593157488224,0.413956168073228,0.19510761718827196,0.16858495966990217,0.1616778869819684,0.8896012000969209,0.5539895291328057,0.6711934624973069,0.7283457917418444,0.747824719401451,0.7383675784345575,0.7363323031443347,0.562181350059773,0.5501656618803903,0.5705174568409651,0.5409883457330324,0.6024914560082141,-0.5310914263607986,-0.5136425718547066,-0.5813342289932022,-0.4624182642342771,-0.5022814871569001,-0.8129370748565505,-0.8104333143740305,-0.7904529225925514,-0.7632358855583661,-0.8081017686844327,-0.1627730217184471,-0.10331613464548894,-0.14499042336492418,-0.18071814944301412,-0.15063597452854305,0.9668501862996759,0.9046627514465324,0.9131526184682738,0.8928627754489555,0.8094740263041421,0.8598663878745272,0.846697875382246,0.7369469550018642,0.716726964195966,0.8319367934831242,0.8498832535706332,0.485719692512262,0.4612652736912102,0.869820892977199,0.6923800848522839,-0.7835341896511894,-0.7904212421859949,-0.7816594390496456,-0.791503192931954,-0.7804366517956809,0.38767118581949156,0.021800255381027478,0.3091818180125715,-0.11013948318206102,-0.33317971421143766,0.23557169459517735,-0.28990060930456196,-0.1756952095106794,-0.28810352818329,-0.3137721593055438,0.7496509485871825,0.7802534141005085,0.7637417086726089,0.734378216063674,0.7362287611058914,0.5053726486637437,0.46029103246502723,0.4677133538249213,0.5378392720836269,0.44201228846650287,-0.5032239267100544,-0.5202036414199289,-0.4667476002861566,-0.49309281257473847,-0.5059127872365616,-0.22922879378799332,-0.31642962963839283,-0.3556003219103434,-0.21828061224839201,-0.1967524067553017,-0.765791051050106,-0.7384369120399901,-0.7555707590821004,-0.7564096861425318,-0.7495101596257292,0.8204225526401555,0.8420513000238948,0.8280494244662288,0.8310391962638615,0.8319487192647532,,,,,
1,5,-0.5600560962413836,-0.49746238936759735,-0.3468331759983052,-0.27713921788925644,-0.40436449747546654,0.7309807109847359,0.6722933690811718,0.5381715083826729,0.8371640412243613,0.8242642399886316,0.7880125455583007,0.7435267342600147,0.7378569411411648,0.6524148004116908,0.787146252555779,0.30623856681284634,0.3052659825059374,0.2631407222573777,0.23912017358139992,0.21166516626560883,0.21833924652630887,0.41222739730477087,0.3406641595244164,0.31848222451263486,0.39698341431195494,0.1656329014107033,0.1530753850262071,0.08255136296528942,0.8787791988442304,0.5495001844843543,0.651176657597594,0.7401366714389555,0.7916928168380936,0.7597874034724857,0.7278523478280933,0.6503750591026763,0.5997665699604446,0.6733745038976405,0.5907482592215825,0.7259896139336186,-0.49296482746105097,-0.4396157385966406,-0.5475879767172376,-0.43172108630732975,-0.4376391123876662,-0.8265098849273749,-0.8149131592270109,-0.780677466649766,-0.7233451738348182,-0.802641223291372,-0.0942302792658698,-0.06086058857018006,-0.09993993951782576,-0.1310943812448384,-0.08819597442562355,0.9462662895520314,0.8454024827560321,0.9403701881895985,0.9518747552975947,0.833902675414288,0.7944671848389151,0.7781374807086455,0.7494803174250043,0.7037666383047315,0.7840837770534583,0.8587240399901825,0.47999632243205015,0.45192220551231266,0.8829150508810004,0.7486321597632468,-0.7678505357228771,-0.7835195854716388,-0.7646378680974473,-0.7846158165552333,-0.7617355608561729,0.2803719626052523,-0.01324251202335236,0.24170116458358148,-0.24946756658321312,-0.4269615837219698,0.12187610061291798,-0.3500752913237286,-0.3047757558984432,-0.421150233295279,-0.3259796204381935,0.7791353402801822,0.8347684699089571,0.8421432418250206,0.7472649797549376,0.7329612508572967,0.5719178833868666,0.5093233444556917,0.5134668544294768,0.6214258357197172,0.48216426805860313,-0.5298820092103405,-0.5609783569226954,-0.534445448689802,-0.551806225072351,-0.5594995133749703,-0.30430616295127244,-0.3933727458336562,-0.3850686012779263,-0.261906690666889,-0.21801623034151474,-0.771047226683609,-0.7127731773293893,-0.7477913606271187,-0.749235206566488,-0.7320981399408277,0.7880396003650019,0.8422400749577174,0.8009179197634183,0.7985095632542012,0.8109945861888106,,,,,
2,1,,,,,,-0.1936806012524026,0.22237199344113834,-0.02799150649797455,-0.08664642234713948,-0.20321975340369391,0.0910599965331409,0.421425447758611,0.02828316827670374,0.2871698479442213,0.15125560923209347,-0.40635819175847776,-0.39749521077587713,-0.37889960712109927,-0.36603242206123654,-0.3510225529793094,0.5778256092111715,0.6102221938427106,0.5887095082597951,0.5102699671963664,0.6166898450042858,0.17882742945408459,0.14970299231927786,0.19159597764894243,-0.27950066621032854,-0.03839667581261019,0.7427255754925636,0.5870262534271814,0.4470619671776397,0.5547407045248313,0.6009617873040866,0.41579854237160485,0.5568045700260342,0.34805054389060897,0.5755168290557883,0.21344100402065735,0.9763514548142599,0.9096003315261716,0.9801099971077089,0.9486939417191965,0.9548339986989575,0.9572876220483153,0.9659828883466499,0.9834519173393733,0.9928727373705737,0.9715776699476136,0.3308937680231313,0.2947164279126884,0.05047516172580835,0.1695627341668875,0.22962205736498797,-0.36221958966402346,-0.30813075268508827,-0.3108004630084562,-0.33493779661885204,-0.209268616850262,-0.5611159162158441,-0.5445188450309368,-0.48061354182295,-0.5866279935867422,-0.5517212705387382,-0.38862393027322306,-0.25852875857125324,-0.2344219310346385,-0.3856260122537596,-0.36586691439033925,-0.20735178094404105,-0.18170331942285411,-0.21208042279431538,-0.17825836065767797,-0.21687847832077534,-0.4800621890820074,-0.5570464229518715,-0.70131899092659,-0.41242999463206376,-0.256797261649774,-0.2487503238483686,-0.3108847014515821,-0.3074817173667612,-0.20794335232188343,-0.29756527187345205,-0.7598982013045283,-0.7254529607850739,-0.7000400477314719,-0.7694335828705783,-0.765005090885585,0.5057052758842521,0.5791197194234773,0.5855598033578147,0.43700666444958536,0.6037237192653955,-0.3709317322419001,-0.3339947132402292,-0.316784738529972,-0.31736223158844323,-0.32342637961342,-0.37464063691329663,-0.3550908776104822,-0.42252254994767147,-0.4462384536499602,-0.4822538399701395,-0.2505536869968412,-0.34725490047855523,-0.29108323553873405,-0.2886777428193066,-0.3182360204898951,-0.4900231685608962,-0.5150602387547236,-0.4954157167311153,-0.4947785279126753,-0.4997836931604551,-0.5151439638783466,-0.558942382230444,-0.5803348025228279,-0.6141759029474954,-0.5863338129419677
2,2,,,,,,-0.1884376275659836,0.22392430511212802,-0.004959864549802795,-0.05416741006328096,-0.16853612160896825,0.13597826896553866,0.4595815105525253,0.0461322711380151,0.30841198617504706,0.19819922969319825,-0.3799606488366911,-0.37286210083204696,-0.3585960197007032,-0.34878629050254917,-0.3369341281939806,0.6099397951635546,0.6562225367704039,0.6258200522281984,0.5518445316632515,0.6700382259442563,0.15454150376282028,0.12311711429336059,0.15072536754714638,-0.24387652629675882,-0.03862266233588918,0.7980739453396402,0.6588015262077831,0.5285493705290084,0.6286275264211555,0.6701625472416328,0.48659934327067145,0.6175197876117577,0.4225268123713307,0.6352742770313188,0.2950601251915954,0.9841017692593681,0.916571611613621,0.9874280474002936,0.9696176236254086,0.97229437858229,0.9321152387981756,0.9441351503826824,0.9699144600623374,0.989556804775734,0.953105182738145,0.35569797169683426,0.31536624629138577,0.058011663404022196,0.1815617007783049,0.25299275116270015,-0.3009945406921033,-0.2615048951080148,-0.25419250969526774,-0.26924158618469995,-0.17024256171677554,-0.5356143899289352,-0.5401232671309157,-0.46996327078474165,-0.5840591522948582,-0.5174218728175808,-0.3399591642030615,-0.23339392331743758,-0.2004378281227921,-0.34237417932056546,-0.32168714911495755,-0.2769582135440303,-0.25371506620052964,-0.28118070594899836,-0.2504638589440711,-0.285477263211241,-0.4833934265493256,-0.6048819716794895,-0.7334357198453534,-0.4791979380370104,-0.32092356008038125,-0.2533127509877302,-0.37562773888559864,-0.376977321530956,-0.2784143756758981,-0.33663241996115945,-0.7415073436693433,-0.6913342750085048,-0.6582340469598897,-0.7584442777508662,-0.762095640915498,0.5515861040399909,0.6159973264748628,0.6224886915294132,0.49089861813340896,0.6365027881663174,-0.4364382359008423,-0.4035350237183999,-0.3894545714193731,-0.3895684632624907,-0.3950950296396045,-0.43819564610184214,-0.4233935412758998,-0.4816234479943218,-0.5028121571503672,-0.5315339675338284,-0.3257489755875156,-0.4134528351074058,-0.3626325488093558,-0.36049599758197526,-0.3871935354299305,-0.48787348531376806,-0.4975049435633765,-0.49021117460020114,-0.490745983968389,-0.49147787493081885,-0.4604133547829088,-0.5062235690069308,-0.5281497006538682,-0.5688532647940248,-0.5222537120082182
2,3,,,,,,-0.3482013433228539,0.1240874634585799,0.26964019606737666,-0.10317044140571396,-0.28393748090920345,0.019562866745440943,0.44109492183621724,-0.09809028809563825,0.13328427611825333,0.0956991115037027,-0.08029529752993647,-0.07344611888892949,-0.06150645005729327,-0.053951393628610234,-0.04451236753449539,0.826606847287048,0.8558552998525306,0.8387485491380874,0.788457660347815,0.857679334199525,-0.0732403620484825,-0.1450253047367438,-0.08628853101351974,-0.23902985586368386,-0.2274751478435888,0.8179092266428032,0.7516716283673179,0.6450638871384097,0.7008753384008839,0.7823488753725961,0.45536008049115195,0.5657866322215426,0.4004144319232974,0.5816505178737411,0.29179211282192796,0.8872771958782828,0.7561679525266677,0.9054482193178143,0.9730972110578598,0.8933131890926677,0.857966834253228,0.8709775167002117,0.9013096719296695,0.9114319445777572,0.8810407761098048,0.35952635180666037,0.36139123060624423,0.09263721043466888,0.20589629756654104,0.29361282607266737,-0.09447019062069395,-0.01697078909745886,-0.2423909486107867,-0.2388414560829346,-0.2696813902105042,-0.35702714888049836,-0.5178405141741527,-0.6034457729111091,-0.6859307394116472,-0.30903898125008356,-0.4061711567427593,-0.22246619737245332,-0.08979897990860075,-0.410162290193828,-0.43947750094342863,-0.3623703165936534,-0.3399866942233343,-0.36634266725426823,-0.3367915199444158,-0.37042431190438174,-0.2622011285795671,-0.7712890926286862,-0.7375570898862143,-0.5409122390930128,-0.4474670771310829,-0.02782312041575863,-0.5688451453504788,-0.4225341575525381,-0.3621925873627656,-0.4582491990875941,-0.8259496271128117,-0.7500235476411388,-0.7036459226287168,-0.8539276655985426,-0.868295227980193,0.4045373984593482,0.45074149719481604,0.45893618431598737,0.3651603523610838,0.4616129262887292,-0.5174035782043604,-0.4866598314286126,-0.47704280739218485,-0.4757678462834407,-0.48093818789779297,-0.5163113810400057,-0.506670911534562,-0.5550033873147155,-0.581381261487252,-0.5993607419993041,-0.4113313236849443,-0.4950878659663833,-0.4468174089137471,-0.44470239261900724,-0.4701767243595829,-0.5984075715895618,-0.5864675187760882,-0.596118351329701,-0.5970004982973687,-0.5943404145371438,-0.46655827199467614,-0.2657434485460879,-0.31017663199266243,-0.4281889895769313,-0.39475983498761735
2,4,,,,,,-0.11118380195335731,0.24519733041222203,-0.02408457939932207,0.04111590461365555,-0.02968336665940874,0.26390181243390265,0.5339778613386097,0.12980201005914171,0.3944576590955361,0.3265281327308831,-0.372341338169059,-0.3702183089419522,-0.36701426545180094,-0.36485760828447145,-0.361043769949726,0.5954275571989767,0.6794154988933959,0.6255227902669059,0.5605644618708685,0.7126843175897242,0.1549793476537662,0.13079811155910415,0.10368585389620066,-0.1328645705839966,0.02662340761810955,0.8909378193540243,0.7799930022387289,0.6756216134616582,0.7641668204056342,0.7783832578185497,0.6360749817020355,0.7381709906727891,0.5834925185643002,0.7534186269121124,0.4762439983671649,0.9756137003555974,0.927738600802894,0.965747515968638,0.9595003465484312,0.9751493413254758,0.8281587626977103,0.847423222391952,0.8926239009718551,0.9411070322005307,0.8630201852190784,0.35718746048669436,0.3375400661118191,0.057503820005317285,0.1743319081405179,0.260659212266646,-0.17280629166030725,-0.18394220105620263,-0.07999713950402709,-0.07943225780195284,-0.013882899256578263,-0.5087688024496149,-0.5238002476137711,-0.38921331121980085,-0.5500421853091313,-0.4823277433737623,-0.20331316592220605,-0.24775837115061705,-0.2201334722390773,-0.2036084699838705,-0.19661977869762803,-0.4009382075796679,-0.3851424740337581,-0.4035838754002832,-0.38249507773610114,-0.4063573135633276,-0.566489557210947,-0.6844750780798634,-0.7865115738350004,-0.6435824310546234,-0.4856468200226476,-0.36085883913584804,-0.5075715463749373,-0.5359944776727885,-0.4657881269852586,-0.4548576847324135,-0.638828391084344,-0.5571008431843145,-0.509882183223078,-0.6740084970059663,-0.6913303118815479,0.6810544574593941,0.7245724087219999,0.7301126658254421,0.6378697281773051,0.7358599413623251,-0.5115978210691647,-0.49164999710408375,-0.48598915070849746,-0.48445453602548194,-0.489531281758123,-0.4985897448926895,-0.49880204813083395,-0.5318911925809502,-0.5418714739099246,-0.5532788510199182,-0.46000064705477195,-0.5196935575607451,-0.4854903135066788,-0.4839636715220297,-0.5018913446192412,-0.3975341073491625,-0.3753888344989045,-0.3931826353552761,-0.3964459100295381,-0.3874784347223079,-0.28347839030751354,-0.4050141293573708,-0.4194088917183987,-0.44981258913482813,-0.3578656623712182
2,5,,,,,,-0.3025057719321853,0.158381069179085,0.17890197644736716,-0.09013630029605091,-0.2526436513059591,0.0587965064540108,0.4510968945678947,-0.05321177238180197,0.1922869169875271,0.13122578634409765,-0.18443560971801154,-0.17736390314877393,-0.1644468350999242,-0.15600616517919552,-0.14558419343062323,0.7638711658256023,0.799119878883515,0.7772429144231916,0.7182391940284932,0.805460234176507,-0.0009550074053901181,-0.059544236481207546,-0.009774073500102842,-0.2484952210517699,-0.17101473319410565,0.8205595652135907,0.7288616573308746,0.6126959082120889,0.6840254630596003,0.7533277639158263,0.47406149673915676,0.5932128071682174,0.4151091180467319,0.6098408366288083,0.29829688835165946,0.9313632103556944,0.820069904494208,0.9459991137498277,0.9854307511799594,0.9326838746218586,0.895658339029122,0.9084895060917374,0.9375789875276976,0.9507787053951496,0.9184283206592485,0.36742879926017835,0.3472370558143105,0.08593871701034139,0.20537404586447527,0.2859149591257024,-0.17003678862849858,-0.10424581570132863,-0.25501972874179635,-0.2569543280942397,-0.24508098645742304,-0.4221668235123046,-0.5322808178277643,-0.5671657968835353,-0.6580689625886846,-0.38249086204223115,-0.38776569481151735,-0.2187409432873706,-0.1177197833615975,-0.393671131870601,-0.4014522530915423,-0.3372442366050237,-0.31434477953026585,-0.3413587944996537,-0.3110680091161597,-0.3455663301801055,-0.3355528819917013,-0.7202777258667901,-0.7456311667322133,-0.5222188688094844,-0.40320727685603663,-0.09821198116186203,-0.5051149073682819,-0.4114389382743391,-0.332200010067083,-0.41361581147341875,-0.8079887699556689,-0.7401072671280873,-0.6976798940580102,-0.8321130511009058,-0.8436279483463038,0.4580271415266983,0.5109694274124991,0.5186855038298923,0.4109217487360217,0.5252878895927615,-0.5001808128951599,-0.4680949990135397,-0.45689127078118297,-0.4561385016693167,-0.46132454610238005,-0.5015918121024616,-0.48965726330417136,-0.5418909905338258,-0.5674525405047623,-0.589130207437975,-0.387350370485694,-0.4735952521822564,-0.4237981442724559,-0.42166193597474577,-0.44790616047773146,-0.5749708138362246,-0.5698335560841199,-0.5741596372295859,-0.5750430136120444,-0.5734029104281946,-0.4743979602438282,-0.35360745725612586,-0.39137523491792026,-0.4857703163450928,-0.4465581978681816
3,1,-0.2809554187672074,-0.2914357092621722,-0.45384721504671344,-0.1872770180099954,-0.4126156940065979,,,,,,0.8211636777326633,0.6209613134155041,0.8933702629322874,0.7642562714276954,0.6370678838555477,-0.22572831449301622,-0.21232598122950042,-0.22027572523519234,-0.21991502011537478,-0.2222944606544992,-0.2961894158411893,-0.2150777059996487,-0.20173800223070604,-0.29907576094855837,-0.3236590599273026,0.5766557466904332,0.6579376910966475,0.6723636288036835,0.8243848279952906,0.800686635384342,0.4063069334147835,0.27540295239660595,0.24532158364564371,0.3572163191720553,0.2800280530126942,0.18759895758308975,0.24236410610966996,0.18154685382045577,0.22819500053467845,0.2180994772424889,-0.2673712659812646,-0.16766318476970787,-0.344700668816289,-0.42934612695474117,-0.3112887511021807,-0.5094541994058948,-0.5067547494453171,-0.5016385231170348,-0.47653990232810894,-0.5120606385020023,-0.42635473479901886,-0.3951812220205464,-0.40153740547230843,-0.42311347126034304,-0.4666930359104926,0.48295001523300995,0.33435816831570997,0.9254276916094148,0.9142808124427092,0.9790414684443877,0.29610938775684903,0.48739024829257716,0.7845375093172995,0.5694762815700312,0.19562989482009263,0.7409406972785176,0.1293397316445064,-0.040630518804165794,0.8347311610836929,0.6079612176525901,-0.33049561028915675,-0.33050208571897266,-0.33078945591187026,-0.33200170541478435,-0.3312458668491858,-0.033920591650827614,0.4171528320208475,0.4571523465688452,0.29845362407340303,0.14678728880404357,-0.16574690775561418,0.3011051652047807,0.37937939060562753,0.1723508792251297,0.015120858892883615,0.73918989072552,0.7768487904169625,0.7620662864961188,0.7295714398989704,0.756602658100295,0.5391329572340338,0.5346315232656264,0.536838124852246,0.539823529512634,0.5422096134055078,-0.010186279603683568,-0.0132263386093876,0.08485868441146083,0.045438561214772966,0.021111473807057357,0.19064908591170893,0.1452125866959768,0.01199984655216968,0.16924362891394507,0.11457950502097491,-0.26812430704413837,-0.26636443643298846,-0.26614036289779985,-0.26654624643223745,-0.2719959852942715,0.8380957412278063,0.8342792540363698,0.8421167180477336,0.84667852540269,0.8401219312933836,0.9500725518219794,0.3352485982954787,0.42758742698613295,0.6842590708317109,0.6962241315617976
3,2,0.15548610585200584,0.05997634199308788,0.06910138566378532,-0.14436946736843592,0.09128185548521639,,,,,,0.8958534593258439,0.9245240590971457,0.8856846428305815,0.91525566163654,0.9735151161006836,-0.024036128354008923,-0.0068108493865552955,-0.022579084379787506,-0.01751982579236655,-0.019206787946129067,0.17726488866934853,0.22373308325703978,0.21013790728663895,0.13399010938322864,0.10885072555804487,0.6516810319387812,0.5818585961374361,0.5973447604375028,0.6924272320943312,0.7217409419214493,0.43263882253203334,0.38896319721432526,0.3193654073569354,0.3548511406331736,0.35650514577301284,0.15453107904901797,0.20283639795103547,0.16593088761419472,0.18494861705707066,0.20737154885221099,0.1420247143278095,0.14657548976950185,0.07642452054363458,0.10890662799458573,0.05008479106188446,-0.10841222266459294,-0.10116726079902705,-0.026112409594224673,-0.015769395584446455,-0.09962476985763535,-0.03623347247024866,-0.08609583879950433,-0.17203989243035678,-0.12765630178868337,-0.12089262386561384,0.5290186082920506,0.4630316405966811,0.5707194603849606,0.5520810740421475,0.524828383147547,0.6485981630298697,0.8247674010025532,0.7872666687742376,0.7642702027443338,0.608202988141974,0.8738593552653381,0.574947553990682,0.4738840203536424,0.8865007745426177,0.7480660898292113,-0.7844217314831559,-0.7831702248638521,-0.7830873286588644,-0.7848148642335804,-0.7836043500406296,0.3908614553921692,0.4905642239186321,0.6026536884445677,0.5243850008633589,0.4279116765193819,0.3517638761861407,0.4268327585922488,0.6239030546745341,0.5174457132402671,0.38590847023126185,0.3221161154837684,0.338729661307303,0.3188891908161742,0.32036538825041216,0.3099017177534067,0.6035325180514561,0.5943194481474413,0.5913711531403191,0.6055546622867872,0.5875950008876958,-0.6208405457300881,-0.6222016967168709,-0.5789750426339921,-0.5899585143123105,-0.618403623734904,-0.3866280571791749,-0.41999233759425336,-0.5116641266260007,-0.3981812349471585,-0.4675573144888481,-0.7493528119054382,-0.7512661248571018,-0.7491780988534222,-0.7509820224782402,-0.7525005057293834,0.1053217697875165,0.09897494275665708,0.1149974898394146,0.1252389768802289,0.11048850306295221,0.5545417478869846,0.3714469799995015,0.42247295354706926,0.5278855792638322,0.5375640099565134
3,3,-0.14649335882117276,-0.138920043885711,0.15792907551761137,-0.16818073088056185,0.06519642347028154,,,,,,0.15781111093445732,0.4655077953367509,0.1983207955295413,0.09081881213825771,0.19272047267844428,0.8428912192284712,0.8564844975356111,0.8505819578124255,0.8525004425380049,0.8527677962195018,0.7434862191874106,0.7000683790503808,0.74763395111651,0.7629294969782134,0.6082028541767268,-0.1641509109155821,-0.33363181139645515,-0.1888429683542654,0.4769966251078027,-0.06332527100883212,0.316481491975926,0.4603152466913363,0.5017079018288139,0.3967110255948836,0.5074672134116172,-0.16240856355719702,-0.12100183618189408,-0.1622554206675597,-0.13470774899127425,-0.1307064820642323,-0.25934202605395384,-0.43651757584986073,-0.23638802056257702,-0.013083726790862338,-0.2485761978315848,-0.23940701166443024,-0.237322087582855,-0.21542097544237904,-0.2484408110412928,-0.2385547579060343,-0.2344916568672204,-0.11466278625113846,-0.1532009408684747,-0.19849032468496675,-0.1777580112816981,0.8988736800480659,0.951961639496827,0.3973518632395834,0.416958154680928,0.07405959331185563,0.7477737186439783,0.4600638679490383,0.053802192440989494,0.12368678229063268,0.769723685313616,0.23296881011543358,0.20081407070852308,0.35334225033879507,0.2452390826436479,-0.07025065363811911,-0.5089058903701313,-0.5090621726286768,-0.509222427447229,-0.5090160916450057,-0.5091434737776752,0.7135546287016151,-0.16425445151370988,0.3474175942891158,0.16327644938370778,-0.12181764724050659,0.7152064548604539,-0.2801640468875837,0.3217718976359296,0.07564508749942422,-0.15636614156386508,-0.07278319979781944,-0.03427953853526167,-0.06073712482516802,-0.07298516090369422,-0.065475610242413,-0.18930426489427088,-0.2007447859514464,-0.1926891035991738,-0.17319928358081182,-0.20897599682250156,-0.3493455605245046,-0.35115001780703725,-0.3179204625915675,-0.32972386040983137,-0.340733847900369,-0.23385177802477042,-0.2631045437062116,-0.311326527657918,-0.2570264332846106,-0.2757944654178459,-0.4778953353003965,-0.4772427797123415,-0.47824752903003453,-0.4773820989355506,-0.4784041899134559,0.03813469926379964,0.03782190669936636,0.04383657677882502,0.05414327771949157,0.04083134369610819,0.26979257169297133,0.9066564976078151,0.8720997342814212,0.7086579324373476,0.6982528572482788
3,4,-0.0797855728287662,-0.1318109458309713,-0.15992437277313942,-0.19230713894311058,-0.1424717315303381,,,,,,0.9423433823298578,0.904813551836602,0.9723561104837795,0.9032712925041579,0.8896819654401152,0.01347018502640751,0.032230423021825994,0.01873864193389496,0.0219259175288975,0.019915264894373785,0.08368975907126153,0.14417771784754851,0.15098741710680708,0.06136635211985231,0.011687152163108228,0.6113416231363958,0.5866003176826923,0.6351772201208795,0.875630794809368,0.779998011223088,0.5118103187905618,0.44635543381251463,0.40063062370817093,0.45873700707911,0.44024817419001194,0.17133604727632656,0.23278725505402775,0.17327189027798173,0.213890284957869,0.22190281758747876,-0.09669148246463966,-0.07574631145444322,-0.16232407248737246,-0.14804101024950223,-0.15882866928161277,-0.34904735994191216,-0.34338828265974186,-0.29874146724948436,-0.2872522376699127,-0.34520364188342834,-0.242487581799826,-0.25671992770033825,-0.3121312158569487,-0.29758692502500383,-0.30742719945138197,0.6823252903237319,0.5802286119865555,0.8412934408615798,0.8288049507629227,0.7893199500471708,0.6358832869282924,0.7750963368904938,0.8354627588848447,0.7344153687523817,0.5691075409337589,0.9012212864786872,0.45515901742887754,0.3407295602285514,0.9510106314294016,0.7221269782168289,-0.7009597015284976,-0.7004635317211902,-0.7005959163245987,-0.7020610301507437,-0.7010572387073317,0.3332082972448037,0.4591905310520352,0.6146001869065466,0.477832063299951,0.3115444420704363,0.25202858386347626,0.3498256389040435,0.5846385033173631,0.4018152975017789,0.21886150919153313,0.5373602119790882,0.573473791996416,0.5504468143953918,0.5337621112886094,0.5412619634148786,0.5761852325977599,0.5667831446052461,0.5682296735868487,0.5806881605085454,0.5661014281630333,-0.4368821066121462,-0.4394933217178163,-0.359154482450488,-0.388682067799873,-0.4163729752184433,-0.20055622749992041,-0.24552744584877484,-0.36962904631310267,-0.2207842082346525,-0.28724531269568,-0.646389459784243,-0.6462100534775557,-0.6452591695498013,-0.6462737199622324,-0.6499555676774338,0.4847138277674534,0.47917769352009687,0.4926835904021194,0.5027408437791968,0.4887558934763748,0.8263495275293964,0.5254195711989117,0.5932717261358629,0.7519768003516604,0.7620522709459935
3,5,-0.23086084423156938,-0.23425406023602413,-0.4016988920834139,-0.11318218707151662,-0.36057551084165884,,,,,,0.8188792933815139,0.6308283156513764,0.8850294025877539,0.7639904347356716,0.6263503051710964,-0.2469395336837712,-0.23307701719165186,-0.2405808002959533,-0.24033054413230115,-0.24251783704314422,-0.25309363535671814,-0.16459024240085895,-0.15267887999513197,-0.2551836762560957,-0.2714483292827825,0.5505805784746246,0.6369768258451435,0.6475021081154088,0.8055270329773205,0.7777457443879604,0.47265938042593625,0.3426089922820301,0.31463636031582154,0.42684548513777476,0.34693047052737147,0.25060297568371037,0.30406311400245256,0.24340755709605388,0.2916817869556946,0.27880088732285857,-0.22095696466921622,-0.12813530128381578,-0.30214487671532364,-0.38320892679457375,-0.26387871987117517,-0.47952818785434426,-0.47678771265153097,-0.47369290128696107,-0.44784896383627903,-0.4833502641017864,-0.41740242276808814,-0.3768437368724611,-0.39535673098671853,-0.4165814054805297,-0.4584683164761003,0.4806664050713203,0.3294543613963581,0.9319041163692541,0.9215131220216587,0.9875956021817734,0.24520595563003644,0.4286771122912003,0.7337276793786345,0.5045380904322146,0.14543864945514162,0.7105528357378409,0.08269731510673972,-0.08138313976304756,0.8035772685525798,0.569006455513336,-0.34496994181117246,-0.34500618350252776,-0.34540190556011763,-0.3463209895382138,-0.3458201909015539,-0.0860803608627072,0.3434430366149275,0.38334152933397814,0.22011961553218928,0.07318048225819096,-0.20909329317712544,0.22823904453180122,0.30437321961890584,0.0966008032984983,-0.05460655173902773,0.6952091057547212,0.738232875163554,0.7198364678362291,0.6859984288190277,0.7141068451772443,0.5794898829016558,0.5750538817854819,0.5780561834496936,0.5810313230276741,0.5828032317040304,-0.02062293350589295,-0.023757804859288578,0.07702397679475115,0.03566933391256655,0.012236540253558137,0.1755713060413946,0.1273965229722417,-0.006612384466574417,0.15109754457166868,0.09974009951131113,-0.2877744824914892,-0.28571293445585266,-0.2856636249640401,-0.28583815858563133,-0.2913723845635072,0.84246776090924,0.8392403836487559,0.8466158157888166,0.8517611699471013,0.8452520529367894,0.9393223326451603,0.31783748144504864,0.4090078786876885,0.6665022340549986,0.6790971554742681
4,1,0.08769907919905418,0.10204621126393043,0.014815227231651407,0.1340422181396732,0.053951335373450315,0.7469790456892785,0.7371615066456012,-0.06711471091292065,0.918082943334023,0.809265478489961,,,,,,-0.16446550788873981,-0.17974893023863348,-0.21577106893140785,-0.2356597097915205,-0.2595445627660524,-0.12525821124950287,0.023679253604764305,-0.09394987389306442,-0.10126579399119695,0.0911527368632975,0.7597242170167519,0.739791980187391,0.6271772469395221,0.7951735927869938,0.8704083463399417,0.4596054203252473,0.4421068644912922,0.4445193635151261,0.4701411126854911,0.3668399575630863,0.4635891584223719,0.4090051685068179,0.48731955006899363,0.40907767922875815,0.5478676817220974,0.22507576907534732,0.35856719068285203,0.1989582616381972,0.11512929277395201,0.26382263466884337,-0.08216518716076493,-0.054339228888628854,0.02628337598227748,0.1279880206895032,-0.02535718345888749,-0.10445843782536435,-0.2076697074247813,-0.2587245737507877,-0.22915487663010659,-0.20627225506935498,0.4389085911205617,0.26369282323825005,0.7309574841054437,0.7192253426664571,0.7744658107076952,0.3935436340684204,0.5879337034080914,0.8223988647550547,0.683259347230191,0.36382127665314945,0.8848642446945975,0.40944930601019824,0.24555665387154457,0.9084130493764163,0.8071835315491057,-0.6762037154811469,-0.6879498473590671,-0.6740298605486379,-0.6889801535620443,-0.6716486232156866,-0.1065631564127929,0.2602231659491534,0.2945028620327712,-0.04318229302377685,0.0015412148621433142,-0.17639024841625006,0.13225754339419948,0.034713934958661374,-0.06220450925339027,0.18123295717093857,0.4933966614895333,0.5488716237247359,0.5759469656286735,0.4537485315948604,0.4324512957646023,0.8201656997051128,0.7939001413867965,0.7911965803964311,0.8338444236329451,0.7763209906701686,-0.49305490483269354,-0.5188263941377218,-0.5166169836539611,-0.5160984189860525,-0.5218997969719923,-0.38691330365080323,-0.4171247302697634,-0.3986040516196163,-0.32671790518380517,-0.3331380249469944,-0.6681867035512432,-0.6214312123245449,-0.6507906962492234,-0.6516434778609987,-0.6370875883612173,0.3214307478390698,0.3766973364241254,0.33476872283646575,0.3262351292694905,0.34222932264884975,0.7073515369965183,0.25256682967404676,0.3174668707389283,0.4672592792035195,0.5590428197162569
4,2,0.40046571043995427,0.39563000453066,0.4170251319034839,0.3095345382911674,0.42746084416635066,0.4967100520269476,0.8750757195576087,0.33721299752842127,0.8669645673807767,0.5204472174531083,,,,,,0.11224846442462222,0.10520100711639546,0.08382386841206091,0.07531339696190487,0.06238612179289993,0.3658794230796234,0.45746137856742675,0.37564285339134096,0.35839093917379394,0.4754629581424634,0.724264288524175,0.6004113346942319,0.5910217187653537,0.7153239801111598,0.7221205389986779,0.592853231451976,0.5825996586790512,0.525601129060978,0.5410236873957355,0.5424535333716723,0.2635538947243228,0.2508655168495484,0.2726028620665959,0.2588423192208871,0.3091908055674306,0.4434672977606977,0.4554896501558878,0.44093055459399966,0.4310359740558445,0.4595205717985472,0.2625831877958993,0.28617088840652893,0.360317735316684,0.4219584799910192,0.3092077004079278,-0.13270419230416608,-0.15401891834657655,-0.2600876002866197,-0.2374999547109109,-0.21568114238769542,0.5162514503533719,0.47042262342505325,0.5294140477629538,0.49693340475903114,0.4926964202659725,0.5238332492319242,0.621589211592436,0.5754464627078768,0.5050286809503193,0.5017687421625697,0.6486557353655229,0.34994971065650715,0.27332592006425527,0.6815452080796625,0.47077997346353606,-0.817087273630102,-0.8104369674626661,-0.8177718015114479,-0.8100902849471145,-0.8188416179408695,0.1131491126283789,0.04726191687271275,0.27848417578888474,-0.005211456459611741,-0.021778200185041285,0.11203774188742222,-0.005454610950018868,0.17536343929611709,0.01446930961725812,0.10159375020627293,0.03996992976119185,0.09801198125709298,0.1311388920739608,-0.0016996089867327147,-0.007599660502813688,0.6866526461113762,0.6891150676066363,0.6898126098124802,0.6801535710530946,0.6761152718550985,-0.6525096529936978,-0.6579330951432572,-0.6468549607729432,-0.6426151351529921,-0.657276688980422,-0.5048476751363062,-0.522866214333664,-0.550457918645024,-0.4881465177342934,-0.5262537840429669,-0.7906258452212014,-0.806245773939414,-0.8001104784132551,-0.7994958611977212,-0.804002639223311,0.022609724082671367,0.05290561552368089,0.031314080572347525,0.026336656245692702,0.03276444006582513,0.3952519999927737,0.3173245593446603,0.3473922466539283,0.396878023275526,0.4042182359072026
4,3,0.03737213984871879,0.026433184963010503,-0.08822308883491203,0.023428591428775847,-0.04355916605701693,0.8543315354243951,0.8055774127294048,-0.010113067233048278,0.9592893425398774,0.8302275951675573,,,,,,-0.11782224996765756,-0.1294863443328791,-0.15472501225697277,-0.16737523108779162,-0.18416648043932882,-0.1921224317015333,-0.08605514740727749,-0.17448626155577784,-0.18753243582087875,-0.04996092005046915,0.8993300466678109,0.868263835467331,0.8096896396504417,0.8614554682530469,0.9743949159408157,0.31196572652325627,0.2589688259540681,0.2459899060093712,0.28899434049783834,0.19857824892184062,0.19341519882247515,0.15193193776969016,0.21352450246156696,0.15611198249887992,0.2755540377588227,0.12612129897517588,0.2576438426676737,0.09736961174345393,-0.017633446988849943,0.13340211882637276,-0.08629520711570482,-0.06851052270845348,-0.013735934058809018,0.058525994856589825,-0.051023096153782754,-0.31808117815777104,-0.34970931005307726,-0.3774278820013277,-0.38028147774409593,-0.39309987152675063,0.4296563787629947,0.29764830817865684,0.7188501813686636,0.6666696809677536,0.7882476134236353,0.45294950286489133,0.679689569402151,0.8800795392852859,0.7321593995836844,0.38891170849794543,0.8238356929580782,0.31009430939644966,0.1219270433774603,0.8878534242921973,0.6939201464934825,-0.5535460616356565,-0.5576936048832497,-0.5526818467072019,-0.5584172598704644,-0.5517972673913718,-0.05521986809146484,0.3678511147884185,0.46846278025836674,0.12696816179109371,0.10817226106402589,-0.14924032119158048,0.25331405353464187,0.26381894742890166,0.08101028214498562,0.2049697373729631,0.5001964577241665,0.5171119021880478,0.5207097417030936,0.47502695765775005,0.486737344213941,0.6870667732499044,0.6825547308116516,0.6801640813762183,0.6833272431785049,0.6732776750637899,-0.31739339858320426,-0.3348175991435205,-0.3249394679372639,-0.3221269607960786,-0.33512944819591395,-0.17094677696935512,-0.19328464498680864,-0.20441822511253838,-0.12492334675566497,-0.16024279785749673,-0.514167748530652,-0.4924893155668868,-0.5075218235113277,-0.5075549132728923,-0.5009013965265601,0.4346991684849293,0.45448579728907035,0.44173594365214897,0.4361715987810906,0.4415833243697047,0.6731907772331246,0.2546761259410151,0.32704352971819417,0.5093990216949066,0.5189236873764106
4,4,0.30187108868863033,0.2815483471377549,0.15462894001657723,0.21716052339767777,0.21145083964287026,0.6876597007270308,0.8540432311128985,-0.11482905481389705,0.8710989906268746,0.6857023365683949,,,,,,-0.2775352981090238,-0.28717087891847415,-0.3122455157047692,-0.3224793148576084,-0.3371156107880027,-0.08903770466852579,0.02840770759974487,-0.07466636818250216,-0.10374490094065614,0.0711793462568654,0.8967644752635829,0.863624835181805,0.7778108816940904,0.691776830320695,0.9096147059177327,0.430128517585209,0.35363359299216046,0.30642204532996486,0.360924744230529,0.2782514635362906,0.32503657316788725,0.30965222692637284,0.335182566407184,0.3145257704701637,0.3656664703830804,0.40412497892846755,0.526286805004296,0.3721415534207586,0.2547636673872732,0.4004446175791123,0.1568434894888323,0.1795876313224093,0.25216198060490547,0.3354382737840155,0.2024872277618095,-0.11069106378028692,-0.1851605392353497,-0.25875602818375043,-0.22386275755814755,-0.2196096666765468,0.26366504739847796,0.1347140421885905,0.5569044866843775,0.5197358437515766,0.6489827948993895,0.3184581573202834,0.5846780956665086,0.772270463743703,0.6488899880813052,0.2722551927076683,0.7704091418617585,0.34637974798175564,0.16255075771631944,0.800308503513054,0.6865417820440864,-0.6320719367030478,-0.6319381466685128,-0.6313816158463923,-0.6324363746319852,-0.6313105039214193,-0.14327925051711032,0.29924205130696513,0.3073093128183396,0.056831799156833895,0.11092509547213603,-0.18317098654478903,0.23490922828420802,0.17326810179740315,0.07038607062143232,0.23704242318899904,0.3072389693165263,0.3337959274064619,0.3509060259696535,0.27794438203671556,0.2735321531501893,0.8178107654104972,0.8247280682364352,0.8215477849950027,0.8003171942040914,0.8190508064479312,-0.4753570115282728,-0.48650878998309444,-0.4809485563851894,-0.4759995388630909,-0.489759570146024,-0.3377368083544947,-0.35485967400461726,-0.3692579058980081,-0.30241715816848647,-0.3388679023486334,-0.6117102814381434,-0.6055334248978497,-0.6111640310321342,-0.6115879749510964,-0.6091883653411156,0.19219217166242908,0.21910234213453228,0.20038405701941497,0.19372898728683363,0.2022096347486807,0.5005940699653864,0.05513704584991397,0.11887211122888497,0.27578869038172116,0.32837989301098924
4,5,0.21562012461950897,0.19624274164994138,0.1652956916204379,0.11070008675106302,0.19733361087617762,0.5597545326329053,0.8692717468054082,0.011647778704436229,0.8806767971752589,0.6158075813028681,,,,,,-0.10141092636262838,-0.11328969914653264,-0.147644182358053,-0.16297021202602235,-0.18364736249032232,0.010656904804320244,0.1324326061067953,0.020720658018126503,0.01538503420428372,0.18003172443832616,0.7632842459286121,0.696323750341721,0.5937933303534818,0.7005443328450616,0.8088106504290851,0.40460327986524547,0.4068774844445555,0.3875473776048277,0.39283191764305936,0.3252665914307511,0.3742322718928218,0.3229520484592938,0.40152664442049857,0.3217011875266864,0.45882732162703443,0.3353274622710186,0.43292935844747027,0.31202732411659495,0.26371998991402457,0.3455629539950368,0.05503235325477218,0.08360715458457602,0.18503893398309812,0.2779734870892375,0.11503125763989752,0.016661147775577922,-0.0852459024210146,-0.15539481951562895,-0.11241396523244118,-0.08411600155359089,0.4070504162092361,0.278038933564017,0.5736026584016964,0.569013478288711,0.5849070603246024,0.48617061975987574,0.6822720216614419,0.7854564416881477,0.7177872950457653,0.46899318644474364,0.8706151461519241,0.5163558757612516,0.3783358717846306,0.8658016567108403,0.7863427084782347,-0.7668126424606023,-0.771334304222119,-0.7648581072670662,-0.7725300387556491,-0.7639010145149985,0.04450687141468668,0.299800770206317,0.357195999905749,0.06298506520137881,0.1113274531572449,-0.0007920273726989002,0.19560251357698188,0.14536050049766813,0.06870654673448584,0.2992184012878021,0.33357811694330364,0.3826407637007072,0.41700726472324146,0.29369799936058105,0.26245088420113716,0.7691159409686462,0.748574684508344,0.7439912719436529,0.7763631257103759,0.7299238794503237,-0.6364968703940193,-0.6537625905213555,-0.6572533493787684,-0.6505395932652469,-0.6626681015879392,-0.5025044631353761,-0.5246605628882892,-0.5172932244951367,-0.4537593449891957,-0.4756695845921093,-0.754649242049314,-0.7314023988894853,-0.746792707495777,-0.7482610616367122,-0.7402325903987381,0.05557869771020729,0.11189415273066139,0.06969038895071822,0.060768518139556305,0.07637735506683363,0.5462547731762568,0.23091610165731158,0.2810587704003935,0.3790604958102113,0.4628281594773682
5,1,-0.3598853056401108,-0.4124660225640282,-0.383843185858465,-0.45488450115848833,-0.3858616960200547,0.6180706804675983,0.5393364838620314,0.7114685190162989,0.46960604766388625,0.490456513142453,0.2717364836503161,0.2870592047733763,0.5605126042925227,0.44587995540499936,0.39251115565425665,,,,,,-0.1577073236686508,-0.23458905928361018,-0.25182329394398684,-0.22384878693765264,-0.1859232493271752,0.7978471752487937,0.8325607161715299,0.7278277358684923,0.614330497916628,0.825310617721292,-0.3090124733104944,-0.2665276485749273,-0.23413478660378417,-0.2571876221008831,-0.28928841240555836,-0.46799436758686697,-0.5484320035319823,-0.4362798694671173,-0.5498474265423732,-0.3375952285271606,-0.3688213072320685,-0.40348562953877787,-0.4134797561959713,-0.40542428093919614,-0.4563783068600986,-0.2657286978926492,-0.28438613671809,-0.23571271652342585,-0.2662164076768889,-0.2906009342237921,-0.6496979991778538,-0.49499446114424517,-0.4298661584824326,-0.5273279710735923,-0.5870025943341222,0.6677348394294869,0.6579487121806772,0.3797854573610743,0.29224978255206824,0.3535785446091263,0.775239936379941,0.7174946445158488,0.6493478878611375,0.6177345862416947,0.615033091460125,0.32681226576004785,0.05797457562662456,-0.013296880568468783,0.4497929504372684,0.1508930927198282,-0.024562067655253816,-0.03916582390237666,-0.03520497715822746,-0.016775466979040976,-0.024328319104858442,0.5159059148281328,0.49613906125634033,0.8277139754309452,0.4567413276618997,0.25084091513631035,0.3062907096912265,0.3810862829984185,0.6205348268362374,0.3268382640606047,0.19303645043397255,0.3372496553323209,0.3016590106705932,0.2489814772650617,0.3430443440676858,0.39410927499964166,-0.11392994668726986,-0.11572953520443519,-0.1582508442429913,-0.1244172719160681,-0.14498948620789198,0.20228959999334395,0.1858133829793538,0.19287872697790276,0.1920538439528776,0.17876544976510766,0.3447835934743997,0.32020651854145443,0.31834085417655544,0.3709213453751362,0.31070216251461114,0.035780401746607904,0.054965150263158846,0.03497292757140458,0.04581872272556087,0.0613242385290137,0.42919371305230936,0.3519670129814578,0.42947462415739057,0.33604633748708046,0.38080225083875563,0.3319221105463668,0.5132873675832212,0.5086912603273707,0.5446972470989467,0.366647811314889
5,2,-0.30636158606501196,-0.3666978805256138,-0.3428760257658561,-0.43070290347343176,-0.3424156307417672,0.5432315803944756,0.5110343756141048,0.7093885647716396,0.3849978262390572,0.4033053066813256,0.1815818277500698,0.22304002742204898,0.48541296743147977,0.38483334579602135,0.32992279486478093,,,,,,-0.11478537322740734,-0.22810690997026084,-0.23418297725799486,-0.20929035248344774,-0.1689937351489854,0.7957116904221607,0.8224099340675474,0.7323273841506296,0.5315236032556238,0.7774031509335975,-0.3647666654228314,-0.3294837836123037,-0.30628166265187096,-0.3261786364653323,-0.35323783805674713,-0.5414139923198416,-0.6145809253451799,-0.5174466315349928,-0.6158828170892878,-0.4200812546668993,-0.3192537680817995,-0.3678891435873757,-0.3674177784436299,-0.35974543390002167,-0.4233286287644902,-0.1828897356576551,-0.20483940183838145,-0.15687526019061004,-0.19662991944998032,-0.21290829110355003,-0.6368036371256172,-0.4837023722001599,-0.4193735294154348,-0.512441660033534,-0.574215876040086,0.5930092886157828,0.5797685060746259,0.2822557149540261,0.19116257932147773,0.2558860502410427,0.7371945416040748,0.6796725683749679,0.5769959238813647,0.571322280826129,0.5571342905147412,0.23625128258449124,0.031128980311749932,-0.030919355479105848,0.3584532355529063,0.06383256455342357,0.04019214371060198,0.025530566811090893,0.02717698368623822,0.05205017088867736,0.039483193524460725,0.5397593730892554,0.5090309997580688,0.8527197859742203,0.5076864300960282,0.3038736643532336,0.34462122435439535,0.4276319523883567,0.6694412627389433,0.3873621729242098,0.22324576631533577,0.2491299167944947,0.20835716713241448,0.1518235290740063,0.2590932421333836,0.31323344305718814,-0.18819427222470764,-0.18086073995671104,-0.23115095760840942,-0.20735059771427578,-0.21012142509966747,0.23706894165899006,0.22350886684528393,0.23243642603101888,0.2291346039759279,0.21680565052535317,0.367864257624577,0.3452647604637038,0.34064802036018915,0.38348536395385824,0.314549324583283,0.09926750684956942,0.11118101142619674,0.09405527089579457,0.10715143289934836,0.122435643891184,0.36397092287092137,0.2727253395629493,0.36272069069155943,0.2585186383256035,0.3074261246552328,0.2304262340038845,0.41747703635983446,0.41257048515124894,0.45149798039243805,0.26516091185699997
5,3,-0.3063054478930338,-0.37207237495480805,-0.3576417087984476,-0.4490522602895852,-0.35547827743188276,0.5651658926843864,0.5221364896091107,0.7385320300850007,0.39871665582764493,0.39564932564301936,0.17297034095982633,0.23191980472870832,0.49520771370821237,0.37764713669264993,0.2998516558834675,,,,,,-0.1296968633315807,-0.25076276471966996,-0.243005569500387,-0.22628802758695477,-0.21487084146337332,0.8152538553348294,0.8457372785522134,0.7833121351817702,0.5391797992647067,0.7824628294663133,-0.3740224416813671,-0.35513411275349527,-0.3394117632379836,-0.3501931578634325,-0.36856576427462184,-0.5841615913316698,-0.6476005522047559,-0.5539075089907293,-0.6466840433602212,-0.4709322462927097,-0.3428428696468089,-0.39549074986137844,-0.38403682767516045,-0.3872608188166915,-0.44804814509320634,-0.17641904292963018,-0.19968126940237152,-0.16655715324540354,-0.2149135836393381,-0.21125586399683782,-0.6794619221309257,-0.5150461491225944,-0.4470687375021285,-0.5445184385220005,-0.6144463048081237,0.5638233256338195,0.5832201041298802,0.2738597600501922,0.17593463231837514,0.25687449159302944,0.734802134712792,0.6885969380265544,0.5764754993189605,0.5686286582299553,0.5582000903299639,0.2224417939789436,0.012578373683932553,-0.05719291920102121,0.34703439777325396,0.039118006832265184,0.06596990063636032,0.056842094578209434,0.054722983459246866,0.07866799364603738,0.06432883414169166,0.549897386623167,0.524717067115084,0.8563050935488071,0.5394431776900012,0.32806367980763784,0.35948154831394685,0.44900369435567744,0.7107527766285578,0.417978316164733,0.2263036162590335,0.24898549323325225,0.19652718625558518,0.1372223650951081,0.2638763334181886,0.3262414061198946,-0.22050705960796457,-0.2086060076763041,-0.247528062497683,-0.2376745465593917,-0.2310929157890378,0.2740203128579717,0.26531015512128264,0.27657273575044417,0.27580566374390547,0.2607613727987934,0.41529949917371567,0.39907567630455465,0.3801725135516739,0.42587531695344527,0.3514127364500974,0.1338495612841134,0.13466416479933385,0.12564740042350442,0.13657677389997724,0.14618946315617332,0.3905719674427075,0.29249276749142883,0.3867425548928958,0.2924379431589518,0.332955679683935,0.21670983087104934,0.4138995662912909,0.41123926055204074,0.4554329939955748,0.25119651175591984
5,4,-0.2252390724227753,-0.3007849930269362,-0.29354958110815144,-0.40683462384922464,-0.2879618310413925,0.4508536244780973,0.47356143192416633,0.7230013577727245,0.2738346164951344,0.26645409433534595,0.04379919469895899,0.1390908537608212,0.38163298387142575,0.2854795189392618,0.20605215522777098,,,,,,-0.06721994326437652,-0.2369419230795915,-0.21324956936145756,-0.20140349679574077,-0.18815076592832414,0.7976266306025714,0.8164053785608361,0.7762945262959265,0.41399926566055,0.701207039900296,-0.4442934060584469,-0.43638505576014275,-0.4340935378560171,-0.4399419706375336,-0.45058811099578344,-0.6766438098571186,-0.7283910894294574,-0.6575051076034382,-0.7272426609994658,-0.5785333598751694,-0.2675786514974148,-0.33882074991942535,-0.3127854267748451,-0.316844754293542,-0.394031483254879,-0.05726088208413671,-0.08469092046202542,-0.05365966397248201,-0.11420808446922881,-0.0987618512362809,-0.6509997426823777,-0.4907569769172586,-0.42529811197555545,-0.5151759809503473,-0.5870915468081672,0.4484187669694749,0.4639481307367488,0.13285389907266132,0.03156060333031041,0.11625572017587638,0.6673806552250183,0.6228365802852374,0.4643537750367388,0.49231063558811194,0.46662109661586326,0.09128404625931386,-0.027234059824342793,-0.0831291749946319,0.21268708191054086,-0.08439592271506613,0.1557577762458997,0.1469348233703518,0.14149510668616638,0.17391322097033124,0.15280477905431433,0.5719942052879923,0.5320745057962001,0.8744119969577375,0.6002776147350063,0.3952407435255545,0.40546731736050623,0.5048834323543854,0.7663559547537243,0.49439371359494355,0.262703494107558,0.12106186667756624,0.06203516788645724,-0.0015457114584320752,0.14154615444891405,0.20733085344638513,-0.32039919326642385,-0.29579016348812526,-0.3443963780356718,-0.3492845282970287,-0.3176109998764072,0.31899833809289446,0.31468195253765785,0.32835428305835823,0.32429586806510624,0.3107267774102558,0.44203176990588067,0.4290432801386568,0.4061571786619014,0.4375741088741695,0.35217680407712026,0.22088766743532284,0.21115223187106857,0.20660006418474108,0.22037232700411136,0.22928109204593672,0.29325744970171064,0.1773122791027697,0.2872885499878084,0.18017128870035515,0.22537978349841448,0.07080967471779165,0.2726572035167538,0.2696874557667378,0.3172468606964953,0.10470191871844714
5,5,-0.1962477256745494,-0.2776998069948635,-0.2766192369145801,-0.4014321179214815,-0.26918508477952496,0.42135178131220485,0.46610170646316584,0.7269258043650279,0.24333100186111356,0.21904526864102203,0.003144771585407824,0.1185155375950393,0.35127056078034746,0.2553741763224773,0.16520243435482673,,,,,,-0.05404520025743831,-0.24054505161803252,-0.20537484935367756,-0.19922008429603366,-0.20136888559245048,0.7972089592280343,0.8134195738353162,0.7942663046264938,0.37664727675541076,0.6738666399582003,-0.46589976290506097,-0.4695796876070921,-0.47561898004053793,-0.47554044582213795,-0.47882689980321813,-0.7194084790118391,-0.7621544796734909,-0.7001087268813291,-0.7598361481868943,-0.6307855012000181,-0.2521115477147242,-0.32986229050254345,-0.29421879666643713,-0.3039570443033084,-0.38450972439263964,-0.016052606476695264,-0.044929705886215254,-0.022066032839582972,-0.08977786202790505,-0.06124692848430291,-0.6543146740032537,-0.4923318499790521,-0.4268839540624696,-0.5151310054615916,-0.5907913949662948,0.3937833554214498,0.4260320592912168,0.08387320094322559,-0.020607713743171274,0.07203461812653233,0.6433533233686487,0.6064609085098119,0.42890123271727654,0.4676937473623273,0.4400279094714096,0.047771542211405005,-0.04249604484433145,-0.0975957061755921,0.16732019305520718,-0.12923120165858548,0.19016228520113088,0.18455480994502194,0.17608314643172895,0.21031281701610538,0.18634009578275545,0.5829162110149598,0.5406328333812793,0.8748056162518876,0.6318482784081444,0.4277302819186515,0.42837847443650323,0.5308692400091398,0.7992698566473341,0.5316491014952017,0.2777785442275915,0.08121741101399937,0.014569653656984816,-0.05075633467314988,0.10568134685562691,0.17566477210631426,-0.3618701284918264,-0.3313092621402909,-0.37628827679407895,-0.39298408227538584,-0.3491632099806772,0.34285381405326265,0.3425821111708973,0.3578777045305519,0.35438232524503976,0.33979864067510923,0.46555966840501384,0.4572229421856677,0.42569102627083966,0.45402153975707316,0.3630155651532718,0.25852312832962665,0.23952958480163533,0.24084836803126608,0.254159803760603,0.25969588095586615,0.26952153315575633,0.14665763943037813,0.2617042759280892,0.1578015377938431,0.19915875113665482,0.018667007769276767,0.22619357513829264,0.22426150229568242,0.27441539641662227,0.05265845119622947
6,1,0.5616208311652763,0.5827061662811016,0.8176111551070161,0.5011023697158752,0.7523859759192161,-0.46433056468702416,0.1415576434264456,0.7654322443258529,-0.05900437018941096,-0.4188710878853463,-0.14932961962933766,0.31438218642208193,-0.2028924898379889,-0.09207991468769361,0.028516022684255127,0.5812399733270357,0.5878801031184511,0.5850012703542555,0.5913712198949688,0.5928653627738264,,,,,,-0.21774220539885802,-0.4110170580890211,-0.31135315834860444,-0.06333836238144586,-0.33475586820882053,0.4586671993734208,0.577970593596339,0.54538967464844,0.46738066400744516,0.5820449461644881,0.0632550456708676,0.09194487553306874,0.01955235592040727,0.09660690353565393,0.020098316972478547,0.46015068961528316,0.2380561029998438,0.5039682557416743,0.6862804499894256,0.4807730003510917,0.5626257666587562,0.5681914760248622,0.5641107063560923,0.5374458712146748,0.5683175828682996,0.12564574445785737,0.1757499719492175,0.04846704254267009,0.09437671164321226,0.13884623605307922,0.4580824682252884,0.5001248736272113,-0.180629798276148,-0.17718252629596942,-0.39024389933358306,0.2783529839253457,-0.014437862925623657,-0.4948520611955085,-0.3743684136224472,0.2907703070639198,-0.29075632772545035,-0.006820616966182191,0.20348977174650273,-0.31123802260549693,-0.4523213762315288,-0.3724166186067457,-0.38012976733607284,-0.387788598236817,-0.3492558260914964,-0.37638565262787105,0.37114011018791193,-0.5756767165874415,-0.12722447910917367,-0.1987601428916006,-0.29305310923155536,0.49926302021893365,-0.47667763506572225,-0.044963376488774465,-0.1224866116356289,-0.26219693804583777,-0.7259200909531804,-0.6878341382335145,-0.6424942587474975,-0.7456635477145206,-0.7509979474419317,-0.04044247005087653,-0.02486003082823851,-0.04002656902268842,-0.0535483071725571,-0.041266587038001123,-0.441339704262528,-0.4395012674137231,-0.4328207915877442,-0.44553453859516146,-0.43930661599014753,-0.4552689118972093,-0.47740267431987915,-0.46971907149822756,-0.4969769728143012,-0.5027482130533976,-0.40806932980995003,-0.42858447115439957,-0.4276409820625042,-0.4113173241890278,-0.40413556929056327,-0.507748454923707,-0.5023782418179026,-0.5072916416915851,-0.498355448001393,-0.5068971375495925,-0.40473050858164994,0.2730999969239276,0.19986952984142303,-0.011722779236899017,-0.07098050553102708
6,2,0.6031064824188686,0.6396123065964928,0.8482223146722099,0.5860063374892218,0.7886014141251686,-0.35739445701054984,0.18701149586750798,0.7090422072495826,0.07514875847217628,-0.28310452515236006,0.023378533756671316,0.45038942251229497,-0.0778833962802139,0.030490496023211078,0.13732958508913062,0.4769723604505215,0.47592352727576537,0.47938976782355835,0.4749364801720124,0.4768123174901526,,,,,,-0.19928587238040563,-0.37188868890707094,-0.28280261372677984,0.03725947697488208,-0.27575207844580585,0.6391078099962274,0.7453005794842633,0.7170970843671205,0.6497311204098134,0.7468569814419971,0.26996744986766363,0.29350850118644156,0.2337699628418437,0.29903127709113286,0.23609187188037772,0.5013552336125261,0.3117373613216534,0.5554303144057994,0.7125513052401384,0.553779100846346,0.5293904746716772,0.5452495609871073,0.529989050563396,0.5267004964703398,0.5489963847440776,0.15068898029800526,0.18438054527463466,0.03894010607391718,0.0955538363248929,0.1447201481333238,0.4654834261984684,0.5127344548334745,-0.028102882277938113,-0.010569278161758122,-0.22506729351709232,0.22317903383006366,-0.03321192497606651,-0.42927392844049894,-0.36692573793574756,0.274799802934248,-0.1585801436295431,0.006940823191789791,0.19038628017829673,-0.1841435404302545,-0.318250988578888,-0.495213212327573,-0.5002828275181646,-0.5053007380899035,-0.4793478362053294,-0.497921337694172,0.24842499373640015,-0.6521516674161612,-0.28049124150487503,-0.3522310959391821,-0.411996508978286,0.38772414682814693,-0.5814517859572021,-0.19888840957621712,-0.26978597079206024,-0.33847981557303863,-0.6334487336964203,-0.5784271510846652,-0.5165987410781367,-0.6627643392843319,-0.6746896336005324,0.15152789881000062,0.15511673382562696,0.1545136440836522,0.15274101547146646,0.14089925097384337,-0.5260421816803036,-0.5254100045471288,-0.5200143818294114,-0.5281337408004187,-0.5234048663457496,-0.5272261250234274,-0.5486937070087565,-0.5453375195125314,-0.558180076101614,-0.5496911638326769,-0.536620217419264,-0.5495809677343626,-0.5493293882737222,-0.5380671347348713,-0.5333047473356682,-0.42791446499981345,-0.3951244299885477,-0.4260823731223733,-0.3878378975873569,-0.40994311315214493,-0.2549155618300858,0.3048930519177877,0.2445189553394319,0.054107307803798244,0.039615370562877894
6,3,0.5476875908062653,0.5855107955264166,0.813445599749812,0.5396391188451453,0.7465242914643758,-0.38696405460110994,0.13989745152550248,0.7516528159445405,0.034472416952158524,-0.3172298765777415,-0.04146898448790326,0.3958420347897378,-0.1325801890033398,-0.04119093189783363,0.07078794616902695,0.5416755775511456,0.5413650768714131,0.5445484477235834,0.5410365353365871,0.5429095159570055,,,,,,-0.2487420774096918,-0.4263788589273316,-0.33028716303823114,0.020842860907898997,-0.32210808721498996,0.5872670461712932,0.7047828329901296,0.6828558007567996,0.6078980873354554,0.7125211598037507,0.21098343393281926,0.23297912460207626,0.17706849400061941,0.2383216677220421,0.1788916895927979,0.4416038594188436,0.238977234322011,0.49465042347048627,0.6672886497411321,0.4901081330439161,0.49114745469391863,0.5040420379399293,0.49038624877187287,0.4794406617450301,0.5064360798217288,0.1221979370395041,0.17412924553667364,0.03928941456049051,0.08293832805194512,0.13070806908470733,0.4972329958211734,0.5447973561934283,-0.046288751485128454,-0.030101028019027032,-0.25918145294308403,0.24766371155770228,-0.0381243851200308,-0.4619938813443447,-0.38832241412510893,0.2936541592562374,-0.20216590978144566,-0.016765369091156668,0.18237922276669338,-0.2242969267353354,-0.36968122134005377,-0.44822032815686863,-0.45345095117922063,-0.4585955613743915,-0.4321418796060166,-0.45101143118493514,0.2930680441974777,-0.6555228281031833,-0.2491488425138635,-0.32952238690058633,-0.411900279925153,0.4251471863732188,-0.5873170037305968,-0.17453052061462837,-0.25853363831357323,-0.3514882336913001,-0.6381721892186485,-0.5854205928688498,-0.5275965132894114,-0.665801592384041,-0.6753363695359536,0.06848014967053029,0.07117240890727994,0.07212874552343429,0.07282736310624482,0.05700173412968035,-0.4770230103398587,-0.47632142238214326,-0.4707654451587955,-0.47937161241309534,-0.4742511660920483,-0.48197384541199284,-0.503504814773948,-0.4988265971988777,-0.514666485934842,-0.5061883328655332,-0.4863601271249016,-0.49954956187850463,-0.49937989684143735,-0.48784192905103074,-0.4830361166471402,-0.42018817681146015,-0.39261331086191054,-0.41857731677424836,-0.3861623741522058,-0.40551963988929507,-0.2711335946100455,0.3409462867950106,0.2758973956702404,0.07525316491594036,0.04751963742063858
6,4,0.4909212090794153,0.5264918787541811,0.7759596110342952,0.4766922284637133,0.7022517083191868,-0.409438516021847,0.12579179552739528,0.7906220594679261,0.021854618285830574,-0.3439535073796589,-0.07597170501311479,0.3675131857766121,-0.1617374742863915,-0.08558495577401204,0.038840734660762766,0.6010260520033179,0.6005076796819785,0.6038004686775313,0.5999346416494549,0.601806299363248,,,,,,-0.28210535000232495,-0.46733421693285315,-0.36498726922467273,0.021460332996873444,-0.35130289515512825,0.536379865995213,0.6661638310889277,0.650210210004749,0.566367717143144,0.6786623620866786,0.16008744809324338,0.17835601595837258,0.13258819751514328,0.18331138127153934,0.13486738568027634,0.3818488534944622,0.17076929605094993,0.43550555685842807,0.6228211414702959,0.42743412493641175,0.4450647397811841,0.4564371491512116,0.44638727644754383,0.4303784710526053,0.45861915411614174,0.11131442102828748,0.17510534206756,0.04958740719584076,0.0849090139074874,0.1317133018467398,0.5325098093277022,0.5830841475492734,-0.05328846776827656,-0.0358246791033372,-0.2828923564794774,0.29460185376613857,-0.010236490397751208,-0.4623084738535428,-0.3735645857837073,0.33954251619668785,-0.20670657847160379,-0.0038897743047889843,0.2057639232643914,-0.22962705336400102,-0.38122108952150446,-0.43248991190883634,-0.43759761664697794,-0.4426511444281154,-0.41672990442716373,-0.4351958060113237,0.35168938984412745,-0.6351941747235927,-0.20754258427477557,-0.2921484602767761,-0.3917732580351472,0.47622647130112905,-0.5755713882952018,-0.13904185734695473,-0.23133780628465672,-0.33657454661858566,-0.6245254238016573,-0.5740208443808033,-0.5179980868059051,-0.6511191114796813,-0.6607831247522968,0.0024773266472883915,0.002059497236767349,0.006560461383796845,0.012279975768958895,-0.012109236612489305,-0.45960500774438406,-0.45889839430230395,-0.45425298965852523,-0.46219085590222253,-0.45752631837426705,-0.46230168409065175,-0.48310222105795253,-0.4777587802595249,-0.4944526471067454,-0.48639181453678826,-0.46642580904130515,-0.47943758717748874,-0.47921254851739237,-0.4679838314199398,-0.463289009828447,-0.42458840319653834,-0.39733126849366673,-0.4229033141490359,-0.39076327361526086,-0.4103005576010015,-0.2701761454174125,0.38776629669067686,0.31956430315980044,0.10922323408643331,0.0732832450930625
6,5,0.6633745781499331,0.6966407673630767,0.8823526137075157,0.6407935426054542,0.831046392291851,-0.40776310427990525,0.13796317734231245,0.6639175212735242,-0.028128624626911014,-0.34493981149831376,-0.06286035797276868,0.3704484752411521,-0.14559360940395827,-0.01019188173880825,0.08057080231407843,0.43485149296314196,0.43985775173595276,0.4388757852524171,0.44290262364069455,0.444598345011882,,,,,,-0.18614115493091044,-0.3523877500423236,-0.2693332014597347,-0.06293219796220528,-0.2967381650621994,0.5964413500908434,0.6892487158838493,0.649411447607642,0.5912086294885637,0.6856907326320334,0.22581267519783754,0.26023414745134865,0.17047905737704117,0.265430559032932,0.16957031950702495,0.5683138035353399,0.3708994662561088,0.6146409777002594,0.762771907346601,0.6061446342953585,0.6276379197178275,0.6382852388306629,0.6223612065819081,0.6106070398415726,0.6394010628575258,0.15468234120192836,0.17024815930639392,0.02247016181580852,0.08908231342852269,0.13899657215955963,0.37511089203029757,0.41427893053831566,-0.13913058412537183,-0.1318206022469035,-0.31194260407416174,0.1486508070252024,-0.1053924852074366,-0.5028159743718859,-0.4257983033931765,0.17657936561547083,-0.2675053175748312,-0.040518310521996614,0.14671335497479865,-0.29146373818439875,-0.40708379307750087,-0.4007230700897608,-0.4076878116875704,-0.41442612516720967,-0.3800154046381903,-0.4043700534610555,0.21747373710680873,-0.6440760584919283,-0.2667788251542311,-0.32247858142104247,-0.3727759435757818,0.363831944138985,-0.5348730220760873,-0.1746886452917169,-0.22566380024351473,-0.3217295653250898,-0.7206532425816192,-0.6740412539894032,-0.621842092293523,-0.7438194580244213,-0.7513363174994296,0.11833305146853346,0.13571595451419316,0.11909352860122047,0.10036819884482284,0.12062337179615401,-0.46917934174478715,-0.4676274947751795,-0.4599015486212088,-0.47292721620169464,-0.4652245651637632,-0.4931267592186901,-0.5159576143637479,-0.5085623067864982,-0.5329399961770318,-0.5304445540641474,-0.4479185020439591,-0.4657592511951374,-0.46520556975272753,-0.4502710093572535,-0.44384042445063576,-0.4693983789152998,-0.45621196074638526,-0.46879610390121473,-0.45206773250101717,-0.46333862614923627,-0.37437612577852697,0.18357084444822358,0.11870921596804274,-0.07064822589023989,-0.09988450967975626
7,1,0.21949571506992593,0.15594923938846095,-0.22715102045197844,0.07485819945095251,-0.12343040499837032,0.9223931301194137,0.8406689461701884,-0.2735135216541935,0.8173619212884295,0.921822850677101,0.8705598566855668,0.6866782729612609,0.9430105100319874,0.9091084017681637,0.8772198043357664,-0.43676670015346897,-0.4393579718778198,-0.44119605814301566,-0.4425220510174763,-0.4448703748235321,-0.4038809137706978,-0.31455032373484326,-0.3681598302668261,-0.4160180374945288,-0.3024009212071861,,,,,,0.28300903372737896,0.06356546137518049,0.0011505358738627125,0.1634476255267504,0.025164900725687556,0.2228284185666115,0.23987208104874191,0.2124015128357296,0.24981464466274184,0.23125483027323868,0.18091091652172486,0.35598946676013543,0.19813017767408092,-0.12847830218263057,0.20379227453001947,0.0598001717937251,0.05904853554382006,0.05944314276704932,0.10383479824157471,0.05553227409806061,-0.4141867233224894,-0.42622816793408447,-0.43751720015323636,-0.44308155064135657,-0.5028800454559192,0.03363673050513449,-0.09379352675910457,0.7105903203445332,0.6812223947566027,0.8853672228733749,0.014993632196979356,0.4314110160785707,0.8612609097367664,0.6806463226140893,-0.0724923633473622,0.7229322531308068,0.06733871447718376,-0.26383921359782647,0.79287411458079,0.6557444323466273,-0.2750979639194051,-0.2750330867531028,-0.2751798962911458,-0.27537428235593553,-0.27524762305483375,-0.40127400845164507,0.44721248987620166,0.28734891750110236,0.1735621128062047,0.25462174958575157,-0.4788758334036993,0.4312934001601463,0.24395173021746785,0.17090246446059987,0.20835760629368605,0.550146098403016,0.5678980109638819,0.5700095377260189,0.534825975482563,0.5654861221288324,0.7042023314964483,0.7070049868336871,0.7063615400287641,0.7005187086851,0.70741880955451,0.028751033840672124,0.02787397772877631,0.0749326897178706,0.0628375976534411,0.05162187989802258,0.20160261266704094,0.1912089754759625,0.12719196543496847,0.20663089571582005,0.15510564112629854,-0.23508553079063477,-0.23536513736876352,-0.23621100481885482,-0.23569902070314752,-0.23589503875041617,0.7842909259132625,0.7809698629398172,0.7809414062108088,0.7783409890492718,0.7810389914272774,0.745330132738609,-0.14228509277132395,-0.05533943413027553,0.22955793651852274,0.2472112681237678
7,2,0.3351579442220529,0.21946517760217987,-0.32563874944076865,0.028987112829488737,-0.18808973631585513,0.8588581337143231,0.6582507528875072,-0.5507155204822669,0.6512278631362707,0.9060237707451083,0.9269392808653959,0.48822309750631177,0.9103446462077741,0.9527403187972266,0.9133380343092403,-0.6827624316007399,-0.684317812297595,-0.6850772736705979,-0.6856145557563833,-0.6874053421434221,-0.6217132387120583,-0.5135092231613587,-0.5757187543879652,-0.6318426403897175,-0.49490320627559403,,,,,,0.21162783358618942,-0.07662096960788589,-0.14692662746997853,0.053001393254887175,-0.12300850001681041,0.37336822122164015,0.3868360419987831,0.36715809728616455,0.3939921434821081,0.3788888184030498,0.22665162129505467,0.4624166695607921,0.29680271948716097,-0.1573152043497661,0.29361944093354353,0.12023476873331873,0.11908665641390603,0.12230966703428103,0.17804745019847923,0.11596290014875643,-0.28001235114293777,-0.346108150236232,-0.3525135530960173,-0.33311095969767757,-0.3950950056120679,-0.23884633658476595,-0.3764898275614261,0.5554815880898603,0.5091590508255434,0.8706015240368545,-0.2656139231357535,0.17923781728528176,0.8219483357861492,0.6128452905778149,-0.34304628814162363,0.6809146450371354,0.003774017013260633,-0.3824447618506188,0.6921656536345969,0.7377887548782668,-0.14272109393397958,-0.14222936211941084,-0.14191965331597345,-0.14304942192012082,-0.14213151471035435,-0.6191903378228059,0.5531239804122045,0.16240631344781598,0.12467273639543797,0.3480129953866158,-0.688625692623885,0.5667102547154497,0.12754602360001344,0.1648165249093384,0.3163794222731706,0.6435902766764909,0.6543215668752946,0.6568221253199066,0.6312130093268231,0.6532302496335932,0.7846530320320325,0.7902273259841343,0.7818935735097376,0.7802766979927315,0.7906860393399539,0.14098796345449305,0.14130018397504185,0.1870212044009918,0.17206182984541019,0.16589543320370903,0.27666683443982887,0.2688093569442145,0.21754895978561417,0.28359214848997594,0.2437063765298484,-0.1125782518093208,-0.11376160851433359,-0.11331433645045341,-0.1132788614178637,-0.11325680690728501,0.8019852043239455,0.7972506003770164,0.7926343240047472,0.792348899340929,0.7968440883123344,0.6652851458786264,-0.39844454972013876,-0.3092192381446246,-0.0015129730560159427,0.022489901739318197
7,3,0.27243307202249434,0.16736277330698868,-0.3183122920093775,-0.006224237872326954,-0.19570761165087713,0.9180043437109778,0.7633242789529943,-0.403714485086883,0.7704178946388902,0.9520219876270042,0.9563145689720252,0.5982721629212505,0.9653182585546206,0.9627120953301,0.9458409859877425,-0.5635220790851259,-0.5646977252331666,-0.5652900706938957,-0.5660708093068787,-0.567956557622896,-0.5237680188592662,-0.41539740640635614,-0.4763622291587448,-0.5313259178044993,-0.40236393338161536,,,,,,0.259598867851085,-0.0031513770563700305,-0.06861564663083763,0.11726187856892056,-0.03969544429376315,0.34354516716456507,0.35936121290563316,0.33362694125450876,0.3675954662151667,0.35212240431936226,0.16223390948799365,0.3752730503901869,0.23701637206402693,-0.1787679569014664,0.2367076877593639,0.053999126211984994,0.05235175194040875,0.05527262114737286,0.10501459352169129,0.04937317359330107,-0.3155402587856626,-0.38270963458551677,-0.38543114542630064,-0.36986475475863534,-0.426197619967255,-0.08336684903083635,-0.22529606931464108,0.6602952733524431,0.6187835622417862,0.9109392368116408,-0.10177507401354391,0.3271893668606528,0.8793188567173605,0.7027932028160025,-0.1768135907089592,0.7735524664204885,0.12117292395759893,-0.2543364139442028,0.7901290040015778,0.7730821406891157,-0.2665589019877108,-0.2661903004946049,-0.26588791748416263,-0.26708503520348814,-0.2660873189844215,-0.4858610726436714,0.5422726059492156,0.22998742400489613,0.18317379049253302,0.3581103084502193,-0.557043955622724,0.5375259253423534,0.17264946366166356,0.2066808049570601,0.31914644310707463,0.6694501461090688,0.6843146930317842,0.6866938218871276,0.6577283692501413,0.682031772243891,0.7529414096949497,0.7566927219499094,0.7519134696802806,0.7506217956264214,0.7563912035036753,0.04581606236799762,0.04630071375069089,0.09881120299435042,0.08113645908197953,0.0750213934036138,0.21022957717123103,0.19994418143198855,0.14042220974532071,0.21511860517920656,0.17240656218501293,-0.2282870336210956,-0.22941581896974284,-0.2291362409945772,-0.22910100417880708,-0.22911715128889898,0.8362294942434717,0.8313158482085008,0.8288767309944045,0.82889693274848,0.8310300769700893,0.7511898927924279,-0.2453926443133021,-0.1537341022233043,0.15078422529330404,0.17470125251313595
7,4,-0.22414800838969096,-0.21893717417017156,-0.18484722497914796,-0.149064766160675,-0.1930676981815087,0.8388096615044329,0.9142699411801838,0.43814495685724664,0.9575533818151801,0.7741254331531168,0.5632135485041501,0.7992206498595928,0.7714190761968396,0.5369018928108864,0.57247025662339,0.24612865314386945,0.24552205933970273,0.24489437395766855,0.24257527265870626,0.24047723725974735,0.11923080057681212,0.17045582003350135,0.15064784913516893,0.13088909479636635,0.15038394867917504,,,,,,0.3160634996375711,0.29370007471760284,0.27896280668432694,0.3201750645991279,0.3122135438266882,-0.0397170939845084,-0.023346938999667444,-0.05937255056048474,-0.01328337995350437,-0.02906031309252155,-0.2511257422329183,-0.22789994769673672,-0.2635912642863205,-0.2975731787369793,-0.2495988067058783,-0.3941199129123367,-0.3965120087394607,-0.3910892507481516,-0.3790498809677709,-0.4014006619994357,-0.5750006013982598,-0.4614064021779458,-0.45079367289271755,-0.5207492147259056,-0.5586862051501948,0.723985367810813,0.6180195746443177,0.9603893011593088,0.9667276844506442,0.7748999051246275,0.6595681876252806,0.8438676259510064,0.747850501497756,0.7151373210090552,0.5988304908218843,0.7754242791306827,0.2578652548717606,0.11835168161419884,0.8862446389949064,0.4490656236989453,-0.5850328806611362,-0.584446456782342,-0.58436644471867,-0.5855479771528103,-0.5845226908366565,0.22834239900466013,0.14240669242200055,0.4293009830232868,0.2292674835030306,-0.0008533697324952794,0.13505177538894375,0.027784261114019104,0.27437969664323236,0.09187305403577661,-0.0950439030094572,0.4880670567501886,0.5152275996061628,0.5140240800817506,0.4738205200697603,0.5096525417547157,0.2521699792863885,0.24532837359885407,0.2603991588142006,0.257407243786658,0.24259197174783387,-0.12428687707790509,-0.12335253208941865,-0.06245379301673881,-0.08295450720676523,-0.08964076836927393,0.13542016306495985,0.11205095550308741,0.03708341208218535,0.12090922066495335,0.08354371958109263,-0.5146457241437212,-0.5159759420894114,-0.5161498619290616,-0.5155262918537704,-0.5158832340258539,0.7257280117107039,0.7265263250120124,0.7360896986119266,0.7343071174664392,0.7279690924375547,0.8930081491038431,0.5963584959501056,0.6663386628249703,0.8467663907006268,0.8556069110521183
7,5,0.1415821854488195,0.0642636083251118,-0.31687205675583163,-0.02973939894731603,-0.21873385945092472,0.9745577769818202,0.8542509173356148,-0.23787013043787253,0.8603160152403094,0.9759825140149267,0.8915419359105567,0.6744469306164856,0.974466624027184,0.9082405957517204,0.8855431005518015,-0.41067514982658615,-0.4124057696457428,-0.41355655216168374,-0.4150976123402692,-0.4173687301906821,-0.41906283315558657,-0.32113903030311297,-0.3741558629860875,-0.4225571833977404,-0.31421302247163263,,,,,,0.27295216368301833,0.05260407159578784,-0.007067681149018679,0.1574708384806447,0.023617939730009918,0.24760394171720868,0.26366905620540293,0.2355176874644187,0.2728389738160333,0.25536559206010323,0.06903535750102086,0.2533541125987422,0.10164668543516775,-0.23906699644703688,0.10638769272962911,-0.0781324966316117,-0.07982966699284755,-0.07530375554462188,-0.028123481708065334,-0.0842052340373487,-0.4439326065167506,-0.4410559531371032,-0.4411300383218131,-0.4572291547940224,-0.5198943009158101,0.10919231623700076,-0.03405850486048001,0.7960729279542035,0.7656798955095143,0.9523671877189822,0.06466659220840032,0.4739448753100659,0.9087704829828763,0.7378871025955911,-0.020657580950268706,0.8072847689019942,0.09017744693800867,-0.2504405087499695,0.8676685648604469,0.7177110964314684,-0.3229972403352246,-0.3223686551515512,-0.3220942233400095,-0.3234205830452679,-0.32231756462988437,-0.3732701905001925,0.462242632078502,0.2919406560783506,0.18076189842502932,0.2456397675138302,-0.46575407746739916,0.4250888767637848,0.20471248835505396,0.15120556299596166,0.18194186772869236,0.6652634664601464,0.683677433190097,0.6849179018635995,0.650034232864659,0.68079606660971,0.6780715688492467,0.6791662697050561,0.6796296828648744,0.6760374812851726,0.6790935595191393,0.07436594602880187,0.07495288702571012,0.13230904303890956,0.1134481642768217,0.10610842638311158,0.27739729073287345,0.2626194229169141,0.19492652933311938,0.2768646656546193,0.23232180065128438,-0.27222211276289254,-0.27367177113583097,-0.27339063889934634,-0.2730860339670409,-0.27322367366269296,0.8799075290129167,0.8772601086664323,0.8780922971147803,0.8764708892970369,0.8777238102747691,0.8485819824709582,-0.061290799926355666,0.03283266958148745,0.33473513484708917,0.35509806422583967
8,1,0.7081685544234755,0.7671307974646455,0.7536006404231465,0.8104575961032895,0.7960048605104763,0.2720698798982405,0.5549302810982145,0.24908037283927187,0.46750322368940256,0.32978852953668136,0.4675003181225119,0.7844467222091519,0.42406384324048174,0.4866725835216871,0.5208794728581669,-0.11311116716113623,-0.11060544936120276,-0.1092166511773216,-0.1111138949132704,-0.11044188392674514,0.5658271259389207,0.6948919988179004,0.6277604516788823,0.5541408797035223,0.7216077063290808,0.2950001975146448,0.20471709255316983,0.2633665732543711,0.34008018522203654,0.2795079996414558,,,,,,0.7421686912235117,0.7516646041341095,0.7338532674820435,0.7598294506836263,0.7475807044848549,0.7216351603140913,0.607824322857968,0.6979434070174801,0.7330583314119301,0.713692343006617,0.528843233990681,0.5214964432466441,0.54696693283042,0.5501600831935003,0.5142931672869916,0.15344296270630542,0.13249544158901827,-0.044614638968028864,0.008829137117884356,0.05754707270634429,0.2826627180219119,0.22165404537406364,0.4131959997999699,0.4096702590210548,0.3637910569132278,-0.03783848876487106,-0.07395472782710932,-0.05322387624125291,-0.15530104035292025,-0.026237832203623856,0.28372156364096335,0.030332922124468698,0.010132905867618391,0.2740119043037499,0.12981395282527886,-0.7616715281538213,-0.761356480745959,-0.76185850937235,-0.7603106108661069,-0.7617862657226517,-0.2586661870446667,-0.6097521892198743,-0.6477463203897553,-0.7080383553477256,-0.5816296103403817,-0.15442311206167658,-0.5559151687496655,-0.6432026559854158,-0.6433421310882246,-0.5155584716734212,-0.19655923961444577,-0.1752427499712481,-0.176918578121801,-0.19935218336130567,-0.1834082362057421,0.7036921192151181,0.6939617918073581,0.7119708821087968,0.7129296547959338,0.6902963115138949,-0.6553559059216632,-0.6522898228880869,-0.6261410979744007,-0.6404025753323834,-0.63823618684443,-0.5004813566457678,-0.5362029855484733,-0.5666872205991087,-0.5348035384138223,-0.5274327126186553,-0.8069464483190298,-0.8065300485473763,-0.8065574872866257,-0.8062580629409886,-0.80615761770584,0.04899741775196975,0.047098103104163846,0.05684499752534333,0.0598661397530551,0.05342775678321554,0.14715389727311856,0.05908105020777621,0.06831705130796906,0.10629361158813411,0.11193540775741995
8,2,0.5571856210426834,0.6602056548487565,0.8386950072659044,0.7837298923562469,0.8327414527164173,0.096839798540722,0.4764497924023561,0.5049042595362291,0.39042942270191894,0.12248663617745437,0.2205058168836207,0.7473099822824809,0.2211314769644881,0.23362284301097214,0.28466833546357506,0.1759636229937559,0.1784334616454467,0.17967772841731944,0.17777065833346595,0.1786135269922403,0.7890272298203845,0.8798625127258028,0.8341064524497277,0.7806233958864207,0.8965568463316304,0.09200107575156913,-0.06732093017641794,0.016772770781774193,0.32957577628960766,0.07526287947895571,,,,,,0.5669506392308337,0.5747946421901402,0.5584328558718686,0.5823995970728102,0.5721243334496556,0.6132639225608224,0.4199940562717426,0.5580872691597066,0.7472478813360778,0.5768191044493117,0.4514754010319063,0.44483651385561285,0.4675433204436701,0.45215833292325325,0.43830704525683717,0.14189321171691904,0.16747343407709636,-0.003380139348694522,0.029637080649591807,0.09111074034501931,0.4683751860501839,0.4443511042969229,0.3566696638614357,0.3715995800279597,0.16430573197263554,0.16886365932198344,0.018951726253075507,-0.2201106025412578,-0.25286094347334265,0.1938380326894077,0.14587373722918473,0.05976903086842955,0.15396815830296706,0.1592483271186964,-0.08287293379353389,-0.758374797588032,-0.7583445584522819,-0.7590970967273649,-0.7569653633017714,-0.7589211958337998,0.006721052459657484,-0.761119573879117,-0.5838501687099447,-0.6755644923126944,-0.6810112263932551,0.11757282825895143,-0.7288254705626944,-0.5755212635735938,-0.6444299485338254,-0.6176330804960215,-0.3691749766385086,-0.34761349592858526,-0.3500706498776007,-0.37061954874564096,-0.35588801197178954,0.45719153828902237,0.4453738510508929,0.46806871323385857,0.4682486117503587,0.4410166135916269,-0.7034854912236073,-0.7011451562870765,-0.6851698850253494,-0.69434637232174,-0.6932862048617725,-0.565836567183228,-0.6001120153317732,-0.6238242801270206,-0.6018768234952616,-0.5908285005101481,-0.8032560792146093,-0.8022269840983844,-0.8029151322306698,-0.8024094012221303,-0.8024196744183745,-0.13180047955416296,-0.13194007925737083,-0.11946907291006048,-0.11722240516054705,-0.12565664321572378,0.037804991811126065,0.2831054718901873,0.2712825623038315,0.22733264294722755,0.22487161562515834
8,3,0.522073476225443,0.630377797926917,0.8476675082402043,0.7625241650648619,0.829845387458131,0.04679747454878436,0.4419722154215322,0.5588059325351581,0.35973466929156583,0.06942730071338832,0.16062361847301487,0.7234046019057728,0.16705187469955018,0.17091231904206117,0.2263844210515027,0.24592369992479735,0.24846328027024744,0.24983605360213823,0.24810986258919077,0.2490309584526692,0.8324960850162954,0.9131735325824416,0.8734607224248633,0.8255549739049589,0.9262875701554202,0.03395599155075135,-0.13333139784373715,-0.04449408685895495,0.3180256819694822,0.019863454966552507,,,,,,0.5168167473099144,0.5241672091150944,0.5085178491121539,0.5316430271217857,0.5216050623620773,0.5763790968571572,0.36678276349913697,0.5200305278930089,0.7383457896661146,0.5378799661406872,0.43040373317054215,0.42408529110833704,0.44597652033462887,0.42617673601654715,0.41765874523452595,0.12622658565492773,0.16929818371801164,0.0014513405261328272,0.026647968591952287,0.0892925179182118,0.5067425635701752,0.491953661484384,0.33660955971881923,0.3552422510897013,0.11429283937548229,0.20995197665246712,0.02966870881921102,-0.2654990538215718,-0.28564392499772673,0.2387388648826949,0.10047344894310783,0.04703643063354035,0.1699190426896845,0.11875953985812893,-0.14441582136050468,-0.7414776506328886,-0.7414793472391348,-0.7423192611924325,-0.7400313077782372,-0.7421197582791002,0.06517099746172672,-0.7923849185136336,-0.561329305172328,-0.6670338214454805,-0.7045191686016943,0.17627548753422406,-0.7655882010520649,-0.5516224110200758,-0.645476709166596,-0.6426975850331349,-0.4069683677083664,-0.3855896577629978,-0.38820302809821694,-0.408599893769503,-0.39372490753532885,0.389567509278428,0.3777709009045547,0.40066525427115707,0.4013283387244626,0.37282253506680785,-0.6957585037345821,-0.6936997192447771,-0.6804727657781231,-0.6880656516674208,-0.6876203438002801,-0.5633479478804082,-0.5972554300309385,-0.6188152975398102,-0.5996762563319891,-0.5879362691571681,-0.7855877542609986,-0.784421164788728,-0.7852751479959417,-0.7846984676754778,-0.7847388787030156,-0.1690127565120949,-0.16884609385472427,-0.15634252614766142,-0.15400005026068952,-0.16279593266843628,0.008815614896601653,0.33348818970010563,0.31659931505807937,0.2520039034634176,0.24791696085207815
8,4,0.6229370595883708,0.7056625106551593,0.8012650990779123,0.7934815817805785,0.8156132261406446,0.18473499589326658,0.520764868435151,0.4042359519348834,0.43671492524508215,0.2258638661419936,0.3360959813135347,0.7743573529350155,0.32016392233738444,0.3508187195089201,0.39508833835910906,0.05669403428125219,0.059281538856800875,0.06070161909468452,0.05878400105746273,0.05955680745496961,0.6992092269257797,0.8088304665830045,0.7533633200566812,0.6903606022837744,0.8291195687899754,0.18451892051969865,0.05487562718325978,0.12983421832649533,0.35041897689910806,0.17285699737529114,,,,,,0.6498715461049409,0.6585090557229362,0.641176558853652,0.6665104224701203,0.6549677085177878,0.6546157745251163,0.49503455819912756,0.6143184615616385,0.73522934009468,0.6315177083459866,0.4749115268829056,0.46783183670065265,0.4925501802595822,0.48562206488403614,0.46068520727103757,0.13188314305225246,0.1451284092086338,-0.029737076016879138,0.008936614611438909,0.06390264710804017,0.4054471895843226,0.3626615409963574,0.4022395859325507,0.4091354400939542,0.2676073273956594,0.08616592371506082,-0.016116957978332902,-0.1425431465526672,-0.2091367948483236,0.10490533413810654,0.21565017048203483,0.03662921952909448,0.08125454545115796,0.22068457110533102,0.010737866942371999,-0.7720240575277582,-0.7717699916170351,-0.7724125572324851,-0.7705987303880883,-0.77229624143988,-0.11005411696597167,-0.7055477161416364,-0.6153202880810036,-0.7016138919056614,-0.6549798016693686,-0.0037423342887679123,-0.6668405312191756,-0.6138644409956013,-0.6610063649017723,-0.5928548895503694,-0.2843369608148527,-0.2623578555344501,-0.2646084540279996,-0.2869410756323907,-0.2707120543996473,0.5689905931852055,0.5578738571615061,0.5787873969549532,0.5796572043180014,0.5535510853833768,-0.677591720240994,-0.67481318389618,-0.6528277498537309,-0.6649685832130385,-0.6633248400386811,-0.5252162834416387,-0.5613666112124074,-0.5892425478198255,-0.561779674978641,-0.5519508877700032,-0.815834548790245,-0.8151907946832169,-0.8154936508609882,-0.8150647291313229,-0.8150265065779616,-0.03576389123800894,-0.03655484090380545,-0.025160755607880114,-0.02242637284811777,-0.030172982256278402,0.10310430081483257,0.20035173979917098,0.19888297610874428,0.19320515813262595,0.1945935682465576
8,5,0.5049763144353041,0.6108468730872916,0.8218401702021277,0.7414112410937044,0.8057351780887201,0.08415633311123749,0.46909954740101545,0.560052416505622,0.3937762674182387,0.1046922518410276,0.18845108010663247,0.7389846802278671,0.19917063244873723,0.19265058065707708,0.2507229967377156,0.2374866986611226,0.2401670704154233,0.24157417657206315,0.2396705650209927,0.2405465478743003,0.8192433889652111,0.9044081523954917,0.8629882613830758,0.8135178786521302,0.9174215974164359,0.05627005393011686,-0.11100633692067174,-0.017190680248093226,0.3492479154884638,0.048936570365257115,,,,,,0.5330479933744238,0.5406199807669586,0.5239071863785987,0.5479953274457722,0.5383546479082179,0.5570937775470312,0.3535056183528984,0.5035421120866188,0.7137978562114212,0.5223081036647854,0.399830620166993,0.39317998941898313,0.4157902643485478,0.3974063505702883,0.38672751445565157,0.1271392996431363,0.1613718138761041,-0.0029106078487741716,0.024063013598427885,0.08672904541524729,0.5217158227629086,0.5003254668529907,0.37024056553627926,0.3878843238209816,0.1486620288696382,0.22624035881079352,0.05735326700649068,-0.22670175473097443,-0.24208520528486632,0.25393669745725145,0.1495935063749877,0.08189819896838857,0.191572930659893,0.1639722199682614,-0.09784227427675307,-0.7688691799426672,-0.7687699423785816,-0.7694932608340443,-0.7675172420897141,-0.7693321648054023,0.0690885023979213,-0.7692781379925169,-0.554546627807514,-0.650282530744813,-0.6841872258895663,0.17640842169009552,-0.7470508973063197,-0.556935355247806,-0.6316319522285105,-0.6262455189866949,-0.36268622851045196,-0.34085055545622955,-0.34351365824469227,-0.3637991707453938,-0.34922591069956166,0.4025095745389432,0.39008795055195833,0.4136339743098999,0.41437198797376285,0.38540099152713525,-0.7021137348617001,-0.6996387792029057,-0.6826423023203185,-0.6925508000552856,-0.6909013640784216,-0.5605208182518511,-0.5951436376658958,-0.6190184376592534,-0.5975094701286296,-0.5849949937529471,-0.8099598874746792,-0.809066764097254,-0.809640005475504,-0.8091588139317811,-0.8091725411021016,-0.1334589223682956,-0.13327627974289835,-0.12030528891799741,-0.11787219648169978,-0.12707506221848153,0.050220209939956906,0.34676090214229816,0.3334809071675895,0.2801271281851201,0.27710329407976575
9,1,0.7131195084861238,0.6817107023320781,0.372368369986781,0.5661360543030863,0.48160642819957733,0.2639125876209698,0.2512298880546715,-0.32878309946542084,0.21526168647163568,0.36949382987934176,0.5765238286308642,0.3758274806270877,0.4089646284762811,0.5571891098261713,0.5653961828683749,-0.6321638020954123,-0.62834878484162,-0.6260962140841841,-0.6276987566080785,-0.6264663085782103,0.022643732993452792,0.18897860065480854,0.10367046112487044,0.01350321316828329,0.24138901575472782,0.24774840401281528,0.3826191599512685,0.3636150672877764,-0.004529490588083496,0.26968292613396216,0.7489680962026783,0.5687117283567248,0.5165738888187836,0.6547173571722424,0.5339730078710645,,,,,,0.65154185293068,0.692025268378907,0.7057058452593763,0.49402406813142874,0.7130964973456853,0.4473068074228077,0.4391502330877133,0.46672998961933687,0.49718542238575525,0.4343036987708686,0.3690009900826079,0.1378443633906814,-0.0008677139619341911,0.12133985531488345,0.1809659666726251,-0.2487336827222666,-0.34385748877777855,0.16933229855884102,0.1340235226389922,0.39120214227702577,-0.5103673418829093,-0.4167753164001389,0.05517768622086161,-0.04033675690500482,-0.4889546441672288,0.39049794227065227,0.11646698081415241,-0.06101062620894404,0.25207894316738244,0.5016485275737596,-0.4018776359159488,-0.40016908606418755,-0.3990362001025156,-0.4012612355498357,-0.39947757617575697,-0.6021625830895339,-0.15541592483836775,-0.7576387491991632,-0.5633726839649595,-0.17319984014156042,-0.5080864612485589,-0.055627222109601915,-0.7646831463158281,-0.41461112669946454,-0.09862603684431259,0.21418778166554742,0.21523598676271494,0.2146940852035748,0.22189350186691026,0.21108869703205624,0.8062293835334015,0.7994644430631759,0.8054310200387844,0.8102727893493403,0.8001969939612248,-0.29708310027936924,-0.29001322248040196,-0.25854123966908005,-0.28609681810407794,-0.266626849449227,-0.23322955474519635,-0.2563402630799325,-0.26033975257706654,-0.25766571046049314,-0.22069634605127608,-0.45287468877384174,-0.4557831991625343,-0.4514990054543777,-0.4528498995960233,-0.45210149139337275,0.1927659716848653,0.19015997176874122,0.19276955407438434,0.1975395211574711,0.19538552767395634,0.10842850950580074,-0.4235162694389849,-0.3986112281750389,-0.27462401461747965,-0.2558310253846432
9,2,0.7192690408054937,0.6876766094023458,0.3756881739430804,0.5710726030003387,0.48573958656992433,0.2774138786900512,0.2688239016650522,-0.32525966556767116,0.232041706658753,0.38301796314407066,0.5906742610059582,0.39353707102334057,0.42458311981090513,0.5717788770875749,0.5809017521903914,-0.6323280310846764,-0.6285383242283511,-0.6262988340351461,-0.6279022356792863,-0.626701123719724,0.02451794618490133,0.19196494614866677,0.10589349870437659,0.015094704648914936,0.24403171946001823,0.2635304996044707,0.3950239214196901,0.37819257386692984,0.010444754692240932,0.2844992618562875,0.7578484926878819,0.575948863632771,0.5233187868976084,0.6627458334069559,0.540934428715854,,,,,,0.6568988287339289,0.6977433301037049,0.7116973232424959,0.4979385373756049,0.7191869630877906,0.45250375850725144,0.44433756214062314,0.471824930579123,0.5023807561021718,0.43945964389555636,0.3645551821397772,0.135205048514339,-0.004024307542752625,0.11778111094223886,0.17633525238591652,-0.24214830039912716,-0.33871472421443616,0.1818733818949272,0.14637157981355176,0.40343589507730404,-0.5039703445885122,-0.40606623222871363,0.06686027512886283,-0.031097210273733467,-0.4835766372568213,0.39990416369135107,0.12012705196576356,-0.06068483267535174,0.2636765287182048,0.5072361785544844,-0.41549011271266667,-0.4138278228406196,-0.41272877461365187,-0.4148765285735434,-0.41315889849782383,-0.6034669361178666,-0.15418992166116907,-0.7523961642390995,-0.5621452551737907,-0.17197538410187496,-0.5096343945377089,-0.0548998234967335,-0.7597511682035685,-0.41342779313924494,-0.09760624929345663,0.21526017612496007,0.2169812064624128,0.21649396886946137,0.22269628011863773,0.2127038672150583,0.8163439923970153,0.8096311416344066,0.8156745224675271,0.8204636541225969,0.8102641069407701,-0.30878397078613995,-0.3018077045144214,-0.269686436697945,-0.29720304596268354,-0.2782010641035524,-0.241074171783624,-0.26447838318405914,-0.26994043094374387,-0.265444292037444,-0.22991069011767684,-0.465963053690821,-0.46878992419536836,-0.46461612358507587,-0.4659367527993177,-0.4652013558021528,0.2008806878240872,0.19811981581718796,0.20078320301108765,0.20557096277909448,0.20333919364386743,0.11908182097690856,-0.4200888822554436,-0.3941621421608872,-0.2673268508863855,-0.24834529414931517
9,3,0.7173336374394206,0.6854316798761788,0.37365611323108716,0.5684396870464965,0.48338283367961066,0.24943212746650567,0.23382892800295163,-0.34016868341162754,0.19635964938452477,0.3562793069057617,0.5666582957610627,0.3599420209821911,0.3954496773537378,0.5487937153107647,0.555166931400453,-0.6384860463251205,-0.6347093730265949,-0.6324673471665851,-0.6340121756770165,-0.6327552808673933,0.017095810583051985,0.18221570187569114,0.09735012532798959,0.007566840472311043,0.235322462224683,0.23761364877176772,0.37656863535453977,0.35398072803042924,-0.02379370733996855,0.25784137681800656,0.7407649781967591,0.5601807770315846,0.5082392663996685,0.6460575943039905,0.5248027579891397,,,,,,0.6559637615507631,0.697195252598089,0.7100042562120404,0.49712563615833205,0.7169847217517753,0.45517932003487693,0.44713113871010823,0.47448395501572926,0.5049559925691551,0.4423364163826018,0.3708423531940749,0.13775108623698684,-0.0015856005614389712,0.1214275423699166,0.18167784053530012,-0.26454283038824133,-0.3576557177696267,0.15161978570857226,0.11613684489190623,0.3783041221738803,-0.5252418290508187,-0.43352048876894367,0.04263251561845016,-0.05391279169414909,-0.5032676830481968,0.375002323987385,0.10540878229047834,-0.06985884564698397,0.23516391209756315,0.49240367277828634,-0.38213656353212766,-0.38042399820713246,-0.379293652592831,-0.38149909649845015,-0.3797341305423818,-0.60905132511011,-0.1548549092078113,-0.761891420774389,-0.5659699937626292,-0.17301205416146703,-0.5139456724685734,-0.05255546152727453,-0.7646086277770121,-0.4147668757273637,-0.09698273506663635,0.20704735221507475,0.20740683296132856,0.20689342413699852,0.21479950855754126,0.2034498061952732,0.8022930665694462,0.795773392097061,0.8013202926579183,0.8061622465800606,0.7965378733775219,-0.28464548311464855,-0.2776268518432723,-0.2474964127402255,-0.2744993800527904,-0.2550377311373182,-0.22641717913212345,-0.24897461811395072,-0.2514111384566391,-0.25044871898852317,-0.21293142203082405,-0.4343620900499965,-0.4372588492552687,-0.4329655388391729,-0.43431943718399935,-0.4335656774295258,0.18242302614883943,0.17985459223659073,0.18218374335395304,0.18690981769080217,0.18501136236872762,0.09201269196736139,-0.43735367967146743,-0.41358494589644,-0.2923377736474202,-0.27374835726687197
