f_id,i_id,2_1,3_1,4_1,5_1,6_1,7_1,8_1,9_1,10_1,11_1,12_1,13_1,14_1,15_1,16_1,17_1,18_1,19_1,20_1,21_1,22_1,23_1,24_1,25_1,26_1,27_1,28_1,29_1,30_1,1_1
1,1,0.3280311170136565,0.3685458706111884,0.17270175396830212,-0.6084083596223708,-0.732453194240474,0.2114424180814911,-0.1588815217594408,-0.2809429592828341,-0.5664770734460922,-0.5277082091867431,-0.601493872967424,0.2190606675916581,-0.021176728510431397,-0.11006212823378592,-0.7003949785571713,0.24835254320147437,0.18396966841779783,0.5621781746601857,0.47818840008727026,0.5802097639682947,0.21628340982280314,0.4592313758566977,0.008426299966388773,-0.026207053570540317,-0.3971944024938596,-0.08885072178600284,-0.16186251218364545,0.1412583728166139,0.6085616226418784,
2,1,,0.17710704565855506,-0.08137187795471457,-0.22708680197873443,-0.25687820086540736,-0.025589805156207346,-0.04640575457260043,-0.062222909447567476,-0.23208131934312481,-0.22857078667471953,-0.2332810704909858,-0.020663997175497828,-0.019685452751704968,-0.003916868233889703,-0.23503852263849012,0.1371398657988283,0.37232605270962016,-0.1937155074569854,0.6600825164983907,0.4366204278065938,-0.15717454042157852,-0.1267962035031307,-0.052844534681459,-0.28524399221410746,-0.23745971000455457,-0.29441346215455866,-0.27684216264769734,-0.04619586700581113,0.11954361628505739,0.5620730607388025
3,1,-0.21918157623186185,,-0.4256891655046233,0.008257458570362752,-0.23915765378512965,-0.5949666560453393,-0.8429087100858368,-0.8314881584221561,0.18244474069102923,0.12376283539220112,0.041763325638862425,-0.6712331975108059,-0.7452923769227571,-0.36683804700935063,-0.12875545208319372,0.9486470765847226,0.47930330103071617,0.17980388177182127,0.8246880998400413,0.8118105675588857,0.385881459662068,-0.2905506311989585,-0.4926421553127158,0.26513821722230535,-0.3179236610954024,0.34353460299634764,0.34225285113009174,0.8691082400897513,0.8868579833636145,0.5277927308880175
4,1,0.2859084531917613,-0.3485741711995285,,-0.7903256117314506,-0.6304422367988616,0.9241579764993032,0.5015849906716096,0.5121132250191565,-0.7535033880102804,-0.7097143305879046,-0.8169771001966346,0.7494997303023192,0.7226176492685692,0.7154677019472386,-0.70581077985057,-0.20137206658198936,-0.07000615916878239,0.6634464733582326,-0.3115649016318487,-0.052006022266509744,0.30456870740426045,0.8616721992803977,0.8777365784223684,-0.07030680243091947,0.38447134787492687,0.3257913216241234,-0.3140128140078542,-0.4337527127771241,-0.029292768556615556,0.3578102163545145
5,1,-0.4523583754200682,0.019147231171914303,-0.780348858136511,,0.9418400641062866,-0.6326801069837011,-0.06569464029089689,-0.059342614154598516,0.9013214871358466,0.8987961154135702,0.9973242550246225,-0.4297858738243985,-0.3740522664874635,-0.5188205262452836,0.9774965048937303,-0.0550433024102468,-0.1204571800181038,-0.6757722904662422,-0.12931043841834566,-0.42276305450965235,-0.4272218066542697,-0.6833689401535614,-0.6577897135420461,0.25911596438424145,0.032121179403788336,-0.07533626104461422,0.17270154357972534,0.11123810834284775,-0.28269809496159826,-0.6489935783454022
6,1,-0.40524721113390205,-0.27003940788370073,-0.6100874849270919,0.9355568199060545,,-0.39133643984658906,0.2164526195145795,0.2168784247934067,0.7576116849338052,0.7711588641203889,0.9302310757445309,-0.14432701795734193,-0.09193671116016677,-0.40156192140001123,0.9501722432383956,-0.3115203167418694,-0.28056786800413946,-0.7131855927755117,-0.3809335039837498,-0.6117994324397902,-0.5389162314542748,-0.598821725231228,-0.428854992651988,0.24361012557332562,0.16240288824510563,-0.10213987282617576,0.05774409455421414,-0.03561365347506107,-0.493068792153027,-0.7689291043969195
7,1,0.28551390527057086,-0.5613541636459622,0.9284478246119767,-0.6507052570184417,-0.4496645358195579,,0.7562965405315245,0.7417934250078356,-0.7503700391022567,-0.7125224749869954,-0.6818217830290942,0.9317039140810606,0.8803238779828392,0.46929636976312383,-0.5779956862639377,-0.42712520137980237,-0.19172728338249523,0.6129924705767823,-0.47484640766779274,-0.19302202095012277,0.02941316342807221,0.7797935588100343,0.8338126656909707,0.046105049457297875,0.4074882633272251,0.34133791098708066,-0.32577317104184544,-0.3439923848553863,-0.10884598074840968,0.2571652728130859
8,1,0.2353539877757307,-0.8274820870448245,0.622575240442697,-0.31263675693384685,0.02261041424366561,0.8157155301314929,,0.9775087140131598,-0.5944703103970679,-0.5512785275576033,-0.332412185602347,0.9117476027592577,0.9461285071518533,0.5240550280204604,-0.15603745128514301,-0.7064595340232078,-0.4387300153056741,0.33116869263426185,-0.7543860433363878,-0.38999522036370915,-0.09838076939886475,0.5482844139770962,0.7501842271465403,-0.16173762951220394,0.32570252972953107,-0.06825444315295903,-0.5517293034987096,-0.5937943071175575,-0.4878368691749495,-0.1597367756622412
9,1,0.20725509116272045,-0.8395560458170404,0.6187093058403575,-0.23415391949111064,0.0905642220970041,0.794951853907224,0.9774224575793197,,-0.5347006640341969,-0.4403050387451999,-0.2658061571051189,0.8934406037372624,0.9121516165781332,0.4671684873455275,-0.11421341244325878,-0.738175033304648,-0.4216151418640126,0.24554227418027486,-0.7403085395580269,-0.6064356189898708,-0.2521900578945784,0.5144445074595002,0.6782064154065541,0.1848636653383393,0.2686742853010773,0.0007060961866256488,-0.457164082698982,-0.7848264162294631,-0.5419776094971276,-0.17987514867566068
10,1,-0.4598222289301761,0.23406151147799004,-0.7037742971111525,0.9021475639080521,0.7689782946597156,-0.7592062103096038,-0.5007467177916303,-0.5266824534935299,,0.9948250061169516,0.9034539564769579,-0.7201930790302409,-0.6723377675154771,-0.5673323110703432,0.8504912462563045,0.02770464145949858,0.1520230851726646,-0.5120056177902912,0.12255322700156246,-0.11341668148236872,-0.2048070720387165,-0.5986102668281323,-0.7324944819548613,-0.06445298617552897,-0.09268475569202539,0.07524406121361715,0.2749527788534025,0.43938147855962584,0.1993632121846638,-0.4715219588642936
11,1,-0.36462597157813703,-0.07572958734914037,-0.6225698741426537,0.9030790355031355,0.8027036514287772,-0.6362275396017782,-0.15416306633668042,-0.2275167252017103,0.9965791966107092,,0.9056863635377344,-0.6074558196381685,-0.5325246476848773,-0.3974857387607824,0.8634181403257547,-0.17319103510773348,0.12482066459958374,-0.5982448298868357,-0.13664120692973758,-0.3762921834182049,-0.30260510455205347,-0.562552302533956,-0.6136550828702503,-0.20922805723075766,0.10420224438969217,0.04965204848596838,0.1475894129489832,0.21253266569893203,-0.17541674553480235,-0.5493041083909183
12,1,-0.4544830301192564,0.03427445614396496,-0.7365420047805089,0.99515947391823,0.9293209190459479,-0.6354218383730112,-0.13994543459675235,-0.16535874543996143,0.944740152825397,0.9204550311405163,,-0.5733353356220112,-0.4794021408343392,-0.4524502266946344,0.9493949763772997,-0.09182232791244838,0.0527977856076155,-0.6095269631610325,-0.07972401666261342,-0.29556672635792425,-0.26267525931968594,-0.6198392099477621,-0.5598145972372977,0.11577756550849083,-0.0038388724949522945,-0.11570137075183173,0.41277192811128127,0.13831221694856755,-0.08677289840358915,-0.6338504637753486
13,1,0.3024222882833828,-0.7250524988982776,0.7817781183519392,-0.4579335999579597,-0.17129043093065333,0.9262660941555274,0.895086144641663,0.909235153409923,-0.7159721407365638,-0.6625470115936722,-0.4960486798291952,,0.9728086330896593,0.4844199325811047,-0.3445374761451907,-0.6074892569032389,-0.40985511280115783,0.35344602403720116,-0.6333642099986732,-0.3731739528469613,-0.1204854945504985,0.6851955701532796,0.7534023728470078,0.18978250901867455,0.3258344218238346,-0.029281577077749477,-0.5195135085382832,-0.7413255005118187,-0.41950556400416383,0.05084173204663622
14,1,0.32504929853354947,-0.7484978568701515,0.7789699546708416,-0.40652927779254844,-0.11724443672222162,0.900966627254394,0.9097192720758858,0.9337766034784211,-0.6485894749388539,-0.6050633504839191,-0.4393100149386002,0.9667981343720751,,0.5420920771082105,-0.28515901136197486,-0.6611022677727494,-0.33149330030743074,0.263896933911659,-0.6605427542412801,-0.3350899045829996,-0.11998665481667947,0.6767706235883669,0.7559537254111106,0.06596663346563103,0.24611673462617523,-0.2313688671438474,-0.54583378315361,-0.7744227235816803,-0.4829477501660655,0.032560254088046636
15,1,0.2649157766904122,-0.2798743197811917,0.6535149555360502,-0.6027971656787425,-0.4618047309148452,0.5088075720675311,0.2817889087838428,0.3149043351820675,-0.5156931326484362,-0.4647246557801157,-0.5728105680203472,0.3713051151247653,0.4430580327685547,,-0.4440345073347809,-0.07841325539595911,0.04109714706233181,0.40707156296680536,-0.20511609229624583,-0.09345076351740578,0.49281659349370277,0.4473197155622475,0.7403977395435244,-0.2005756724766541,0.6415490632692666,0.2629226796985975,-0.1358342107136803,-0.27705850986775427,0.01961151728695265,0.07020223398827663
16,1,-0.4329903791083187,0.02895114712816671,-0.5950835316094056,0.9328314964086387,0.9195923838460606,-0.45858854372337743,-0.03366356070125698,-0.07423219376708956,0.790077098651816,0.7174490531472064,0.9362210943539289,-0.29596585958647603,-0.20057038088068757,-0.32779127344397163,,-0.10700867648075807,-0.09746864514510989,-0.6014226700110523,-0.11595917216358553,-0.33747543541199043,-0.11637307831151134,-0.6397566548846587,-0.6327362716598692,0.11419938312824984,0.009373454253935765,-0.34589737343599736,0.11961095200630956,0.09706386048891846,-0.37655893927121786,-0.6934004247270706
17,1,-0.17299429812064915,0.9336211158402231,-0.3645605702953352,-0.002843759263914336,-0.22148925624911908,-0.578828792563534,-0.8012576013806174,-0.7568520606311795,0.21282864113902245,0.16643713612002287,0.04462500272509107,-0.6672544858587304,-0.6842807133313458,-0.23310083858613906,-0.13752736688055656,,0.5612834657423467,-0.06162566016607007,0.7835603553484449,0.5875574720224661,0.42027341928166617,-0.31101138282486573,-0.43407311205973587,0.3506649156350441,-0.2629265665984546,0.3582612194140039,0.30330997389679815,0.7214330440698464,0.7131733813867832,0.40792411534457973
18,1,0.1624361808677015,0.531849754921337,-0.24641250029073847,-0.02420042644834508,-0.09794287271853319,-0.4050758049761085,-0.3828904664903954,-0.4513042995491796,0.2284360926184429,0.15859171866193178,0.04138151618281671,-0.5976550218567294,-0.4339871659644394,0.13950315197114493,0.005834162914917895,0.48792467222649205,,-0.35746452945303586,0.6041158949742061,0.31917832606282504,0.23737469282059265,-0.36754971166712647,-0.44417691246623026,0.04601650005333313,-0.2320074659424669,-0.34191700378830303,-0.02608702637107796,0.31193908168321505,0.00984977978512569,0.03395114967809154
19,1,-0.06665687741462167,0.20224984920172284,0.550766494465632,-0.6466124625865999,-0.6852883637336684,0.4415471473181367,0.014993679969448892,0.03172842711021262,-0.5512722351744146,-0.5596701207167349,-0.6727101879073936,0.2625870968921771,0.1665287774858044,0.410912359455724,-0.6321347830562545,0.27633923082568046,-0.2242495669449538,,0.21569276984710917,0.28239284377663854,0.6274735206900407,0.5874324539500804,0.5216765477613693,0.03739846683545456,0.2698676830697383,0.6374593374303018,-0.08199714952097437,-0.0736597603585818,0.2670567819805335,0.34575236069399007
20,1,0.20950078348085,0.8277729330706665,-0.24554237524353661,-0.1734211439753024,-0.37711263109518267,-0.3351212862422295,-0.5771162423827312,-0.5277178634177431,-0.07809604029254191,-0.11224859613992799,-0.15915133881762267,-0.4014270063939944,-0.4692109114144758,-0.2388123580895738,-0.2621344693358352,0.8938757032390956,0.04368149917066755,0.49502709124751076,,0.5204686902175255,0.5884074647051186,-0.06242542705035681,-0.3914990408427863,-0.2949103664796373,-0.5027135684758945,0.05226811157570799,0.04299535317160286,0.265762817201731,0.3187706805570869,0.478539845242161
21,1,0.14148849281275733,0.515403522316366,-0.021088028196854625,-0.4276043667036262,-0.573497420963375,-0.1056639282580969,-0.43369459277896794,-0.4861972998746771,-0.33766247622449463,-0.38600420099185007,-0.4081959596199356,-0.15573105345655858,-0.24052504347891013,0.05596431033223659,-0.42825011855828565,0.43016038596802963,0.34773437655942563,0.4447252662369481,0.671176295866315,,0.5021676540766811,0.09361171210287988,-0.11904304330818394,-0.09296501844267713,-0.3530263098332225,-0.23295570872396087,-0.10890085145293638,0.2294852526009904,0.37813735687300576,0.7607787064533257
22,1,-0.14228131675594713,0.41936681525165254,0.04134728448320191,-0.4185310285283297,-0.44259909479221626,-0.06878531857804893,-0.2455581982572741,-0.24012455519779907,-0.2022979007115837,-0.20777842327750284,-0.37173511186538244,-0.24170628333585742,-0.21031083590141697,0.35575192363894304,-0.4404133361724931,0.5370349263136539,0.4954414012361287,0.49091136831009896,0.3160144406002292,0.4330253482418682,,0.1719312987322107,0.2768880275815204,0.17962526596255002,0.02585728989552949,0.290298205319486,0.23385086245129372,0.3709540743015942,0.45603043543630206,-0.030035256342235916
23,1,0.2854625228714688,-0.4210008899289437,0.8859292497900311,-0.6610950695323203,-0.4961760594230822,0.8324100299077578,0.4322741701453079,0.4716559669799183,-0.6086468100213729,-0.5725995231775785,-0.7023066149877222,0.6826032002127184,0.6748932524766444,0.5478369849102319,-0.6072971780755774,-0.3353047480287572,-0.24100102311484295,0.15708399831250475,-0.38167896264304124,-0.09460397076580018,-0.051941998342232454,,0.7734980529613432,-0.0639017125115573,0.4414848722353819,0.15497122679105557,-0.298457522733627,-0.48686590031884824,-0.08076961568253127,0.4456555222525904
24,1,0.23990145726921508,-0.49752568576234846,0.8059522455668334,-0.6816450524134048,-0.43447217618440126,0.842007515826623,0.6071071879469,0.6062193329137638,-0.6816611126120646,-0.6390304562765112,-0.7026736573879104,0.7138998842483537,0.7110259725528906,0.7652550596634857,-0.5491983899018289,-0.32455384953251865,-0.1397049635549008,0.5275569464602066,-0.4348466373548423,-0.14907637114803673,0.29149864242944945,0.7320069889592801,,0.08253452663837813,0.5605017359185803,0.29078429169558895,-0.2589937726282434,-0.5110086863378132,-0.16112611514585495,0.042671436484988945
25,1,-0.3109365326177007,0.07330746841829838,-0.0453404059451914,0.11843780716121055,0.18374375920960395,0.052021220127885126,0.08323683367359958,0.18568256226834878,-0.06996703649450908,-0.04783631392620946,0.09568635811640314,0.1894326594284218,0.14679367319381464,-0.252858627692339,0.049726359968166434,-0.028698066940737954,-0.02553398314659039,-0.047535009062407374,-0.31441895029452205,-0.05299485520711045,-0.1542264953334267,0.12448344439149617,0.1203108602095867,,-0.05936340667049933,0.21996728760308815,0.10046428513613992,0.02065821176783822,0.11658184236060398,-0.05947559932028179
26,1,-0.04824545153945348,-0.4486718549530109,0.5379749355651154,-0.2616705039102645,-0.08772629973954826,0.4829366487631056,0.347824041670143,0.31379780876064167,-0.1469467787222989,-0.11004836366519699,-0.26536355796003774,0.35211667002025604,0.3182975162879824,0.4972789492712528,-0.16209551685410717,-0.2738453814282815,-0.32220297723781677,0.34735176550042124,-0.5188492184075082,-0.44010039807316215,0.08607939116107033,0.3783643300292938,0.635828632750962,-0.11505013858336177,,0.6380651338384751,-0.15341110893332255,-0.2465134519551495,-0.23366272540216837,-0.30632630921642834
27,1,-0.3076033624749155,0.10800968908435049,0.23621877599884167,-0.23601913118833728,-0.29087556302388684,0.1477158311975052,-0.1735682221419106,-0.21396461600518157,-0.03797692318097101,-0.0651311332522404,-0.24231632562304561,-0.025974779259865466,-0.17676285472377784,0.039039589700177735,-0.28890584378839446,0.17160535417015899,-0.16075332373764906,0.6208891442813744,-0.03984856203363796,0.16711822316635339,0.4566121683011266,0.17226673331514408,0.3035598096251495,0.0521669293379603,0.624337274634508,,0.11273851394757084,0.4292060255221548,0.36088530414914266,0.05549777291120683
28,1,-0.054608883991259294,-0.035430295019144076,-0.09579667839596961,-0.0678515298686253,-0.11428509190629788,-0.12456311881789817,-0.1278141025731152,-0.11841935575750506,-0.07586736576340658,-0.08395147755981491,-0.06465526384911136,-0.10264964708263347,-0.09893261912673679,0.6643906703455609,-0.026081180385181257,0.020822045248471643,-0.13716303733226942,-0.12260305187207932,-0.0316989831630039,-0.05248541107079774,0.5022378777685524,-0.15177546359558325,0.044870919421728495,0.002459280512202011,0.129374280973084,0.10089875105087631,,0.0752929319877993,0.21375967371340898,-0.10993517007865616
29,1,-0.2857036268631412,0.6333685940074787,-0.27629845740116155,0.1342279886000577,-0.09298743916665653,-0.43253900307144955,-0.7328483315067331,-0.7643061757854239,0.30815645980922834,0.22620194332287458,0.16759926326638352,-0.5239911428665756,-0.7280455126529675,-0.3995154345196854,0.008310841534056146,0.5314344215725522,0.29629143353750187,0.1941603389740162,0.547010374807224,0.5459944519429708,0.2276512229976636,-0.5498647852175531,-0.53443877083058,0.016742818262083903,0.22338394655103044,0.4834026278333524,0.32074692912613734,,0.5516361332228802,0.15396481963522568
30,1,-0.08564059136718782,0.5172097206128154,0.029154863707876233,-0.3925576751242321,-0.562190400868408,-0.13382122526513585,-0.5421753883689904,-0.5068802821090035,-0.2418476336915769,-0.1950266495581645,-0.37388405200343144,-0.2159587248046797,-0.4133829949115464,-0.05101263827589664,-0.5165157272889433,0.3676301487120117,-0.014865668891197892,0.6139261734873553,0.43168123158285465,0.7367171200648103,0.3079376784535044,0.3378647104829353,0.17388933654190852,0.025956614584053073,-0.23892213600682277,0.44540241225324406,0.14455122884196436,0.5756674880522401,,0.5790535680376618
