f_id,i_id,2_1,2_2,2_3,2_4,2_5,3_1,3_2,3_3,3_4,3_5,4_1,4_2,4_3,4_4,4_5,5_1,5_2,5_3,5_4,5_5,6_1,6_2,6_3,6_4,6_5,7_1,7_2,7_3,7_4,7_5,8_1,8_2,8_3,8_4,8_5,9_1,9_2,9_3,9_4,9_5,10_1,10_2,10_3,10_4,10_5,11_1,11_2,11_3,11_4,11_5,12_1,12_2,12_3,12_4,12_5,13_1,13_2,13_3,13_4,13_5,14_1,14_2,14_3,14_4,14_5,15_1,15_2,15_3,15_4,15_5,16_1,16_2,16_3,16_4,16_5,17_1,17_2,17_3,17_4,17_5,18_1,18_2,18_3,18_4,18_5,19_1,19_2,19_3,19_4,19_5,20_1,20_2,20_3,20_4,20_5,21_1,21_2,21_3,21_4,21_5,22_1,22_2,22_3,22_4,22_5,23_1,23_2,23_3,23_4,23_5,24_1,24_2,24_3,24_4,24_5,1_1,1_2,1_3,1_4,1_5
1,1,-0.4935209157608573,-0.6075998125739583,-0.5034214241479931,-0.4865103183959578,-0.46925669908989476,0.9830757259690079,0.44871311611893994,0.7758772098045094,0.8552278077563434,0.9687631776674299,0.5535286631922447,0.3263171400804803,0.8896491374892691,0.4247886792402995,0.47767718962625305,0.1810800061019473,0.24782986750410885,0.21720532578208185,0.21776773869918342,0.19698358543333438,-0.17554662819539835,-0.09719437392116759,-0.05578924003852226,-0.1761596169720261,-0.28641878106218277,0.2764164402415302,0.3861193776412237,0.3439003272014911,0.6880431423298123,0.5414771067589393,0.5616152430800673,0.4985250581138918,0.49448245516320743,0.5420307780009568,0.5360158200683147,0.34470719273503336,0.38488427721898766,0.33832218394524405,0.3701793254773872,0.37996069651037967,-0.459821702889577,-0.4965347658946886,-0.5913704901455321,-0.4039854776732239,-0.5555920099155669,-0.7630195608252563,-0.7494696952539752,-0.7196450457868522,-0.6993171078395317,-0.755891918338953,-0.29802980076819363,-0.19494757147998754,-0.2569127083048348,-0.3229414787958125,-0.31939764031288753,0.8976598082931363,0.8600124371460591,0.9334267220030581,0.9300117002811588,0.9449468948299754,0.7285640843300957,0.6182761653617326,0.7902265266568265,0.7669438510870598,0.7643642459102931,0.9765199851714095,0.9072473220438969,0.8935847378910987,0.9387304236592344,0.965667899790555,-0.5763624270077883,-0.5756299846065147,-0.574116459043287,-0.5788113712855254,-0.5764050919089119,0.7114396846894245,0.6546130950430454,0.6139110326544822,0.6412599815933139,0.5009358788922139,0.6661166947169249,0.5185244551671593,0.46070458488809984,0.6261153234480624,0.29736213527416766,0.7777983816024745,0.7592694302798666,0.7813006781374977,0.7680278095858998,0.7816139578010299,0.5477966198181435,0.512241221477259,0.5323912044646076,0.5452390358483306,0.5273630706715635,-0.30223946890851416,-0.3115864374721715,-0.16936516794187573,-0.22874278512777035,-0.2431858065898087,-0.0875498128733121,-0.1718206475802262,-0.35269997998833746,-0.1590059113928024,-0.19309978591327792,-0.5234718103549372,-0.5201156724924574,-0.5193398026927478,-0.5192674073537309,-0.5225520511436399,0.8615632518438826,0.8531827636449287,0.8650309706467476,0.883284651579438,0.871512421746232,,,,,
1,2,-0.5087201928725558,-0.6314765071995749,-0.5226197372701522,-0.4894356385102787,-0.4860727300541654,0.9826689837987246,0.39219817182983663,0.7898482780721862,0.829902497945297,0.958912260195615,0.4733339906065772,0.25123924808470155,0.8511742357517561,0.34047912616742704,0.40680525656483335,0.34096691806744095,0.404926634359557,0.37553564060375233,0.3737982561336033,0.356151273957938,-0.2426371258660529,-0.18352082625348554,-0.1427668035401939,-0.2442378372809304,-0.35447830147052617,0.37613228140274835,0.48763505031904564,0.45742511465028257,0.7670338859184588,0.6301419831443086,0.4811984291716188,0.4164095835462145,0.4218358871677951,0.45892060168638427,0.4593855349989884,0.2280532937114501,0.2682403594440059,0.21426642431642562,0.2549268944569494,0.2621789266318073,-0.46348201409628365,-0.49642810059611286,-0.5736193284059601,-0.40911887465250185,-0.5353653648108043,-0.7259389591402445,-0.711622011744443,-0.6868912677659624,-0.66895540865176,-0.7147573075419975,-0.4289460423111229,-0.2740711843996366,-0.32899609798443263,-0.4276500386888167,-0.43081889721297983,0.9208628222209497,0.900602557394843,0.9525148045740887,0.9498139694623747,0.9523109472877861,0.801168430304518,0.6770423129231934,0.8468607057071091,0.8324313743423056,0.8437844742655111,0.947168978191918,0.8810998660571389,0.8691197135578854,0.9471542810433878,0.9238030781011438,-0.510134540294326,-0.5094458005968421,-0.5084415038709407,-0.5123075633177954,-0.5101868970607724,0.749870375627381,0.6792075725513914,0.6760868078612264,0.688389775849163,0.5358928395101936,0.7166951823724909,0.5558327100234896,0.5428404577546094,0.682134049554903,0.34303990312674926,0.7487058720446313,0.7233430329285203,0.7547368249641272,0.7301394521649441,0.7537992859588873,0.498867252518551,0.4651000301653594,0.48772837958170645,0.4974927528092069,0.48383578236297653,-0.23911048948815772,-0.2472499968626114,-0.11786929253619349,-0.16997138004620926,-0.18717206708218415,-0.04764025572746933,-0.1280070450795312,-0.29335031857214955,-0.10827148705380751,-0.15556639952983198,-0.45049423449267945,-0.4480359528463165,-0.4473311815111223,-0.44756100122181985,-0.45075455931903785,0.8509153987707662,0.8429385550897613,0.8536955391607702,0.8693834510989253,0.8601746813869997,,,,,
1,3,-0.5051175028626782,-0.6314108878091447,-0.5184488716138143,-0.4883834336424744,-0.48197915028015603,0.9834840907168181,0.39882865882756735,0.7920300408594773,0.8339772410405284,0.9593905192779562,0.4756182701824424,0.25672060417453235,0.8530994656286923,0.34579180999254855,0.4071477849427514,0.33292277060332487,0.39707370580857293,0.3676096315212234,0.366352235163907,0.3483022647657932,-0.23694994566645255,-0.17691236694692658,-0.13647086382279827,-0.23758218173409995,-0.3512135179319773,0.37467499463352616,0.4856077621268924,0.4541749406019724,0.7653701298962466,0.6286760743044589,0.48526094112934537,0.4208916971190113,0.4254858585322919,0.4634288224903782,0.4631217214495167,0.23216179861289676,0.2722313049574243,0.2190457881799981,0.25887284727885995,0.2663641689820564,-0.4600835689585472,-0.49326042835670525,-0.5735398506630132,-0.40539022318648543,-0.5353068034245005,-0.7268321211887807,-0.7124193341893643,-0.6870317905988115,-0.6686621191922113,-0.7158608253093182,-0.41925346601737723,-0.2685837958026165,-0.3232589469800793,-0.41963610254040296,-0.4225973679815507,0.9219114343775379,0.9004993737925038,0.9531556829618684,0.9505042862820331,0.9538156440008748,0.7998696571511431,0.6777227773684754,0.8471593194577004,0.8322923931015032,0.8413753271298635,0.9506116602794449,0.8862490212804366,0.8727339335474061,0.9492802322999666,0.9281053409127354,-0.5166666867311933,-0.5159792123122888,-0.5149346626122573,-0.5188614063201387,-0.5167179471177343,0.7474886313161966,0.6754348437316277,0.6695748666375361,0.6828648271188142,0.5301312332598254,0.7116716346570757,0.5503393859837317,0.533357774735812,0.6762469009197499,0.3352284416876774,0.7485460063957702,0.7230624854993393,0.7542921763742978,0.7305550923740264,0.753517970506019,0.5038124309495559,0.47021158514312256,0.49239984264431946,0.5023673115283072,0.4883966775237092,-0.2458127994523207,-0.25403587275400774,-0.12404510537076141,-0.17651481162747573,-0.19339240000506552,-0.052180444607909715,-0.13240219919394058,-0.29901284593299904,-0.11296795181053709,-0.1600170981071063,-0.4572848903423936,-0.45475620951112994,-0.4540603619977286,-0.4542550064716082,-0.4574432294715378,0.849201550744334,0.8410471189419048,0.8520423462131786,0.8681459020932161,0.8586076292166006,,,,,
1,4,-0.5114383493963561,-0.6270973959664876,-0.5232829752837262,-0.49705164952220393,-0.48862466221372425,0.9857465892508064,0.4173961192820941,0.7820152116083667,0.8421424677731875,0.9664995375698008,0.51512019781427,0.2859444146548925,0.8728587366502595,0.38096640354585776,0.4456686986139373,0.2687902965247596,0.3344749290283435,0.304271848633347,0.303186388243625,0.2845472917078331,-0.21810682691818428,-0.14958871679155572,-0.10762626612923953,-0.21969745354267678,-0.32872207176369894,0.3252406942000792,0.4370309220075297,0.40210290895335254,0.7296942991625632,0.5867403929109798,0.516326809513069,0.45150930967678893,0.4528354672229149,0.49482987533459344,0.4927342941286965,0.28150913256867316,0.3223584608152029,0.27096088514563177,0.30797133338441496,0.31644837157191896,-0.4721112167716319,-0.5068049569040429,-0.5906051027632011,-0.41755118206346853,-0.5533743395582014,-0.7506642183749217,-0.7370403385499942,-0.7105289683384395,-0.6918977485001769,-0.7415053840879877,-0.3738078032076797,-0.24088583156528642,-0.29832404982920524,-0.38290024970535574,-0.38332642684590024,0.9109507228916155,0.8827625813191337,0.9451553976352903,0.9419650304131918,0.9494964851766385,0.7709509244314768,0.6517937389369934,0.8231008849739957,0.8044828981010864,0.8113348404583558,0.9629787423975308,0.8933221238869317,0.8823667362006956,0.9443651240808224,0.944990174313905,-0.5366043862146772,-0.535860851954101,-0.5346724821453352,-0.5389031207708235,-0.5366440119660782,0.7425442355990803,0.6778303829737934,0.6587503937511775,0.6776776277185483,0.5304475527652791,0.7058359634696264,0.5483739213717107,0.5173653282987799,0.6664283715796385,0.33254871130816255,0.7689474424720552,0.7471255017397966,0.7739781107244943,0.7544166307795357,0.7734005834203207,0.5158619302257514,0.4809820439466871,0.502656404782091,0.5140017505970418,0.4985832444968168,-0.26225829623484653,-0.2708761286732728,-0.1345215063848879,-0.1904757035677569,-0.2071348644387081,-0.0584234778977879,-0.1415689151760775,-0.3149762816938497,-0.12459752123747525,-0.16610369042666262,-0.47948709673804357,-0.4767056715299496,-0.47586667476869904,-0.4760664354818185,-0.47942186830392153,0.862282079412335,0.8544684096526646,0.8654797738010881,0.8821249857472899,0.8719688336543892,,,,,
1,5,-0.48360225702186566,-0.61779840220695,-0.49467251860655037,-0.47616305369252276,-0.4591098196618284,0.9863796969379711,0.4349348370377325,0.7992911508875022,0.8547110710148523,0.9637506412302913,0.5030272045371208,0.29436956710017537,0.8705446845213989,0.3841455029275147,0.42710900709819766,0.26350728477908225,0.32931317337012955,0.2990874842224469,0.3002318179296912,0.28061107763198234,-0.19488444502781155,-0.12834864095025011,-0.08669669456620466,-0.19375646985828365,-0.3172762372901943,0.34551303091229135,0.4539272856095131,0.4162798598984683,0.741367589259237,0.6029671452389074,0.5265971496456843,0.4647721594053953,0.4647227023157754,0.5070998465165973,0.5030222215230604,0.27942267955088884,0.31891700754730357,0.27023579201818304,0.305163978780014,0.31378331965767503,-0.4420666196880738,-0.47759748727244555,-0.5706949234830745,-0.38608830738652755,-0.5324866419055925,-0.7358808299327053,-0.7213809005595893,-0.6923868986610122,-0.6722127272509217,-0.7264778227654203,-0.35174690355351435,-0.22741811899723352,-0.28628871701339476,-0.36627024802497177,-0.36576347542053655,0.9222017133903444,0.8929348139828698,0.9521882302936946,0.949423721176697,0.9572692091466273,0.7773902549789931,0.6652830038396855,0.8337583364308008,0.8147575303433163,0.8141314172822921,0.9704486130867568,0.9107449286678779,0.8958140951158043,0.9552911144310685,0.952147832236433,-0.5587389852499784,-0.5579889925408614,-0.5568065393271837,-0.5610126384476066,-0.5587651256336446,0.730244138705349,0.6519931922133713,0.6291529858354877,0.6496117692871027,0.49713851080735594,0.6877544317685524,0.5173133155693241,0.48030745109126705,0.6389432040691939,0.29317303116421445,0.7495189317878982,0.7261187394316063,0.7538223218140927,0.735463400817632,0.7535907454106514,0.538938146197352,0.5058565444755099,0.5256971562569122,0.5371422640619851,0.5217832663635861,-0.29128796723668726,-0.299804093702551,-0.16467315328020082,-0.22038152482675488,-0.23641174486664673,-0.08630130814842851,-0.1677851658786056,-0.3415368085716177,-0.15030567551219165,-0.19359280768936893,-0.5024654455894648,-0.49970602167675215,-0.4988375145429018,-0.4990427200650156,-0.5023859093222232,0.8422793852722114,0.833795422587382,0.8457801302077742,0.8640659926557589,0.8527726428430698,,,,,
2,1,,,,,,-0.4011659438430053,-0.21185546100741837,-0.30633215912137435,-0.28358743928436914,-0.13450763432021473,0.2494819825910587,-0.1124477079631947,-0.027984870394827333,0.3342993035538986,0.14017559223457665,-0.2646635358491616,-0.23992154247863984,-0.2666079135600319,-0.15817025497355974,-0.1251900540147446,0.02053979622148705,0.23314250587538599,0.1371107944934532,0.0629236187219997,0.1448314219090583,-0.00355194138661874,0.33507156214293166,0.380613392977424,-0.18928054932987037,-0.029409901907155866,0.36286672747336635,0.20985956188842936,0.24525727620280124,0.39100554017787303,0.26336097135734393,0.4111494784046339,0.36859496610706155,0.4201109186849298,0.4008713443712888,0.3830732427134744,0.4723574289814587,0.5618627875963991,0.9591878933690122,0.4121439675222175,0.9123431327029631,0.8917795435534692,0.8885660676957159,0.8890966098133396,0.8827164857692981,0.8875136485962267,0.30055994877941516,0.1751527191656762,0.11847412004117186,0.17268766838715832,0.17519345661701724,-0.2474901118690227,-0.3221039633308651,-0.27668636551362535,-0.2853213554887528,0.11598792872089214,-0.4501933791298185,-0.39473277473815505,-0.19652885202300507,-0.3573196969489625,-0.42133031917514896,-0.22752134793723822,-0.32929965292570307,-0.39901841100089963,-0.291403247131935,-0.0016828764973004784,-0.19494601594537664,-0.19547150018499337,-0.19607323293586276,-0.1940777991362974,-0.19588284914865817,-0.5222580826378098,-0.26372446993155196,-0.5686143697858719,-0.5684343436269002,-0.17630937442337258,-0.3983947327256687,-0.1224144829542928,-0.5486986002640122,-0.48716495458400866,-0.07967756618527178,-0.14128039132998405,-0.1833888568365365,-0.14203104691802748,-0.15298448757118588,-0.14311366759541744,0.518506419965034,0.5584789850883196,0.5003006553439137,0.5372972930098826,0.5083260249403847,-0.33014420218292106,-0.32989314707657225,-0.3323274360773161,-0.3302627866244685,-0.331046336018082,-0.3530352461409647,-0.3870302432282924,-0.33687255004832983,-0.3513978104582991,-0.35066414523500633,-0.24431716464907272,-0.24281030659863356,-0.2437458479718524,-0.24364533696256174,-0.24350412888725903,-0.12822816912490098,-0.12288415348008308,-0.1340423736623355,-0.10542581416819452,-0.11792954273194378,-0.3415456458709911,-0.4669682257717229,-0.44286687382039513,-0.4674127589548216,-0.4398628127969737
2,2,,,,,,-0.36073512759241955,-0.21365827111561808,-0.3363617402765515,-0.2858217951543287,-0.10227809331311133,0.4013885291351049,0.11947100978462266,0.08612066514924777,0.4727377374335533,0.3755231265599236,-0.4449413034336982,-0.43090866124784877,-0.4435875158713909,-0.3882422796943028,-0.36754734610296236,0.1194057839054774,0.32891229190850324,0.2393807794824202,0.11430062026938581,0.33890494771975677,-0.18132688495040528,0.05582395810176477,0.05881050635221441,-0.3453810046659258,-0.21421363899772317,0.6421865917981407,0.4558626088307385,0.4742498248062188,0.622274931036541,0.5013161806066077,0.657073466427532,0.635640400588285,0.6626157703439485,0.6558147252508992,0.643326445316856,0.4820811018032063,0.5608079655488213,0.8986053584912406,0.4015015466012404,0.8699276478002209,0.8053438453039681,0.7917288813084596,0.7778228852766679,0.7623658044189469,0.7923167209492166,0.4724795351001685,0.3009867286768071,0.1863621147897634,0.2926506241008986,0.3127014013669962,-0.390045604794818,-0.4167488701310609,-0.35609917391594625,-0.36724255384048,-0.06357846826892333,-0.5629090869439106,-0.5313075979174322,-0.4370152027631522,-0.5510697056790153,-0.5552142761448569,-0.3237595175629311,-0.4259546671416139,-0.4244523372613589,-0.39461357523932583,-0.1282787122217317,-0.15830142383591417,-0.15878480596250122,-0.15945002171678735,-0.15702203100863366,-0.15927933765951563,-0.6327854517282114,-0.2784734381931333,-0.5848547943101035,-0.5998824729546293,-0.15773357784015007,-0.4626138847942669,-0.1091136684869447,-0.45036153077160934,-0.5115569959108535,-0.012309641559255846,-0.1453527301780222,-0.13067737206923025,-0.14019141676923108,-0.1445908296598144,-0.14452337741838206,0.5671375271674001,0.5859778802131257,0.5507800144872426,0.5773703382733261,0.5633834261962628,-0.31134113618616155,-0.31157997607945087,-0.30815386316073745,-0.311059868264731,-0.3139534876223795,-0.38052283549237,-0.42340619534020263,-0.3654762932466131,-0.41490292955003794,-0.3598094774881173,-0.23446082000518564,-0.23281231043145967,-0.23355468709174865,-0.23362421762685615,-0.23326946513033286,-0.08473758132996068,-0.0746934136778632,-0.0889491628033603,-0.08219225916613682,-0.08437275907511466,-0.46781047696016276,-0.5722835615739945,-0.5780130304904358,-0.6045679041991627,-0.5943936275873272
2,3,,,,,,0.13450810694110116,0.5848011436059798,0.6285291985684326,0.4661373289796069,-0.18306969417001584,-0.6065873822919041,0.5115066382214898,-0.20787606267036907,-0.3699456622530941,-0.6088990456773011,0.36669311053813236,0.34952506995527977,0.3635647238266164,0.3243830544521572,0.3034107148729519,0.8498632895288772,0.8343737756356638,0.8209516255319546,0.8570999514425329,0.7839486713207726,0.6195596856089246,0.33312476176025885,0.3516473574330302,0.5381527697962118,0.5152601386073596,0.6102714942105861,0.7716495703849174,0.772908394900501,0.6768955380829073,0.7146534187221266,-0.2403281677937592,-0.2752438988417032,-0.2364464578179879,-0.2507161888636542,-0.2609388777239523,0.9397390042926342,0.843436842241458,0.5607040180063491,0.9895751387890493,0.6657589676154694,0.6679686943552489,0.6733106374221197,0.690763445457878,0.7003519430350145,0.671525660366203,0.47883123231282065,0.3829686033168608,0.2963222726817668,0.3431184736410411,0.38998366040385635,0.5275878654698587,0.5514802824886069,0.3770828191122745,0.40262204468947016,0.06505134870652862,0.4447956777062543,0.4605253126506792,0.18912196879079457,0.30594893352526387,0.4133648352855339,0.1355995038381258,0.5237052483940453,0.5794447478775486,0.3656561368273584,-0.21710974801449057,-0.5901861497160446,-0.5917200042174975,-0.5932722079077393,-0.5891031250862899,-0.5926799677278567,0.1398931118104333,-0.9338526513669234,-0.715589893187071,-0.8299401070188857,-0.92891248967643,0.2511547254800718,-0.8943920044585072,-0.626789405804729,-0.778293929499267,-0.8819526634075321,-0.8993242303004827,-0.9026402212599416,-0.8955010524494904,-0.9010128884031783,-0.8970301329830015,0.5607103165668138,0.5534901791895912,0.579761291805584,0.5640365142156132,0.5538441381828121,-0.8925703002618479,-0.8932741644892115,-0.9173299871512817,-0.9085540225612745,-0.9073872063858988,-0.958505168941624,-0.9470836718342255,-0.9362983274041532,-0.9461090440756315,-0.9494517746635025,-0.6384791401471919,-0.6347318705258829,-0.6379808145765511,-0.6371529004592635,-0.637441418950504,-0.8241664841615945,-0.830050433050638,-0.8213162314650004,-0.8148675970338977,-0.8205492571791744,-0.17129734435673005,0.2609071607073268,0.21861493962546907,0.10276723425168788,0.11967884988642119
2,4,,,,,,0.42805567466024563,0.7266558209690467,0.6159621564038504,0.6327295219841947,0.03218577925286481,-0.5801608993624607,0.6865960798149406,-0.013569899371974836,-0.31206606788700886,-0.5185637993738117,0.1997489739647227,0.16409419822334992,0.19681656551195403,0.08747810715688364,0.045782756805424984,0.7654030809008715,0.67063225630752,0.683228685541689,0.7344036202008232,0.6976869523118316,0.6493689562547383,0.2643461623882086,0.21512885399621362,0.5810998405445215,0.5660865528774394,0.6150039102145336,0.7707475434762263,0.7313958802765257,0.6187033973868536,0.6703118520514992,-0.24191235889370333,-0.25508540157711623,-0.24238624772048545,-0.24542444217532244,-0.2480108776125325,0.8382659953756565,0.750189867229663,0.23278279278159764,0.8463566863210334,0.3703620191403181,0.33020260755196973,0.3322810666591163,0.34437929365757947,0.3630761809276075,0.3313154126584288,0.4508590049261496,0.3507264134404732,0.24884501135332415,0.31437570446537655,0.3593305792229864,0.4838262993700636,0.539780290856296,0.5036642549126655,0.5239391351535148,0.09558003472192167,0.5031032865537569,0.5605968810296152,0.2831821928356576,0.43441768019968197,0.4225221050493415,0.28738405424328883,0.615643167941009,0.6353741107550213,0.5197793425768822,-0.0921307393559625,-0.5051208483827732,-0.5062818021376025,-0.5075604886416714,-0.5042063355236011,-0.507090824669554,0.10209269706728863,-0.7683706231393792,-0.5490975050661207,-0.653114416405058,-0.8165500129153767,0.16193362934513633,-0.7649156182170438,-0.42265679727025285,-0.6088261367920427,-0.7915635262419312,-0.7924242166073308,-0.7632670001178521,-0.786140726196277,-0.7861603249687685,-0.7885529876651047,0.5584319581227267,0.5276062590188462,0.582812832943321,0.5474867163181687,0.5618255822148038,-0.7434071632952499,-0.7441063581911986,-0.7618068890740419,-0.7572541469299874,-0.7561266582359341,-0.8073894964161934,-0.7846940080722749,-0.7972717018472273,-0.8052938171252921,-0.7954737740075715,-0.5451997449317456,-0.5422306595633903,-0.5447501819451106,-0.5441185858919442,-0.5443247501194901,-0.6882854245482273,-0.6965992789790487,-0.6822929326568024,-0.6952472519679611,-0.6910733991244538,-0.009139972851951228,0.2573184840475171,0.2064404431707999,0.15980660462765672,0.16500662564203428
2,5,,,,,,0.15174435821721577,0.5869750714218253,0.5783087983685284,0.4662141730673708,-0.14344926809100245,-0.5703753518240453,0.5132831536992623,-0.16659825068965262,-0.3155868272278888,-0.5801024000406221,0.29987269290446916,0.2827886002213017,0.29627130549244884,0.2599876818089316,0.2398833610138521,0.8096726944223913,0.8046304959208177,0.7839793657603173,0.8176529425613234,0.7531759567466517,0.6367868523099394,0.3867796964643664,0.39860254674366513,0.5330854881710703,0.5372134748404376,0.6273981877813858,0.7669280960546356,0.7642230773601988,0.6856439427565831,0.708094598488763,-0.20243636467836845,-0.23948000308474215,-0.19817669038808394,-0.21335945882899288,-0.22447269739989517,0.9635858585074827,0.8843818474537701,0.6064837760434052,0.995483091043034,0.7100638203868578,0.7017709937733424,0.70679360690639,0.7243562946838052,0.7362810533249295,0.7049001960071702,0.4842071917051437,0.372453866670431,0.2864538931037952,0.3391022448203771,0.38047253501528455,0.4912744132766368,0.5071380471912933,0.3771221542778067,0.39994345722699376,0.10977007990359,0.4042946245875576,0.4406496426771136,0.21050513805044424,0.30768954968050055,0.3672864963970217,0.156879182809193,0.5085956000865894,0.5366934746192341,0.3738739458579139,-0.1629045066658792,-0.5930839036259759,-0.5945889213615394,-0.5960774978684125,-0.5920010375014895,-0.595502729830018,0.0692246498966308,-0.9121515130251066,-0.739680806261408,-0.8467266945161604,-0.9126772219768826,0.17836099912138148,-0.8660618775625157,-0.6521043305015426,-0.7873543720054412,-0.863825082665481,-0.8750300605874195,-0.8818410201303206,-0.871397057513617,-0.8775525539673033,-0.8729057469221526,0.6209809789359462,0.6153771318874922,0.6384585695653534,0.6240937264227515,0.614622709760436,-0.8889198004823131,-0.889450143401189,-0.9121635828157975,-0.9040135347385609,-0.9026326594579899,-0.9505668745881519,-0.9403173718492392,-0.9298222199781758,-0.9372591010524758,-0.9425485191606695,-0.642613858608911,-0.6389673028335943,-0.6421015591621573,-0.6413087681089686,-0.6415772860316327,-0.7972314184892366,-0.8034938205878404,-0.7945066190308356,-0.7868861214342897,-0.7928023271171023,-0.15770769879343316,0.20464943316592155,0.16748520780562437,0.06866049168158428,0.08779364590601524
3,1,-0.513923492772657,-0.5026288969895374,0.20545598120723052,0.4321103663213868,0.18254495671835191,,,,,,-0.29408025824177075,0.7743964291509788,0.5962682834545501,-0.021491072904271658,-0.24194397905171838,0.831812110649528,0.8285447776254722,0.8450935730698256,0.7297542375211624,0.6901422753134402,0.45521250361916077,0.2772243126233269,0.3392489263004863,0.4425026327644528,0.26459572501406203,0.6209171608004211,0.47454369431802634,0.4699427853482748,0.8276685845648598,0.7022004338167883,0.10834349124455189,0.29038653693724725,0.24645178197935547,0.10878256631225858,0.20015107000591859,-0.6690848796018645,-0.63939040101199,-0.6771140392954615,-0.6473932521032744,-0.6499693626801957,0.16161201309040973,0.10024931955133387,-0.3947020115960411,0.180638564903147,-0.292141921164184,-0.2983649860814719,-0.28586194327046277,-0.2568873923099575,-0.22604152605982564,-0.2883867341867745,-0.44439085825822877,-0.3091569912137828,-0.2886331220694871,-0.37956960055122324,-0.3934941272571546,0.8409194661629094,0.8524265519965161,0.9306173716693299,0.9261017902194408,0.6890728421463345,0.8991094142255089,0.8548853022816356,0.8128147665006846,0.8272540067818898,0.9036900134138501,0.8768786872439795,0.8099070111065387,0.7651763619599423,0.8908630013166187,0.5635662949255321,-0.4474845604847997,-0.44842193155196686,-0.4490988874630024,-0.4480101714526168,-0.447233955877989,0.8416443692991292,-0.070866002034919,0.3755801107463582,0.20231404334479985,-0.19188424234873547,0.8137809858036195,-0.20263406099204362,0.32469806826267944,0.164833085361063,-0.2893890162755426,-0.19762812445830757,-0.18859225617605602,-0.1854852214316285,-0.2040014307822715,-0.1871738440897266,0.25531796717424293,0.22116254089849774,0.28112447388533557,0.23867289526011792,0.26345453661791796,-0.34201683407522965,-0.3441092225828306,-0.3307969940746718,-0.3306611772138728,-0.33865288975898067,-0.23797742275824674,-0.20486713751283592,-0.28446129962294364,-0.21527285454810818,-0.2755932001907402,-0.3951514139115708,-0.3949274386606705,-0.39689117240656957,-0.39513959321260517,-0.3964491128592964,-0.021902073840839087,-0.04252001447976994,-0.01531104091822777,-0.02631277802937504,-0.02417534302750801,0.8628502676040749,0.9463016391415365,0.9378077809546451,0.9270232660136909,0.9338711719805736
3,2,-0.18200918386867793,-0.243543401262162,0.6227833809271164,0.7006090436774515,0.598659903870292,,,,,,-0.5753018368051261,0.7538208899519977,0.28389336026503753,-0.2328794292636993,-0.505820792460961,0.9115366736990439,0.8971799926865944,0.9109579504570217,0.834560594595349,0.7909949570331023,0.7824228132825902,0.6325806981200295,0.6710725237959702,0.7919040156830377,0.5480530770331405,0.8637160568713438,0.7106856904271024,0.6748837948235938,0.9507666869497348,0.8995101095950853,0.2653656821980599,0.5018950384772025,0.46002633522658987,0.30453970802878394,0.3749672079183124,-0.6713928931078241,-0.6649213934394336,-0.670224843179684,-0.6629465959110226,-0.6688261961772015,0.5954660143929813,0.5435259292604384,0.008573416871143436,0.6066845461589665,0.13702980900941975,0.10376146325448665,0.11605239913229182,0.1693354433228208,0.2038264747619718,0.11280382157869207,-0.13479713407081073,-0.0955622728650225,-0.14017620560294208,-0.1604099361840512,-0.1594354511836289,0.9733451098754148,0.9794391755623879,0.9643423898762133,0.9685382787469372,0.7369258857071476,0.9497682957364066,0.9470642772744537,0.8478606711928267,0.8950436868701465,0.9396365406803603,0.8565103331514695,0.9534254981094934,0.9135088805462961,0.9584991622643229,0.48779313356699583,-0.7707836531697678,-0.7714453615550081,-0.7716859481314746,-0.7710987243487581,-0.7705392400226132,0.5870199868579166,-0.5293913305854416,-0.1020103453900223,-0.2935285700405592,-0.6298065289646266,0.5696792276838062,-0.635246735487359,-0.17110733838663728,-0.33400273872653674,-0.7030298696032147,-0.556966457209918,-0.5617628051881571,-0.5528018305026525,-0.5652959869957139,-0.5544518198705384,0.6304103010392874,0.5965852564071218,0.648681007134724,0.6107358556252163,0.6326792300580159,-0.7030686552592358,-0.7042777978975154,-0.6961248129123612,-0.6989288465237484,-0.7047259860132433,-0.6022125266719245,-0.5687647431881842,-0.629899241866426,-0.5822121250714147,-0.6287660014929117,-0.7409923670694614,-0.7409051026057858,-0.7419707711406778,-0.7409358274931104,-0.7417661692551114,-0.45505213795068356,-0.4715674371201206,-0.44757596888528206,-0.4547886158964243,-0.45378419406279824,0.6668266386889842,0.863844356688369,0.8478562451450224,0.7878431853151056,0.8077549512375274
3,3,-0.28722234167489513,-0.30579071387425416,0.649491358800077,0.7956743901166511,0.6228898828278738,,,,,,-0.6817480910094313,0.7150491185965662,0.16783511317284694,-0.3870337959976129,-0.6056742181025321,0.8754537751025783,0.848265176495154,0.8727905301142382,0.7545458134523064,0.6924428194020809,0.808520100940888,0.6176325565604056,0.6761038204140412,0.8147855754837843,0.5572956486375271,0.8455864062456446,0.6082293204392659,0.5580527316988554,0.9253711387500998,0.8623049952533745,0.26813077672645824,0.5284895914760592,0.4818125261125408,0.30030296335369044,0.39104132523258106,-0.7056070625992599,-0.6983749925939744,-0.7049069152731509,-0.6997590159432954,-0.7017373134939344,0.6085672693252309,0.5447210142833738,-0.07401761050471012,0.6249429409543751,0.07135931075237423,0.0457204772794918,0.059667582524395635,0.10945115920712689,0.14840722969696407,0.05646936919875534,-0.044330161642997634,-0.022464049393053687,-0.07447657892937198,-0.07820894381208365,-0.0670371343074807,0.9393651484694913,0.9691394001030856,0.929437712857703,0.9384823902947391,0.5928683736583399,0.9416615869948821,0.9354260570297371,0.7799422273562092,0.8682932768601531,0.9104394563309908,0.774680411203378,0.9446833208742105,0.9315031868298314,0.9297504150690808,0.3408371475376861,-0.6831424671018937,-0.683729870511087,-0.6843524720959742,-0.6831746576923785,-0.6827691925165329,0.5870339886410908,-0.5705271117231789,-0.1541529289222614,-0.31503102274847783,-0.6738837906597872,0.5762219076302687,-0.6775833927704884,-0.19343728504567737,-0.34292463148475294,-0.74141007800903,-0.6397594496328516,-0.6345681546090525,-0.6363771796918574,-0.6437181047069251,-0.6375455902530689,0.5646086340523881,0.522718784747436,0.5892203528702958,0.54294615212714,0.5699545846176315,-0.675520986774599,-0.676291435799647,-0.6760569748259053,-0.6764485448970987,-0.6783565846603574,-0.6133037238734311,-0.5747970498059298,-0.6325238321504254,-0.592635286497339,-0.6314420360676634,-0.6598916230149903,-0.6597782605257869,-0.6608416850638028,-0.6594667643817047,-0.6605375398147151,-0.5412791524520015,-0.5572025712838085,-0.5345841095256527,-0.5460253286873125,-0.5430282440146803,0.5736771142809731,0.8409771334246384,0.8055550688321639,0.7294073874942597,0.7500016526020892
3,4,-0.3013080109069395,-0.33119238949354024,0.4800334359031604,0.6250967295866047,0.45672214038330705,,,,,,-0.46572676305649696,0.8004310125016935,0.4443733680905423,-0.13399967984390715,-0.4117086761156634,0.8898783279204497,0.879767528863637,0.895713929288155,0.7992874037519059,0.7551431110559644,0.6718835003933981,0.5107464465779478,0.5592640132366937,0.6761225669396012,0.45147072667614596,0.7880423694366828,0.6377610714089897,0.6200011557346159,0.9317232931636693,0.8452240831276097,0.24445742895271816,0.45670103028050113,0.41452778776837795,0.26795183657073696,0.34565270554436134,-0.6874882409407221,-0.6728808465393574,-0.6907923229492559,-0.6727617679906521,-0.6785970433811461,0.44056459294839856,0.38621222635138586,-0.13507141963408675,0.4532506624903885,-0.013121357433269143,-0.03131856949024159,-0.01889660718871733,0.020105091817685605,0.05186344963191791,-0.02173137504721101,-0.27124753040252325,-0.19294992859006488,-0.21428314999507236,-0.26396795673098694,-0.26805884364648147,0.940677274821495,0.948021357005164,0.9810562813033494,0.9810961436302617,0.7429215305813964,0.9460444500582468,0.9274638170440949,0.8549498865550142,0.8827130166344264,0.939479080669482,0.8820617149042067,0.9092328219335426,0.8606632436673789,0.955337184042282,0.5196253308941152,-0.6562217536366592,-0.6571889820131294,-0.657887224914492,-0.6564975496477965,-0.6558738185899613,0.691912161480024,-0.3580983209345252,0.08420742608711684,-0.10138860187971721,-0.46782123687395916,0.6739524212955335,-0.47348580297124876,0.02771603631309072,-0.12806888678039519,-0.5491298980512833,-0.44387043979948615,-0.44348930422907973,-0.43492493581896463,-0.45211296655950917,-0.4367312572701527,0.5173818913893712,0.4841661742231338,0.5405509224673659,0.500126192210489,0.5239793152343801,-0.5928617206206441,-0.5944038126172844,-0.584938424280733,-0.5853166413815125,-0.5914891840054803,-0.4945627054660233,-0.46111433091420717,-0.5315557176449621,-0.47085525330458333,-0.527327519479732,-0.6179620779293473,-0.6177530462629321,-0.6195258455651405,-0.6176822340552806,-0.6190711079192517,-0.2890320483102615,-0.3084409310719165,-0.28243711023829565,-0.29009082050528257,-0.28957542491512034,0.7611096482047979,0.9098153043555174,0.8961575748179967,0.8570046121957461,0.8749446417190008
3,5,-0.3237782157236917,-0.2695788974826703,-0.21974885730436977,-0.06461662396472456,-0.2257566853327606,,,,,,0.3363509814803549,0.6698960053780685,0.946846121684803,0.560104233852073,0.3322594127600801,0.4411218534727277,0.4695634205885475,0.46358118200126885,0.4294516543836695,0.4385303377389117,0.007508206313056376,-0.02182432090727282,-0.0024978258556396238,-0.012960012697165402,-0.00020106138839448562,0.18752425080226642,0.26046739304881594,0.32238504180317806,0.4369572654870506,0.30948566335828953,0.11930664864309337,0.10531002845439952,0.09378206722146198,0.09541486417570755,0.12254855863275338,-0.26435129530624124,-0.22777752047698008,-0.2796315648484269,-0.23045526344159661,-0.23948693049205438,-0.2502340375076977,-0.26800224302461784,-0.3388689042250248,-0.24916050982479887,-0.3282873470344252,-0.317730769215824,-0.3156371775623934,-0.3287019763898651,-0.32850004919492437,-0.31592409278585887,-0.7026071385944292,-0.5160335417864219,-0.4570199498304357,-0.5927760034684564,-0.6258439954127555,0.4386801836059079,0.4071213410269432,0.6015440918520034,0.580376621720517,0.6435923692002113,0.4724430445766843,0.41317275331330794,0.53415354076389,0.42510838563460096,0.5197864782784414,0.6567879451666296,0.33056492497344414,0.2481430521540945,0.5032164482343421,0.5911790864342228,-0.18650563514890872,-0.18776136400159982,-0.1887681785177282,-0.1869882849725899,-0.1863540776617998,0.6516478321212409,0.3879921582619552,0.7000477874099654,0.550609934721307,0.3219971933480793,0.6474626257476499,0.30665015173083,0.665516190557166,0.5350369964611,0.25410022265189247,0.282209262759072,0.2931134131948646,0.30400235077834914,0.27270266266085785,0.3004958449706414,0.0599268639361743,0.05410196109198906,0.07314935750868701,0.06012198809837732,0.06778910034943841,-0.033432030469509044,-0.03643775182661124,-0.008514144471130969,-0.00879407989305725,-0.02198433233042829,0.08170725681238211,0.08502611699400586,0.017438122695588087,0.09254695939651347,0.03440495383738218,-0.1332381271546279,-0.13284464215343417,-0.13555442289863406,-0.13322698207574302,-0.13484404505190684,0.5300778857633986,0.5122682809649889,0.5328367459366543,0.5315374591452051,0.5291404433731183,0.8275219892529757,0.6456541328846179,0.680211743105759,0.7474635562736833,0.7418538272857942
4,1,0.3014954708149793,0.3399025893925549,-0.4832960274715876,-0.6250111277152592,-0.4559802278014178,0.0006915167578883663,-0.1257804466770589,-0.4270735129377754,-0.09547279153848165,0.412519655309213,,,,,,-0.534910660376922,-0.4942182295477566,-0.5345645682113895,-0.4117998825031144,-0.3421896770379915,-0.3487455698545867,-0.02916366361101863,-0.12189962405040933,-0.3672607989749608,0.013528747558716803,-0.4817943192283991,-0.045243304291183284,0.03895567057742311,-0.2844655806262808,-0.3249560510745597,0.2758919541292072,0.0764459049694759,0.09337746407354519,0.24484941293193796,0.18893072033453506,0.7034439025540445,0.7230508055166092,0.7009125447428894,0.7183300126509651,0.7202220365135635,-0.46867830485546436,-0.4020324102451007,0.1579876347066681,-0.5119213133164475,0.044671762783651925,-0.0990625729399901,-0.1122608251517565,-0.1023857330068767,-0.12143099664750956,-0.11107798794690682,-0.11779392326146731,-0.16445445319210372,-0.1598909586699846,-0.15365800593733914,-0.15900654890355836,-0.17390638533150415,-0.3175072264208647,-0.05263713922593505,-0.08584563289825531,0.28267226254105005,-0.3238067149709587,-0.35735833046681886,-0.08766480107805874,-0.2310679969319991,-0.21938800047711493,0.23561868128520191,-0.09397357904248227,-0.17590371889790335,-0.09174871803427287,0.44247254058291763,-0.1969680721193907,-0.19605258994097596,-0.195415723241132,-0.1978085146867261,-0.1956429080734401,-0.10574539823652973,0.502369238011766,0.2598252852369056,0.3034122297199875,0.5309369189768696,-0.054732394385478944,0.5374045702617918,0.17799691721219701,0.24437903770865332,0.5553763421882632,0.750875257983538,0.766036679329334,0.7553922526225313,0.7507124550395179,0.7510126252574905,0.14565092180403827,0.15607027022344477,0.12029937339697261,0.15902583435155082,0.12597934955128764,0.07649004837329121,0.08083238297082351,0.12585901978321,0.10801472075584617,0.10178222487710886,0.23522721384956335,0.17610956042410997,0.18553727264456332,0.18475517722511137,0.22631381283507057,-0.19055742052288482,-0.19347377944157484,-0.19101817672161947,-0.19179915533630676,-0.1917656431884045,0.6275680425835118,0.6333720685111297,0.6261318642821151,0.6260301529456145,0.6225559204684202,0.2621014492732161,-0.04756872423763636,0.03461548358921818,0.13114918416224475,0.11663994973546243
4,2,-0.09978481436288078,0.10010168896594829,0.41119191886325,0.45277674376345367,0.41059046871403415,0.685558832167868,0.8703251837970069,0.7530269881775865,0.8526915586533359,0.5791503157940018,,,,,,0.3203501144150499,0.3049696282702574,0.32622220360914167,0.21154238211827092,0.16683222607932013,0.723465543120909,0.7404625879806975,0.7477432829938357,0.6982423698009592,0.7437030332647818,0.5665088731563834,0.45265198731737266,0.43875812880379905,0.6705052523786593,0.6249517621897335,0.6530456672056127,0.7178002982493372,0.6715730827548821,0.6090867111658708,0.6761364585008538,0.10140834383880915,0.11255093937294747,0.09123519893981091,0.11677371050160001,0.11968285134893519,0.3585355303658103,0.31314931774723886,0.044467875263234924,0.35398516151065706,0.09702106240928654,-0.08087296961703316,-0.0857500197275578,-0.040058217970657894,-0.02924017266483281,-0.08437710463024439,0.10456491011605507,0.007191020487122057,-0.0589357704912119,0.045559707699873164,0.025045236085011968,0.7314221220025426,0.7381930665026692,0.6648295329937021,0.659639169294908,0.4829018555388953,0.693993792250482,0.6563048147339693,0.5940313543633285,0.6188034560868158,0.7183586899427507,0.737941447801421,0.7432151668850128,0.7341157187653142,0.7473020153418487,0.5607211521336262,-0.8096725792206962,-0.8099769946897712,-0.8103674592439021,-0.8093622691179405,-0.8103887103348955,0.43739222564887514,-0.16291131366755773,0.03581474855372602,-0.004042046232180185,-0.13470615646121042,0.4835412374541044,-0.23279953442218693,0.0017526705775715579,0.01933629153539096,-0.13247212566798972,-0.048696146884802394,-0.028542347415735803,-0.036676302803177574,-0.04608770332023271,-0.04192664422208314,0.6823146140131381,0.6500952770725825,0.6907547911065545,0.6706678223714582,0.6796847123665328,-0.737173639019256,-0.735528321564912,-0.7017206788072534,-0.7177018436513256,-0.7171561303420959,-0.6185379211727695,-0.6343764118039559,-0.678253860930524,-0.6460119116357277,-0.6323008107248127,-0.8068029257301101,-0.8059897301728514,-0.8070357998814273,-0.8071671965213714,-0.8070804794188318,-0.023544659861092,-0.03657169150605655,-0.017440785755586274,-0.023689571871199577,-0.026682321990584512,0.505028267512524,0.6877906812473943,0.6683272670572986,0.6230600747120459,0.615459147137963
4,3,-0.05632152961891412,-0.03736912734051412,-0.13498518754112165,-0.13262233548344993,-0.11882623327091468,0.7103136675621006,0.6057744399773511,0.3953269751659485,0.698930946092983,0.8542857785654266,,,,,,0.0866801069888612,0.1032544706722538,0.09354310685181888,0.1029887404309664,0.11256222081537415,0.18510696462253784,0.35763473576289817,0.30919045703619674,0.18824689024140695,0.3465671118263216,0.2857208710104133,0.4933795651216396,0.537568536717058,0.5339953612494114,0.4639304406608251,0.5172802575977251,0.4522616551113887,0.42835391727007077,0.4824639766654053,0.48828864988348464,0.35268139423658673,0.365753846669429,0.3396040104120752,0.37046208147718573,0.3689511859821184,-0.15789075379657525,-0.15856163196258954,-0.09274567323139427,-0.17792467629130337,-0.11300832619573575,-0.338380252596429,-0.34391000534472904,-0.3009315567011177,-0.2937112198756646,-0.34418686662099773,-0.18772683686121927,-0.22242880321698988,-0.22700667429343557,-0.2398927461808742,-0.23714354569508367,0.6306336970495757,0.5213035163681914,0.6759581154348524,0.6533955478714977,0.755458164952612,0.46446524314218096,0.4213041230274541,0.6225586820540883,0.5180531562034013,0.5305264377690946,0.8329083533234151,0.5585440564596698,0.4481384148720008,0.6813719628071238,0.808025798711035,-0.7218821309056573,-0.7215821207079678,-0.7212138741153713,-0.7228876363125132,-0.7212846346141628,0.3130424248610716,0.21452012648628083,0.20857474131736542,0.19680700384973515,0.1677077995962889,0.2730904398674219,0.12686658490465974,0.05206578358994929,0.13054551001980796,0.1269269887097656,0.5408638968655869,0.5423158780384216,0.5526544968200756,0.5377338643425228,0.5483326261947097,0.5383376967015004,0.5216158273648077,0.5332709805337926,0.5389433214686492,0.5249829318250364,-0.3879030626510054,-0.3824083409923422,-0.3207598735312347,-0.3482992823058617,-0.34614372538504345,-0.15254488376979425,-0.1932792940493413,-0.24244011095313023,-0.189051651158614,-0.17803638152682089,-0.6894512584349766,-0.6912295175251182,-0.6903096580883055,-0.6903426322990538,-0.6906320025711477,0.5139045875238027,0.5032185120234306,0.5184943941391691,0.5186753189797493,0.5124476194056837,0.7848370537147036,0.6941566998145318,0.7429966122733959,0.7778945352119382,0.7709062910666533
4,4,0.3678878529719989,0.3821261667830027,-0.18678475827273022,-0.4071156903308435,-0.1581367588988405,0.20251203253583072,0.25845718778749904,-0.10208742929447645,0.23976466727835166,0.5235094762600397,,,,,,-0.29233059184493415,-0.2548431983298116,-0.29308724436068734,-0.18240909650197845,-0.127935371035929,-0.04242958227919846,0.24772193702636558,0.15384312456691118,-0.051605594058586446,0.23823517023159602,-0.10451410657996019,0.2867734144941192,0.3492206765565433,0.04364632207264729,0.03767968656126697,0.4252921094450769,0.27637941855371917,0.27075013294984196,0.38509118204826187,0.35150708791908647,0.5775646176164477,0.5897406081849409,0.5743433812832074,0.5929460044798048,0.5947699702388461,-0.17385358315613209,-0.11691327524014783,0.2841045355059417,-0.213819365245296,0.19986141486793985,0.020672909523580474,0.010035178342607365,0.04468309880006294,0.03616415220199776,0.01159580267049265,-0.04004436066265593,-0.12839023425248097,-0.14497903925177047,-0.09701754235620341,-0.1162880394240593,0.13401028536497905,0.0029882760818493725,0.1822819116895833,0.15058364361623866,0.4385664891047867,0.0066132813855591666,-0.011604209077377137,0.22726108563258574,0.09554739002206891,0.11521473941831495,0.5013591534356656,0.24989113807771823,0.1539711425736684,0.22642637668994925,0.6359105424679078,-0.5178565509593298,-0.5171724843382046,-0.5169449223626792,-0.5182862954547067,-0.5171739726525693,0.08331397082193537,0.38076272043034654,0.227628233357569,0.25817857962011415,0.4297282069683508,0.1448462635876765,0.39178879936388755,0.1312330162413753,0.24562493789663575,0.45235440217190426,0.5730957293690814,0.5743205336893922,0.5785580682037159,0.5698547551426624,0.573223774916108,0.4417511912261889,0.44885955722136617,0.419497909553632,0.450823100228269,0.4231826699873622,-0.30066430910790376,-0.29679754635522526,-0.2517685045993785,-0.26875362229026445,-0.27576584481939714,-0.11510878437841776,-0.16995887925057485,-0.17466413680303994,-0.1574100641961469,-0.13335106145489606,-0.5110218566941387,-0.5130002362664086,-0.5114822514456439,-0.5124101276312392,-0.5122740554081595,0.43982887024484285,0.4390847157629022,0.4403466472568399,0.44390163766188695,0.4366366308071056,0.38417505547633846,0.1763054230607063,0.24855796217125736,0.31170095851559787,0.30523639159535676
4,5,0.2353267414028597,0.34742128531442784,-0.4092008163915206,-0.5503851970845051,-0.3887838646344519,-0.037953702766144515,-0.016310789249083024,-0.3597081019305355,-0.05990468184361153,0.3070784418596444,,,,,,-0.4695664035401874,-0.43401846226608454,-0.4703569936502108,-0.3857510105970938,-0.3284968794497425,-0.2458650115798433,0.0231476816136581,-0.052334697674014,-0.29233325574702507,0.08989894660260778,-0.460244076332085,-0.11706491865820134,-0.05302872898852984,-0.3018520470110482,-0.33527940448457194,0.24612414353035306,0.08088462220763148,0.08049950476273271,0.19656166540305997,0.1703327767710111,0.6313197064360356,0.6573990486774076,0.6307161665171811,0.6469770382327418,0.6559677522598005,-0.40563414902324313,-0.3533258281006364,0.14013049604114303,-0.4412320751520049,0.027033765098300355,-0.08204114006530827,-0.09611918834270217,-0.07817455145361607,-0.10132390847072825,-0.0919898475117189,-0.011176864277070653,-0.08098379803943345,-0.09163830719528665,-0.04146067831272626,-0.056783556521931455,-0.1871077687607472,-0.2885023957079147,-0.11363092004225939,-0.14469515876115002,0.13649453665494427,-0.22708937091873982,-0.265009932589354,-0.08481644266229504,-0.17273639705827315,-0.11473473693062886,0.2462314181599039,0.022731454672845985,-0.01697630161663022,-0.07383361554941481,0.43191210825521265,-0.20878119901850156,-0.2076713553496483,-0.20722721554151002,-0.2092749871032944,-0.20756360070711777,0.06886242418925836,0.5575183073718581,0.3646450048422337,0.4192062224237505,0.619781538348956,0.1569645803056927,0.5942810776791602,0.31571754747631087,0.38620287654020613,0.6569530179590469,0.6527443757269129,0.6781340230822156,0.654273014129491,0.6559498547342933,0.6490872183388512,0.11005120847649663,0.11182342757963315,0.08541955216666863,0.11880585230602003,0.08918484269991023,-0.015935255488338962,-0.012718866057199296,0.02066159402338985,0.009684511040403132,-0.0024711024383341496,0.12724836022662567,0.07458649669539963,0.08798836632874729,0.07610210459407185,0.1194471217808375,-0.20862603815537417,-0.21154305139180374,-0.20897381997165487,-0.2103928468355032,-0.21012568723227165,0.4658211418990771,0.47198679169909585,0.46500645468789004,0.45951152924568994,0.4577150956867576,0.16266493318318997,-0.04132889680485463,0.020054603163613516,0.08665993742731981,0.06595409622304782
5,1,-0.2559721678578759,-0.5360208291711461,0.20282363398010905,-0.25353351347081166,0.1406710271447552,0.5183483883401929,0.6959587188660978,0.6501494172786875,0.6737850767263754,0.37344351644670637,-0.34598307568289166,0.5111301150596457,0.28452687272604127,-0.07369934002924694,-0.2802311293182076,,,,,,0.39383674782122713,0.26436441010085976,0.2771214920067363,0.4072326485984127,0.18889526261531775,0.6758362233057735,0.4615399709841602,0.41684085792035575,0.6690344423138995,0.6885233410464957,-0.03897196318678575,0.08773663709279789,0.06871458087739968,-0.029555968365173824,0.03586225409463806,-0.5455081190116817,-0.5442996453039783,-0.5537138181701875,-0.5410722704068904,-0.5422673098998954,0.2163809336171142,0.13140057468770538,-0.3885464235173539,0.3447176407225627,-0.33602222022347683,-0.3215441149466336,-0.3523352753083806,-0.25216812242881526,-0.17687813943995634,-0.3125949827646488,-0.2805372653266607,-0.16845972078759042,-0.148391665856217,-0.2458951314290012,-0.24600338077315365,0.7089222891955184,0.7452304842752931,0.6638908280528117,0.6526960523968779,0.48882033738640773,0.7743400580402966,0.737336073718855,0.7054441739963535,0.7437892488461827,0.7805406382814701,0.5078844842398816,0.6626421767198633,0.6540982098897368,0.691015847092787,0.32382471317237926,-0.3061480003246273,-0.3056107274379274,-0.306953086587163,-0.3048244332195924,-0.3040630117374352,0.653729118426288,0.020178061178061202,0.46898943523367986,0.23999297682645038,-0.16083413976944305,0.6619554568093066,-0.08005065079742679,0.4843731648887515,0.29853076349050234,-0.2430976104993945,-0.11653615041592169,-0.13882028328162455,-0.10855177102964042,-0.12989128931117677,-0.10498246291585511,0.19153556688309414,0.18094102925972866,0.21553631980243193,0.1754882032498064,0.20204671165052412,-0.16189441252569625,-0.1580075706692523,-0.18962956625246474,-0.17215874154768063,-0.16556568705236518,-0.07535040836102147,-0.028567040148020917,-0.05256728391875831,-0.03994666391206825,-0.09195753133154838,-0.2626417056382566,-0.262624347056982,-0.2659957555125205,-0.26387872130194023,-0.2619932390596378,0.02643278458097542,0.013763315384086927,0.030563720593148047,0.02328278617459445,0.020681604971973244,0.4859380350374519,0.714837183125267,0.6972842928660518,0.6256015591125015,0.6207875038220418
5,2,-0.23692563294446733,-0.543986535053752,0.17035147063439227,-0.294798582623804,0.10823167046295445,0.5197750852894272,0.6974275870088817,0.6274547266502407,0.67475229401077,0.4058105100710405,-0.29632155570706353,0.5169099659150367,0.3212482242708592,-0.02213256524579732,-0.2354909759857713,,,,,,0.364456724159394,0.24999027530353723,0.25914948054710507,0.3798185997548078,0.16010660440445557,0.657450945858145,0.46778302533377736,0.4247310332818717,0.6582618096998379,0.6797766480574653,-0.03032027234714052,0.08291685965909668,0.06601295197880852,-0.02091675511868063,0.03861137309241158,-0.5134921490069184,-0.5123646979168255,-0.5217455391889656,-0.5085825975316811,-0.5101307892521096,0.1872166262281244,0.10459895240204575,-0.3962734699108621,0.31882299506766676,-0.34846288363709976,-0.341058081188361,-0.3722154094708421,-0.2689661008420796,-0.19198089955758912,-0.3317973718874363,-0.29533681321490723,-0.1808582553192144,-0.15921126966601484,-0.26120902571964555,-0.26173201887983977,0.7103880211794704,0.7371943981013106,0.6677402324965545,0.6538325258927062,0.5237420142753049,0.7624261774995479,0.7265796801049524,0.7172592464523893,0.7408706092761886,0.7742008842454479,0.5311249804513907,0.6588691357542404,0.6441105537027325,0.6952424995533414,0.36623322988943974,-0.3171711753526507,-0.31658229194527765,-0.31792077556703213,-0.3158218604875316,-0.31509934584678634,0.6570993345534488,0.061530496561306824,0.5001063661773304,0.2701678423906575,-0.12339733001229769,0.6621400554850356,-0.03967338728847847,0.5088394666269422,0.3284119524032356,-0.20839997742125016,-0.06765054394219372,-0.09234687746830228,-0.0595822458248092,-0.08192927424067808,-0.05609344022238849,0.20136456026291305,0.19300852189221462,0.22308648827213673,0.1863841191281611,0.21166294249992046,-0.15937480199347243,-0.15553690522671992,-0.18249928081516242,-0.1665891341500385,-0.16148381864696426,-0.05989448723278512,-0.01832171674168781,-0.046939498136656654,-0.026973986606986466,-0.08029839089031565,-0.2717886799780085,-0.2718180289955121,-0.27514111699908184,-0.27309886011058127,-0.2714116930998771,0.07811057347971528,0.0656297576631476,0.08262412352778403,0.07648246635772704,0.07335772216498038,0.5161058933493815,0.7197508181079808,0.708784434662476,0.6435256406988835,0.6397866420617156
5,3,-0.26440396218305384,-0.5429243750519142,0.19894848997296588,-0.25522437689030997,0.13638744963945926,0.5275021560175456,0.7026287005257154,0.6559039734666364,0.6815242308745502,0.38352616145621443,-0.34124109637993927,0.5195831727528865,0.2947623272817934,-0.06709774604141905,-0.274796329517214,,,,,,0.3969628854413616,0.2676414806350176,0.2815791219613245,0.4097525564611797,0.19098548468257404,0.6741604833855233,0.4568804382052032,0.4115314532727785,0.6713929256592309,0.6889063330706625,-0.02987842162293597,0.09636118455264564,0.07708308179488454,-0.020977765252519154,0.04489987238877391,-0.5400968033208311,-0.538295712510416,-0.548276521644385,-0.5353852972766304,-0.5363787410911012,0.21186109645729134,0.12549336299050218,-0.3971072586220006,0.3412246505501322,-0.34409166477690034,-0.33155957431008254,-0.3616604711395559,-0.2625989835868636,-0.1877089603563673,-0.32255229349432857,-0.2783095092756609,-0.16693801663401575,-0.1478547439204485,-0.24405782804923537,-0.24415734244030785,0.7157017868562312,0.7514307175940579,0.6714206670800463,0.6600824498109906,0.49484689480902655,0.7794414508103754,0.7416598954450556,0.7096295151002212,0.7481241047757233,0.7859633586955662,0.5182575414336512,0.670520152498328,0.662738971743355,0.6986775100678674,0.33347915660675365,-0.311005153932854,-0.31046758324340273,-0.3117849639767083,-0.3097093452427149,-0.30895983468921884,0.6617046743298814,0.024332507655444813,0.4742564204050459,0.24593342928339057,-0.15863633560911672,0.6703540351106323,-0.07833397139524778,0.4894742831896257,0.3036434169164297,-0.24266029621692087,-0.11090619898874654,-0.13260702681194325,-0.10294839177049031,-0.12413379542043268,-0.09951601709197666,0.19504620740397272,0.18382237198252072,0.21890880842667548,0.17886970158845417,0.2057001868531806,-0.16578624235135053,-0.1619637686583555,-0.19213485888086623,-0.17532644397362396,-0.16911077730424373,-0.07744524110304263,-0.03165852201219921,-0.05756364281487669,-0.04297480522725938,-0.09476584117596776,-0.2673547995407475,-0.2673475441282953,-0.2706571661978705,-0.26858801197932936,-0.26677887801069566,0.033073195857613036,0.020311613517168148,0.037664759734522324,0.03014538716380133,0.027677708467907958,0.49575765876746103,0.7236932919338127,0.706186725620784,0.635141917679247,0.6302270564470173
5,4,-0.11676218907034408,-0.4986368112105597,0.12840461987558527,-0.38378018252411317,0.069489537235087,0.4318701716593393,0.6316445372505792,0.516422839188094,0.5995173396812421,0.38748660990306405,-0.2194181635686152,0.44823209260026964,0.31581373720731376,0.037615302391474925,-0.18043606599467732,,,,,,0.27225777360716896,0.19699885450973653,0.18664105753141913,0.29828378248400433,0.08250352413136441,0.6123639968190131,0.5004616645610147,0.4650166832154776,0.5948209447475749,0.6387934133181896,-0.06870892316049337,0.014092755408155022,0.004578254380823821,-0.054706588057571004,-0.014659622122315641,-0.4612370814258795,-0.46614357229671843,-0.46925053039172226,-0.4581540898180687,-0.462263624957056,0.16139153097913672,0.09571373465940125,-0.3441511626808811,0.29386412812143714,-0.31119666781895927,-0.309336104938716,-0.3481438868563189,-0.22524798258720868,-0.13877922000036902,-0.3001826223592816,-0.3238491997399877,-0.20643802694040403,-0.17677913904323428,-0.29087054033869353,-0.29315089176385967,0.6442612819297884,0.6529704235547632,0.6001230271085705,0.5812781185934285,0.54136571723852,0.6739352716008024,0.6469878562978809,0.6914499935943874,0.6803887295168589,0.6946683820122297,0.49052546521803975,0.575881222691894,0.5421591438843766,0.6302230031769486,0.38003026260203343,-0.29440784575696544,-0.2937399424674061,-0.2951942085520505,-0.2928604246278437,-0.2921623018680657,0.5762052006930918,0.11221577741192301,0.5033275034685566,0.2755833607442205,-0.06114250361660756,0.5713479799628659,0.03136478574189183,0.49820946853095327,0.34212016631052633,-0.1363859985375515,-0.004598471888627609,-0.03995957949456663,0.0033104724484581682,-0.021647754025899024,0.007452732957804908,0.20202670609830908,0.20420549161063373,0.21899229775900497,0.1906085773297308,0.21094763921117532,-0.12353739953779774,-0.11940007336357539,-0.14648362137100301,-0.12975080076462864,-0.12475445763680515,-0.015359311572470391,0.021470993849147302,-0.0012710029761258124,0.019372960514795867,-0.03745626207594821,-0.24828242727707517,-0.2483333288589311,-0.25185934792454745,-0.24971057891918358,-0.24794659900042637,0.13167027751433535,0.12050647005353521,0.13358664880493243,0.13265247574827788,0.12704078811838837,0.49259997947679224,0.6407933798083142,0.6446498397173086,0.5905088905911525,0.5910937953162156
5,5,-0.06812977872988024,-0.4722072110743243,0.10250965905340148,-0.4072550693390229,0.04665967111010594,0.3969110122867574,0.6005117190102581,0.462965498235665,0.5635309080735631,0.3801925906036381,-0.17597934049634922,0.4210106327323939,0.3130130605712862,0.07256183669723792,-0.14129263276273285,,,,,,0.22214638512414986,0.1612947662726566,0.14432367842215377,0.2503995660300362,0.04033974302575527,0.5881719751211343,0.517786443548828,0.4885941394747706,0.5670926145392025,0.6175072092973006,-0.09859074104110266,-0.029027984138648488,-0.03525823252732008,-0.08363913827423186,-0.05099833208123705,-0.4438548290194697,-0.4500713420494986,-0.4522292465728115,-0.440930067412985,-0.44584277780101167,0.13794183222985557,0.08120178192550398,-0.31285889157822955,0.26568936784127595,-0.2877817393764379,-0.28368601539020855,-0.32361492431098915,-0.19914248713050475,-0.11341501731812609,-0.27446000521101666,-0.3510721259647982,-0.22720022840623533,-0.19134231356780518,-0.3162093148414169,-0.31865510856460966,0.6103722293493142,0.6117404754293232,0.5676631550961324,0.5467252299512151,0.5477237586399842,0.6341103325548039,0.6116748609271672,0.6779431501178955,0.6510025803035872,0.6599665710216874,0.46883435810082963,0.5320253231052312,0.4903975884050822,0.5949545745104227,0.3817214827728814,-0.28610327690798787,-0.2853630896998358,-0.2869247728314772,-0.28438641406188836,-0.28369554684811327,0.5497935237462394,0.14563092347681328,0.5207671257518915,0.28903005170303064,-0.02291606105651156,0.5407747009056244,0.07333330519731551,0.5102516772362656,0.354600270422168,-0.09307098057402952,0.03115106766355913,-0.007145972769637021,0.03939186558031915,0.012995696191592465,0.04400308133673425,0.18909141724958345,0.19552702012610013,0.2039975725131573,0.17952393050096271,0.19683416330252812,-0.10168904576608728,-0.09738579421325722,-0.12452471255570696,-0.10694740899241739,-0.10251239482656338,0.015097420237911274,0.04919911253387155,0.0285165975443622,0.04904251273789417,-0.008479836856554845,-0.23844828795647932,-0.23851943775027085,-0.2422475034957423,-0.23999102407938855,-0.23815798058419269,0.1678970837486149,0.15763991519591125,0.16839998006721613,0.16893207325785442,0.1626666727594226,0.4819735303279409,0.6065337911644189,0.6169110946200264,0.5677307367379343,0.5689329967983243
6,1,0.806320221004791,0.6844203915599247,0.8070978349422162,0.8160615374608432,0.7864355667355537,0.13262262675288206,0.614703537635565,0.6744565216339777,0.44088922985979495,-0.01284164016877476,-0.21469764079286224,0.5329733605440122,0.041018403188471164,0.1313568090558238,-0.14547521833712973,0.2858334585411948,0.2796996388034678,0.2816416231570208,0.30471438748720125,0.30159323440159036,,,,,,0.5327425418822751,0.5329462514841629,0.5044272242439176,0.4709987768815225,0.5153600485267715,0.6005108490585472,0.7269980318744826,0.7213735634302706,0.6545697352541351,0.6510341011934789,0.20450996356449502,0.1728882390511155,0.21608119474015863,0.19572173941444104,0.18141044342735335,0.7891167599778377,0.7842342185664728,0.8233465017180891,0.7673909320358868,0.8327692063010691,0.6431337342202417,0.643206509483049,0.6954928622746879,0.6959362690982125,0.6383817874526655,0.3841861042502468,0.2288935093352844,0.06350100470047937,0.19056623313675447,0.22572823948859133,0.5278531688830433,0.5571083346258326,0.40427234656183764,0.41615058783303205,0.3956752926613617,0.35479864573505915,0.3841332917160759,0.24109649420840196,0.2733495304552469,0.3470332685260611,0.286820971660275,0.5054020602199233,0.5745008040500997,0.391038311268898,0.16724516088944652,-0.7937179570350841,-0.7933054716094481,-0.7933368996959969,-0.7931572207294766,-0.7934176864635671,-0.2897430175204396,-0.8175454500843831,-0.6578757894687537,-0.7861012477424922,-0.8363863484425136,-0.16646705663853156,-0.8303612297759244,-0.6827503014996235,-0.8063721873469685,-0.8079378536192658,-0.5618320805013557,-0.5590155772383554,-0.5674072268401118,-0.5658282803542427,-0.575763849424864,0.8889377552206982,0.8851192105304798,0.8870594389335261,0.8805126146430379,0.8808766345725313,-0.8218354881612104,-0.8209996718995352,-0.8372508306234661,-0.8387940833137588,-0.8348056448642804,-0.8217594528685459,-0.8060978648870329,-0.769981746265995,-0.8311479160821733,-0.8037325951946275,-0.8327124234935117,-0.8324975483271757,-0.8323161023177197,-0.8325211977570297,-0.8298275154660097,-0.5291066028906508,-0.5310626272369938,-0.5094121067116115,-0.5102689118398231,-0.5095870345314064,0.010496273831209324,0.1483143847764843,0.13657011353642723,0.07523558670576302,0.08378729503095261
6,2,0.7472192207826833,0.7385011241603866,0.6973815406712474,0.7484192866438931,0.6741006993122173,0.15195198624038464,0.5744250543322573,0.5946431438355126,0.42793277873420377,0.06730889216273572,-0.03482238962115547,0.6291835008651901,0.1552021620106121,0.2871595403573961,0.03137652537458213,0.14312945812504563,0.14755643377973982,0.15191059868429946,0.16471885340833914,0.16945856529151015,,,,,,0.36972944728690593,0.3892981938796696,0.3676031348227048,0.3548127926450966,0.37521836409697795,0.716575464837668,0.8209564499200528,0.8160962018978445,0.7599921374446407,0.760668791009955,0.3807831429241393,0.3517501778464258,0.39093634721394155,0.3742753156727563,0.35961349522231634,0.6662039689516638,0.6635741851089683,0.7693235552224352,0.6381536978057203,0.7707198231803685,0.5523339011440983,0.5477339804690077,0.5916850515139133,0.5828281659325808,0.5434237259131088,0.41166542571611475,0.24159481315342846,0.05903809583538311,0.20337260476707963,0.2455902551267679,0.46051790488024047,0.4798406780589233,0.3671908512273214,0.3736622830407731,0.3699651103638615,0.2605529614317048,0.27314484992041543,0.15134309468999363,0.16322383687149744,0.2755605587021457,0.3097538503972652,0.44629764829997876,0.5461381813768451,0.3398612433930006,0.20643831814803904,-0.7728284934569705,-0.7724056360516129,-0.7724162235877021,-0.7721654828559945,-0.7726763075867824,-0.25850702672486525,-0.7250784885647052,-0.5806070759349315,-0.7027476633650924,-0.735353605272544,-0.08105739083369112,-0.7267999880688307,-0.5806968900611209,-0.7158516260136909,-0.6958877268689019,-0.4429480145612592,-0.4319192892294663,-0.4470231707924037,-0.44522741342457484,-0.45653299815448567,0.8782434849523938,0.8722946392093057,0.8741257941085467,0.870901495739725,0.8729687607397278,-0.7927090447964122,-0.7923384378864593,-0.79468419597135,-0.8019062689292973,-0.8017798698801768,-0.7845155541253652,-0.7819774726036677,-0.7564305517363688,-0.8080720586512733,-0.7696690505360735,-0.8169694378992283,-0.8168361553777119,-0.8163726524686947,-0.8167398556686987,-0.814733146436516,-0.3971672481580655,-0.397688632419646,-0.3767025677570519,-0.3796746068758665,-0.3785633650620024,0.027263727763709555,0.13474225352035085,0.12042121148218721,0.08095834168076688,0.07991602504495143
6,3,0.7261211900753001,0.7238658818990558,0.6798839337023104,0.7330031249796657,0.6573748861471759,0.1761198340759721,0.5847939069760705,0.5951152323998832,0.44277838632942235,0.09944233356351617,-0.0014022535092417243,0.6524289911998266,0.18894557468395912,0.3197880938799498,0.06204465309458351,0.11275461326620762,0.11854998964527708,0.12081190826480837,0.13520247036891864,0.13877319462543036,,,,,,0.35149152016699703,0.3690531547159952,0.3449653742612435,0.346166861621096,0.3619863144497162,0.7488166390314753,0.8475878659549,0.8425696211796654,0.7900453422580832,0.7907875266132154,0.4143018539697195,0.38659595496156995,0.42445520966964856,0.4086043190199531,0.3944051513342187,0.6492541723117157,0.6445793716883105,0.7435833456671708,0.6230464495064354,0.7465191264257472,0.5172688677898845,0.5135114505351296,0.5587957623323643,0.5515962336859607,0.5088371419697645,0.4227121203213242,0.24953129047366707,0.06406159507486642,0.21182881381892527,0.255148233320615,0.46583276437978405,0.4807605576128323,0.378787781149424,0.38420061568813013,0.3828801443389651,0.2553731815976069,0.26766749736659357,0.15099176036082262,0.1590428351033677,0.2714548623202606,0.3337007614035661,0.45516099359918805,0.5571379184090322,0.35031241857796025,0.2329061088384623,-0.7809291962399503,-0.7805340239500729,-0.7805795127071269,-0.7802263916893077,-0.7808222912009382,-0.24228851652323358,-0.7024628630096208,-0.5646722004841913,-0.6814990231454243,-0.7157059675455468,-0.06239869753909044,-0.7093295588525796,-0.5654600127144922,-0.6972990825432319,-0.6800684937697463,-0.41381719391899896,-0.40143040028476884,-0.4179123160943303,-0.41575020101718163,-0.4279150814419346,0.8863568965162988,0.8791541742344988,0.8814296703236809,0.8794697950418983,0.8815267268910414,-0.8018155998019876,-0.8016356008956835,-0.7981891394351353,-0.8077432983526873,-0.8091198112931184,-0.7881614368748058,-0.7911584917405701,-0.7721708465330304,-0.8161042728812218,-0.776114307424046,-0.8251454678930688,-0.8250557699420393,-0.824501824485876,-0.824858505797917,-0.8233278870744027,-0.36517261149994784,-0.36550978522062905,-0.3433314345718981,-0.34613925331854256,-0.34481134485624465,0.05294178992438614,0.1493032289837719,0.13609412968085788,0.10068823115516545,0.1006050412172117
6,4,0.8518728781599575,0.648510073175393,0.864054483998941,0.8528020401784097,0.8470692905555942,0.1453595360138118,0.6424934576806185,0.7165376029231485,0.4685483860653221,-0.021613955633924098,-0.2997020977706337,0.490009130382116,0.008147573134453134,0.06615889395651964,-0.24877344996298434,0.32560758577775484,0.31531090459218536,0.31417397976302164,0.346064106474786,0.33662831794337533,,,,,,0.6165240095631905,0.6095315558487717,0.5820698985171284,0.5402821686916158,0.5922906423465891,0.5710550177880572,0.7013208512146494,0.6958561821561208,0.629302343617437,0.6203819401679979,0.1143032189189459,0.07928964214437739,0.1265702254464014,0.10449694558659495,0.08981220688174107,0.8504655353927604,0.8461252696225406,0.8505727181468234,0.8328159900257964,0.8659326063353668,0.6877376223893973,0.6918944649542798,0.7457326116994888,0.7517762117480433,0.6864253485784396,0.37755340185509656,0.225723893128161,0.06883155931933782,0.18824227383723624,0.22075837927642716,0.5634760078056913,0.5905460394747346,0.4369722654516255,0.45057524851092856,0.42492745651391095,0.39275518697842227,0.43809120397513346,0.30035310861027475,0.33218826163772963,0.36975939703711314,0.28981440065020836,0.538131358821894,0.5779173655213475,0.4315173007882489,0.16454146704063977,-0.8004427275847834,-0.8002933886760135,-0.800567037019172,-0.799815600897485,-0.8000036095839143,-0.3128152640245765,-0.850904587783889,-0.7029070884600097,-0.8195354362143856,-0.8786480683407629,-0.22329005882028818,-0.8717783414929343,-0.7403294446059927,-0.8285878769510071,-0.858558829191157,-0.6309546064845999,-0.6355934562780075,-0.6368774900423404,-0.6365875947104764,-0.6447879818842286,0.9160263533150158,0.9150868215906653,0.9161906848437152,0.90914553275585,0.9087575011909269,-0.8603676505573441,-0.8592067888721462,-0.8812673920647487,-0.879426045554851,-0.8732113146832465,-0.8684576729783804,-0.8490564503971889,-0.8121148678352395,-0.8683471943164123,-0.8522352637727604,-0.8372010074264331,-0.8369295961659899,-0.8371386684408173,-0.836750307844583,-0.8345145184408476,-0.5881936164799768,-0.5919170682856851,-0.5682177215521458,-0.5654861395524182,-0.5663376039664354,0.017870424866591184,0.14907177858771192,0.1415941934771796,0.07554923639201683,0.09559073071301283
6,5,0.6885625825904614,0.8612876613142458,0.5942998368598963,0.7086048693378527,0.5692511706508645,-0.043147366111744745,0.3382327420902491,0.36143816468112533,0.19922749918805605,-0.06019689201317613,0.07776825756561778,0.5587295512633484,0.08286414630210337,0.2907718209686203,0.17079431038014536,0.0010693477927694595,0.0013536219824871187,0.015366603146841684,0.011248875872726716,0.025323750601274675,,,,,,0.15245682909919334,0.16850115178497038,0.15583014912466442,0.10861404535342234,0.1342100787396473,0.6737627470378663,0.7621921329574832,0.7621205971556851,0.7052055550983181,0.7168986513886045,0.49401558163024517,0.4686954472227518,0.49882260506070675,0.4878907625852207,0.4736939380092725,0.5464437819715605,0.551212128084451,0.7549692616047372,0.5068125504257778,0.7377372921931291,0.5645477256743103,0.5496601822573667,0.5693417033001051,0.5430153113694105,0.5484760566843624,0.3906053419706641,0.21593679503388352,0.03132242649427386,0.18205331645760991,0.23156010145112527,0.208040022188424,0.23880515212438902,0.12181250648255404,0.12632292869189699,0.12599539728819908,0.033505492121546965,0.024701476183046744,-0.10818689049800168,-0.09157061245503373,0.06421905626114965,0.08848795810865595,0.18848870465948642,0.3266995022074306,0.07556209634083899,-0.0004293861295154855,-0.5752352493667441,-0.5746680856002961,-0.5745150617291981,-0.5745551378967853,-0.5750820228131392,-0.35531534573696755,-0.6572104891157544,-0.5270135957306974,-0.6415287099764186,-0.6134178285026186,-0.11073756622140185,-0.6030067080588462,-0.45821641255405643,-0.6378297692799824,-0.521286491169259,-0.3958926963200462,-0.3612306479773717,-0.39572915103365136,-0.3921310721124418,-0.404006446700804,0.703506243254408,0.6958778396188323,0.7012579275331727,0.6954305964173967,0.6981070219153193,-0.5926572146157731,-0.591957027362995,-0.6050678670558884,-0.6081030835669097,-0.6050265308235461,-0.6270642930737855,-0.6192085549628668,-0.566759950065459,-0.656646294818646,-0.5948672033649693,-0.6301655280325482,-0.629927013098087,-0.6294913291919064,-0.6300977519938926,-0.6267990833308374,-0.349890639036039,-0.34619819101565263,-0.33866003644257225,-0.349694104571749,-0.34595705468791804,-0.17549020832590823,-0.06113337400866303,-0.08182690570903195,-0.11369533794849174,-0.1342380299165169
7,1,0.5878024604966894,-0.06289522234922229,0.7398534680654643,0.5648748171595604,0.747868741831753,0.5369070556835484,0.7316810009694759,0.9164759102238845,0.763951046694377,0.17816711218323322,-0.6783630727806136,0.27452267980289646,-0.037546545630089856,-0.24859829754621088,-0.6638857600710206,0.7753443764791127,0.7480641692593925,0.7347825757797106,0.7862696418127572,0.7554486755727815,0.5305092747323993,0.35710570330954616,0.3490710055874875,0.6317461375752459,0.0751715650401662,,,,,,-0.014697203226891942,0.11640324374445576,0.11509664942181419,0.0552496621852645,0.025523371240805615,-0.7311983495526038,-0.7642150613824679,-0.7306901448110259,-0.7375764130474503,-0.7483813101748726,0.7816440211408184,0.7745076098293869,0.4773012894032349,0.7964198029014276,0.4157197390383188,0.4138499407667713,0.36182049959997564,0.7033099604226445,0.7292721760050164,0.3796745739297771,-0.14569149834513895,-0.1230970051247453,-0.1066526349377297,-0.15966577731749765,-0.1854172323611245,0.898640260513339,0.8894245941585492,0.8105141855948474,0.8239928880765521,0.7802824901817027,0.8338538992781751,0.9046138212707523,0.8424257291053798,0.8696735007939689,0.7664345029899939,0.583279274427505,0.8810283872163805,0.7217740033577726,0.8386131793134889,0.42696432690169794,-0.6611452239348568,-0.6617565185207197,-0.6610022865126672,-0.6630429732954528,-0.6622920426724535,0.12561210791913657,-0.5100633956833889,-0.25100942565577,-0.4259088659371537,-0.6380264900490356,-0.011555285951956984,-0.6117603319636093,-0.36805978904870074,-0.4270811003037456,-0.7400153716059124,-0.597967459105186,-0.6549600425926803,-0.5942024298321114,-0.6211395610146238,-0.589745564217754,0.6939779625613884,0.7004240339149808,0.6984609620853314,0.6935397808607489,0.6871638590108176,-0.6875693029523897,-0.6880468719656601,-0.6958191118129942,-0.6888022968146028,-0.6883511443905479,-0.6107471418741182,-0.5898652926930303,-0.6239883130162578,-0.5649771450354133,-0.6429565650071245,-0.6342385492784937,-0.6340989413193672,-0.6335817729900888,-0.6337654023395989,-0.6340002163464922,-0.46796106503910995,-0.4768819311352721,-0.45882622274521934,-0.44606741308244224,-0.4490466035841765,0.4076306065322177,0.5065389867365845,0.5247987977074965,0.4290434842019599,0.514741662290827
7,2,0.5259828762476203,-0.09889845449922219,0.6478147931970971,0.5211816487430889,0.6524660621632397,0.6494231704771131,0.72548481315952,0.9107051610205407,0.8282502450145739,0.27816850621091127,-0.59472120618913,0.381806072889719,0.02834401960550237,-0.15878417599474592,-0.5882588544357761,0.7703235945020234,0.7533644982750128,0.7421852216985629,0.7837489669843049,0.759330777009991,0.48068836070660526,0.3338382047564491,0.32375170012318755,0.5897311297265083,0.057590866804390406,,,,,,-0.026431355415046598,0.09532073058534518,0.09928361195763258,0.04124929254214238,0.011125366810426751,-0.6873936287677225,-0.721769773919424,-0.6885054644062465,-0.6911357035682824,-0.7041737618036414,0.68776149320168,0.6843001036175992,0.512428205891105,0.6957897408166869,0.4834320834613559,0.4896429705988692,0.45028708754687774,0.6600924447308543,0.6510949430424868,0.46478036689669233,-0.23200639628474584,-0.18673071348937276,-0.1595703593516784,-0.22991377289480575,-0.25985994179437655,0.9218340999333877,0.9033952905032817,0.8988520164737742,0.9090652663077113,0.8818846402347722,0.865263688817787,0.9300012764884253,0.9031753056967863,0.9076610817727185,0.8213594315645352,0.6551844811997215,0.8754543893860591,0.6987165912605435,0.8631750867467348,0.54891478463562,-0.7071186442867301,-0.7076752497758858,-0.7070959600516487,-0.7088548481196724,-0.7080745769494148,0.21215623961891183,-0.4442236277120879,-0.17846576583075313,-0.3675957975363229,-0.583784183782234,0.07449028712749273,-0.5529218981387183,-0.30497478894887964,-0.3763890608479543,-0.6872983874135232,-0.47953232946650837,-0.5462931395643298,-0.4733317342197563,-0.508128514963152,-0.46850491674834616,0.6718952244604641,0.6801513738771185,0.6765439217343068,0.6718040008905141,0.6659194908888989,-0.6892226294793247,-0.6870294008686535,-0.6895469994065229,-0.6882522801288384,-0.685498392710838,-0.578113881233695,-0.5651977870601903,-0.6023376811484553,-0.5409223090143533,-0.6160806233223277,-0.6727672690752877,-0.6724791498753975,-0.6723555115349193,-0.6723874003455865,-0.6727639072296014,-0.32043147286946705,-0.3287531407568012,-0.30864348711047973,-0.2964643918966732,-0.2983015639200737,0.4919785916599575,0.568029974556747,0.5828771701293088,0.5036045931928643,0.5824433123029121
7,3,0.3257087683661072,-0.16224966410247865,0.4306929721693329,0.5015377948797068,0.4315598595775971,0.5934908978304606,0.4336815258662835,0.6594579173052293,0.6528399624122921,0.16711503847116105,-0.5020388858092004,0.3913495773104053,-0.13060235502458228,-0.20773277607449492,-0.4936264972748061,0.4788437417680531,0.47025107862993965,0.4568665900686637,0.4936914305319027,0.46988365867940485,0.30192006547282535,0.2177163396947015,0.2085166064487809,0.43571977942749807,0.00996315898491651,,,,,,-0.09673351861177437,0.0003554782424202152,0.023420983907405324,-0.033883988008341026,-0.06735981754763798,-0.4072230364337115,-0.45114777027645014,-0.4079891735084622,-0.41337811685990533,-0.4274349667518056,0.4893232218095436,0.4892501566533035,0.6555793045459447,0.4827128932271466,0.7347732321439905,0.7687093608004268,0.7679339915146782,0.5709443288904135,0.4594680487623505,0.7715389635132208,-0.2269641192370062,-0.18575034732159112,-0.15141611632593044,-0.21906859131318202,-0.23910639580954607,0.7017668404351781,0.6646403295033695,0.8246435668216089,0.8353871697170927,0.831590338517836,0.655114466661047,0.745350210038659,0.7841216712797502,0.7686130234416434,0.6392732045331946,0.4530495717197307,0.6052977100691431,0.3889622830981254,0.6131854411727856,0.5096755828265105,-0.6587690983929115,-0.6591533113144603,-0.659086233871865,-0.659650862681481,-0.6590632150751745,0.13976723734605712,-0.4098682511287477,-0.23858384518620923,-0.38256415724818904,-0.52361185359038,0.0001925685617970574,-0.5132424202542709,-0.36466952308909173,-0.435778621349997,-0.6008969849116137,-0.23198367588293545,-0.3090259723270703,-0.2250870166155563,-0.2662863948823557,-0.21925067693364997,0.49127103163433194,0.4979963899984594,0.49519240921373586,0.49030486353476976,0.48349611106631407,-0.6079028865207028,-0.5964287483037147,-0.5915267104853354,-0.6119520525213498,-0.5942944966582209,-0.4792000032052308,-0.49408959457752766,-0.5091303626780315,-0.47974531867142733,-0.5074535974384426,-0.6278266270427264,-0.6270032452063352,-0.6273934070535561,-0.6272108859677261,-0.6279481126655535,-0.10110750960250736,-0.09899728942781905,-0.08152940453608393,-0.08212188487888494,-0.07084556623562377,0.3567750106938077,0.3751705995222686,0.38644369549032953,0.3345775359024483,0.402146819845014
7,4,0.36827136861402243,-0.19775269176475585,0.49027970930819165,0.43804735580207765,0.4938181290020124,0.7342022037763931,0.6359453813855287,0.8341666725494342,0.8200420124204373,0.346686511840661,-0.4857135173181457,0.4377791863925875,0.05947792243012584,-0.10441791757121832,-0.4832296463977319,0.7041973756573862,0.6945272159754258,0.6822774139258415,0.7163424227995446,0.6948303586498334,0.35291914590464746,0.23137415022254404,0.22276191809462276,0.46948733197614934,-0.014095754497383206,,,,,,-0.09392536190658007,0.010917250293498548,0.02244442347096931,-0.031949453352198676,-0.0609024230246078,-0.606192894893177,-0.6374684226226546,-0.6092847979476559,-0.606231535133845,-0.6197896742488263,0.5390132400010986,0.5352922796570222,0.5077386965420189,0.5430568626576919,0.5398182862282834,0.5656895070794027,0.5508480967471671,0.5513300549521992,0.5001761181828565,0.5586094959189659,-0.33652358518726966,-0.26085438684111284,-0.21421432688709907,-0.30726221667042286,-0.3404403380486871,0.8784180770073743,0.8496441544586733,0.938237749809447,0.9467896501856166,0.9328368809209506,0.8453026177609746,0.9041325757081723,0.9176918294832155,0.9056154896258096,0.8228684676543327,0.6573714774903154,0.7980726159190427,0.5930817147673483,0.8167810852051938,0.6251299619955115,-0.6864174329145043,-0.6868944187585995,-0.6865706906731068,-0.6878871295571618,-0.687089655689046,0.28976757586049673,-0.3340725119563639,-0.09223668439072741,-0.2699581249583016,-0.4718618722278205,0.1387062355780856,-0.45078242496805876,-0.22782601655545043,-0.3048477818730666,-0.5746331231459552,-0.2885199817461084,-0.3605211044681198,-0.27995716507247015,-0.3210402126673937,-0.274976174040265,0.5584881254227548,0.56603731794221,0.5634854514309118,0.5581238108032713,0.5515932399362631,-0.6172085350110024,-0.6112590382666827,-0.6068898718152043,-0.6149157796349112,-0.6078186552554747,-0.4763545902171966,-0.47628242955172606,-0.5117050603925082,-0.45527497019751006,-0.5168120867615547,-0.643760772687463,-0.6432423292380456,-0.6436176525266601,-0.6434579736747112,-0.6440326378806027,-0.12039221725733795,-0.12621937387855686,-0.10600027088912212,-0.09691133980336675,-0.09465087494159952,0.5521801053276965,0.5928341778691592,0.6061751096472203,0.545997693634436,0.61473274049571
7,5,0.5164631164195291,-0.12191583187654831,0.6521577775579366,0.48810033480121917,0.6586791679575408,0.655395730225557,0.7529069268695705,0.930990847610369,0.836026510483748,0.30198919359902465,-0.5939965658308164,0.3519246495379885,0.06235402783700239,-0.15495635037290945,-0.5894033213412615,0.8119516985303562,0.7927846558486858,0.781254617269237,0.8235949281196581,0.7985616901104784,0.47234272401479305,0.3118918060731798,0.3026870332894509,0.5745908059501112,0.031816074011437045,,,,,,-0.04339906727944243,0.07867805494215352,0.07861730929362931,0.022865428718041758,-0.0056453215719809435,-0.7399058221885433,-0.7691809347627023,-0.7412390856892173,-0.7422723394636401,-0.7542440984556826,0.6917760010665148,0.6861813346694982,0.44287693969772957,0.7045672584726224,0.40214647164899575,0.40762380580339497,0.36562498251327114,0.6336591556307589,0.64698430505553,0.3808045379262124,-0.2511408912769044,-0.19818385783732206,-0.16632266033563115,-0.2420994292156362,-0.27471719065261,0.9401638665297193,0.9251746765330718,0.8924364971223264,0.9029689342665652,0.8699920978605344,0.8920067545190504,0.9478214080406091,0.9112593082392311,0.9219153518379694,0.8425369561589335,0.6795844074756535,0.9050856655707284,0.7328835235614033,0.8916712819798843,0.5487721123282022,-0.6759617256454202,-0.6765570205943843,-0.6758822858393467,-0.6778734197252896,-0.6770356213137552,0.2376244033826348,-0.4135102262359267,-0.14254536670130236,-0.3278424829093729,-0.5535906221177438,0.09323876183798929,-0.5237827433218714,-0.269721473561257,-0.33289683106194223,-0.6634864445340267,-0.49115297538485425,-0.5540991717162447,-0.4852678262500021,-0.5176919397906712,-0.480808572554531,0.6606661055005161,0.6685858479687488,0.665582796792832,0.6606182393636356,0.6546527886848819,-0.6601272282085748,-0.6598013125794555,-0.6631568338882179,-0.6580281740303948,-0.6582231680373543,-0.5543057286485022,-0.5364675596291488,-0.5776083779302712,-0.5105588664959679,-0.5937507862052871,-0.6394125542949061,-0.6392221889648722,-0.6390519185152432,-0.6391059404260315,-0.6394243658644729,-0.3359161898067029,-0.34630925497957477,-0.32636377993529986,-0.3116683609882105,-0.31583637534173237,0.5241491589318974,0.6045397263909582,0.6209697516810535,0.5391517741909955,0.6178820499928072
8,1,0.3574154618763672,0.7557593012923248,0.5009396263914143,0.5940636325933691,0.49517480152972326,0.06945374428467599,0.24654130533873098,0.24962651195549845,0.2314133967314278,0.10758020203148777,0.137744878421604,0.6758483884559404,0.30216914492670344,0.34891272447027943,0.20044586978158663,-0.1395123319184517,-0.15264564718941687,-0.1306112477879613,-0.20171175789592577,-0.2185652784588923,0.598922835102604,0.7031100333379818,0.7016511233763542,0.581125869876906,0.7966345129935152,0.03309723936407993,-0.03482118987593541,-0.02444983654037758,0.04784109155173755,0.014242216664014595,,,,,,0.348875637039072,0.34877860790969684,0.3439520701452472,0.3629235858693418,0.353872164475004,0.42043241424244004,0.42763878530641364,0.5192778641701378,0.38527377410493036,0.5524404471538954,0.5111289967243732,0.49105398063663197,0.4487879785183029,0.41522265654759705,0.4912419618030661,0.3727249731319049,0.21937770980293825,0.09093239330780489,0.30081390525175533,0.2560583657629114,0.06667902762272726,0.09362321153571518,0.08525579185498233,0.0852457273457835,-0.030663404280406814,-0.036676516199164455,-0.0601684267000453,-0.21883298979338894,-0.19056565940562975,-0.0458849770188372,-0.04054950291283821,0.026158924644246073,0.11415971452752116,-0.004545956679772756,-0.3296036890450269,-0.3905308174043651,-0.39166012457722976,-0.39301717205096787,-0.3890706158574764,-0.3900764215554211,-0.27687740290662877,-0.49458605896718444,-0.35231404068876193,-0.4526830930216501,-0.4002763051541367,-0.028823759652607084,-0.40278391157729443,-0.1938611105944521,-0.35353719287841656,-0.2833875181671708,-0.4014669545242626,-0.3551140124512373,-0.3878128634527209,-0.39559264732781196,-0.3955323262502086,0.6388845623973836,0.6243045748020538,0.6461450691845503,0.6390124598620817,0.6492369795856456,-0.5456742336824993,-0.546775383250631,-0.534403168036441,-0.5418473772533114,-0.5344326178361496,-0.6236105575020439,-0.6457442829522093,-0.6310086590302848,-0.6641952576874575,-0.6035684091753222,-0.4515013884208816,-0.451093390895829,-0.4523676030330037,-0.4497662827649105,-0.45148604253881186,-0.2428503431385427,-0.24129913352067356,-0.24384190796038174,-0.25327922364242506,-0.2509399939091286,-0.2777903825947765,-0.08627779801104207,-0.12931671211612872,-0.169894947642089,-0.18154676651378887
8,2,0.2525556646779872,0.601646781818856,0.6694039976090714,0.7541010599093332,0.651903256208628,0.19973832027567318,0.4980026662036705,0.5185994830319253,0.4449311647127584,0.06190944734410064,-0.15028132233698965,0.771543275547488,0.2159331730766012,0.12365528007332915,-0.04613700499223805,0.13107586194405285,0.10934856102469248,0.13910282419141062,0.037794978507628585,0.005476065825369858,0.8086589894153299,0.8461091624077527,0.8617367325542307,0.7923325495961182,0.912837375462335,0.28037782597027394,0.13906196365372447,0.12603996815810314,0.3012522919428182,0.2596493166075995,,,,,,0.0992134582453823,0.0987576799482266,0.09671473292016364,0.10988821112154235,0.1028909755989249,0.588524547373876,0.5752643163297558,0.48341847431126395,0.5609985012626001,0.5534351443020105,0.49517757001025287,0.4812052932750456,0.4655948077719778,0.44621167026608466,0.4825589107031336,0.38947816183822104,0.25898187540066675,0.12080135307828088,0.3261319838965633,0.2779644467092509,0.33137626443314483,0.3702831598900791,0.32865138876324107,0.3333459608931887,0.10448151452904997,0.24322773716368173,0.22160482054011377,0.010664199042249356,0.08270671315078593,0.22393495758082416,0.17454492565114488,0.31670856167772143,0.4087238145303288,0.26121989385269295,-0.24048441489177486,-0.5652670385627045,-0.5661987722308326,-0.5673964294162692,-0.5639700548729332,-0.5648069512385612,-0.08301149768931126,-0.6661027510702477,-0.37103838301651826,-0.542179031708484,-0.6037972881201188,0.14544483252005125,-0.6128046901019224,-0.2312600639719482,-0.46234644953069903,-0.5144066054122689,-0.6008501361974483,-0.5579338431775274,-0.5904251385764934,-0.5951383150426679,-0.597574350692571,0.7395725770871063,0.7131711226947972,0.7515374026723126,0.7323921065984753,0.7492372979249418,-0.7058309686275179,-0.7066554680992214,-0.6983700066791232,-0.7054648595931035,-0.698930751484274,-0.7652135355519383,-0.7728873413172088,-0.7698063097956036,-0.797086196602101,-0.7474454462122608,-0.6175412865324199,-0.6172172284269353,-0.618227105405436,-0.6159729350434673,-0.6174909526707015,-0.46667230475143806,-0.46758797936936003,-0.4654179600454551,-0.47864488510813463,-0.47470832987633216,-0.14871856912590498,0.1592407057645252,0.10420135700470667,0.034821570021239756,0.027539870265954947
8,3,0.29337539826343817,0.6450502898301628,0.6569267615275983,0.7340883137347579,0.6422282767463516,0.16708607077985438,0.45315993348464434,0.4703626406718593,0.40300175929334303,0.057650607599060155,-0.10555503667080846,0.7491244257152944,0.21825119027284223,0.15898549272981088,-0.010915346594289721,0.08109645669019239,0.06053203580612976,0.0881796458649099,-0.003975543384878044,-0.03342935134218772,0.7790979936680879,0.8307322184881323,0.8417448284788588,0.7643258601149823,0.899033227545162,0.24489950581985964,0.11886056315940241,0.10940604626324324,0.258100564375634,0.22218605136665703,,,,,,0.1475222960522058,0.1460027466222351,0.14487457908873436,0.15831770068398832,0.15067391453709855,0.5772778538458865,0.5688002693854542,0.5113097780410408,0.5480764399780272,0.575010217858016,0.520541538031052,0.5055022974475399,0.4852132703418762,0.46346214475382497,0.5064142639336157,0.3980409315482508,0.25936478970719623,0.12100939361353336,0.330980735412968,0.282440571591708,0.28488386690993717,0.3204506621397707,0.28250587673215566,0.28661261915498115,0.08355608475500598,0.1888807119760859,0.1694983435410211,-0.031569753583406746,0.03188599472756459,0.1704150013896526,0.12952505915469192,0.2639482493941647,0.3533287949606936,0.21139587616660493,-0.26268646508628857,-0.5442484918188693,-0.5451825957777439,-0.5464334617461015,-0.5428907604313029,-0.5437879381152204,-0.13760891222274663,-0.6538747584910276,-0.3891688005742233,-0.5490843853969594,-0.5842651096189877,0.09426563311402691,-0.5915025156020963,-0.24645015239727086,-0.46515419228207033,-0.4882973095402696,-0.5761486075491553,-0.5337442659592107,-0.5653104529504969,-0.5706160051212601,-0.5726896972661104,0.7381947413189139,0.7144556207228824,0.7489113865932282,0.7324755925001263,0.7477182759201791,-0.6904726154159675,-0.6913789437016677,-0.6823037332999782,-0.6897190548013854,-0.6825930444044621,-0.7545052111698616,-0.7651732153179136,-0.7589021253051511,-0.7880927356931708,-0.7357052095161165,-0.5991592042933458,-0.598821498310675,-0.5998412113376612,-0.5975408875718997,-0.5990818858280924,-0.4400162983431968,-0.4402097018774096,-0.43919355490941836,-0.45116737133495044,-0.44757125721324953,-0.18268387733948765,0.10539469719175587,0.053120236501275064,-0.012831807587591726,-0.01969389370979524
8,4,0.40649334697900463,0.7700781281233569,0.5559172454091376,0.6229235641182395,0.5514625664524173,0.074696857508048,0.2780739003058652,0.2775959055015018,0.2534390820846202,0.08657313626007157,0.09380065763642187,0.6669131773959845,0.2643026779425526,0.3170359646620079,0.1491205119635285,-0.10673590704537617,-0.12066288717359774,-0.10043773807281253,-0.16052037191906088,-0.17703895610717924,0.6288241712519199,0.7323463524401117,0.7267047198690895,0.61769288043133,0.8101738297814375,0.08724270307755033,0.024907860549942984,0.03221000595749546,0.08653316999619454,0.06470791147361521,,,,,,0.33080563197467905,0.3269330125233243,0.3272001132063548,0.3426449542249488,0.33276896755552965,0.4804228786546767,0.4892527517582749,0.567256871002484,0.4457736629481869,0.6039510108390405,0.5633880636923805,0.5441091021614529,0.5059347663568702,0.47469197210566594,0.5433100184708314,0.39040248880978656,0.22914517158075542,0.09959530333304978,0.31346891469435323,0.26614019935129174,0.10210119186023381,0.12388004400231223,0.11099927099697526,0.11224823916410953,0.012819497504664046,-0.013653164911596294,-0.02863551933484154,-0.1795343141832968,-0.1547114248537076,-0.02435977379396448,-0.017856403729153536,0.06223455071010153,0.14093230453428418,0.027253346794294808,-0.30252064085038666,-0.4418352397395615,-0.44282048150639275,-0.4441114296145039,-0.4403862293199825,-0.44141714761887796,-0.3032304543260955,-0.5554291399104456,-0.4119821708859861,-0.5215072113808428,-0.4644165411150427,-0.06639892691524785,-0.46451156567751783,-0.265197271381711,-0.4269933579463634,-0.35015878185343174,-0.4329730242111751,-0.3932550144270808,-0.42043294612887183,-0.4284943963558969,-0.4284600131262264,0.6905356460669034,0.6772736986651601,0.6965353273050768,0.6900436043338383,0.6996998028996022,-0.5924675742703469,-0.5937901793416387,-0.5803544390657698,-0.5891929940885241,-0.5805668577022525,-0.6658318227333289,-0.6870396987073257,-0.6721531044492148,-0.7051609393777292,-0.6455012901060009,-0.5027679875783371,-0.5023903104670229,-0.5034659387244065,-0.5011040972902796,-0.5026589343446066,-0.28849719370108784,-0.28661702116273924,-0.2889557222068744,-0.29652670843489526,-0.2942856296487406,-0.2697550039896073,-0.08072189156796439,-0.12089904439720511,-0.1647059010371461,-0.17241014272633892
8,5,0.30345744086857696,0.6873632378016721,0.5810796840601058,0.6562141127204799,0.5668898917604037,0.11558281446727292,0.37895464713401505,0.3853603833919703,0.334628912578983,0.08219538996628062,0.0004413929893467561,0.7422338226601204,0.28057484220169715,0.2571787334773672,0.09948004991777926,0.008101239406387184,-0.007552978897355622,0.017947750173546217,-0.06993141952359005,-0.0932377564143454,0.7207439455977617,0.7958465815861959,0.803272168632394,0.6996790354529662,0.8770639131966728,0.15591786026672716,0.05576027192588828,0.055544975003521846,0.1799403460528607,0.1391546858654673,,,,,,0.21225689591918806,0.21411357489096017,0.2082013486206632,0.2264086414112565,0.21849625411639462,0.5004722288067928,0.49743721302516497,0.508168296527612,0.4671005735921854,0.5580402170067035,0.5030180090838599,0.4857684624133718,0.4578507042718458,0.4300596911133471,0.48781900356428587,0.3700020702514135,0.23789393411260984,0.1008196474507107,0.3059502989937408,0.2585560008451435,0.21157593985630174,0.2458437124725653,0.217294784947345,0.2180060490744331,0.04344037683894786,0.11566707182914404,0.08909659110995738,-0.10408716384972161,-0.051186944861712824,0.10399906227442568,0.07668451104032548,0.1753066571418055,0.2681005300889141,0.1337382935443171,-0.28797886461010336,-0.48683608032747583,-0.4879003452231063,-0.4892533847592462,-0.48543146696565787,-0.4863519887942549,-0.1599703370557939,-0.5675745761563895,-0.32261916023363124,-0.47362778748721457,-0.4851344632362118,0.09020056853495284,-0.49455876269620247,-0.1677418569677842,-0.38213644321833984,-0.3801945602811063,-0.5142478093961858,-0.46564354968021515,-0.501782495282967,-0.5078573334271297,-0.5088334580426004,0.6956951877305287,0.6745087604214733,0.705229678789337,0.6926432468713007,0.7057777692799813,-0.6337072340877166,-0.6343898560197734,-0.6251864473155249,-0.6312626992712254,-0.6262436806068459,-0.7002363659616335,-0.7158106768765795,-0.7063411020299029,-0.736549421028575,-0.6823432671518916,-0.5433956318693787,-0.5430184503846991,-0.5442415353575643,-0.5416996285230815,-0.5433937217058042,-0.35818701449671453,-0.3582138173686289,-0.35850990869840094,-0.3707071416193424,-0.36806971476289707,-0.2120518742667814,0.055052114558768794,0.005694982869300702,-0.052447902158804904,-0.06377179687144685
9,1,0.009504814574816112,0.35637989556077865,-0.605845105140868,-0.3509372584909727,-0.5869978922337071,0.017558898716653504,-0.4629471061750152,-0.5849429785159761,-0.3052331686945713,0.36458773297077673,0.8449135592981045,0.02441584953855347,0.38936093767734614,0.6370526672002489,0.7430778159242987,-0.8881704754413273,-0.8697283638042443,-0.8747158735705698,-0.8586129728008549,-0.8301998722795658,-0.5112304070443281,-0.2904514419005666,-0.30537627295375236,-0.542099961461529,-0.1768780441953861,-0.821795407424939,-0.703633707683776,-0.6690496744381889,-0.745309142128679,-0.7831958424341157,0.4364057720828276,0.17951050901965737,0.22297414439486485,0.41921681149404755,0.30223560044729725,,,,,,-0.6246377033748516,-0.602630011626768,-0.18770470324615385,-0.6305033004702132,-0.276269797465591,-0.35407209529910766,-0.3714657532350849,-0.4106319704501096,-0.44032883520177557,-0.37948843004021593,0.22728126228999823,-0.006383296739352673,-0.014772195495064588,0.1277667093764132,0.13849441238291238,-0.602833812234322,-0.6639927685479532,-0.47983986224592723,-0.4949548493853235,-0.19576886876664346,-0.7384795330071059,-0.7527747066673678,-0.6069565902712215,-0.7259533000332237,-0.6953798909272564,-0.07718398221346212,-0.5217894722622598,-0.4496580182792256,-0.5023648516359129,0.2826500866649826,0.36581884599141357,0.3673698855973162,0.36693543619935465,0.367274663560178,0.36548020246108814,-0.27139107201573376,0.5429519272118413,-0.00319641487818334,0.30163750339532913,0.5387960527551738,-0.19321195702736582,0.5970823810764998,0.01531231242496034,0.2903904826271544,0.5703464443789381,0.8088088487739475,0.8142615827743983,0.8090676351711568,0.8115412746079971,0.8048522042831968,-0.18654597927308392,-0.17774932072503424,-0.21275206103674682,-0.1777683505713663,-0.18393426160637305,0.44100619248341466,0.4367176367642709,0.5098368705636247,0.4764199261746349,0.4701562817650058,0.4837712258334451,0.41651473186646004,0.3664739813398352,0.4183751286548999,0.4748261743830422,0.3458507365137211,0.34512355495164293,0.34739192283776144,0.3453676963583172,0.342610512050038,0.7828449552180734,0.7895505860263848,0.7828936199720528,0.7850205975591895,0.7880663845200173,0.007323843831320009,-0.4731243135191239,-0.44253231107764046,-0.2820438234726923,-0.30358384373934855
9,2,-0.022522781929196434,0.33987159636129205,-0.6249533689735194,-0.35999504440997243,-0.6079943061048976,0.03381692170323736,-0.45203001255975317,-0.5742594142348774,-0.2916156016692901,0.3871835195111145,0.8600515854457177,0.048328524254520056,0.4194575831833889,0.6561131162166282,0.767287787538648,-0.8825067498411845,-0.8631595155906864,-0.8674903810415651,-0.8577457975315552,-0.8298348399956739,-0.5044365436829228,-0.2838535944259346,-0.29577327804637976,-0.5403506657243577,-0.16399752202311801,-0.8301187612448693,-0.7164456848767506,-0.6824178695572776,-0.7415388036893562,-0.7869490847840317,0.4488740244049063,0.19281145482571305,0.23487379315660362,0.4286477302177717,0.31691729517246947,,,,,,-0.6449537655789772,-0.6257313602563412,-0.2153651349572776,-0.6504654944632917,-0.3040705185721626,-0.38532953742142806,-0.40281747212363817,-0.4411348205020158,-0.4709077066193901,-0.41020813659197386,0.21665581369064135,-0.0054693178322959835,-0.01625734886436936,0.12283446689996635,0.13383535903251476,-0.590520794644309,-0.6503432371996216,-0.4636222849293927,-0.47925037243826374,-0.18856758727632839,-0.7222774269267913,-0.742684361339943,-0.6019987148929773,-0.7187807112652886,-0.6765466215897487,-0.058517152620889634,-0.511000210604629,-0.4349570945288692,-0.4897677237088762,0.2930436876690624,0.3608768435107894,0.36236670249755676,0.3620038920873214,0.3622292794507074,0.3604580255974189,-0.23904588561541762,0.564887236109031,0.03531358893201231,0.3372433901199736,0.5607709142625109,-0.15864782165944424,0.6140227988168737,0.05530433306252147,0.3236269025073957,0.5898795876413507,0.8173677476507786,0.8266847051137644,0.8181721211775309,0.8206979894290124,0.81394572435918,-0.1934163230644157,-0.18654615207637537,-0.21948937171125404,-0.18492538687760596,-0.1905577066267372,0.4413145120360624,0.4369589875228659,0.5118846753314734,0.47803002117922955,0.47030649058025686,0.4880830701544663,0.4196031318602369,0.36642692577127467,0.420960652200177,0.47750794450053136,0.34175338968115754,0.3410302859809795,0.3433341407668453,0.34127194013663653,0.3384325506486028,0.7988517658710907,0.8050512005083662,0.7989411759182655,0.7999279238881241,0.8030721366164596,0.030323700079943006,-0.4446227657867814,-0.4146617547831912,-0.2531913587016734,-0.2777368813101768
9,3,0.010822799717366438,0.35213482047914724,-0.6051054277506809,-0.35258180684330975,-0.5859511643652544,0.015385395148344583,-0.46528257682931184,-0.5856932269830426,-0.30718040353077924,0.36262978459617257,0.8405957279267838,0.01701193824555003,0.38663544079273837,0.632333279201537,0.7361385453467024,-0.892185344720605,-0.8737833999065512,-0.8790255006108052,-0.8619498413151878,-0.8338916959346374,-0.5127483352610696,-0.2919221743561524,-0.3069858346281682,-0.5424174096208136,-0.18184603074286243,-0.8199252486853397,-0.7017430757672396,-0.6682110434261452,-0.7447036766345159,-0.7813267846817149,0.43662066217610285,0.17940985472080662,0.2226989860699835,0.41984372676918513,0.30199747927134357,,,,,,-0.6224398325187186,-0.6002367057976925,-0.187899810702717,-0.6281446592026492,-0.27609976461386454,-0.3556471556767298,-0.3727279464358413,-0.41091331746736004,-0.43988091995925216,-0.38086677556540405,0.2312843430613618,-0.005676470990083615,-0.014044710550728645,0.12992751976226657,0.14090602473644487,-0.6017405685920534,-0.6639738150720929,-0.47945058520903805,-0.4943466621746446,-0.19400718110172965,-0.7389815942766731,-0.7521259012558046,-0.6044186211670333,-0.7232667908908674,-0.6964228210033578,-0.07414436229615284,-0.5184907004384149,-0.4481778344339382,-0.49985221673744884,0.28802408962199766,0.36858196468028814,0.3701231041735902,0.3697204204648712,0.3699897632038329,0.3681918341548541,-0.27471866848831583,0.5415429385722136,-0.010018033313260233,0.29871694294127615,0.5371867372988707,-0.1981387150055225,0.5952086972311674,0.007221333104737826,0.28833233684423776,0.5675374998040006,0.807609628845967,0.8121091808228493,0.8075009151921019,0.8103238725807312,0.8032685116578765,-0.18372074585296394,-0.17471905272248378,-0.2101736544215682,-0.17484354999235663,-0.18105717387788456,0.4404440061860978,0.43611171506938606,0.5096592010878656,0.4759362291434064,0.4696214248971823,0.48228850910191157,0.41479766067594337,0.3642214587554552,0.41742679702821917,0.4731833717178531,0.3484556062461981,0.347725392864237,0.35007401087380075,0.3480012732734047,0.34518504332563316,0.7782579982964033,0.7848873677700814,0.7785073650297913,0.7810371649250886,0.7839658676930762,0.008342200989003845,-0.47473276243382756,-0.4436120707727482,-0.28265926671321795,-0.30322413980293494
