f_id,i_id,2_1,2_2,2_3,2_4,2_5,3_1,3_2,3_3,3_4,3_5,4_1,4_2,4_3,4_4,4_5,5_1,5_2,5_3,5_4,5_5,6_1,6_2,6_3,6_4,6_5,7_1,7_2,7_3,7_4,7_5,8_1,8_2,8_3,8_4,8_5,9_1,9_2,9_3,9_4,9_5,10_1,10_2,10_3,10_4,10_5,11_1,11_2,11_3,11_4,11_5,12_1,12_2,12_3,12_4,12_5,13_1,13_2,13_3,13_4,13_5,14_1,14_2,14_3,14_4,14_5,15_1,15_2,15_3,15_4,15_5,16_1,16_2,16_3,16_4,16_5,17_1,17_2,17_3,17_4,17_5,18_1,18_2,18_3,18_4,18_5,19_1,19_2,19_3,19_4,19_5,20_1,20_2,20_3,20_4,20_5,21_1,21_2,21_3,21_4,21_5,22_1,22_2,22_3,22_4,22_5,23_1,23_2,23_3,23_4,23_5,24_1,24_2,24_3,24_4,24_5,1_1,1_2,1_3,1_4,1_5
1,1,-0.20749852732075302,-0.23479505308169024,-0.18636615193119144,-0.22017405402756607,-0.1671289059497323,0.8467233671662732,0.4499595206626159,0.44876692923987305,0.7866646934374384,0.8342630986717372,0.612274294192565,0.5068786775507464,0.8135266361010872,0.5823838415274571,0.48149976243760584,-0.07111798268955027,-0.06203254354669818,-0.07892799769039649,-0.10113441236155829,-0.11156386875353252,0.1979147832775212,0.4296137846650103,0.38243458000474395,0.2630297934212138,0.16000012887667703,0.14350645501536718,0.21187510226834994,-0.01794564871888471,0.514188021713243,0.46191687645425183,0.8438869183782941,0.8517331012171956,0.8864411777148556,0.7155416762415479,0.8844494381814106,0.6170431036781783,0.6101572131697234,0.6172290392287049,0.5761743475022768,0.6639250652152414,-0.2535350930509872,-0.25438050160438674,-0.5196741350522109,-0.18658034423461634,-0.515318970928548,-0.6811420054323953,-0.610761344773274,-0.6119134002676847,-0.5126074569650936,-0.6209661419743284,0.12662451457727408,0.09533555257932846,-0.06410145071054085,-0.024244325819006818,0.02588901125698262,0.749823935167876,0.6205084058772371,0.8140785748943137,0.8380691885486604,0.8817378428670841,0.41128553726739014,0.3078366683011875,0.6093078222908855,0.47829426582632784,0.3969516878823265,0.8781583845565077,0.5430375006654341,0.4547691599499627,0.8226646389836536,0.8403519094781586,-0.7530091056428687,-0.7568685836757645,-0.7515902512564936,-0.7620059119884708,-0.7487981638195569,0.03677946818758804,0.2757206981689355,0.19617654310639698,0.023515430075944144,-0.06369606066041356,-0.07369443446284007,0.017815497928931223,-0.021481961507864522,-0.09224483289396224,-0.11358925138865272,0.6261005672766177,0.658114050160783,0.6604068357608973,0.6244581056314644,0.6140770847483333,0.8392206934899732,0.8025422072308879,0.8385162734779086,0.8595752159342746,0.8245834343190305,-0.5508379359190525,-0.5653923278139903,-0.4496340849439888,-0.4894985573533235,-0.4908789309334698,-0.3662994519886873,-0.41506114826982854,-0.5724176035809765,-0.42291312826183836,-0.38357571982167515,-0.7426659092521031,-0.7279000363418866,-0.735250217478888,-0.7369362960118258,-0.7304143522368371,0.6958710491063277,0.691001650431253,0.7032150717759533,0.7250239707099099,0.710415752829671,,,,,
1,2,-0.16851664945380374,-0.2591235999751862,0.09876412014228031,-0.10740310163556144,0.0352364561698878,0.6211945655830422,0.5276827829885441,0.8212374835230706,0.7701309249310774,0.5045893556828852,0.2451203292671399,0.5691174582479607,0.613237816745277,0.3314004046061001,0.14728323831666512,0.5200735020573535,0.529503079837007,0.5158672679880124,0.47259294233981963,0.4825021444878569,0.6739617578768695,0.7661711028364397,0.7660449797920933,0.703602450124226,0.5601579181742036,0.35394394689723474,0.18536947698076078,-0.12342743734034345,0.6010629477584314,0.5445744736220597,0.6629018050146932,0.7761434930494052,0.8414241676537176,0.5184687439680502,0.8098852158556499,0.18636958781244728,0.1445373076759775,0.14864258846794653,0.10500333181446031,0.20587544389878887,0.04563839993501406,-0.04333086457553814,-0.4267577714457993,0.2107499019036999,-0.4834611057502183,-0.5280867170913266,-0.48745194550265714,-0.47469334326701373,-0.3954483937886679,-0.4754546118577385,0.04976783203598123,0.15051106702655603,-0.0052694605265382055,-0.04132576287093337,0.010785868513017105,0.9409931587199375,0.9120751693294876,0.6688324341470844,0.6925105081165926,0.6242325691354924,0.7929313398281417,0.5715169172219215,0.5318010966011781,0.5054175894446374,0.729265221459572,0.7214037655549851,0.5381182996924312,0.6749410357790525,0.7391600676517024,0.5260695636948388,-0.7382587113194743,-0.7445442612597988,-0.7422424924159765,-0.7485352149110414,-0.7300773180118285,0.4470357782572565,-0.059622324505643975,0.45854379656024635,-0.006781612182078733,-0.2909058231987198,0.39892736899684345,-0.3015457349445583,0.3019940988479022,-0.04848817881080292,-0.3094195153038317,0.16252566987919514,0.1943945596142136,0.21024416044185923,0.18830568054360386,0.1477551457813937,0.6433117639702798,0.6099450673304838,0.6730334468413768,0.6891964224742507,0.6592651853512072,-0.6842682267222553,-0.6618046904728099,-0.5993740305085749,-0.5925886643600495,-0.6515485787623658,-0.5304915475038596,-0.4917440084436324,-0.671966986001721,-0.5401466211234855,-0.568468300368923,-0.7270063220870073,-0.7209431440205867,-0.7280394661918648,-0.7321705571738293,-0.7155417192657698,0.3176245508992137,0.2649178095045772,0.31563730588280836,0.32456065657038735,0.3056009260223611,,,,,
1,3,-0.11040818317300438,-0.2369156472493601,0.09743971440985011,-0.13553433768543655,0.056171328485240535,0.6611252149534843,0.562468957236651,0.7848722970307592,0.8206967466569528,0.612599441875365,0.26887050607910945,0.5473893403175084,0.6637187017767487,0.41883885852281955,0.2329134713151627,0.45386016062242307,0.4685422603916942,0.4551989030180389,0.437032526960776,0.422048236418181,0.6277522264969703,0.7151192183246154,0.7384025053314177,0.6568643985650504,0.4580296637807262,0.37800708434737484,0.24805934799714158,-0.06840096555227282,0.5591361688485075,0.5752195704234596,0.7106872514934116,0.8422389402688304,0.8599337066347779,0.6359375098570532,0.848384007682475,0.20852175556592845,0.2157927577997153,0.21987688858378773,0.19595189903334942,0.265737239793018,0.021009936020562003,-0.09168522660080725,-0.4691739746839181,0.16252871383858314,-0.5012041904410633,-0.5727938475435295,-0.5220188573865046,-0.48891376248888996,-0.38730640487787404,-0.5316080750018868,0.05134071319885147,0.1517107023707056,-0.02638688624178731,-0.030007390863719507,0.003195697114149354,0.960726126478469,0.9254977478075638,0.7511290174779214,0.7636099991918569,0.6618285228525198,0.7687289255793874,0.6019328974205483,0.5670602246457791,0.5338371135608856,0.7508568113143762,0.7447990756479443,0.6043730574110867,0.634333179676455,0.8028809259835523,0.562958958019665,-0.7750152565195463,-0.7765561347220862,-0.7741012839836661,-0.7785911366982308,-0.772878188283465,0.4374654382297538,-0.02540176916650383,0.4333376444287578,0.06245171296788099,-0.2966636496403743,0.35505052991008945,-0.26454285895171115,0.20307399860440012,-0.051500407997322695,-0.35691744357365884,0.21989482302987085,0.2541274127431594,0.2500675830815,0.21654067871594496,0.21308091629328296,0.7156749915601559,0.6904888796453813,0.7192981071118781,0.7249260717941413,0.6991885404699354,-0.6622918605883359,-0.6882755058123631,-0.623659437966436,-0.6357461599649001,-0.637794620949474,-0.5371666434887086,-0.5489510339048989,-0.6741616040231726,-0.5652327221333002,-0.5680603066449523,-0.7650800799377446,-0.7576893272903358,-0.7612907465465186,-0.7617449793885096,-0.758730155189338,0.3367950261062467,0.33724964079577613,0.34486381223870366,0.36743190639268564,0.3491582085038505,,,,,
1,4,-0.20525982628167672,-0.24699279815773134,-0.02556453977235984,-0.17734828787032186,-0.07113939155515947,0.7581303022329653,0.5301555401501102,0.7212790239991052,0.8014005033281912,0.6321122767967458,0.45070313418410324,0.6126727258019018,0.7556749429049576,0.4447373733222725,0.29113240954033126,0.28208216465521474,0.2903401357010498,0.27287495814311324,0.22325407459541036,0.24528179102432457,0.5076828531775928,0.6851746383277009,0.6403786254087502,0.5512836186709247,0.4548742746535328,0.26294321492201733,0.18743960762907896,-0.1139075984049136,0.6125962532090016,0.5263375916148486,0.7708449103322571,0.8123908609405901,0.8942781772090898,0.5557470151100975,0.8727395506875543,0.395162439467583,0.3365849590256491,0.32856915463204817,0.2801455166612872,0.3906397859176206,-0.08213450219166973,-0.11061178267780236,-0.47075741805903437,0.05477552524500118,-0.5358587481725972,-0.6099589573828486,-0.5627401010802762,-0.5621824262088171,-0.483104824494738,-0.5436255151147753,0.07869606291254783,0.1161765743088149,-0.03571885768259664,-0.05862743063847353,0.005922135272081519,0.8857485440878788,0.8050096104732829,0.707879236341162,0.7326025093032784,0.7704984384799193,0.6582356256482167,0.44768619097390727,0.5741455276224868,0.4998197972756617,0.5720774514240097,0.835094518980811,0.5220210755135039,0.6257199589218014,0.780332905667827,0.6922941956291988,-0.7706696192907594,-0.7790821762962359,-0.7768898886148814,-0.7843493440355958,-0.7595124292488671,0.2622559165981315,0.11602163272898114,0.4017611433033269,-0.007337677073950388,-0.14104169627018615,0.20781244177762692,-0.1439576163617533,0.262988191605496,-0.024501258243563306,-0.16732541925971978,0.36589143912442723,0.39532904668271085,0.4139434949327985,0.4058758892177221,0.3503825167501695,0.7424509892908762,0.7055841920379509,0.7829138011398086,0.8014867414035827,0.7769624579164609,-0.6795215949795574,-0.6335668930993181,-0.5343708287025435,-0.5374869139632963,-0.6190044228020959,-0.46687542767807955,-0.4302972824436406,-0.667506375934019,-0.49494311764757604,-0.5162482800466943,-0.7557253254122025,-0.7507264235137827,-0.7590287231897397,-0.7644434715969184,-0.7419751203473011,0.5262495823988719,0.4437245653140035,0.5197456778316255,0.522933434214921,0.5039284338016343,,,,,
1,5,-0.17472937967259417,-0.26250403717482707,-0.04292886400454621,-0.1692189184087154,-0.05448148691650645,0.769689401217631,0.515828903898121,0.6465894056774572,0.8358094663550727,0.7388816007481053,0.4394199539088488,0.5454804850749106,0.7464848054272653,0.5076957500211164,0.35167989860440363,0.22776942036898462,0.23959918391841595,0.22391412288280244,0.20180447415429836,0.18764383017157338,0.4474233482736747,0.6052825775945375,0.5970360330921293,0.4965705686334969,0.340273352120412,0.27984380855518576,0.23526679437761855,-0.049473334283957726,0.5659397990948349,0.542046503067148,0.8002686770181386,0.8807802823304395,0.9122226418281165,0.7024466980362402,0.8984614393459188,0.4106105667296982,0.4076112593387611,0.42084539276272825,0.3810227206904826,0.4703528117184328,-0.103881508408598,-0.16648776360661754,-0.5045629434109102,0.00991228490595375,-0.5154210459841797,-0.6408283995873871,-0.5773593125324903,-0.5663443237568184,-0.4625260296067133,-0.5878405507533309,0.10072048516246801,0.14301793235631144,-0.03433641105240559,-0.017289974641734318,0.02680632516423964,0.899631249699567,0.8187789165776317,0.8166290993859148,0.8392306543567974,0.7930344980629803,0.6356806686617436,0.494953917598689,0.6199115700176808,0.5346042280753761,0.6228288703247347,0.8407886920009073,0.6032803864956985,0.5842426646046709,0.8485179881083522,0.7218405471536776,-0.7958818264801781,-0.799052627052685,-0.7942679573754432,-0.8032331438304929,-0.7925395289581383,0.27169831004030565,0.10870450900915352,0.33318769394587355,0.03217522504125658,-0.21507314067396277,0.17270854967892169,-0.15450220390433356,0.09753101668577457,-0.0883496349969839,-0.26121859081561216,0.4164576299662024,0.4524850641680387,0.4551513339685669,0.4121888225880782,0.4038691434882533,0.8051976090217213,0.770432077427117,0.8047995398467634,0.8230845948703289,0.7858956868663388,-0.6410272790341804,-0.664089219814681,-0.5766019254978918,-0.6004651173934197,-0.6022046828852106,-0.486219019326515,-0.5152103651692386,-0.655039749816267,-0.522775661422612,-0.5052051435211369,-0.7865711047247017,-0.7730316174845557,-0.7795401518995495,-0.7810119426870643,-0.7758090800030946,0.5107470829073212,0.5131263520104717,0.5193816018379385,0.5440180060613674,0.5266450974954756,,,,,
2,1,,,,,,-0.07277728906706993,0.3829659251159476,0.2930837372962174,0.14747206977611405,-0.04737605561910363,0.2729076266520295,0.7766677906207373,0.17421569041640805,0.7909331568750735,0.44959461965121894,-0.013266977506651623,-0.020257505438443513,-0.011470489438064613,0.0007676763315339619,0.014539186123754488,-0.0602128393350847,-0.07627434403147748,-0.07531774935288915,-0.054082254511966577,-0.13186540086202947,-0.027702483981844717,-0.04361918788517105,-0.07636110223415438,-0.12377400258743831,-0.06118497951646695,0.18148918669567426,0.23034442326213211,0.18168280072677734,0.08529338374965678,0.10102270109612232,-0.11883522187921502,-0.10391599751072134,-0.10616150996246643,-0.09976048384588165,-0.10072867540652708,0.04171471700860363,0.030324010238736432,0.06729379028821303,0.04330907288036634,0.020113417463427874,0.12569465881356146,0.09762487228186811,0.1287336637095413,0.1006940111273883,0.06481311330511119,-0.039744600925333495,-0.030461498481548333,-0.0004960231729553843,-0.0006298083231275342,-0.03756720260052204,-0.08100917954517439,-0.07552827149301411,-0.10825032301354542,-0.09938324691464095,-0.11515957349394057,0.06363710875230078,-0.04532196492712992,-0.10278133812548096,-0.09313605007589643,0.007477160765627211,-0.1331306317164651,-0.06375753463143297,-0.1024703930667279,-0.1044293408563044,-0.13081586512790255,-0.022156104453904035,-0.015410334344735821,-0.019877090318513035,-0.024346924708656736,-0.024424430808636766,-0.017135895104975818,-0.15159642714744925,-0.11115265225522752,-0.12509831819753248,-0.09433327700221916,-0.015035735819258766,-0.15314473460944122,-0.10629540114262448,-0.16164098072212063,-0.08252863725358828,-0.12494728354643336,-0.11133295849820501,-0.12383353500597782,-0.12964728447220297,-0.12241632782459666,0.018509873163014445,0.027788897265582424,0.02124383378241601,0.01973041988904012,0.018217516069259476,-0.05454183880352237,-0.06646174391085435,-0.08434738514016793,-0.0810216918624056,-0.07131227522614325,-0.08456174847121867,-0.08054125462637018,-0.058264679514998585,-0.08397271577425758,-0.07717506601259161,-0.025348159556785044,-0.02036301835800436,-0.022965017201882043,-0.010595588395677202,-0.020062269737712857,-0.14082767716217104,-0.12955514060356355,-0.13995146842480244,-0.13628299216099826,-0.13731286883445581,-0.0837453091212168,-0.09273515108567731,-0.08311852150069488,-0.09477787700833207,-0.09129577874747419
2,2,,,,,,-0.06914078696597814,0.3606172710101003,0.2792358082087565,0.12743401465864135,-0.05486756742221521,0.2797011060578283,0.7704873097031119,0.16388829925287074,0.7839043695030669,0.4475156872260415,-0.03677331872313472,-0.04579229113365746,-0.0373807132577304,-0.030112327350936052,-0.012324537943638969,-0.07447836232175375,-0.08101122162946628,-0.08789183127646716,-0.06461112462200136,-0.12855191084880246,-0.041074706783083004,-0.042747675233678395,-0.07264108323065233,-0.11346280228791383,-0.06409085248499213,0.17753778640040907,0.2199542801846146,0.1798680937380811,0.06752160265980733,0.09675802323816751,-0.10334988288007141,-0.09700207014241458,-0.10003043474831053,-0.09649745779892105,-0.09260215292982554,0.030798707875727582,0.033846517833149625,0.08580654839652357,0.017136624903187347,0.031159495465347575,0.13796333893393575,0.10751123090891634,0.15005073141321457,0.1195737557346298,0.07902472902285429,-0.04742317330653978,-0.04115696868233698,-0.006280950409470076,-0.010208688448628322,-0.04233266827683391,-0.09704203126382271,-0.0942646600519439,-0.11563394302607666,-0.10571428204518463,-0.10990604390743397,0.04691416073764265,-0.06640553782590142,-0.1106028078525425,-0.10525384565178486,-0.014369352837966032,-0.13754248799806534,-0.08766664325134044,-0.11403033007198449,-0.12167006234407474,-0.12994382114842562,-0.007577162615105104,-0.00167657165736812,-0.006069981869313734,-0.01096556143389571,-0.008949017799771752,-0.044804039322557054,-0.15187292655771634,-0.12889096592832905,-0.14721867873342664,-0.08235444620514909,-0.03877818538095146,-0.14799306847888483,-0.10699583049165118,-0.17232923492118357,-0.058173541932598605,-0.11733697012713362,-0.10464892335768505,-0.11340343175222589,-0.11694783599959546,-0.11570691568906022,0.007745665044942895,0.014112803386383876,0.013887814304388013,0.014512777777828889,0.013476114247334858,-0.050225276788620876,-0.054447334898168,-0.0708808591257426,-0.06485704644514034,-0.06533525319895661,-0.07786147297914581,-0.06654038505020998,-0.049379804424177776,-0.07483987730873976,-0.06822275010148404,-0.011994089109659267,-0.007139825917417797,-0.01020895721771553,0.0015720545891109161,-0.005626923199810063,-0.131575098031681,-0.12927185716557732,-0.13264973290302584,-0.1311798552563006,-0.13217951464771605,-0.08802507704954321,-0.10455345696953122,-0.09972262447555336,-0.1008948599794206,-0.10298357082152054
2,3,,,,,,-0.07910811919211036,0.45303661123517547,0.3762658726654666,0.18860382736099612,-0.07761177802041308,0.250786163711777,0.8093861427537601,0.2060949083282657,0.7836245316522676,0.44677141999563363,0.046027147482806785,0.03719180965189561,0.046781569906841014,0.05202414777478148,0.06719889196997686,0.007954641109928495,-0.023734629027095222,-0.022323260642749698,0.013897505121856724,-0.07742175576153598,0.029145159532391385,-0.03183524675490146,-0.08167626679380513,-0.0870633771755287,-0.025147219888855377,0.16789873817408874,0.23899200369630136,0.19004531366671595,0.0692968043565807,0.10187675028868792,-0.16949401820008836,-0.15932463986399115,-0.16086948690766123,-0.15739080815705897,-0.14994246840577619,0.09927229380982161,0.07655398887124953,0.079649866173225,0.11583975607841368,0.027463217496885628,0.13993437617465254,0.11037949569798333,0.14231316615110412,0.11596920854620552,0.07990546086139949,-0.029542283241687617,-0.01259076697405348,0.01512689675132084,0.008816084750319142,-0.024363143634038575,-0.04374358595930139,-0.027228335250994107,-0.10994168130455195,-0.09068436669440572,-0.13256893784850532,0.1254869615688955,0.006066675464182714,-0.08871612174323684,-0.0516493350130971,0.05870354294898705,-0.1330261050330832,-0.033082481485267934,-0.06407072021204385,-0.08563661824411994,-0.15053148242825198,-0.04530282824060761,-0.039056536204819636,-0.043437245489701626,-0.048440723097459726,-0.04614801982710692,0.024505665723846715,-0.2132246335596062,-0.09823265969137074,-0.15782912712509578,-0.1531058524370159,0.032440831888307375,-0.22224068837999722,-0.0865721749138717,-0.18982694234807118,-0.13442365378144783,-0.18561113423223352,-0.16662231289641838,-0.178879260669925,-0.18699765512349753,-0.18458595795903188,0.02318500203955809,0.036507089464427045,0.03423679669342361,0.03221960500068355,0.025328717163864978,-0.09321171656037963,-0.09996202032899437,-0.12517366824051446,-0.1177049462499522,-0.11410648476369567,-0.12004781125913189,-0.10409493563893801,-0.09132387990537927,-0.11550086575372798,-0.11670894291516754,-0.04788203263287327,-0.04207503865916484,-0.04628219946713763,-0.0348964185998486,-0.04263285669676642,-0.19193647347988962,-0.18816394520470814,-0.192478729747521,-0.19049604821267385,-0.19202519518908567,-0.0875454528105204,-0.0565344349186403,-0.05093521675855306,-0.07184746854324864,-0.077579767753446
2,4,,,,,,-0.032833885286432496,0.29711401808722726,0.27038269144061555,0.12178249351225001,-0.06470696055246483,0.22130369744567513,0.7384473256485665,0.09700705733870785,0.7363765757959215,0.35896884171503496,-0.02349242333513102,-0.0291222255875756,-0.014668497392473112,-0.016180938071022943,0.0020748786878533876,-0.04879472019642206,-0.09277838898092416,-0.07747020711050512,-0.05805913710485133,-0.09790017474444745,-0.055234162701039535,-0.09298466843207431,-0.08863847109377465,-0.10205065008324277,-0.09350910449992744,0.17599191238476297,0.21185928351643124,0.1820164242118918,0.06740156364137972,0.09418046183700257,-0.11738944015701525,-0.11442357351404708,-0.11149304359620382,-0.11226816503895387,-0.11085006395771568,0.029029050302823323,0.015280955761253323,0.09041752384708346,0.0403892605308771,0.06850207462942293,0.17357810628977377,0.15647228427609294,0.11176156523465652,0.057995777294774786,0.11413989136470049,-0.04065940158761183,-0.02583895040631501,0.00656205243526975,-0.005570810511294155,-0.03488029918959268,-0.09400743368039599,-0.08444207546441218,-0.12116090417893965,-0.11408892706249119,-0.1350836038989438,0.06501548941440194,-0.050315686273325166,-0.13287844435404006,-0.1281370357381948,-0.0053342074735938105,-0.14329394327505374,-0.09757751893188749,-0.08876577699005139,-0.12877639811010821,-0.15105709432149617,0.0017412670946399533,0.007292008060929445,0.0029266679869315304,-0.001498459064342983,-0.00032022148331156686,0.007628437006906408,-0.16391477250200293,-0.12112220984238742,-0.12583777776095695,-0.09978214195990276,0.01204592383324743,-0.16955642124394865,-0.0971192992116765,-0.1506932766348401,-0.09055725568150863,-0.13051549651044936,-0.12106993809438871,-0.12722424709364355,-0.12985249636770635,-0.13159112984865384,-0.02011493140467291,-0.021561217631849372,-0.015221630089641947,-0.014894738206896463,-0.015702692061569934,-0.03998446731031424,-0.04329906013644225,-0.05655886896843221,-0.05327384091967713,-0.04773479290612159,-0.08012840743518512,-0.07085728185080131,-0.05978463102507203,-0.07646121923824012,-0.07101431421839344,-0.003104868700325669,0.0008868615413333281,-0.0010190168254198273,0.010982366288839862,0.00417104700492521,-0.11959151362992015,-0.11505895966452395,-0.11906552349129629,-0.11961454473244726,-0.11905828124850215,-0.10447827021287548,-0.0847053368423849,-0.09424906372447728,-0.10230040778355631,-0.09841651804468277
2,5,,,,,,-0.05751753968042106,0.3684870597281845,0.30848983247826767,0.15220370576029219,-0.05061221656005821,0.25382978309120674,0.7746676379251937,0.15605557055066455,0.7771832372821383,0.4205539314904685,0.005666062149826234,-0.0019470458138524105,0.008042461802091005,0.014370484038894404,0.028949978725465342,-0.0406864358738539,-0.06394146766841624,-0.05941728720945649,-0.035802939802294764,-0.11021292809848382,-0.02667926344238447,-0.06010286405175469,-0.08661197804591136,-0.10295864767709872,-0.059016107870671686,0.1878840992304469,0.2376413408498127,0.19535925445563906,0.08516584824774143,0.11088273330055731,-0.12110358088481643,-0.11112623050687231,-0.11197296341292207,-0.10841238940708942,-0.10631201448412919,0.04169430421437559,0.025495798798474523,0.050724823621378534,0.05252763163909857,0.011744623001914145,0.11952431260476959,0.09389224172944532,0.10975596465772985,0.0776247787768638,0.06058876453717321,-0.034951598234701065,-0.022322235282085767,0.006451312380545526,0.0025583280570314892,-0.03097959004859785,-0.06375566292409207,-0.055826512999948896,-0.09867091331439415,-0.08957706560000012,-0.11347254485937674,0.08898501383086088,-0.03186140973298124,-0.09581335483864839,-0.08401227678475287,0.02553576053868689,-0.12328784487862432,-0.05674776055895614,-0.07597636743305025,-0.09559649469495612,-0.1289347150300888,-0.028728314352882034,-0.022467847569239252,-0.02690608425561991,-0.031495718919416715,-0.030713693414664345,0.00575742882431407,-0.16433890058701128,-0.10911350640317719,-0.12785664047666456,-0.10746677006740435,0.006945381265415884,-0.17261606117994743,-0.10062950359701683,-0.1614468528061428,-0.09594222633945959,-0.1284141244469068,-0.11571187410682748,-0.12559389235428453,-0.13048272358772262,-0.12714954287498403,0.01084740330261269,0.015772631840667795,0.015142582101629554,0.014532296208082718,0.012688228653872424,-0.06412321336863691,-0.0725140581505761,-0.08856267827847897,-0.08508878379363605,-0.07838460732313313,-0.09209737103730142,-0.08438493980295192,-0.0689313700810612,-0.0901273013401529,-0.08510137929493156,-0.031067576724225665,-0.02623807701770864,-0.028870343773385487,-0.01667564164864288,-0.02494411360340476,-0.13757487501402021,-0.1302816639904849,-0.13699803695785606,-0.13467875703520615,-0.13555890504988888,-0.07773817139382855,-0.06757822399204083,-0.0646650148085588,-0.07778911335230632,-0.07556003683741519
3,1,-0.28280242622082685,-0.25629711082136053,-0.24566118563439665,-0.01349852579503752,-0.20286258895592102,,,,,,0.5753167235008203,0.39821266271750244,0.6503513111021411,0.44883650321445145,0.4482886114053619,-0.20693504123256234,-0.19414562043099348,-0.20475951846095097,-0.22470709367729347,-0.23818823827942603,0.08733589198772229,0.23803812386394985,0.22187845938022055,0.11693399330287646,0.17690657385206876,0.08764150484014943,0.1277092722264862,0.09010842758645243,0.5571210045881364,0.35235018320657885,0.8663177896704033,0.7089492763559241,0.7226916020549209,0.703133649158293,0.7383936173158118,0.5657333340385654,0.579833418754979,0.55572175423298,0.5477924679343432,0.5859489522336292,-0.27449657225016333,-0.27217697764959325,-0.41620369343127495,-0.23575896568162524,-0.38278427098975376,-0.4792168097634357,-0.4110162169803171,-0.518638792660135,-0.5097553793624852,-0.43439501405387815,0.10818812747830509,0.07122264972757075,-0.10521644433472366,-0.056712268713118075,-0.006911948305652782,0.5823662839741238,0.4595807895338556,0.7862493899413006,0.7861370104977519,0.855102418924713,0.24589425589388803,0.227292949956027,0.6224706664377052,0.5150262038176052,0.2141535261361791,0.8705881690151261,0.5395252184532013,0.45095993837509796,0.8266176191800481,0.8051156258980618,-0.6643699264119647,-0.6662221310773495,-0.664654894279223,-0.6668924160704912,-0.6630671858930834,0.10453998441316092,0.3330264945652157,0.02979429891293628,0.15868872939586054,0.037363586906031365,0.0015163565417153357,0.1336872514404095,-0.13182780744925116,0.08586812070104255,-0.07052245836623472,0.5843068157271756,0.6028899682037943,0.5891958602581044,0.5868547003146304,0.5848949650978951,0.6984694209004726,0.6646595178108704,0.698317923514067,0.6965988114737082,0.6937865608919891,-0.5071962616598975,-0.5232948121486749,-0.39993994148019496,-0.4432396815618429,-0.4383481675591492,-0.36464697729184925,-0.40840890768263205,-0.5708430873378363,-0.43415382732086316,-0.4014631851657,-0.6741859891687678,-0.6725202229940579,-0.6730791569315855,-0.6716526140128125,-0.66916841138307,0.6850583189996797,0.665099123993647,0.691467645348335,0.7057296325506196,0.6927961935348453,0.8357396549125456,0.5993917451671807,0.6413516941388502,0.7411755337597519,0.7547996797206263
3,2,0.4684868392284556,0.27123703383936393,0.6428271177974468,0.03374482815814073,0.5323820188085857,,,,,,0.3154891179086863,0.8339668728097499,0.7416627332168775,0.6714758431902493,0.5079060747259834,0.24121036882292102,0.2539189381138728,0.2467826525559914,0.24707830188914448,0.22964332846142244,0.5117460643261995,0.5115464308548968,0.522279254609159,0.5003777040689433,0.2558764007671124,0.4201090567907687,0.2528329135572416,-0.12395366718482514,0.18127314798678373,0.4177595317735089,0.35295908944470233,0.5092811010378505,0.4402768291907999,0.3169515231511457,0.4372963301009696,-0.11468788801112328,-0.07033259891361654,-0.08748177706824811,-0.0811607545572377,-0.05165069988467863,0.27684081871299027,0.19117386487729116,-0.20248269153955056,0.35656771123103037,-0.2941368434472762,-0.24813242941171754,-0.23934485261699145,-0.16499101576153397,-0.06639350148802259,-0.2502836296954105,0.20172136730777357,0.19952813038680595,0.09335838804518726,0.15687258375331892,0.13552856938339153,0.54007795752914,0.5398175143913406,0.29290459690745385,0.31663232770523475,0.23241863311090616,0.5848124665108096,0.6126996390149724,0.37476426195695445,0.44128633038180853,0.5617563762983084,0.41037360449893934,0.49194200393267895,0.41924755253290535,0.5015102877013691,0.25696835097439275,-0.6254567272344156,-0.6233242050556798,-0.6235734832431055,-0.6231488022666101,-0.6241236380555555,0.35840326484865936,-0.09797081878851088,0.3846688578256936,-0.00042616171659104474,-0.272413439667637,0.31839393645998204,-0.25812962658759364,0.20162720269101497,-0.07431164769241505,-0.3507045436227283,-0.11981787280006495,-0.07322232702136411,-0.11145167927530197,-0.12126169177766721,-0.119625404574768,0.5412523048190149,0.5680078266244224,0.5554880014802787,0.5358534706985759,0.5265086242586792,-0.5812196802830485,-0.6165015360278123,-0.6086828830802307,-0.5999575845112397,-0.5967599618812867,-0.4362624740965222,-0.4182558476747973,-0.516246122423933,-0.4501786892856725,-0.4822609361724399,-0.622963127822207,-0.6225388521838529,-0.6256001929224613,-0.6252589734132634,-0.6296667772354541,-0.0869455181888128,-0.08747188844238307,-0.08169774284101838,-0.06806778244437872,-0.08211432968710208,0.4237232121769213,0.4970371195811386,0.535633262570879,0.5015591759651246,0.486953967677731
3,3,0.1262781065579338,0.024404433540684667,0.5152881251618805,0.10215204730945082,0.3833778940612398,,,,,,0.012105995278348547,0.7032328081841274,0.49971675396855786,0.29295686546326305,0.05154386850091164,0.649386508793143,0.6558645219930478,0.6476420203811791,0.6081549485170735,0.6213593920054283,0.8261965855481027,0.7875114433444778,0.8098744603840532,0.8204641686294202,0.6027440647084963,0.5194794449224879,0.2140933289617475,-0.14875682986093408,0.46438311535088395,0.5402851387437254,0.3765251849075102,0.5717995624548361,0.6024885002286333,0.24775773590961836,0.5618517521422263,-0.20253586883503916,-0.23365353466144168,-0.25360933853350054,-0.2649340972240082,-0.20643609034694332,0.36105247783274197,0.24349224955575255,-0.20532020474847923,0.5174310596498699,-0.29234135489683677,-0.19590317613440122,-0.18812125364472032,-0.17827059748560647,-0.10435849223361515,-0.1726407353268189,0.05761256986031327,0.18127069316340216,0.0519335940241793,0.007332005707067379,0.041043074957406,0.8003562760342192,0.8326434272110549,0.34193242216737785,0.36498179988791024,0.24433725777729542,0.8617997067639558,0.7036491352461807,0.3507292885856478,0.4436573997249815,0.7696189735077739,0.41472370949447,0.4326275318847985,0.6144029017095675,0.49535996410896144,0.15519881213504216,-0.6319979652981389,-0.6369535788542464,-0.638833879458947,-0.6367942090779559,-0.6242678442405545,0.5527857885183753,-0.38114452469391513,0.41469890095045003,-0.14062415579937282,-0.455485588300498,0.5533642800684072,-0.5413939539214105,0.33833462376392787,-0.1328197935038249,-0.48529143787646345,-0.2632599831766893,-0.23618625994461495,-0.23449949493113165,-0.22545239720679788,-0.2692499600881315,0.43757047097529056,0.43309902308071724,0.48767050406003143,0.47579221733342036,0.4711799759049624,-0.6998727205867072,-0.670206768548073,-0.6559551362074774,-0.6259755807530176,-0.694818455437654,-0.5755192040561248,-0.48301249917546096,-0.6469990703335138,-0.5637066028628843,-0.631365992646093,-0.6315609098863022,-0.637943806440818,-0.6418903957487885,-0.6452195397663116,-0.6299201349822308,-0.12259961975943079,-0.20212805123324884,-0.13108121701155562,-0.13491208753709927,-0.15167174504677683,0.42854148518719426,0.8096577688612249,0.7736463184904947,0.7072302444857211,0.6316817198586693
3,4,0.0997378493854506,-0.04597582407397538,0.23266515473898453,-0.010441067013668093,0.20230718552237603,,,,,,0.40504254637931436,0.7903588416395854,0.8250238245215542,0.7558981074971375,0.47601442409655015,0.1679676004077899,0.1869450944304467,0.17755123516898486,0.18164023345639657,0.14472137726654144,0.5139787636713338,0.5693643108993993,0.5997901390004884,0.5090617088961313,0.22821701397229788,0.433248689338966,0.33613981646693625,-0.07735519466049756,0.34611710177477994,0.5763487990511776,0.6721539983343898,0.8333096388718685,0.7828677668276411,0.6243755600955896,0.7868036272928007,0.14962056750444652,0.2092792941841758,0.20062271469549975,0.20346387303163904,0.22968160801759385,0.12841914243359898,0.03981605746268746,-0.4031192895557978,0.2053406425642712,-0.4096332829648779,-0.4089036499499148,-0.3564053186966958,-0.41179829721555583,-0.2777956017220715,-0.3901050501003325,0.1942997370190287,0.20822500902744734,0.01947197317260696,0.09692005054959485,0.09606090845217297,0.7892722727434176,0.7386048682796609,0.6171738827186786,0.6199904747314195,0.5438675718713304,0.6874318027703495,0.7252977813213634,0.5530877832218252,0.5246425618504249,0.698501980727862,0.686200617786198,0.6143025740970421,0.5297411520670561,0.755849338578289,0.5309460969980617,-0.8093687014044644,-0.8066498201542509,-0.8050860283671,-0.8057904979133621,-0.8128745578857033,0.35985971990115817,0.008075317392975845,0.4054366250708761,0.05826333617236479,-0.2701425818266274,0.26384618731564224,-0.20787741920600045,0.1370203631786563,-0.07596822816304716,-0.3871506055139826,0.16224579565583308,0.20087137236477048,0.16639674337671828,0.14339315139191733,0.1625620378510193,0.8257855637942124,0.8207749274745816,0.8152683724329041,0.7958335344400864,0.7940171845624355,-0.691993567115978,-0.7589539696872576,-0.7012376070408326,-0.7187344171074312,-0.6797707172908218,-0.5543637128583474,-0.5816644279064365,-0.680765002466428,-0.5898312073264433,-0.5825623009179175,-0.8184430201408217,-0.8165668127583987,-0.8152906298794562,-0.8124645448672358,-0.8221031345555305,0.20204506816056444,0.23390826954580501,0.21601889490159398,0.24561782924655384,0.22770415488010154,0.7682577943734872,0.7502827276666558,0.8047248436701138,0.7819788574514305,0.8192890247873134
3,5,-0.14307638589948146,-0.2058468927915651,-0.28017062213435695,-0.17878750733930482,-0.18887146479698558,,,,,,0.5919363969153805,0.2154842616836865,0.6462945959547912,0.5744480213162512,0.6116130531820817,-0.3106201552804604,-0.28706204279570313,-0.29640682488089687,-0.25487321509876626,-0.3234202461182849,-0.05163586642347284,0.09333079287676249,0.12938446995541764,-0.01887711111949364,-0.06081260748611106,0.024479681051389646,0.1702984687499023,0.13282960839100122,0.30804067210054886,0.28290956204576356,0.8687758009758035,0.7689939656432712,0.676742854674874,0.9018521199518174,0.7415001920191988,0.5941689197236953,0.7173205173742387,0.7030739711374226,0.736319483180476,0.7059230555152125,-0.3521786640444924,-0.4114895389241111,-0.48844312012212776,-0.36241955718323426,-0.4384504922008168,-0.6252558688222969,-0.550926857770162,-0.491803482090162,-0.43355689579633827,-0.6142403649187411,0.08532892110311019,0.07364786008153201,-0.13771432437791464,-0.02184130435688192,-0.023256599296993974,0.5298035841621173,0.40807754424997544,0.8633735584161073,0.8372142586409967,0.8136175162509623,0.11295777202095747,0.16350684522836578,0.565184274072647,0.4363308648928982,0.19866495849381705,0.7900136459783065,0.582431284151162,0.2696808563785109,0.8286689857525207,0.7753391645361003,-0.6131858412438165,-0.6044838091755713,-0.6017437514759774,-0.6006904205345998,-0.6262285037598276,0.047328619960935625,0.4039106676220039,-0.009484224668753649,0.3217804271784417,0.059704343746655786,-0.11218000803451034,0.2496501070276722,-0.3246104014604332,0.09422310158489633,-0.10496689678869986,0.680311024766521,0.7043505476335057,0.6485687299917604,0.6106988438190315,0.6970997616581351,0.7383672125675728,0.7214091208520506,0.669173019539481,0.652975839939717,0.6509490669485016,-0.3369433003408968,-0.46393927433589477,-0.3559705728338809,-0.4360113685951694,-0.29816474062947584,-0.28106098997204865,-0.4450010868007619,-0.44149850301987503,-0.3820400008055602,-0.2896323246588257,-0.6287483506598432,-0.6205602293068928,-0.6144909172124016,-0.6045745002340728,-0.6336476688173907,0.6774902661697939,0.7937138926306403,0.7078131558622883,0.7509174560443194,0.7436059016114801,0.8224751621729443,0.47658570346006024,0.5909250981496057,0.6083262437267967,0.7221071199008783
4,1,-0.11523218143119962,-0.025584802383585847,-0.2881539269576896,-0.25850753950940786,-0.2746745468399949,0.5793753155739346,0.32433848555315437,0.01803510499403027,0.4175091457201192,0.5922421056477875,,,,,,-0.5167626730208927,-0.5066882933865409,-0.5237428295622544,-0.5458461697181389,-0.5161718570297544,-0.24393571097368416,0.04618703745927388,-0.07094003785549097,-0.19419555048539006,0.053893352507293324,-0.4370932490324668,-0.24342875214130832,-0.22164557285031394,0.0639999655985829,-0.1867312684618443,0.6322977723751608,0.40320843255694205,0.456949724035992,0.4111661069017609,0.4724746923414269,0.7509911939340609,0.711301435185266,0.6944707294592316,0.6524948837048885,0.7320038904485928,-0.5212211842503001,-0.4044142239834989,-0.3178978006690829,-0.49904795180390327,-0.38839052121542395,-0.44973285317000844,-0.41775136845984195,-0.43891831131709136,-0.4514739045347693,-0.4049139582124799,0.2679987959393406,0.10937186329674287,0.023697513484318367,0.11222223109129792,0.16136504703429289,0.07045841186686852,-0.08279122786710413,0.30668529095085695,0.3372665430527013,0.5610030434554343,-0.13235009967496847,-0.15494500879482231,0.3056925550941324,0.15968804435823947,-0.1509034400133431,0.6478994173564033,0.24974243342603053,0.21820644295204383,0.3936287575793386,0.7200998846999859,-0.3866967687724039,-0.3939604825724097,-0.38981292672603884,-0.40092057592529473,-0.3778962311390812,-0.07393899940992887,0.5977246761506364,0.04673480201120184,0.14993138106665604,0.400920646457545,-0.09588684596025754,0.4471723938276386,-0.021139624325022366,0.18001386209609016,0.39412131953392615,0.7148635290889661,0.740579031462794,0.7404727547121341,0.7498804645258086,0.6984328798513643,0.4167143571767128,0.379967331222119,0.4321846363278865,0.47105589650861845,0.43231851874292015,-0.2614438312192695,-0.21954522904112506,-0.10530603234689817,-0.12788464572430058,-0.18986923281061951,0.01225674920559483,0.003827008325307135,-0.19524209409728366,-0.039020589220861046,-0.008790799632176105,-0.4087433802259308,-0.4020860504594077,-0.4100459035071853,-0.41535662706542276,-0.39931754860754753,0.6957468263874068,0.6311056193275016,0.6896369071000282,0.6850362349075608,0.6772766489253834,0.5816970393193468,0.20288565872667264,0.2272996967260572,0.4164406165442801,0.40131965056456176
4,2,0.22700581456782776,0.1846219250911718,0.39304575702981226,0.027543184150240485,0.2903246995263701,0.3922626624153157,0.8328368667011629,0.6989114039260551,0.7903795881658376,0.21084529245459394,,,,,,0.14421532027795914,0.15108174527788798,0.13629412344192737,0.09302920480925314,0.1275681693470635,0.48126402834680726,0.5791045220347151,0.5166296945051805,0.47881108218846,0.3953450444277169,0.19763492834890695,0.0660209083723009,-0.31296070174452595,0.19190033060286205,0.2737368699478183,0.40530761375737523,0.49145320415422944,0.5422301360364145,0.18835753470724936,0.49773044855667137,0.0812035221445756,0.020969959344615763,0.007776071496854886,-0.036931812313026224,0.06431177384121844,0.13676474220536705,0.1600396947845042,-0.18888489681564802,0.23263113530815926,-0.286704519910288,-0.13976505233766767,-0.1266096503564189,-0.26639775163342994,-0.19675240794375526,-0.10211599910004154,0.26365705925281624,0.21166471374786788,0.1369267524874318,0.1670191761782852,0.19054661874806933,0.45655322873019033,0.41549287429346715,0.153934785032682,0.19713033104917432,0.2621283427329678,0.5432657252870935,0.5346203989884177,0.3063538784446159,0.2968838941745432,0.4587252281186842,0.4623477837711911,0.3073916397392259,0.4499233641106799,0.376247476599735,0.3255676747076044,-0.6047528959884092,-0.6141454148760217,-0.6122303507813442,-0.6192924643982232,-0.5920495786138738,0.2965983727765975,-0.026218400235659134,0.41957368293576414,-0.15648724890157828,-0.16356550464534592,0.31348971186013963,-0.21519713714521171,0.35818293420390335,-0.09669295964218616,-0.15330714174918203,-0.011666589011863238,0.030890016466369796,0.035988287488302406,0.04887236739251499,-0.0319066360043454,0.5116974323950674,0.5018985319145359,0.5680663021293941,0.5830001941272944,0.5596835804903603,-0.6329389994595416,-0.5748481153238121,-0.5349606048671387,-0.49855328406068056,-0.6117120257065285,-0.369795929016298,-0.26366693566044597,-0.49715075218553917,-0.3544841780489729,-0.409355110416181,-0.6119881058955898,-0.6122097057169484,-0.6219886241520167,-0.629443886570991,-0.6053262720479748,0.05432712177323462,-0.052301051635836204,0.03876148688673098,0.029972662351121837,0.01236604394719365,0.46993987506231716,0.5284028619197525,0.5063988222271979,0.5758313405713908,0.5048689209201576
4,3,0.13685394891590485,0.09970193880849365,0.09938424422871339,-0.16498283417910597,0.07680077163842136,0.6522879889731701,0.7372544415631325,0.4916088988320031,0.8259045746867704,0.6473361223305676,,,,,,-0.13606698632210446,-0.11754699685579317,-0.13212188865463736,-0.1419625107413014,-0.14303938549648776,0.19768169522755652,0.3861555105973714,0.33585470193531974,0.20418760872556596,0.07259488788828605,0.0872006667708155,0.1191980276797645,-0.25623186038685386,0.15639394803621975,0.297587590473263,0.6907288709448393,0.7357525575738211,0.7293396185798301,0.5339734637194761,0.7526366736778699,0.421529129620703,0.4384187409225466,0.4102864524753258,0.39835366564802255,0.4567769206901944,-0.1883480776384976,-0.1805431316399626,-0.4710387634458435,-0.12624302791656916,-0.5463115621474779,-0.5547017806875221,-0.5120685669782861,-0.5285328712602801,-0.412687609448922,-0.5220826617850489,0.12674877187310318,0.06955308701381013,-0.06541056349502128,-0.001965240877441099,0.020334206388665343,0.5437993995253158,0.43541974362621394,0.4626894731825798,0.4851443243451412,0.5700415715383206,0.33020268074967096,0.30614403960170344,0.3475781036820704,0.27254810275640406,0.30666720840526396,0.6678170882911469,0.4022732307007787,0.30309780030928213,0.5977449380921727,0.6099576678335544,-0.6113636790535675,-0.6135592709856337,-0.6110567127885582,-0.6166627282262933,-0.6072471679142004,0.018528477885322414,0.3188680833012356,0.37893674610627504,0.10969147710604077,0.09596665886690103,-0.0426922140290773,0.12428628846471101,0.1962848191090718,0.05280340265050687,0.018547051146906246,0.4127093344286904,0.4601552241968294,0.4297762247876755,0.42386327212434427,0.40838597102120655,0.7558644891798777,0.7497027695360369,0.7711731717441679,0.7704771661778227,0.7579963128721757,-0.5080304036229402,-0.5160414799456639,-0.4249809544776393,-0.4462071392293152,-0.4630454972925251,-0.34422336227171413,-0.3630559155059081,-0.5273685662780823,-0.3981773313323964,-0.3822103308773066,-0.6255088077911208,-0.6207703314328394,-0.6256117838994752,-0.6265744382181773,-0.6230360743857237,0.4683320133377811,0.44221703196534845,0.4708694770509372,0.48255501922253474,0.46740292415122775,0.7903049404008785,0.5740353943916016,0.6287735230074002,0.7253919370956907,0.7156698059998097
4,4,0.2657154660111549,0.19385203332472467,0.10840340056947895,-0.14143527735671713,0.12844553562567007,0.44715965383322176,0.6750391806826229,0.2928441952422485,0.7606535495797783,0.5712913856307446,,,,,,-0.2763938410192013,-0.2501518524485762,-0.2628795359709244,-0.21746542266647717,-0.26143634077352584,0.11316775401771584,0.2423450058703096,0.241805733083585,0.11274108136780914,-0.06372212677236488,0.049454775450877064,0.17385110096491196,-0.14047328939835801,-0.10109992194248152,0.18897278426854014,0.5219254517053943,0.6020303264708454,0.4967238275579384,0.5373638992457895,0.5426887003997454,0.30312162224586847,0.40467697338946407,0.38777091774980477,0.412081394043863,0.3938314304584042,-0.10431281869293296,-0.12162450278368975,-0.29975736356880844,-0.13589172810576633,-0.343450519591717,-0.3445992389822705,-0.30929636106346203,-0.26553887668750153,-0.14577398910742345,-0.35296009869321154,0.27908782146179745,0.1946269180694401,0.06539363512447349,0.2217296924909815,0.18124393808006345,0.3276227045911272,0.23963174829914935,0.34771932089787616,0.33427387283236154,0.35498974643952996,0.2533383440208541,0.4141624655579863,0.3404321339605375,0.259729998244977,0.3345133793621402,0.4877472423821736,0.4149488151319378,0.19752015170832415,0.46107929706949324,0.4654644849957619,-0.5604483954596591,-0.5546100505702416,-0.552221280798455,-0.5518936985885072,-0.5695381794272505,0.15315930542397405,0.2864281626316749,0.3003717505260435,0.1828544763042821,0.052894044159286335,0.05964766337470828,0.15239050175686297,0.012148442494711476,0.029227513025286034,-0.06964529171673117,0.33954848710396557,0.37534926789026435,0.3155319288341518,0.30321950274952914,0.34675553039519547,0.6418698880328899,0.6496547226933445,0.5963826368874177,0.579059140144832,0.5813527479118915,-0.37357339717212557,-0.46992799778518646,-0.40860182114947086,-0.44256990202302404,-0.3668575193222683,-0.19138647011066623,-0.2735655401706205,-0.3097032953248742,-0.24524469509783065,-0.20278949867404972,-0.5774534616150337,-0.5750313627423806,-0.5711524783454691,-0.5652275481403966,-0.586509639343535,0.24386700002244244,0.3185438038951405,0.2630877880596183,0.2921599364803683,0.28373754793097095,0.54883981189333,0.2887471361302143,0.3804548655311142,0.40517348517120344,0.47049439414517136
4,5,0.18895957515371697,0.20677828324156455,-0.03540951744158005,-0.2188482455466514,-0.012148447482186908,0.4550914555486394,0.5105987100058204,0.05500010330721117,0.48863640905008787,0.6148341199905558,,,,,,-0.4455921468295545,-0.42427944000072104,-0.43710443459119586,-0.3989349840231069,-0.43187314525125853,-0.1889167696325431,-0.026521079943606418,-0.054088241998872855,-0.17832934456006244,-0.08838499065854388,-0.23984748852921056,-0.057226682710866505,-0.10787216572334746,-0.09800131243908128,-0.08809339304274766,0.5364454194012348,0.42169589830081133,0.3383318252261569,0.5251156883717386,0.39139371770891074,0.47860087515866545,0.565656592539325,0.5444128830183416,0.56314713489702,0.5590652794090568,-0.37658177965762474,-0.3513410533257315,-0.2691871669546806,-0.41512950249980474,-0.32147501029721237,-0.36413151192748505,-0.33126347916524734,-0.2630184574457115,-0.2273888018953909,-0.36351635581508246,0.2329473910647184,0.150622674314965,0.013315758157312119,0.1542513993197232,0.14337636636657147,0.0932376969046923,-0.00921418502516791,0.3369073704911498,0.3397267970221671,0.396050159340974,-0.061758624675351204,0.06813508347187003,0.29746243646937964,0.22788443829142224,0.034015539957615415,0.5031964340020895,0.37590641951965176,0.14737019897165016,0.4246516170913295,0.5432525517830363,-0.39815994820475953,-0.3937164066742791,-0.3900729346866587,-0.3934452215297255,-0.4042932839693212,0.07406608500272438,0.5046676260501738,0.10258872517432294,0.2979117457703597,0.2844277784388918,0.002359530910105101,0.4001823010874963,-0.12447613448506956,0.1724105521254432,0.2030048553043342,0.5188780330521221,0.5582476808760092,0.501035497357114,0.4827550275092498,0.5234250772048145,0.4381116711856503,0.43318545163979616,0.3904447257282161,0.3951241100307339,0.3730258573541241,-0.19281356446892706,-0.2708788225348009,-0.20455821350017356,-0.24121245296251104,-0.1796145279866641,-0.029042047134177684,-0.12333271493498676,-0.14962153185211124,-0.09392663700477932,-0.029934115436264896,-0.4192090919064555,-0.41161193846818156,-0.4116315341248491,-0.4075602725607528,-0.42499400356319006,0.4020997034448591,0.46767424496102594,0.4194022178734371,0.4408055985996435,0.4361348575968995,0.45229248092851093,0.10936595191021647,0.19890910520422966,0.2575618111392428,0.31768381391139844
5,1,0.09954936539031456,-0.08613582837432987,0.4877439232065084,0.023211458851633227,0.35422414920191003,-0.17344232900056422,0.2927195501708264,0.766691476017388,0.25328802283300167,-0.2829493444424278,-0.48362254903084567,0.24111113012902885,-0.08042331849240725,-0.2545923108494341,-0.4137678362858752,,,,,,0.8335951802594737,0.7109174791960846,0.7624440157616698,0.8082596366292025,0.709999664623958,0.4149450895215333,0.02651875330164888,-0.15450447983797466,0.30938120529794655,0.291906381098582,-0.05482296408310572,0.20021629372218142,0.2503643983228365,-0.030651345544855824,0.1964278019470227,-0.5631657482622714,-0.5993984445573877,-0.5896778408527585,-0.5983314406022189,-0.5653558919038133,0.4133188836356394,0.21346302063300004,-0.056302450030895734,0.6310487241749613,-0.12902721816199714,0.025229401970546572,-0.009252335638352482,0.04299924599191407,0.06761245974873453,0.01997049620746494,-0.15304826228779156,0.10287574107381658,0.06025179133151515,-0.061382085856133806,-0.047770919368000486,0.6229743847515814,0.7342652492882198,0.06701568346594211,0.0796333602135274,-0.19369736277936744,0.7828932716793013,0.5713806665923477,0.059902686274394545,0.2143179380600948,0.7470665002589902,-0.026260307480411305,0.20723410971776335,0.5007788193143868,0.14180776388843186,-0.33610169141638635,-0.10558170949370016,-0.108727202935063,-0.1102621220166018,-0.10728758122847037,-0.10152330524855557,0.7150455790171776,-0.4886641197279773,0.5598808899610948,0.06642066241367572,-0.42434099617974885,0.7500058691485282,-0.5021044491879287,0.5310407224663706,0.10743999405355464,-0.3782291985804227,-0.5706492531362095,-0.5615152807020101,-0.5423265726898459,-0.5519084638571841,-0.5757746485493982,-0.10497591439600118,-0.10098909382966936,-0.07414094066576427,-0.07367303380999934,-0.08973810461508713,-0.24901247035126195,-0.22783695470118337,-0.2967943441229328,-0.24058719123424277,-0.29061370786013097,-0.3012243622725823,-0.20642706273852052,-0.2190240140909756,-0.23925021991960738,-0.3174345001471175,-0.10647269677520166,-0.10878029391364441,-0.11189277245455531,-0.11401945370723965,-0.10348305039209182,-0.43304749851728896,-0.4706963591872628,-0.44015596417252034,-0.44768124323704384,-0.4565795397055208,-0.049840313463779484,0.6513808472371163,0.5917784441647435,0.39609556855950534,0.3403312129487014
5,2,0.10346220763130487,-0.09297796123328284,0.481090736676675,0.025340651861304964,0.35329471859951633,-0.1638118883694517,0.30135294804130996,0.771217379491386,0.26697344656382915,-0.2639429538491469,-0.47449156935800985,0.24556936536647045,-0.06639987444018636,-0.23382433943613745,-0.3959080224855689,,,,,,0.8376359812941717,0.7119480123126153,0.7705740184195227,0.8086716686176044,0.7040693228684526,0.40273325387083725,0.01743628904865646,-0.16267628212133967,0.29162652016831914,0.2807548614567459,-0.037865442508398184,0.21891031096904856,0.2602228455456559,-0.004312960871678095,0.21206922854236743,-0.5597914119425584,-0.5854444518802624,-0.578756114085365,-0.5818877367198567,-0.5566130002890444,0.3956362345369471,0.1868635268879818,-0.07288781668846811,0.6172616864021367,-0.13990978390309516,0.01531442526136173,-0.015711030666209824,0.025790959145390868,0.0511640525387238,0.008047153837212884,-0.14700929812192376,0.11165095155235605,0.061805689142411246,-0.05398530998265083,-0.04272633751331978,0.6322769760687383,0.7420141994039108,0.07499141788824615,0.0835550685177513,-0.19491576790950083,0.7843962363718008,0.5787168469928498,0.05503764195984839,0.20993510786436687,0.7559065552850445,-0.01965403621549755,0.22150872850508108,0.504161395189861,0.15064977257342882,-0.33237175684986653,-0.11603945908149171,-0.11843055374733003,-0.12006019562298698,-0.11622067196533248,-0.11314396742199806,0.7344808193234815,-0.4725844881704231,0.5750983718123738,0.09914961155865176,-0.4140452738041325,0.7652156133296755,-0.48874966655000884,0.5303119355875948,0.1272558507283854,-0.3826964359343046,-0.5610044401169718,-0.5511304249378455,-0.537858105884399,-0.5463477099315375,-0.5642151092227312,-0.09867553136930995,-0.09336116606778222,-0.07264435234952216,-0.07476016604187063,-0.08881073008369733,-0.2501073233025366,-0.23678078975737193,-0.30251232376164494,-0.25078070766710825,-0.2916544101631182,-0.3050253604254354,-0.22011831138653593,-0.22852366405298863,-0.24864043582065354,-0.3239474754571492,-0.11669280080384548,-0.11950486224988532,-0.12173314841922633,-0.12295895475308627,-0.11480401485242164,-0.4268822160076653,-0.45649776355753113,-0.4318532256091552,-0.4379764665793413,-0.4465844387949287,-0.042636917026868115,0.6585342449253709,0.6029987580188717,0.40230367728189753,0.3498807843122511
5,3,0.10237558004987402,-0.09456655146385451,0.4836460487934787,0.043543379316612674,0.35862862207952906,-0.17230234185397908,0.29566350631086513,0.7656306423862168,0.259685898318019,-0.2713928333912148,-0.48784794440558255,0.23427656876736902,-0.07769773540481362,-0.24369059056880316,-0.40569121964802246,,,,,,0.8358558351765434,0.7039416183830101,0.7659236907230471,0.8048863284585658,0.6990951801093421,0.40131489358988137,0.01193833342834727,-0.16201385336327645,0.2822518168152499,0.2729776315127732,-0.04914672450328483,0.21050471640999513,0.24826500838802135,-0.008562892158104685,0.20191816997611378,-0.5677065762675113,-0.5899029266508409,-0.5826121262720969,-0.5842110729012542,-0.5635409180068303,0.3960489434709721,0.18381085393886165,-0.07188915549014174,0.6181139413830615,-0.13536917514332014,0.01829096244375039,-0.012530480449261194,0.028316294305138046,0.05255132842898602,0.009009614458302506,-0.15171325430587346,0.10822597170061621,0.0600351689825811,-0.05512583407446203,-0.0459306742657708,0.6219112791495875,0.7362841312860546,0.06794165293022747,0.07605698787522397,-0.2090305360910254,0.7793165012921189,0.5746833970466958,0.04222809335859179,0.2013679587820112,0.7526821189098852,-0.03444294780510471,0.21599223803026169,0.4946324982007462,0.14103050557830588,-0.3465400552666176,-0.10425508484322799,-0.10595011275894128,-0.10785990440567739,-0.10393000404653607,-0.10179849443467526,0.7324147520750482,-0.47884080387372396,0.5676075850599277,0.10195926084045659,-0.4164249324162592,0.7631942953370859,-0.49058520422667495,0.5252252018769606,0.12710530270231624,-0.3877924380890134,-0.565873780556601,-0.5565746665474536,-0.5445456827822641,-0.553278758589125,-0.5684129889575371,-0.11002319690575191,-0.10381745384723873,-0.08432400846674426,-0.08847066417602156,-0.10170692263757286,-0.23443185988601556,-0.22332358492479565,-0.29092214541319805,-0.23988371370585537,-0.2760948172419535,-0.2954195032310629,-0.21277611996733148,-0.21564112469900487,-0.23997895213932297,-0.31322686981282777,-0.10500935768672459,-0.10837510151276541,-0.1098893132819414,-0.1110576772292613,-0.10407724061494705,-0.4323531333263335,-0.45773605125385775,-0.43674635433626885,-0.4418279912493783,-0.45044280159741024,-0.05579572993307824,0.6491037784671737,0.5936084458552748,0.3890936320421622,0.3381063658097587
5,4,0.1563566965644585,-0.07566405562264933,0.4903653536909396,0.024498970876234094,0.37907086096798026,-0.18944115543579376,0.295659700143835,0.7382431316724828,0.2624195788981648,-0.23772270085933678,-0.5062298255864541,0.19949605070331178,-0.08628805566209441,-0.2073922517133724,-0.37526497069791387,,,,,,0.8186677851913335,0.6716069720919932,0.7524618588415196,0.7833760661969277,0.6456578490342492,0.41554507594726087,0.04602214405874783,-0.12764875721250646,0.22842464358145065,0.27598483022661247,-0.052332304492122006,0.2218007662132886,0.2250449167983436,0.04449530165968396,0.19345039543977238,-0.5923875173166062,-0.5786400456812948,-0.5731855398209773,-0.5571814513679589,-0.5645856741888446,0.4000668538788662,0.16831136198279795,-0.07365141712607293,0.6097062068633946,-0.12355787393979045,0.027478553146615514,-0.0003953282211399678,0.04891207058966596,0.08416458232064694,0.007253208126752564,-0.1548820442932668,0.111741777107909,0.05273527249172416,-0.04353700844863728,-0.049985033814911484,0.6167974232757917,0.7325988743547084,0.08456471547486577,0.08046874900464174,-0.22873609855203791,0.7612447076155252,0.5957136715709233,0.03856751704575445,0.1980634761229585,0.764922055231146,-0.05972366669225759,0.2407509238262373,0.4604893320187884,0.1477549282673024,-0.3673793500650244,-0.10265522991591713,-0.10114345445140183,-0.10325969025523651,-0.09698045749618966,-0.10469924257521623,0.7476748091555728,-0.47168758799527,0.560655142233433,0.15761318028875004,-0.4191565707749674,0.7643039019645259,-0.46990127760504885,0.4744948894664357,0.13954839279889908,-0.4202727639457924,-0.5663131315991523,-0.5579453494106823,-0.5605666634598732,-0.5737704128845378,-0.5621114636389053,-0.09845104881593802,-0.08462557430020867,-0.0919699336321147,-0.10482705833981076,-0.11180237951087646,-0.20521433936994748,-0.22663133250359224,-0.2974742352752928,-0.25656143099371786,-0.25552772612947794,-0.29236205448581476,-0.2408111233918666,-0.20106773486676888,-0.2460982698343268,-0.30679619592405394,-0.10457335894152897,-0.10838288220654158,-0.10693423530158452,-0.10521537324133012,-0.1076794269254151,-0.462368182985053,-0.4504693543730296,-0.4599092239367817,-0.45655489559211593,-0.46414714810471436,-0.07308287568983185,0.6176762503300307,0.5807479306706339,0.3500504802284383,0.3214285512186317
5,5,0.13250235044675185,-0.0711022108035102,0.4813021672388179,0.025503682746711887,0.3559485298713867,-0.1991501656154968,0.2820009558421124,0.7480175244869771,0.23392164619789624,-0.2927317628730224,-0.480996975733037,0.2266005720257961,-0.0869914347401346,-0.24241844163039228,-0.40090200242714147,,,,,,0.8234798671528738,0.6958651893418659,0.7548530764868122,0.791274390611363,0.6904108635726215,0.3885891226535494,0.01513334772337327,-0.15904841494647592,0.25771722138432107,0.2564842590520743,-0.06744681951371301,0.1837431717228577,0.22338273124422936,-0.03141043380336539,0.18020199308817964,-0.5739096841550597,-0.597694367946187,-0.594049173335848,-0.5929979616752707,-0.5762454006327886,0.39564808853201683,0.1897041977599857,-0.044697799701221674,0.6146018151124121,-0.11843003547449471,0.04419254718923471,0.009901591815858812,0.05053668272165435,0.07252410059713721,0.033369163590490136,-0.15965503517331658,0.09888323573746383,0.05672784365975647,-0.06130927671822639,-0.053843925676987814,0.5999081086850416,0.7124323882542688,0.033141324984635734,0.037910473317809945,-0.22579516962899304,0.756144028194147,0.5557704264211653,0.02034504461970077,0.17467476258794612,0.7311167816212143,-0.0553279751008382,0.1908016174228916,0.4750606886725346,0.11015875420340893,-0.3637904569029238,-0.08738570956639458,-0.08918980042767655,-0.09150671337545657,-0.0868515304105637,-0.08478682993521858,0.7260644680071751,-0.46653733289313615,0.5731447900671963,0.10881929671612867,-0.3910737715302508,0.7620780186654371,-0.46965546921870205,0.5362826872761376,0.14223605070114498,-0.364317707342952,-0.5728772405267875,-0.5661146687126914,-0.5539970265186369,-0.5576618552951578,-0.5743917461438137,-0.12614504790003478,-0.11693869027083048,-0.09919463885894375,-0.1038789073055626,-0.11399228471068623,-0.22294878450755218,-0.20828135293129546,-0.2753746313987977,-0.22268889933577962,-0.26401958590505714,-0.2811774763126853,-0.1958854342896259,-0.20190122088269824,-0.22542845381717047,-0.3025184761494195,-0.0878422901939071,-0.09276834765400133,-0.09379114807827493,-0.09497271415967479,-0.08749102686497934,-0.43997726810088933,-0.47081458665231546,-0.4456314353338837,-0.4518838367963378,-0.4606815759009222,-0.08104851029753157,0.6258440737082777,0.5701734695076071,0.3686015560150835,0.31080809248526386
6,1,0.18122132298738813,0.058036272185576165,0.5415468128703617,0.13961062089832654,0.40208753259637753,0.08603384170139172,0.5300710540136352,0.8365309989947571,0.5263200966853803,-0.05926539891165694,-0.25026959343230626,0.5050194522567941,0.21564174751922027,0.11855080614355917,-0.19765846433945344,0.7662881826501367,0.7720188624734226,0.7696211821208111,0.7449356044111357,0.7520982041107872,,,,,,0.5695658539696146,0.26915655877060995,-0.08611391195635254,0.349712880554061,0.5131267874849488,0.22612852124777683,0.4700179024830844,0.4794840473033297,0.16564681073783127,0.4449795716936362,-0.37948090176722493,-0.40052516739757715,-0.40847575111750145,-0.41037231348894876,-0.3847924700340184,0.6140443749014258,0.47166575356397344,0.04553985421473117,0.7258275008745463,-0.07118427215824008,-0.013155850449664497,-0.03740588470027384,0.07657519982448735,0.13691680120698502,-0.020479098062005763,0.09704359888104586,0.2242965464693718,0.12282125723745796,0.1083238989287526,0.10617820940864364,0.7200171505692762,0.7980837591624246,0.2131188687663229,0.20527496183098193,0.051293820176334104,0.8210791606100825,0.6727307153937542,0.20348989345892687,0.2869320005054312,0.7375273185954656,0.1959769974417832,0.3093652707395468,0.512064418654663,0.32608922210991786,-0.09054938038592564,-0.48472878365207483,-0.4869982279204468,-0.4909631564300527,-0.48343797061203864,-0.48089541518459855,0.5310601194305993,-0.5581073254139852,0.4456368405610587,-0.16614444844508824,-0.528786330845576,0.5599115656265989,-0.6094333543596591,0.40480476132580023,-0.12004843605080917,-0.5232356036642836,-0.5141191732044206,-0.497958901574846,-0.49529168592717543,-0.48086306153638825,-0.5141431668782517,0.345597828807676,0.359868045101311,0.38334301166050067,0.357528865711338,0.3799310951595183,-0.6142805012190213,-0.5985340168113658,-0.6291809531275128,-0.5848899788310302,-0.6354288559455352,-0.5830832699507269,-0.48331070059850134,-0.5612596399093586,-0.5464573195842615,-0.6203876260946042,-0.4967779007257378,-0.5074122939663799,-0.506464876665683,-0.5075448450989675,-0.49690317277634,-0.34359897931699224,-0.39673183653079547,-0.3496237082057143,-0.35408696687506724,-0.3679668401120568,0.17088825933003737,0.6720854138160061,0.6253861854878509,0.49919786518028264,0.43793994147403037
6,2,0.09227425247824828,0.04191483055984835,0.38929274782535694,-0.03641317387286058,0.2415376486742249,0.2279024863156105,0.5265256059950543,0.7963707422047235,0.5745924934769286,0.0761640219241081,0.026315685324795557,0.594828277319907,0.39052240778255554,0.23817569934649696,-0.046692732482029875,0.6025085577703374,0.6034384433213408,0.5925425297106125,0.5474788934926605,0.58124512226888,,,,,,0.43366277600447267,0.23420115377921136,-0.11223112943009772,0.441349218481351,0.4975058087746901,0.4052808372815577,0.5849650807051563,0.653477280627522,0.23090645349986783,0.6125109444183394,-0.07045535179540519,-0.14634441434371204,-0.1530131628517002,-0.18797877250883333,-0.10987105915826367,0.4616612048120329,0.39065580027617086,-0.00656324434196609,0.5652310706793828,-0.15507078565494425,-0.16299781890439635,-0.18238258605728652,-0.03901430832286046,0.02424619787984128,-0.14053644981796665,0.16106798889786622,0.21490575738857276,0.12276070167329589,0.11539137069506433,0.14327039930436059,0.7560571622682976,0.7709201945859829,0.3126697598304632,0.32239449999820025,0.2918138342157064,0.7496640438729257,0.5303846682088622,0.27836213809852284,0.2875835008066272,0.630813593433414,0.3957286804483995,0.3071074388363906,0.5355356086616014,0.4029985569923966,0.16446531844474555,-0.6087648706538917,-0.616447378790999,-0.6192537623765602,-0.6172178105189481,-0.5973935760598346,0.3544702468266757,-0.4339807788600243,0.38024459097951924,-0.2748414564979489,-0.43260864986000636,0.38922098336371014,-0.5303970799794762,0.3781993095013907,-0.1818732710790112,-0.38225849339980367,-0.25197184012389684,-0.23571326720402697,-0.20909440001172608,-0.18880690654527132,-0.26180819654071996,0.4840981695402615,0.48134375450568323,0.5444012410103611,0.541871968268777,0.547533770685206,-0.7190366406094479,-0.6542550208176414,-0.6435384350704743,-0.6016562537440264,-0.7060365447727257,-0.5880229252689635,-0.46657911474289704,-0.6316933562007221,-0.5614379234929721,-0.6288015493131387,-0.6215921057652278,-0.6292431492885164,-0.6336392519451775,-0.639190739390779,-0.6132448057662003,-0.06354315810939104,-0.17201866178659753,-0.0782770159835342,-0.09000366590088604,-0.10746475157677016,0.39069356588797477,0.7530459725451562,0.6997794449315969,0.6659386810532233,0.5825161212798533
6,3,0.12991980083621402,0.015377484163640154,0.4300566992441559,0.030496334863969743,0.30635559515610344,0.21222557372607087,0.5393912540699399,0.8197070350485747,0.6058887982193634,0.11336626184448806,-0.08702937398870669,0.5359398919461058,0.3439514574184608,0.23966638030480292,-0.07081373349266751,0.662315694515798,0.6730908935108716,0.6667080948780125,0.6473291389568416,0.6509392611311656,,,,,,0.48488718625277316,0.2580327019890789,-0.08482206851354679,0.37550830613083164,0.5102759077005521,0.40056630846125985,0.6281427037064246,0.6339561880484385,0.32973302843783303,0.6134750175978592,-0.18118773668723165,-0.19073149695839442,-0.19998121583501005,-0.2037038334725605,-0.17584294904726105,0.4870711276979154,0.3479189970510609,-0.04414357522335277,0.5926476922827355,-0.15235616143391284,-0.15909369923103744,-0.1677528407870903,-0.03605844497830457,0.03639129098718685,-0.15696080265504575,0.14176810352165614,0.24528951369487562,0.1176028781814984,0.13042207806582562,0.13398520970797556,0.7962426051731883,0.8386341434114281,0.3574219506512144,0.3469677398646923,0.2204153700704996,0.7964358065204672,0.6265742997026879,0.27228153391313814,0.30497125453942786,0.729762395272008,0.34365119854831094,0.37545067266951415,0.5300902095817468,0.4353173440903503,0.08254175257250451,-0.6031961037623699,-0.6043252496296678,-0.6078264213273643,-0.6016145955475618,-0.6002800822900225,0.484350421642487,-0.47309925195830616,0.41548882613236215,-0.1484285545710231,-0.49618244718144155,0.49089114933846445,-0.5581613464730582,0.33548564179706775,-0.14157237068057826,-0.5069686496635915,-0.3191534890656147,-0.30067524953652947,-0.30262044985916736,-0.2920045964979403,-0.3178617200327605,0.4760333766871653,0.48452930797536176,0.5059402932938332,0.48320610784792073,0.5012047365881609,-0.6787185851300881,-0.6730875794728304,-0.6735697163040923,-0.6490216233395714,-0.6849424696871753,-0.6099536452798522,-0.5414952649048159,-0.6329503353778776,-0.5978226121462102,-0.649946260478186,-0.6155723523225725,-0.6248879550120234,-0.6231262068249033,-0.6236963689543167,-0.6159813669938119,-0.15680213528073716,-0.19607919745902946,-0.1579357523840086,-0.15475327036401865,-0.17018239671203683,0.3464136862777045,0.7564023838982862,0.7278652862898818,0.6231267034537532,0.5789528230149461
6,4,0.1544438573721134,0.05462781072312284,0.5215259942859847,0.07652664149969912,0.36998434810153125,0.11598149269350944,0.5188435068016285,0.8311079532108118,0.5218532704860491,-0.026459365089458675,-0.19950546944252356,0.5040228119456465,0.22256914577183995,0.11983147086717139,-0.18551764420466865,0.7283617354975513,0.7286294883335116,0.7233924936332531,0.6925904684094322,0.7040187443742154,,,,,,0.5593629143581016,0.2897496756748489,-0.025993669175123246,0.43507093834038635,0.540427237514285,0.2621750572042827,0.4943222301525254,0.5194917239431455,0.18848592425224586,0.4771506462553412,-0.2946563673381324,-0.3337335851296186,-0.33196549408341935,-0.3487314089529212,-0.3039818921263733,0.5946047620002236,0.47043348496377524,0.06323079091432948,0.692213695010172,-0.05483592764999612,-0.04056004443637917,-0.06295897299588793,0.09333881951570222,0.15183676893729903,-0.037647505404589054,0.12009226391469163,0.2201877775352249,0.1374592763756436,0.1268118996341041,0.13134183188555815,0.7427418720418033,0.8045202145023743,0.283500737241269,0.28607057566113003,0.14493401460462807,0.8148403296356765,0.6368831086126205,0.27448208414309416,0.3350806357779983,0.7230358051092681,0.25343674119986814,0.32717633449638006,0.5200774828787941,0.36271055325446633,-0.010943724929308729,-0.5333226196403462,-0.5367402908673375,-0.5400159078678555,-0.5351455077881124,-0.5274009126786645,0.4782486575608025,-0.587509038637049,0.34609918484785074,-0.2569513357521884,-0.566562152388381,0.49977774074254766,-0.6534070718298572,0.3201325323716213,-0.20923817445530646,-0.5342189661252417,-0.43979273915623374,-0.4266340179398467,-0.4102642677769057,-0.40167904382520736,-0.44331165275400597,0.36996500600905136,0.37853002975973027,0.41240287141764687,0.3966592856301846,0.4071797434544224,-0.65558800933248,-0.6287636152122018,-0.6519368769519027,-0.610508371250617,-0.6706795857067218,-0.5903256580622889,-0.48661334419582536,-0.5772422685901568,-0.5530102177067215,-0.6225876748280155,-0.5423976160770203,-0.5502456205207582,-0.5514697142495901,-0.5540798850561344,-0.5399184466066442,-0.27629591993425406,-0.33736371660653575,-0.2834325441336074,-0.2862733551308234,-0.3010899700717229,0.2344263947314693,0.699535090312601,0.6521678516407828,0.5412249337331023,0.48479931111874053
6,5,-0.05900153464961089,-0.03643021184058415,0.29841622753069585,0.09830244053992354,0.14108671035131615,0.1659250207266274,0.26996766432944963,0.6181829981198864,0.23491401997308392,-0.0782747914457449,0.023359285688198006,0.4056479322565172,0.07244559735368106,-0.07751143675849326,-0.11911388421114033,0.5787552051326859,0.5696346662702338,0.5625828759081725,0.48716173424562026,0.5500161224907384,,,,,,0.21280254582359615,-0.0460934323860307,-0.10135317161034263,0.49875478114533034,0.20842807804899965,0.29868555344539405,0.26168824464005813,0.3934592459017354,0.05344192975474549,0.3206460850986067,-0.06216688116795743,-0.20257274934763014,-0.20410115425385156,-0.26232366796122597,-0.15311614275966368,0.38016660403776603,0.35428960415914523,0.1582839801278706,0.5078032660014071,0.0029819069335360604,0.027064141278692166,-0.013381080587732352,0.06127396994488399,-0.006825398991413323,0.05292875805533026,0.13356751827996027,0.2031969066045054,0.11915372415235903,0.06724872804434934,0.13071451285715785,0.46913195851356293,0.5043426598838865,0.16180749096261238,0.19067597732774666,0.18845680170806223,0.5267814247692534,0.27292296164531105,0.22148551046272713,0.26193476390597803,0.3667526628654889,0.3137182931260445,0.1846897693230084,0.5507378414384141,0.27080703177230014,0.08848019951025432,-0.3705284229569832,-0.38472867447576053,-0.386175565780297,-0.387569806186318,-0.3523463740083186,0.4051196487060621,-0.3901922130046016,0.17522965539855961,-0.26698304939253825,-0.33039165809248705,0.5041501510179245,-0.42789819410798513,0.31871938685083245,-0.05276547873916604,-0.2000307094554421,-0.29351845700073786,-0.28417859758823427,-0.22999462603555876,-0.20204476810570338,-0.3149824367264349,0.14218561124788076,0.12071154550003627,0.22286190600699507,0.24612273116758354,0.23304898962557474,-0.5669708349601601,-0.4449101505902706,-0.45216286287182017,-0.3866155537539053,-0.5510336763006332,-0.44592972021048216,-0.2682738826595439,-0.4594688567479459,-0.3884193453153937,-0.47717618106408466,-0.40562063382230784,-0.41160053545727227,-0.4216012156134925,-0.4315043464899826,-0.38911135445072476,-0.07735867473063918,-0.24385588755160437,-0.10511815967671811,-0.14017389868692365,-0.15225662184887856,0.10670051110791734,0.5388062096617537,0.43291807696878304,0.42510477791403933,0.3034810561152971
7,1,0.36067155722463373,0.2235513533530732,0.5558439523222785,0.1418565085617255,0.46076406785975443,0.08891233052154557,0.42066315238459573,0.5211046182977325,0.4356050936727279,0.022695158875615906,-0.45511170736607554,0.2037719825918477,0.09276178208484587,0.045729039653339965,-0.25769996305526677,0.4712929527404405,0.4587220324736174,0.4565227292041856,0.47715200512429523,0.44125476787790796,0.5622313705522268,0.42592960556701587,0.4765853986568849,0.5546401410996379,0.20308615730017276,,,,,,-0.023176579507192985,0.22883729003487296,0.16189649256707273,0.060418072226575914,0.13635121148163776,-0.5309708309012908,-0.49761488965383016,-0.4846260532907849,-0.4578037734076681,-0.481713886367227,0.8268012570524008,0.7528729787138534,0.35847128039125675,0.7485856144399754,0.28845760363432205,0.2204208672478143,0.1981221583270939,0.43917694856613576,0.5358779425112821,0.19725799480438322,-0.15492951334781146,-0.015886919409609845,-0.09998443501937282,-0.12763368051869706,-0.17597223017189068,0.5698564830088609,0.635186269104599,0.334392380940044,0.3131984510518262,0.16775659736389614,0.6987260814872864,0.7607293582547677,0.5129743959993419,0.5824115510155596,0.6673754916514849,0.11495148275467137,0.32020723346851077,0.25584552120596804,0.3933268354887425,-0.05560784101958283,-0.35364342325137565,-0.3487286196527666,-0.3519217236487129,-0.34340142810247687,-0.35831450461771097,0.2001954603904279,-0.4965584234024021,0.2216491651780732,-0.20071931695513645,-0.5263975238169938,0.16426680240290903,-0.47304201709400995,0.13427073006920565,-0.22770854972133314,-0.5324200867493429,-0.5138915306497118,-0.5233796056123421,-0.517652952869486,-0.5434671916079579,-0.5028482327489425,0.4629186408468229,0.5011941751754889,0.466908383382152,0.4166714927780293,0.4631889518423882,-0.4419799936842137,-0.4938245615348207,-0.566954677191362,-0.5325036743432214,-0.5039312776318416,-0.5055218903729077,-0.46745256770653487,-0.3897039938468414,-0.45846210143780897,-0.5147912714782572,-0.3694614024498002,-0.3751379203954466,-0.37090746391027807,-0.36771027471288487,-0.3770680403885043,-0.4492362960540408,-0.41296403063572873,-0.44382350239322355,-0.4245648525983228,-0.4325981400826038,0.11456804873491566,0.329301176618251,0.35654787793323817,0.23513822419864194,0.25476311491799897
7,2,0.35309245567213365,0.3174525815858056,0.3186650322927087,-0.003071112636072071,0.26910405904241463,0.13148467488608517,0.2558658513183373,0.2222406839699621,0.33970386010211684,0.16984475386500142,-0.2644125777667745,0.06934423938302392,0.11997593161681053,0.1667022058968045,-0.07686972899551359,0.12452887708307347,0.11551404059977,0.10772352639209593,0.15420051753406017,0.11240928887473489,0.2675341077860054,0.23573841274045215,0.2580355600873373,0.2920757086940471,-0.04278548606942345,,,,,,0.016866372238054095,0.2151986966563082,0.12528956923623724,0.1262952901848856,0.12935467600070316,-0.2940355612889167,-0.23622188324546856,-0.22694575974485054,-0.18814710537568868,-0.23577821675531663,0.6521761668531584,0.6460252118706042,0.4691724706173561,0.4543223156185754,0.40295047588911226,0.21888311631804003,0.20466663576384225,0.528192037212491,0.6282343772823751,0.1952298128933645,-0.17320485052828483,-0.08920186134563379,-0.16522381830131794,-0.15522828487112328,-0.21419596154953258,0.4359123041376447,0.44346886928683005,0.4051341862088367,0.3666900244147715,0.3170363792453381,0.45989778662562375,0.5817942121280831,0.5642310172957962,0.5523726694376605,0.47990103155235264,0.16062959339752858,0.2688987003885872,0.075382357145378,0.37557389300412214,0.10032100519396192,-0.32989634044967997,-0.32228722155405176,-0.3252441046000334,-0.31625924212201406,-0.33802934054865186,-0.03262749100046802,-0.29049474596496516,0.10113864262188565,-0.15791198430039333,-0.34949685985013335,-0.09732792372364352,-0.2371455266920499,-0.018100217173165012,-0.22752280877372977,-0.36411263502950764,-0.24498902732291272,-0.2657425677209102,-0.2659010412017815,-0.29282801364346867,-0.22711431190505804,0.5308642517240856,0.5724536355647004,0.512877272991293,0.46156117003750063,0.5171888019542537,-0.342674038566237,-0.41596297578708663,-0.4650912459958143,-0.4554829134155767,-0.3967781741829661,-0.3808485450041177,-0.3989845500932234,-0.2818055950251086,-0.3630139114667754,-0.38239842375809463,-0.3513350623862832,-0.3561967301927167,-0.34947723154563004,-0.3441160293510368,-0.36092905809193,-0.23987155549562522,-0.1713565888738271,-0.22844884515930386,-0.2022898923430314,-0.20629123569012076,0.18017441575634685,0.15527756536629145,0.22129955147411662,0.15456475169573203,0.2050379652656822
7,3,0.12325336953258825,0.11737537682290888,0.059810786169878116,0.04401933944573011,0.055474629728085034,0.1022322997722046,-0.11490603493511209,-0.12672823061430494,-0.06271498052015212,0.13945862609236426,-0.23648375761392026,-0.3011892944300183,-0.24961869615242382,-0.14306343057221316,-0.1223929879665715,-0.1254131468120545,-0.1351058357263708,-0.1350407601774941,-0.08976414662403509,-0.1315140987736143,-0.07973328815297376,-0.10233252670145232,-0.07686123314193738,-0.016167550271423803,-0.08756129664545598,,,,,,-0.053344611563975075,-0.06938037829294963,-0.15766597787848013,0.09488597396765364,-0.14202441163124546,-0.06732432048809489,-0.006963394439449377,0.0076052383353016895,0.04999215516604316,-0.029314364747908384,0.3539390593469618,0.3541737436333161,0.6122225989102641,0.1554246779305023,0.6933220189352933,0.3856291655998816,0.39690918621545124,0.5655940085510621,0.5227434393147832,0.3729381472718658,-0.1295581507841237,-0.0936904205744089,-0.14961152460015348,-0.12046108623398988,-0.15466914161785872,0.10137274077757918,0.09715959174735078,0.404701018178497,0.3687939486595947,0.3220413019895958,0.10470973920709914,0.21818653505772378,0.573069213531856,0.5768688158101215,0.1593658134828999,0.11308088362346003,0.2436382730883906,0.0047665666191218925,0.2681838203572723,0.1675360820324563,-0.14349859975880697,-0.13348840267891537,-0.13738655854198734,-0.12807374160224994,-0.1529833951071664,-0.014149695396601158,-0.13771030097615222,-0.32018535687997884,-0.030774138574730214,-0.16324350059098602,-0.07770811232291974,-0.03285042420094553,-0.36904180310400014,-0.10615572871646428,-0.18235514626658178,0.009294882526762804,-0.03733167651594438,-0.03037796589758024,-0.0508414500833414,0.030229212628931856,0.16324742264537817,0.1940284682389476,0.1311947314473294,0.09028139243906896,0.13062330467297423,-0.11474497701123654,-0.18126282719123665,-0.21472203541092094,-0.24334107235475422,-0.15012882372329717,-0.15130497442613633,-0.22002589527138094,-0.06459152861903172,-0.16637694501285205,-0.1468115749505472,-0.17311832294489493,-0.17876874295022893,-0.1700267317697799,-0.16427635480967262,-0.18535504172131745,-0.04972297527337455,0.0375853822116613,-0.03144175041358199,-0.011754245811638864,-0.004504832347045351,-0.040659699221109236,-0.1426195447156242,-0.08533094423784782,-0.13692957677503714,-0.07116855420325363
7,4,-0.20453161778881124,-0.14363684175288283,0.06466969629460018,0.007261723809724341,-0.02844607780697994,0.545004190657937,0.17298243848377748,0.4594335261893143,0.3331516620030148,0.29090529417892264,0.028685353307160155,0.1853529260805702,0.14113726700305096,-0.12125884894933714,-0.1298179824339838,0.22026287250757237,0.1975879915127653,0.18507928747208124,0.11912569277753782,0.15479724521165938,0.3288976607442682,0.42641886067838297,0.3568907815726232,0.41966730608351344,0.4874639463087491,,,,,,0.39345780950559917,0.30801255878568456,0.42464106846798455,0.184703797098827,0.35380705117452926,0.1413059665372406,0.02114961153968875,0.03868871701068377,-0.021103438427609866,0.08908408710927918,0.2718258350543684,0.316400068741591,0.22938487065470292,0.2664172633125056,0.2063502926514399,-0.003806671608974188,0.009801398243789894,0.09255289094348484,0.04428186246781429,0.05868416620867323,-0.05227226966453613,0.0050760866489601986,-0.09422260390351811,-0.16937751600529993,-0.09877578138217369,0.5988275464126137,0.5561778138136784,0.6391589589672574,0.6752750063056016,0.7088510811214717,0.5222551611158965,0.356170306045795,0.777566354104426,0.7600777300867041,0.3941352185703131,0.6314276942927477,0.4072436544110487,0.5448683926915895,0.6375473672004704,0.5304761259346272,-0.5365620677442424,-0.546654085802075,-0.5465159931179124,-0.5523668939852182,-0.5212408311857042,0.15814810535347767,-0.180702357847643,-0.08639899441053567,-0.2755652159458555,-0.29414667646904835,0.1481965830814942,-0.2901570319685143,-0.019723264597139467,-0.17473760779045766,-0.20126999785066424,0.0776631925049377,0.06394187067622925,0.136891803674986,0.12687539405692028,0.05894335191116895,0.4193938552915557,0.38782045117789976,0.4837906625977405,0.505166053518172,0.4882606146027386,-0.6123740646506968,-0.5238534425213544,-0.4976875375297558,-0.4730527593759368,-0.5893964753129102,-0.4627712000982065,-0.3646845943310906,-0.5209985500429672,-0.43678176626395016,-0.49344935363605824,-0.5510496776454961,-0.5491022473267932,-0.5592330451891094,-0.5681540067354014,-0.5363252896123358,0.23008604005781597,0.11394608181763255,0.21480478148464144,0.20413581927857893,0.19213304106885087,0.4633526387349347,0.5580598207252013,0.5142563496531488,0.5687639430521912,0.5177384201286889
7,5,0.19827626512496532,0.13789721161100554,0.3498803101371001,-0.012604365161995368,0.268811350763428,0.3429744367455876,0.41624696128924166,0.5370588485644177,0.5700910893480938,0.27073756871267896,-0.21614360816692346,0.27150198119553537,0.291254415173405,0.176364640923806,-0.11431827277142359,0.32846299682264934,0.316663295046429,0.3061416594587727,0.312203191849999,0.28609655404055556,0.5014474762777538,0.4894190480353807,0.5003944014178108,0.5329163577055979,0.19770732209081376,,,,,,0.23326575356002466,0.4426292947846695,0.4117679444064364,0.2349559581816505,0.38651687778845334,-0.23029920458171538,-0.22042748982671445,-0.21074890629761311,-0.2020971238021847,-0.19088202554556677,0.6423306056542224,0.6095344159190399,0.23602098983227515,0.5485484958262583,0.16859612604940333,0.015049541796029575,0.012180149524334105,0.27323292864070936,0.3833532959567152,0.020135135410395355,-0.12571598493027092,-0.015207655116219465,-0.13519911133463114,-0.15549255136963835,-0.17507061280210268,0.7210008727048761,0.7219632981688079,0.5665121479329779,0.5510046093763757,0.4782708734789174,0.7155688338100505,0.7214696139027734,0.6835353381625017,0.6838139978449106,0.672941276157645,0.3936845595021563,0.4148030938435374,0.34618075806250204,0.5898677009786817,0.2523088945013259,-0.5382115620153489,-0.5364049790054681,-0.5381462217508446,-0.5331611334656492,-0.5394376554783933,0.11662898402520605,-0.3470416392361466,0.21040005198082046,-0.21521769166199878,-0.45828475003579316,0.054471681824160956,-0.3913561433758541,0.0966693989392523,-0.25355046144512206,-0.46036723774840316,-0.22126398915376977,-0.22884242847438818,-0.21262242024513944,-0.23892970563007854,-0.21532864965830334,0.6677396986246364,0.6862079086576526,0.6783213666866106,0.6420755320906328,0.6799163871163614,-0.572209290016851,-0.6054161121843471,-0.6292022319172712,-0.6106990494958919,-0.6053011077966168,-0.5524106605804961,-0.5258116808197013,-0.5132799089071072,-0.5286307366982979,-0.5698737091899915,-0.5524612254440497,-0.554916777607994,-0.5536434988565193,-0.5521189395785808,-0.5541593662802731,-0.1420335684900489,-0.1307732062525726,-0.13767273510619304,-0.11914579142405746,-0.129622643838037,0.4188816112157723,0.5057194733591162,0.5395000527960205,0.48486754873356497,0.5027621479264351
8,1,-0.1638605261146593,-0.19708583495048826,-0.18051953795423903,-0.1414186127425865,-0.14206299166746095,0.8723128590985837,0.3709278796346659,0.3890394494258268,0.6870248043210249,0.8704825910821243,0.6477584018083683,0.4253828148606479,0.7092041613360873,0.5424217130740803,0.5528916200802947,-0.16316230996443348,-0.1421930973432073,-0.15645946907431174,-0.15865107437225334,-0.1799119291895097,0.2319407436944665,0.4237232030986966,0.4190629825912986,0.2688642626502109,0.31779506907129584,-0.008932569676420421,0.036241665435981174,-0.03814796328687864,0.4290397461243858,0.2660160965205065,,,,,,0.6600472064436522,0.6954029138587589,0.6724477394664992,0.6687167562147218,0.699308878262397,-0.23216404931181644,-0.2760363830003876,-0.43085043784386,-0.1600036676206158,-0.4379797219864201,-0.6115841871822933,-0.5512137636529595,-0.5379408278514668,-0.503698126384666,-0.5740881533936455,0.2530290965696981,0.2577842236865724,-0.012337984673991054,0.07575548605784144,0.1329845587339813,0.6431116302888333,0.5277196929266177,0.7901514109763884,0.7843030096706542,0.8282713671178588,0.2449249940578737,0.17451894173648286,0.5278883752934144,0.4137943675756066,0.24773314825046855,0.877160878616317,0.5816288121904275,0.4933029572205323,0.8248457781026066,0.8021902032869443,-0.7320459464823652,-0.7312089376648703,-0.7296673803668887,-0.7318096308206254,-0.7334440977119474,0.1328937969014492,0.29193621761698507,0.044801272221795196,0.16309979300835065,0.0048952583859367405,0.05708601550917669,0.10535906335691958,-0.1333952771340985,0.07959375043202344,-0.09457765301843613,0.5798989048964439,0.60680946238607,0.5809081499089389,0.5712805185583137,0.5821353506236658,0.7878998498143157,0.7573413543485972,0.7776808766607132,0.7746599998578215,0.7696561905010739,-0.5644037726738897,-0.6049143962773564,-0.48079367132773165,-0.5310618721438649,-0.5020905507711828,-0.4307996025198424,-0.5003978317203395,-0.6398439637011144,-0.5129347178393866,-0.46742070853344364,-0.744468790006453,-0.7420963325885035,-0.7406535265573164,-0.7380072049942576,-0.742349549552471,0.6655829361239387,0.6733940737147791,0.6777536358829852,0.7011436868575663,0.6858429388614312,0.838828735589827,0.6517922080995766,0.7029879835357489,0.7600454620099057,0.7940623574327719
8,2,-0.01215774971083583,-0.09980530221337225,0.03392949364818709,-0.09394925306516133,0.054463224637000374,0.7185982798202772,0.5234683413146329,0.5742517263334689,0.8418297751693881,0.7789746514441187,0.42042030120012164,0.5057265790810052,0.7514453375044453,0.6230159591489906,0.4407404174867815,0.05024385816552046,0.07471432487195662,0.06382219388648736,0.0815651515351189,0.02936257645093443,0.4627401281994422,0.5871139299994191,0.6326901595022761,0.48753454376809247,0.2636843192164048,0.23702158941769425,0.23107059159330656,-0.05510275797339359,0.3373364873514073,0.4669796790953217,,,,,,0.43804515508165,0.5231841737166953,0.5154460307106614,0.5268372195179015,0.5336871393265411,-0.02426530132402438,-0.14136228929846473,-0.4449563014019351,0.04053758741394442,-0.4235121938429418,-0.588069669816762,-0.5233395677100003,-0.47749977702835866,-0.3496958971690083,-0.5695326030271943,0.217453880489754,0.268555350340133,-0.000846347212783316,0.09780499602183501,0.12366785665832647,0.8146569352831073,0.739293276519116,0.7768232032606637,0.7680969955519216,0.6784083068523222,0.4966708652781602,0.45146330105334775,0.46187617841061446,0.3858453522535661,0.5479477706840876,0.7322863286825156,0.5980527094701014,0.4504383157419589,0.7847986781400007,0.6241050377400001,-0.7843202626998522,-0.7785805947269981,-0.7764001249512835,-0.7764829041409471,-0.7923455090262648,0.20723203843275317,0.029548747789928886,0.19566608226349047,0.07531454726439601,-0.2510577789227493,0.10255408612575845,-0.15366255676364782,-0.07741273780069768,-0.1109375898233973,-0.36620516163282835,0.3805236540192154,0.41630655359268787,0.37355141531589897,0.3380640020358675,0.38758206382103855,0.8761823821182031,0.8628683951970866,0.8432471146473471,0.8238389265860201,0.8221225659902229,-0.6133790789410507,-0.7117655859421776,-0.6247143497304588,-0.6801858173818878,-0.5869098234779666,-0.5521100464744895,-0.6519856962505188,-0.6952691913553126,-0.6285272468190941,-0.5687933083505872,-0.7986303511226946,-0.7925569434098625,-0.7888747861319161,-0.7826498498066616,-0.8013816303311052,0.42655849119991895,0.5025304017458084,0.4504353335377851,0.48902636145088696,0.4751511365840686,0.8438805122499892,0.7608038082755259,0.8335771214702585,0.795179516486789,0.8725451821838108
8,3,-0.13327693243724048,-0.14766358553391434,-0.029367914565725295,-0.10534765728846529,-0.04024928232834002,0.7331756211956595,0.45716535626974786,0.6103042101395116,0.7920758948122573,0.6842457239088259,0.47824655899959234,0.5634436887814429,0.7481063427661642,0.5165048731501661,0.35644604913738986,0.0972472592244894,0.10997011646261512,0.09412626618654585,0.0653506083146731,0.06181140219816583,0.4727631608414322,0.6597879648236573,0.6388045595344495,0.5146328417984009,0.40169460769843135,0.16791597459144647,0.137356677140412,-0.14877636142580108,0.45807586952202195,0.43618045286025686,,,,,,0.5204058227940067,0.5043003171492547,0.5039335686699871,0.46635063587616976,0.5515112124623589,-0.05094684314184694,-0.09641394611693865,-0.41088970218959586,0.05322738023082518,-0.4309410138643417,-0.5757564834184574,-0.5206214377574598,-0.5241518531291018,-0.42372093886799966,-0.5242423563185872,0.19846120123995292,0.23698711185294186,0.0005692429798884735,0.03598042598198026,0.10654910868750833,0.8104840199598004,0.7168395408652215,0.705367844955364,0.7279974811029266,0.7332059174646398,0.49832034750741383,0.35015337594978035,0.4421214362852137,0.3409717459425514,0.4684753732399498,0.7775280998542156,0.48223602692355527,0.5089279206211627,0.731055633533116,0.6698108676930749,-0.7688459207812985,-0.7733095066995914,-0.7697690104006816,-0.7767462880857485,-0.7641062013220221,0.12219174448341508,0.02113072519486736,0.2063393194216514,-0.09458403533610604,-0.22877009459151165,0.07048585598355228,-0.19292192856181178,0.05879724757425664,-0.16100287862291385,-0.25077098968052947,0.39407029411787575,0.4297732923106041,0.43110701716811706,0.4044972613759803,0.38182085155573753,0.8409072407746889,0.8059976508219903,0.8560247344714871,0.8682098973567144,0.8455981381440237,-0.6798864504917443,-0.6867090628963517,-0.5898999299333605,-0.6145807504153527,-0.6304660068351735,-0.5542031163262395,-0.5680572371889658,-0.7242999402378039,-0.6000922948559313,-0.5749105167005268,-0.782041650901466,-0.773117500056804,-0.7787460165625235,-0.7805511185616956,-0.7714925438274274,0.5115294101534366,0.48787556715668146,0.5162974238488908,0.5334056323347224,0.5164845321297382,0.8818477027859887,0.8334686526848051,0.8529701471659027,0.8872054002245856,0.9065165720353379
8,4,-0.005850866899506757,-0.1573196287266736,-0.10102165137413532,-0.09636895378189059,-0.011177863409931987,0.7076389454065753,0.3333042675820732,0.253159263324526,0.6395876191102058,0.905978109542114,0.4236282839032268,0.2022874301455604,0.5522720974884666,0.5636519033779936,0.5469271058718796,-0.15553526497625425,-0.12255862905934922,-0.12771753767982252,-0.05685208425827604,-0.15727500888895074,0.17122625164996153,0.24388372050404894,0.347122747483289,0.1931658090877405,0.06361594994941311,0.07883833598851153,0.1524313104585514,0.11861027257920553,0.21175684980572174,0.2672550302970891,,,,,,0.4719355596294674,0.6518742233881194,0.6486960575864505,0.7006495999790673,0.6306602686099272,-0.18960738196559923,-0.34580611347050505,-0.43148007136141264,-0.1732952421709959,-0.33642451653684846,-0.5530170213277521,-0.4764474372767806,-0.41270867829432745,-0.33448862504996146,-0.5660689845089459,0.21179967588248905,0.25603930335002767,-0.024460361170439704,0.13442454036361906,0.12147447803808464,0.5931084647216724,0.5206074075663412,0.8456320663885308,0.8107940224926713,0.6511088659290803,0.20880294059947135,0.28864646051391907,0.47897926165907223,0.40182834834377257,0.3645368773679213,0.6720692815822915,0.658928132755243,0.31135614498101205,0.7959100468446443,0.6209325286338512,-0.6418058167489131,-0.6263313940433166,-0.6238332067745298,-0.6199692465581732,-0.6629916425727358,0.23147816677984312,0.1864868492976396,-0.04215586260931348,0.3183132057396456,-0.14135747288696598,0.07364707209096344,0.06127819281404012,-0.4085370039729339,0.020268045922367972,-0.3285677703532175,0.5061534401584646,0.5345104773201645,0.45670260127416085,0.4022371624159411,0.5296273014715365,0.7265813072370692,0.723361758712315,0.6304068311363352,0.5986456061072715,0.5985335095574752,-0.35874159964242813,-0.5486434460260208,-0.4686720079933866,-0.5617776746860725,-0.3504974533206855,-0.3794322547818396,-0.5866606040405722,-0.4899365512987326,-0.486079557054347,-0.3740686235281445,-0.6602384648710578,-0.6518205843427605,-0.6403496753574538,-0.626342226069152,-0.673396081991501,0.4567059404205318,0.6448996842817576,0.5008329266834115,0.5612072309123532,0.5541175175227833,0.699453356817507,0.4942877654336695,0.6220299372394674,0.5274158221619164,0.6870476645869932
8,5,-0.11291715584034145,-0.14750936445279872,-0.06404805180049267,-0.13608631414650096,-0.05227233600103354,0.7493072924596993,0.45598810247784527,0.5705829221003493,0.7982692821708586,0.7493061353638392,0.49319053520559386,0.5195181037813389,0.771545189546669,0.5652575358063565,0.4115398462569766,0.042382728409325,0.06230172670350376,0.04896143527226182,0.03991968055166428,0.020630435800643165,0.44060051300962677,0.6197768160505738,0.620773498155144,0.4738814939621038,0.3295462859378777,0.14704379891222263,0.14643579940170415,-0.12735149244879507,0.38996898597121366,0.41490235051728175,,,,,,0.5315833174444576,0.5582334469272922,0.5443850110077408,0.5334425011102452,0.577176218310045,-0.09763758257330224,-0.16808460606155817,-0.4568989334844771,-0.007048468743328762,-0.4694408280064102,-0.6212105408149866,-0.5614647681680065,-0.5397493088788181,-0.4325217776624455,-0.581735170257556,0.19674073133467052,0.2329060275277839,-0.016099697559427417,0.04661547937909882,0.10039923542346085,0.7998110068413894,0.7063883645828946,0.7314349917544263,0.7336231770491866,0.730416231796531,0.45907002478570824,0.3397557474509332,0.42610018902330693,0.3287683550474585,0.45700262249909773,0.7773568013446015,0.5194656218406815,0.474213601143203,0.749129758937849,0.674728122358599,-0.7635075070634856,-0.7632731477361272,-0.7615995422126316,-0.7642868207395512,-0.7639411548877006,0.13421219728842448,0.09609861979904089,0.2168747816746337,0.029833008782733206,-0.1535824092503315,0.0625406162048463,-0.10078662865032006,0.025914211927959174,-0.07317060490862115,-0.23085774674972503,0.4396127621220285,0.4720570099232192,0.4517718953511256,0.43294254181206293,0.43873907504240295,0.8518427671056051,0.8253460163515507,0.8504343680557194,0.8453624292366503,0.8388953641254119,-0.630209257961051,-0.6680170637501788,-0.5628774557979219,-0.6031517150101897,-0.5786342674911773,-0.5231867234722134,-0.5755746356645108,-0.7014662227682389,-0.5921235133081946,-0.5516149407958495,-0.7747526438845316,-0.770807300043848,-0.7706978995632436,-0.768954105766332,-0.7712743147867234,0.53910453502772,0.5472851492329099,0.5507753672734573,0.5748200156837143,0.5583203118470916,0.8805036739597576,0.8002433966768857,0.8419257638420174,0.8631638103104071,0.8934840121485053
9,1,-0.39409605734942144,-0.2541125018646746,-0.5683961218131679,-0.26001240909546786,-0.4922827705839381,0.6035466657903448,-0.09579127818278788,-0.18201516173549792,0.19657188887391563,0.6263922441068336,0.7761425888129979,0.10285511155663263,0.4607830221422854,0.33656275606003594,0.5080437075537114,-0.6116205041905447,-0.6097313119018177,-0.6198276488859005,-0.6499135115663797,-0.6297833746025254,-0.36226259082325507,-0.0176071534539588,-0.13753268886661352,-0.270523328520617,0.007970506250527643,-0.5141071360758005,-0.2512662523549454,-0.0036000153610973307,0.2193067428887745,-0.17666691876690233,0.670463964178861,0.45310137703014286,0.5316294873625399,0.49236832458991364,0.5441393851883831,,,,,,-0.6194668540905277,-0.518544853589308,-0.30745482940518665,-0.5938466953267936,-0.22821405927081684,-0.48335905944279234,-0.4257694787396158,-0.5122907077785519,-0.5390441122759873,-0.42200331220054266,0.27699982822301905,0.10906359736315474,-0.0087449729471889,0.07371468125413694,0.17544966285369656,0.074026779497393,-0.10447088779834912,0.44992180494154543,0.47622512867208544,0.675534382979893,-0.2977163700472625,-0.41342869659991144,0.2677703987566209,0.11132820895073448,-0.294865827753086,0.6335097513491228,0.21798703139821896,0.14966462168085315,0.37809487748918613,0.7930135825708885,-0.2682692460907372,-0.2738260888854791,-0.2696638264533995,-0.28093231361548243,-0.26111019890678744,-0.29298859612655304,0.5356846789038046,-0.29046817081831855,0.07378736428823562,0.37277125850277915,-0.3308591124134175,0.4329664858297605,-0.3013869385083592,0.07453933935129997,0.3827106154225892,0.929826038451362,0.9293838921949461,0.9466973329650183,0.9479554216138567,0.9152109790311999,0.39246940510392425,0.34620342274785565,0.4013937031540842,0.4366985980318596,0.40300889881958524,-0.09492546334276675,-0.05368425048129222,0.0825557563134659,0.014911675343421305,0.0019245270383625446,0.07942000213693046,0.012452458114429743,-0.12386959133329545,-0.006393100398599083,0.08059022980077424,-0.2921274542018799,-0.28187931501949404,-0.28821241619074,-0.2925688493675809,-0.2788579661099295,0.8987181219897797,0.8596109869693093,0.8992472191448297,0.8958031923641437,0.895999872029703,0.6179073792640222,0.1751048278017735,0.2002714752718484,0.39321238357080224,0.40693896192541423
9,2,-0.30984872936275254,-0.23651495962005753,-0.5466582929671968,-0.25419114713870417,-0.4327027911403887,0.6172291052533595,-0.05257424429102109,-0.21364449328059343,0.2548230125080235,0.7419104545936067,0.7392182525452397,0.043982181740915505,0.47765719339039325,0.4365561533494595,0.5922656050830949,-0.6525371250557042,-0.637989961912873,-0.6438219404201466,-0.6300341621740932,-0.6555930013393492,-0.37825200758833555,-0.08852448795813683,-0.14212870316161919,-0.30522773424820193,-0.12778529788191761,-0.4780073595014589,-0.19089789457949702,0.057473600784489154,0.10463702780276007,-0.16448920863963568,0.7035259592841047,0.5317501164122446,0.5163529617282178,0.6579149623967263,0.5689266187204991,,,,,,-0.6358619165633339,-0.6048934807719304,-0.3739326599200252,-0.6359866497217526,-0.24695442356334874,-0.5184104190444911,-0.4467016087094495,-0.5133148618947818,-0.513615637088424,-0.48411591462176906,0.28276253481530467,0.13600167764261872,-0.021671964507824715,0.11480324730755853,0.17930672287461347,0.09597239473653285,-0.06950006351615934,0.5341286639818316,0.5318099848438789,0.6446541197164449,-0.30701928989831995,-0.3302416174081604,0.2726769472412388,0.13266608161768412,-0.22095931168168903,0.6088181363995078,0.32346440934193477,0.09713371005044424,0.43944612970833163,0.7669591811823667,-0.289202588722274,-0.2855902093591629,-0.2823969115127827,-0.28778314942768946,-0.2938264151822225,-0.21037777934810853,0.5617407145037775,-0.2891490595672981,0.2440940634869614,0.36139797481940805,-0.30051135940939044,0.4781324726035199,-0.4266068418277542,0.12605474538362405,0.2843883327673884,0.9457852170104053,0.947608745279764,0.924417825614816,0.9159394299319459,0.947968365355186,0.43700735408058633,0.40763980171158387,0.39942441559531594,0.407465122919103,0.3905698689359385,-0.03152438390632528,-0.07496639132900507,0.05806063951576723,-0.03976142741307798,0.04758403701901526,0.07952176810187861,-0.07098900574957767,-0.1072213959386974,-0.0376592793139805,0.08566637464443538,-0.31402111918520204,-0.3056196961319957,-0.303596595780828,-0.3005084011049177,-0.3123342584419433,0.8575447831451931,0.9089106490494627,0.8756569633513348,0.8922576545329611,0.8947354661513525,0.612459251318485,0.13465249119324518,0.2102308643047872,0.33531773195881265,0.4061590280000773
9,3,-0.31174413103697596,-0.24483072956228535,-0.538175878014922,-0.23787631996652814,-0.4256978150886188,0.5949881112880623,-0.06825176023143675,-0.23222951641442258,0.24788755398654694,0.7291838427720907,0.7234170424333302,0.031792824672041586,0.4512645448670114,0.4199230546011129,0.5717621021711832,-0.6409596862105182,-0.6301362728747573,-0.6352764302149958,-0.623871414261544,-0.651655716530791,-0.38654612064708616,-0.09528229339688332,-0.1516285914738602,-0.3033174056947956,-0.12915331391068707,-0.46536011617876905,-0.18215569292292888,0.07089401567727993,0.12196420073204661,-0.15502649146300063,0.6817270345035863,0.5249474144294273,0.5172468265568495,0.6551006974784418,0.5561849143319865,,,,,,-0.6189278116530508,-0.582982531625553,-0.35224332405289704,-0.6199425836273944,-0.21492750933352323,-0.5039053603966617,-0.4306195322954156,-0.4983167218280651,-0.49498561159504306,-0.46799105805157737,0.2868092501330821,0.13678415295559088,-0.012757346918903734,0.12204815141588132,0.18722049723420042,0.09445256552824066,-0.06853200000103787,0.5480469556042115,0.557786229744417,0.6480059940551502,-0.2997431387362415,-0.31958486300294897,0.29089745764739217,0.14439355736320902,-0.20315260952449754,0.6023634064192638,0.32191912300939207,0.09233519502922005,0.4417327321597815,0.7704914545536876,-0.28702913636809235,-0.2838453762459201,-0.27899053668318885,-0.28777295410480974,-0.29125409744072317,-0.22449272123218678,0.5205126890357341,-0.32794227670598897,0.1861561348992904,0.3046337490615485,-0.31739564533237985,0.43075297131545354,-0.4664284996665975,0.058454240140675795,0.2546555220412021,0.9401623884971859,0.9440307239878408,0.9297568230652812,0.9052462999198143,0.9367282546687403,0.4401148662438188,0.4070104136094581,0.39917595522006255,0.4175100652218593,0.3855111449912938,-0.033883168586219536,-0.08110939780381154,0.04154030741574388,-0.05355910550274201,0.037662060138824005,0.06745839400342435,-0.08225596282254433,-0.10095729750082261,-0.03842064201372386,0.08944935064498771,-0.3149585315370973,-0.3013340718541011,-0.30142857639581955,-0.2994731900385481,-0.3108718108993176,0.8378050171026509,0.9002330512568407,0.8570093966097545,0.8780038666952287,0.8801321285108799,0.6185216847574729,0.13789148097371307,0.2135153313331457,0.3267872419658826,0.41820381727046807
